digraph Tree {
node [shape=box] ;
0 [label="X[19] <= 0.5\nentropy = 0.969\nsamples = 2287\nvalue = [1378, 909]"] ;
1 [label="X[1459] <= 0.5\nentropy = 1.0\nsamples = 1557\nvalue = [794, 763]"] ;
0 -> 1 [labeldistance=2.5, labelangle=45, headlabel="True"] ;
2 [label="entropy = 0.999\nsamples = 1462\nvalue = [699, 763]"] ;
1 -> 2 ;
3 [label="entropy = 0.0\nsamples = 95\nvalue = [95, 0]"] ;
1 -> 3 ;
4 [label="X[2] <= 0.5\nentropy = 0.722\nsamples = 730\nvalue = [584, 146]"] ;
0 -> 4 [labeldistance=2.5, labelangle=-45, headlabel="False"] ;
5 [label="entropy = 0.0\nsamples = 65\nvalue = [65, 0]"] ;
4 -> 5 ;
6 [label="entropy = 0.759\nsamples = 665\nvalue = [519, 146]"] ;
4 -> 6 ;
}