digraph Tree {
node [shape=box] ;
0 [label="X[23] <= 0.5\nentropy = 0.969\nsamples = 2287\nvalue = [1378, 909]"] ;
1 [label="X[1604] <= 0.5\nentropy = 1.0\nsamples = 1557\nvalue = [794, 763]"] ;
0 -> 1 [labeldistance=2.5, labelangle=45, headlabel="True"] ;
2 [label="X[44] <= 0.5\nentropy = 0.999\nsamples = 1462\nvalue = [699, 763]"] ;
1 -> 2 ;
3 [label="X[81] <= 0.5\nentropy = 1.0\nsamples = 1370\nvalue = [696, 674]"] ;
2 -> 3 ;
4 [label="X[118] <= 0.5\nentropy = 0.987\nsamples = 1110\nvalue = [629, 481]"] ;
3 -> 4 ;
5 [label="X[230] <= 0.5\nentropy = 0.997\nsamples = 1005\nvalue = [534, 471]"] ;
4 -> 5 ;
6 [label="X[3720] <= 0.5\nentropy = 0.994\nsamples = 976\nvalue = [533, 443]"] ;
5 -> 6 ;
7 [label="X[432] <= 0.5\nentropy = 0.997\nsamples = 952\nvalue = [509, 443]"] ;
6 -> 7 ;
8 [label="X[3729] <= 0.5\nentropy = 0.994\nsamples = 934\nvalue = [509, 425]"] ;
7 -> 8 ;
9 [label="X[396] <= 0.5\nentropy = 0.996\nsamples = 917\nvalue = [492, 425]"] ;
8 -> 9 ;
10 [label="X[193] <= 0.5\nentropy = 0.994\nsamples = 905\nvalue = [492, 413]"] ;
9 -> 10 ;
11 [label="X[60] <= 0.5\nentropy = 0.992\nsamples = 889\nvalue = [491, 398]"] ;
10 -> 11 ;
12 [label="X[8] <= 0.5\nentropy = 0.99\nsamples = 879\nvalue = [491, 388]"] ;
11 -> 12 ;
13 [label="X[125] <= 0.5\nentropy = 0.995\nsamples = 806\nvalue = [435, 371]"] ;
12 -> 13 ;
14 [label="X[1996] <= 0.5\nentropy = 0.991\nsamples = 763\nvalue = [425, 338]"] ;
13 -> 14 ;
15 [label="X[13] <= 0.5\nentropy = 0.993\nsamples = 751\nvalue = [413, 338]"] ;
14 -> 15 ;
16 [label="X[113] <= 0.5\nentropy = 0.995\nsamples = 740\nvalue = [402, 338]"] ;
15 -> 16 ;
17 [label="X[623] <= 0.5\nentropy = 0.993\nsamples = 732\nvalue = [402, 330]"] ;
16 -> 17 ;
18 [label="X[128] <= 0.5\nentropy = 0.991\nsamples = 724\nvalue = [402, 322]"] ;
17 -> 18 ;
19 [label="X[474] <= 0.5\nentropy = 0.987\nsamples = 698\nvalue = [396, 302]"] ;
18 -> 19 ;
20 [label="X[38] <= 0.5\nentropy = 0.985\nsamples = 691\nvalue = [396, 295]"] ;
19 -> 20 ;
21 [label="X[3288] <= 0.5\nentropy = 0.981\nsamples = 680\nvalue = [395, 285]"] ;
20 -> 21 ;
22 [label="X[53] <= 0.5\nentropy = 0.984\nsamples = 669\nvalue = [384, 285]"] ;
21 -> 22 ;
23 [label="X[64] <= 0.5\nentropy = 0.982\nsamples = 663\nvalue = [384, 279]"] ;
22 -> 23 ;
24 [label="X[318] <= 0.5\nentropy = 0.978\nsamples = 653\nvalue = [383, 270]"] ;
23 -> 24 ;
25 [label="X[140] <= 0.5\nentropy = 0.974\nsamples = 643\nvalue = [382, 261]"] ;
24 -> 25 ;
26 [label="X[85] <= 0.5\nentropy = 0.977\nsamples = 634\nvalue = [373, 261]"] ;
25 -> 26 ;
27 [label="X[538] <= 0.5\nentropy = 0.974\nsamples = 628\nvalue = [373, 255]"] ;
26 -> 27 ;
28 [label="X[3530] <= 0.5\nentropy = 0.972\nsamples = 623\nvalue = [373, 250]"] ;
27 -> 28 ;
29 [label="X[3778] <= 0.5\nentropy = 0.975\nsamples = 615\nvalue = [365, 250]"] ;
28 -> 29 ;
30 [label="X[1310] <= 0.5\nentropy = 0.977\nsamples = 607\nvalue = [357, 250]"] ;
29 -> 30 ;
31 [label="X[910] <= 0.5\nentropy = 0.98\nsamples = 599\nvalue = [349, 250]"] ;
30 -> 31 ;
32 [label="X[1415] <= 0.5\nentropy = 0.983\nsamples = 591\nvalue = [341, 250]"] ;
31 -> 32 ;
33 [label="X[289] <= 0.5\nentropy = 0.986\nsamples = 578\nvalue = [329, 249]"] ;
32 -> 33 ;
34 [label="X[55] <= 0.5\nentropy = 0.98\nsamples = 553\nvalue = [322, 231]"] ;
33 -> 34 ;
35 [label="entropy = 0.976\nsamples = 544\nvalue = [321, 223]"] ;
34 -> 35 ;
36 [label="entropy = 0.503\nsamples = 9\nvalue = [1, 8]"] ;
34 -> 36 ;
37 [label="X[24] <= 0.5\nentropy = 0.855\nsamples = 25\nvalue = [7, 18]"] ;
33 -> 37 ;
38 [label="entropy = 0.755\nsamples = 23\nvalue = [5, 18]"] ;
37 -> 38 ;
39 [label="entropy = 0.0\nsamples = 2\nvalue = [2, 0]"] ;
37 -> 39 ;
40 [label="X[1419] <= 0.5\nentropy = 0.391\nsamples = 13\nvalue = [12, 1]"] ;
32 -> 40 ;
41 [label="entropy = 0.0\nsamples = 12\nvalue = [12, 0]"] ;
40 -> 41 ;
42 [label="entropy = 0.0\nsamples = 1\nvalue = [0, 1]"] ;
40 -> 42 ;
43 [label="entropy = 0.0\nsamples = 8\nvalue = [8, 0]"] ;
31 -> 43 ;
44 [label="entropy = 0.0\nsamples = 8\nvalue = [8, 0]"] ;
30 -> 44 ;
45 [label="entropy = 0.0\nsamples = 8\nvalue = [8, 0]"] ;
29 -> 45 ;
46 [label="entropy = 0.0\nsamples = 8\nvalue = [8, 0]"] ;
28 -> 46 ;
47 [label="entropy = 0.0\nsamples = 5\nvalue = [0, 5]"] ;
27 -> 47 ;
48 [label="entropy = 0.0\nsamples = 6\nvalue = [0, 6]"] ;
26 -> 48 ;
49 [label="entropy = 0.0\nsamples = 9\nvalue = [9, 0]"] ;
25 -> 49 ;
50 [label="X[5134] <= 0.5\nentropy = 0.469\nsamples = 10\nvalue = [1, 9]"] ;
24 -> 50 ;
51 [label="entropy = 0.0\nsamples = 9\nvalue = [0, 9]"] ;
50 -> 51 ;
52 [label="entropy = 0.0\nsamples = 1\nvalue = [1, 0]"] ;
50 -> 52 ;
53 [label="X[3849] <= 0.5\nentropy = 0.469\nsamples = 10\nvalue = [1, 9]"] ;
23 -> 53 ;
54 [label="entropy = 0.0\nsamples = 9\nvalue = [0, 9]"] ;
53 -> 54 ;
55 [label="entropy = 0.0\nsamples = 1\nvalue = [1, 0]"] ;
53 -> 55 ;
56 [label="entropy = 0.0\nsamples = 6\nvalue = [0, 6]"] ;
22 -> 56 ;
57 [label="entropy = 0.0\nsamples = 11\nvalue = [11, 0]"] ;
21 -> 57 ;
58 [label="X[4437] <= 0.5\nentropy = 0.439\nsamples = 11\nvalue = [1, 10]"] ;
20 -> 58 ;
59 [label="entropy = 0.0\nsamples = 10\nvalue = [0, 10]"] ;
58 -> 59 ;
60 [label="entropy = 0.0\nsamples = 1\nvalue = [1, 0]"] ;
58 -> 60 ;
61 [label="entropy = 0.0\nsamples = 7\nvalue = [0, 7]"] ;
19 -> 61 ;
62 [label="X[4329] <= 0.5\nentropy = 0.779\nsamples = 26\nvalue = [6, 20]"] ;
18 -> 62 ;
63 [label="X[2318] <= 0.5\nentropy = 0.65\nsamples = 24\nvalue = [4, 20]"] ;
62 -> 63 ;
64 [label="X[529] <= 0.5\nentropy = 0.559\nsamples = 23\nvalue = [3, 20]"] ;
63 -> 64 ;
65 [label="X[5516] <= 0.5\nentropy = 0.439\nsamples = 22\nvalue = [2, 20]"] ;
64 -> 65 ;
66 [label="X[3833] <= 0.5\nentropy = 0.276\nsamples = 21\nvalue = [1, 20]"] ;
65 -> 66 ;
67 [label="entropy = 0.0\nsamples = 20\nvalue = [0, 20]"] ;
66 -> 67 ;
68 [label="entropy = 0.0\nsamples = 1\nvalue = [1, 0]"] ;
66 -> 68 ;
69 [label="entropy = 0.0\nsamples = 1\nvalue = [1, 0]"] ;
65 -> 69 ;
70 [label="entropy = 0.0\nsamples = 1\nvalue = [1, 0]"] ;
64 -> 70 ;
71 [label="entropy = 0.0\nsamples = 1\nvalue = [1, 0]"] ;
63 -> 71 ;
72 [label="entropy = 0.0\nsamples = 2\nvalue = [2, 0]"] ;
62 -> 72 ;
73 [label="entropy = 0.0\nsamples = 8\nvalue = [0, 8]"] ;
17 -> 73 ;
74 [label="entropy = 0.0\nsamples = 8\nvalue = [0, 8]"] ;
16 -> 74 ;
75 [label="entropy = 0.0\nsamples = 11\nvalue = [11, 0]"] ;
15 -> 75 ;
76 [label="entropy = 0.0\nsamples = 12\nvalue = [12, 0]"] ;
14 -> 76 ;
77 [label="X[402] <= 0.5\nentropy = 0.782\nsamples = 43\nvalue = [10, 33]"] ;
13 -> 77 ;
78 [label="X[3024] <= 0.5\nentropy = 0.712\nsamples = 41\nvalue = [8, 33]"] ;
77 -> 78 ;
79 [label="X[419] <= 0.5\nentropy = 0.669\nsamples = 40\nvalue = [7, 33]"] ;
78 -> 79 ;
80 [label="X[32] <= 0.5\nentropy = 0.619\nsamples = 39\nvalue = [6, 33]"] ;
79 -> 80 ;
81 [label="X[467] <= 0.5\nentropy = 0.381\nsamples = 27\nvalue = [2, 25]"] ;
80 -> 81 ;
82 [label="X[4059] <= 0.5\nentropy = 0.235\nsamples = 26\nvalue = [1, 25]"] ;
81 -> 82 ;
83 [label="entropy = 0.0\nsamples = 25\nvalue = [0, 25]"] ;
82 -> 83 ;
84 [label="entropy = 0.0\nsamples = 1\nvalue = [1, 0]"] ;
82 -> 84 ;
85 [label="entropy = 0.0\nsamples = 1\nvalue = [1, 0]"] ;
81 -> 85 ;
86 [label="X[617] <= 0.5\nentropy = 0.918\nsamples = 12\nvalue = [4, 8]"] ;
80 -> 86 ;
87 [label="X[298] <= 0.5\nentropy = 0.845\nsamples = 11\nvalue = [3, 8]"] ;
86 -> 87 ;
88 [label="X[121] <= 0.5\nentropy = 0.722\nsamples = 10\nvalue = [2, 8]"] ;
87 -> 88 ;
89 [label="X[4250] <= 0.5\nentropy = 0.503\nsamples = 9\nvalue = [1, 8]"] ;
88 -> 89 ;
90 [label="entropy = 0.0\nsamples = 8\nvalue = [0, 8]"] ;
89 -> 90 ;
91 [label="entropy = 0.0\nsamples = 1\nvalue = [1, 0]"] ;
89 -> 91 ;
92 [label="entropy = 0.0\nsamples = 1\nvalue = [1, 0]"] ;
88 -> 92 ;
93 [label="entropy = 0.0\nsamples = 1\nvalue = [1, 0]"] ;
87 -> 93 ;
94 [label="entropy = 0.0\nsamples = 1\nvalue = [1, 0]"] ;
86 -> 94 ;
95 [label="entropy = 0.0\nsamples = 1\nvalue = [1, 0]"] ;
79 -> 95 ;
96 [label="entropy = 0.0\nsamples = 1\nvalue = [1, 0]"] ;
78 -> 96 ;
97 [label="entropy = 0.0\nsamples = 2\nvalue = [2, 0]"] ;
77 -> 97 ;
98 [label="X[94] <= 0.5\nentropy = 0.783\nsamples = 73\nvalue = [56, 17]"] ;
12 -> 98 ;
99 [label="X[1] <= 0.5\nentropy = 0.657\nsamples = 59\nvalue = [49, 10]"] ;
98 -> 99 ;
100 [label="X[239] <= 0.5\nentropy = 0.585\nsamples = 57\nvalue = [49, 8]"] ;
99 -> 100 ;
101 [label="X[1428] <= 0.5\nentropy = 0.503\nsamples = 54\nvalue = [48, 6]"] ;
100 -> 101 ;
102 [label="X[116] <= 0.5\nentropy = 0.451\nsamples = 53\nvalue = [48, 5]"] ;
101 -> 102 ;
103 [label="X[2932] <= 0.5\nentropy = 0.332\nsamples = 49\nvalue = [46, 3]"] ;
102 -> 103 ;
104 [label="X[3711] <= 0.5\nentropy = 0.25\nsamples = 48\nvalue = [46, 2]"] ;
103 -> 104 ;
105 [label="X[2625] <= 0.5\nentropy = 0.149\nsamples = 47\nvalue = [46, 1]"] ;
104 -> 105 ;
106 [label="entropy = 0.0\nsamples = 46\nvalue = [46, 0]"] ;
105 -> 106 ;
107 [label="entropy = 0.0\nsamples = 1\nvalue = [0, 1]"] ;
105 -> 107 ;
108 [label="entropy = 0.0\nsamples = 1\nvalue = [0, 1]"] ;
104 -> 108 ;
109 [label="entropy = 0.0\nsamples = 1\nvalue = [0, 1]"] ;
103 -> 109 ;
110 [label="X[314] <= 0.5\nentropy = 1.0\nsamples = 4\nvalue = [2, 2]"] ;
102 -> 110 ;
111 [label="X[324] <= 0.5\nentropy = 0.918\nsamples = 3\nvalue = [1, 2]"] ;
110 -> 111 ;
112 [label="entropy = 0.0\nsamples = 2\nvalue = [0, 2]"] ;
111 -> 112 ;
113 [label="entropy = 0.0\nsamples = 1\nvalue = [1, 0]"] ;
111 -> 113 ;
114 [label="entropy = 0.0\nsamples = 1\nvalue = [1, 0]"] ;
110 -> 114 ;
115 [label="entropy = 0.0\nsamples = 1\nvalue = [0, 1]"] ;
101 -> 115 ;
116 [label="X[410] <= 0.5\nentropy = 0.918\nsamples = 3\nvalue = [1, 2]"] ;
100 -> 116 ;
117 [label="entropy = 0.0\nsamples = 2\nvalue = [0, 2]"] ;
116 -> 117 ;
118 [label="entropy = 0.0\nsamples = 1\nvalue = [1, 0]"] ;
116 -> 118 ;
119 [label="entropy = 0.0\nsamples = 2\nvalue = [0, 2]"] ;
99 -> 119 ;
120 [label="X[274] <= 0.5\nentropy = 1.0\nsamples = 14\nvalue = [7, 7]"] ;
98 -> 120 ;
121 [label="X[1862] <= 0.5\nentropy = 0.98\nsamples = 12\nvalue = [7, 5]"] ;
120 -> 121 ;
122 [label="X[26] <= 0.5\nentropy = 0.881\nsamples = 10\nvalue = [7, 3]"] ;
121 -> 122 ;
123 [label="X[206] <= 0.5\nentropy = 1.0\nsamples = 6\nvalue = [3, 3]"] ;
122 -> 123 ;
124 [label="X[142] <= 0.5\nentropy = 0.971\nsamples = 5\nvalue = [3, 2]"] ;
123 -> 124 ;
125 [label="X[1598] <= 0.5\nentropy = 0.811\nsamples = 4\nvalue = [3, 1]"] ;
124 -> 125 ;
126 [label="entropy = 0.0\nsamples = 3\nvalue = [3, 0]"] ;
125 -> 126 ;
127 [label="entropy = 0.0\nsamples = 1\nvalue = [0, 1]"] ;
125 -> 127 ;
128 [label="entropy = 0.0\nsamples = 1\nvalue = [0, 1]"] ;
124 -> 128 ;
129 [label="entropy = 0.0\nsamples = 1\nvalue = [0, 1]"] ;
123 -> 129 ;
130 [label="entropy = 0.0\nsamples = 4\nvalue = [4, 0]"] ;
122 -> 130 ;
131 [label="entropy = 0.0\nsamples = 2\nvalue = [0, 2]"] ;
121 -> 131 ;
132 [label="entropy = 0.0\nsamples = 2\nvalue = [0, 2]"] ;
120 -> 132 ;
133 [label="entropy = 0.0\nsamples = 10\nvalue = [0, 10]"] ;
11 -> 133 ;
134 [label="X[3858] <= 0.5\nentropy = 0.337\nsamples = 16\nvalue = [1, 15]"] ;
10 -> 134 ;
135 [label="entropy = 0.0\nsamples = 15\nvalue = [0, 15]"] ;
134 -> 135 ;
136 [label="entropy = 0.0\nsamples = 1\nvalue = [1, 0]"] ;
134 -> 136 ;
137 [label="entropy = 0.0\nsamples = 12\nvalue = [0, 12]"] ;
9 -> 137 ;
138 [label="entropy = 0.0\nsamples = 17\nvalue = [17, 0]"] ;
8 -> 138 ;
139 [label="entropy = 0.0\nsamples = 18\nvalue = [0, 18]"] ;
7 -> 139 ;
140 [label="entropy = 0.0\nsamples = 24\nvalue = [24, 0]"] ;
6 -> 140 ;
141 [label="X[1602] <= 0.5\nentropy = 0.216\nsamples = 29\nvalue = [1, 28]"] ;
5 -> 141 ;
142 [label="entropy = 0.0\nsamples = 28\nvalue = [0, 28]"] ;
141 -> 142 ;
143 [label="entropy = 0.0\nsamples = 1\nvalue = [1, 0]"] ;
141 -> 143 ;
144 [label="X[285] <= 0.5\nentropy = 0.454\nsamples = 105\nvalue = [95, 10]"] ;
4 -> 144 ;
145 [label="X[61] <= 0.5\nentropy = 0.394\nsamples = 103\nvalue = [95, 8]"] ;
144 -> 145 ;
146 [label="X[523] <= 0.5\nentropy = 0.254\nsamples = 94\nvalue = [90, 4]"] ;
145 -> 146 ;
147 [label="X[2215] <= 0.5\nentropy = 0.151\nsamples = 92\nvalue = [90, 2]"] ;
146 -> 147 ;
148 [label="X[121] <= 0.5\nentropy = 0.087\nsamples = 91\nvalue = [90, 1]"] ;
147 -> 148 ;
149 [label="entropy = 0.0\nsamples = 90\nvalue = [90, 0]"] ;
148 -> 149 ;
150 [label="entropy = 0.0\nsamples = 1\nvalue = [0, 1]"] ;
148 -> 150 ;
151 [label="entropy = 0.0\nsamples = 1\nvalue = [0, 1]"] ;
147 -> 151 ;
152 [label="entropy = 0.0\nsamples = 2\nvalue = [0, 2]"] ;
146 -> 152 ;
153 [label="X[127] <= 0.5\nentropy = 0.991\nsamples = 9\nvalue = [5, 4]"] ;
145 -> 153 ;
154 [label="X[3320] <= 0.5\nentropy = 0.863\nsamples = 7\nvalue = [5, 2]"] ;
153 -> 154 ;
155 [label="X[77] <= 0.5\nentropy = 0.65\nsamples = 6\nvalue = [5, 1]"] ;
154 -> 155 ;
156 [label="entropy = 0.0\nsamples = 5\nvalue = [5, 0]"] ;
155 -> 156 ;
157 [label="entropy = 0.0\nsamples = 1\nvalue = [0, 1]"] ;
155 -> 157 ;
158 [label="entropy = 0.0\nsamples = 1\nvalue = [0, 1]"] ;
154 -> 158 ;
159 [label="entropy = 0.0\nsamples = 2\nvalue = [0, 2]"] ;
153 -> 159 ;
160 [label="entropy = 0.0\nsamples = 2\nvalue = [0, 2]"] ;
144 -> 160 ;
161 [label="X[38] <= 0.5\nentropy = 0.823\nsamples = 260\nvalue = [67, 193]"] ;
3 -> 161 ;
162 [label="X[125] <= 0.5\nentropy = 0.848\nsamples = 244\nvalue = [67, 177]"] ;
161 -> 162 ;
163 [label="X[230] <= 0.5\nentropy = 0.886\nsamples = 214\nvalue = [65, 149]"] ;
162 -> 163 ;
164 [label="X[3729] <= 0.5\nentropy = 0.905\nsamples = 203\nvalue = [65, 138]"] ;
163 -> 164 ;
165 [label="X[285] <= 0.5\nentropy = 0.893\nsamples = 200\nvalue = [62, 138]"] ;
164 -> 165 ;
166 [label="X[182] <= 0.5\nentropy = 0.908\nsamples = 192\nvalue = [62, 130]"] ;
165 -> 166 ;
167 [label="X[318] <= 0.5\nentropy = 0.879\nsamples = 181\nvalue = [54, 127]"] ;
166 -> 167 ;
168 [label="X[118] <= 0.5\nentropy = 0.894\nsamples = 174\nvalue = [54, 120]"] ;
167 -> 168 ;
169 [label="X[239] <= 0.5\nentropy = 0.87\nsamples = 165\nvalue = [48, 117]"] ;
168 -> 169 ;
170 [label="X[442] <= 0.5\nentropy = 0.888\nsamples = 157\nvalue = [48, 109]"] ;
169 -> 170 ;
171 [label="X[3219] <= 0.5\nentropy = 0.877\nsamples = 155\nvalue = [46, 109]"] ;
170 -> 171 ;
172 [label="X[1086] <= 0.5\nentropy = 0.866\nsamples = 153\nvalue = [44, 109]"] ;
171 -> 172 ;
173 [label="X[4585] <= 0.5\nentropy = 0.853\nsamples = 151\nvalue = [42, 109]"] ;
172 -> 173 ;
174 [label="X[2057] <= 0.5\nentropy = 0.839\nsamples = 149\nvalue = [40, 109]"] ;
173 -> 174 ;
175 [label="X[1269] <= 0.5\nentropy = 0.819\nsamples = 145\nvalue = [37, 108]"] ;
174 -> 175 ;
176 [label="X[402] <= 0.5\nentropy = 0.836\nsamples = 139\nvalue = [37, 102]"] ;
175 -> 176 ;
177 [label="X[564] <= 0.5\nentropy = 0.853\nsamples = 133\nvalue = [37, 96]"] ;
176 -> 177 ;
178 [label="X[89] <= 0.5\nentropy = 0.868\nsamples = 128\nvalue = [37, 91]"] ;
177 -> 178 ;
179 [label="X[1309] <= 0.5\nentropy = 0.882\nsamples = 123\nvalue = [37, 86]"] ;
178 -> 179 ;
180 [label="X[99] <= 0.5\nentropy = 0.894\nsamples = 119\nvalue = [37, 82]"] ;
179 -> 180 ;
181 [label="X[1861] <= 0.5\nentropy = 0.906\nsamples = 115\nvalue = [37, 78]"] ;
180 -> 181 ;
182 [label="X[275] <= 0.5\nentropy = 0.918\nsamples = 111\nvalue = [37, 74]"] ;
181 -> 182 ;
183 [label="X[291] <= 0.5\nentropy = 0.937\nsamples = 102\nvalue = [36, 66]"] ;
182 -> 183 ;
184 [label="X[712] <= 0.5\nentropy = 0.925\nsamples = 100\nvalue = [34, 66]"] ;
183 -> 184 ;
185 [label="X[115] <= 0.5\nentropy = 0.935\nsamples = 97\nvalue = [34, 63]"] ;
184 -> 185 ;
186 [label="X[337] <= 0.5\nentropy = 0.944\nsamples = 94\nvalue = [34, 60]"] ;
185 -> 186 ;
187 [label="X[116] <= 0.5\nentropy = 0.953\nsamples = 91\nvalue = [34, 57]"] ;
186 -> 187 ;
188 [label="X[2217] <= 0.5\nentropy = 0.94\nsamples = 87\nvalue = [31, 56]"] ;
187 -> 188 ;
189 [label="X[4951] <= 0.5\nentropy = 0.933\nsamples = 86\nvalue = [30, 56]"] ;
188 -> 189 ;
190 [label="X[4336] <= 0.5\nentropy = 0.926\nsamples = 85\nvalue = [29, 56]"] ;
189 -> 190 ;
191 [label="X[5161] <= 0.5\nentropy = 0.918\nsamples = 84\nvalue = [28, 56]"] ;
190 -> 191 ;
192 [label="entropy = 0.91\nsamples = 83\nvalue = [27, 56]"] ;
191 -> 192 ;
193 [label="entropy = 0.0\nsamples = 1\nvalue = [1, 0]"] ;
191 -> 193 ;
194 [label="entropy = 0.0\nsamples = 1\nvalue = [1, 0]"] ;
190 -> 194 ;
195 [label="entropy = 0.0\nsamples = 1\nvalue = [1, 0]"] ;
189 -> 195 ;
196 [label="entropy = 0.0\nsamples = 1\nvalue = [1, 0]"] ;
188 -> 196 ;
197 [label="X[974] <= 0.5\nentropy = 0.811\nsamples = 4\nvalue = [3, 1]"] ;
187 -> 197 ;
198 [label="entropy = 0.0\nsamples = 3\nvalue = [3, 0]"] ;
197 -> 198 ;
199 [label="entropy = 0.0\nsamples = 1\nvalue = [0, 1]"] ;
197 -> 199 ;
200 [label="entropy = 0.0\nsamples = 3\nvalue = [0, 3]"] ;
186 -> 200 ;
201 [label="entropy = 0.0\nsamples = 3\nvalue = [0, 3]"] ;
185 -> 201 ;
202 [label="entropy = 0.0\nsamples = 3\nvalue = [0, 3]"] ;
184 -> 202 ;
203 [label="entropy = 0.0\nsamples = 2\nvalue = [2, 0]"] ;
183 -> 203 ;
204 [label="X[328] <= 0.5\nentropy = 0.503\nsamples = 9\nvalue = [1, 8]"] ;
182 -> 204 ;
205 [label="entropy = 0.0\nsamples = 8\nvalue = [0, 8]"] ;
204 -> 205 ;
206 [label="entropy = 0.0\nsamples = 1\nvalue = [1, 0]"] ;
204 -> 206 ;
207 [label="entropy = 0.0\nsamples = 4\nvalue = [0, 4]"] ;
181 -> 207 ;
208 [label="entropy = 0.0\nsamples = 4\nvalue = [0, 4]"] ;
180 -> 208 ;
209 [label="entropy = 0.0\nsamples = 4\nvalue = [0, 4]"] ;
179 -> 209 ;
210 [label="entropy = 0.0\nsamples = 5\nvalue = [0, 5]"] ;
178 -> 210 ;
211 [label="entropy = 0.0\nsamples = 5\nvalue = [0, 5]"] ;
177 -> 211 ;
212 [label="entropy = 0.0\nsamples = 6\nvalue = [0, 6]"] ;
176 -> 212 ;
213 [label="entropy = 0.0\nsamples = 6\nvalue = [0, 6]"] ;
175 -> 213 ;
214 [label="X[1218] <= 0.5\nentropy = 0.811\nsamples = 4\nvalue = [3, 1]"] ;
174 -> 214 ;
215 [label="entropy = 0.0\nsamples = 3\nvalue = [3, 0]"] ;
214 -> 215 ;
216 [label="entropy = 0.0\nsamples = 1\nvalue = [0, 1]"] ;
214 -> 216 ;
217 [label="entropy = 0.0\nsamples = 2\nvalue = [2, 0]"] ;
173 -> 217 ;
218 [label="entropy = 0.0\nsamples = 2\nvalue = [2, 0]"] ;
172 -> 218 ;
219 [label="entropy = 0.0\nsamples = 2\nvalue = [2, 0]"] ;
171 -> 219 ;
220 [label="entropy = 0.0\nsamples = 2\nvalue = [2, 0]"] ;
170 -> 220 ;
221 [label="entropy = 0.0\nsamples = 8\nvalue = [0, 8]"] ;
169 -> 221 ;
222 [label="X[6] <= 0.5\nentropy = 0.918\nsamples = 9\nvalue = [6, 3]"] ;
168 -> 222 ;
223 [label="X[574] <= 0.5\nentropy = 0.592\nsamples = 7\nvalue = [6, 1]"] ;
222 -> 223 ;
224 [label="entropy = 0.0\nsamples = 6\nvalue = [6, 0]"] ;
223 -> 224 ;
225 [label="entropy = 0.0\nsamples = 1\nvalue = [0, 1]"] ;
223 -> 225 ;
226 [label="entropy = 0.0\nsamples = 2\nvalue = [0, 2]"] ;
222 -> 226 ;
227 [label="entropy = 0.0\nsamples = 7\nvalue = [0, 7]"] ;
167 -> 227 ;
228 [label="X[7] <= 0.5\nentropy = 0.845\nsamples = 11\nvalue = [8, 3]"] ;
166 -> 228 ;
229 [label="X[99] <= 0.5\nentropy = 0.503\nsamples = 9\nvalue = [8, 1]"] ;
228 -> 229 ;
230 [label="entropy = 0.0\nsamples = 8\nvalue = [8, 0]"] ;
229 -> 230 ;
231 [label="entropy = 0.0\nsamples = 1\nvalue = [0, 1]"] ;
229 -> 231 ;
232 [label="entropy = 0.0\nsamples = 2\nvalue = [0, 2]"] ;
228 -> 232 ;
233 [label="entropy = 0.0\nsamples = 8\nvalue = [0, 8]"] ;
165 -> 233 ;
234 [label="entropy = 0.0\nsamples = 3\nvalue = [3, 0]"] ;
164 -> 234 ;
235 [label="entropy = 0.0\nsamples = 11\nvalue = [0, 11]"] ;
163 -> 235 ;
236 [label="X[647] <= 0.5\nentropy = 0.353\nsamples = 30\nvalue = [2, 28]"] ;
162 -> 236 ;
237 [label="X[1737] <= 0.5\nentropy = 0.216\nsamples = 29\nvalue = [1, 28]"] ;
236 -> 237 ;
238 [label="entropy = 0.0\nsamples = 28\nvalue = [0, 28]"] ;
237 -> 238 ;
239 [label="entropy = 0.0\nsamples = 1\nvalue = [1, 0]"] ;
237 -> 239 ;
240 [label="entropy = 0.0\nsamples = 1\nvalue = [1, 0]"] ;
236 -> 240 ;
241 [label="entropy = 0.0\nsamples = 16\nvalue = [0, 16]"] ;
161 -> 241 ;
242 [label="X[5529] <= 0.5\nentropy = 0.207\nsamples = 92\nvalue = [3, 89]"] ;
2 -> 242 ;
243 [label="X[22] <= 0.5\nentropy = 0.152\nsamples = 91\nvalue = [2, 89]"] ;
242 -> 243 ;
244 [label="X[105] <= 0.5\nentropy = 0.088\nsamples = 90\nvalue = [1, 89]"] ;
243 -> 244 ;
245 [label="entropy = 0.0\nsamples = 77\nvalue = [0, 77]"] ;
244 -> 245 ;
246 [label="X[6] <= 0.5\nentropy = 0.391\nsamples = 13\nvalue = [1, 12]"] ;
244 -> 246 ;
247 [label="entropy = 0.0\nsamples = 11\nvalue = [0, 11]"] ;
246 -> 247 ;
248 [label="X[1001] <= 0.5\nentropy = 1.0\nsamples = 2\nvalue = [1, 1]"] ;
246 -> 248 ;
249 [label="entropy = 0.0\nsamples = 1\nvalue = [1, 0]"] ;
248 -> 249 ;
250 [label="entropy = 0.0\nsamples = 1\nvalue = [0, 1]"] ;
248 -> 250 ;
251 [label="entropy = 0.0\nsamples = 1\nvalue = [1, 0]"] ;
243 -> 251 ;
252 [label="entropy = 0.0\nsamples = 1\nvalue = [1, 0]"] ;
242 -> 252 ;
253 [label="entropy = 0.0\nsamples = 95\nvalue = [95, 0]"] ;
1 -> 253 ;
254 [label="X[81] <= 0.5\nentropy = 0.722\nsamples = 730\nvalue = [584, 146]"] ;
0 -> 254 [labeldistance=2.5, labelangle=-45, headlabel="False"] ;
255 [label="X[3] <= 0.5\nentropy = 0.631\nsamples = 643\nvalue = [541, 102]"] ;
254 -> 255 ;
256 [label="entropy = 0.0\nsamples = 58\nvalue = [58, 0]"] ;
255 -> 256 ;
257 [label="X[8] <= 0.5\nentropy = 0.668\nsamples = 585\nvalue = [483, 102]"] ;
255 -> 257 ;
258 [label="X[990] <= 0.5\nentropy = 0.701\nsamples = 538\nvalue = [436, 102]"] ;
257 -> 258 ;
259 [label="X[40] <= 0.5\nentropy = 0.684\nsamples = 533\nvalue = [436, 97]"] ;
258 -> 259 ;
260 [label="X[44] <= 0.5\nentropy = 0.667\nsamples = 528\nvalue = [436, 92]"] ;
259 -> 260 ;
261 [label="X[61] <= 0.5\nentropy = 0.625\nsamples = 500\nvalue = [422, 78]"] ;
260 -> 261 ;
262 [label="X[26] <= 0.5\nentropy = 0.585\nsamples = 478\nvalue = [411, 67]"] ;
261 -> 262 ;
263 [label="X[1629] <= 0.5\nentropy = 0.505\nsamples = 394\nvalue = [350, 44]"] ;
262 -> 263 ;
264 [label="X[60] <= 0.5\nentropy = 0.485\nsamples = 390\nvalue = [349, 41]"] ;
263 -> 264 ;
265 [label="X[159] <= 0.5\nentropy = 0.471\nsamples = 388\nvalue = [349, 39]"] ;
264 -> 265 ;
266 [label="X[230] <= 0.5\nentropy = 0.456\nsamples = 386\nvalue = [349, 37]"] ;
265 -> 266 ;
267 [label="X[716] <= 0.5\nentropy = 0.44\nsamples = 384\nvalue = [349, 35]"] ;
266 -> 267 ;
268 [label="X[128] <= 0.5\nentropy = 0.424\nsamples = 382\nvalue = [349, 33]"] ;
267 -> 268 ;
269 [label="X[543] <= 0.5\nentropy = 0.401\nsamples = 376\nvalue = [346, 30]"] ;
268 -> 269 ;
270 [label="X[650] <= 0.5\nentropy = 0.385\nsamples = 373\nvalue = [345, 28]"] ;
269 -> 270 ;
271 [label="X[77] <= 0.5\nentropy = 0.367\nsamples = 370\nvalue = [344, 26]"] ;
270 -> 271 ;
272 [label="X[348] <= 0.5\nentropy = 0.323\nsamples = 339\nvalue = [319, 20]"] ;
271 -> 272 ;
273 [label="X[1093] <= 0.5\nentropy = 0.302\nsamples = 335\nvalue = [317, 18]"] ;
272 -> 273 ;
274 [label="X[1787] <= 0.5\nentropy = 0.279\nsamples = 331\nvalue = [315, 16]"] ;
273 -> 274 ;
275 [label="X[1901] <= 0.5\nentropy = 0.267\nsamples = 330\nvalue = [315, 15]"] ;
274 -> 275 ;
276 [label="X[2081] <= 0.5\nentropy = 0.254\nsamples = 329\nvalue = [315, 14]"] ;
275 -> 276 ;
277 [label="X[2226] <= 0.5\nentropy = 0.241\nsamples = 328\nvalue = [315, 13]"] ;
276 -> 277 ;
278 [label="X[717] <= 0.5\nentropy = 0.227\nsamples = 327\nvalue = [315, 12]"] ;
277 -> 278 ;
279 [label="X[576] <= 0.5\nentropy = 0.213\nsamples = 326\nvalue = [315, 11]"] ;
278 -> 279 ;
280 [label="X[3042] <= 0.5\nentropy = 0.198\nsamples = 325\nvalue = [315, 10]"] ;
279 -> 280 ;
281 [label="X[142] <= 0.5\nentropy = 0.183\nsamples = 324\nvalue = [315, 9]"] ;
280 -> 281 ;
282 [label="X[2549] <= 0.5\nentropy = 0.153\nsamples = 318\nvalue = [311, 7]"] ;
281 -> 282 ;
283 [label="X[3431] <= 0.5\nentropy = 0.135\nsamples = 317\nvalue = [311, 6]"] ;
282 -> 283 ;
284 [label="X[2327] <= 0.5\nentropy = 0.117\nsamples = 316\nvalue = [311, 5]"] ;
283 -> 284 ;
285 [label="X[404] <= 0.5\nentropy = 0.098\nsamples = 315\nvalue = [311, 4]"] ;
284 -> 285 ;
286 [label="X[1343] <= 0.5\nentropy = 0.078\nsamples = 314\nvalue = [311, 3]"] ;
285 -> 286 ;
287 [label="X[3221] <= 0.5\nentropy = 0.056\nsamples = 313\nvalue = [311, 2]"] ;
286 -> 287 ;
288 [label="X[1256] <= 0.5\nentropy = 0.031\nsamples = 312\nvalue = [311, 1]"] ;
287 -> 288 ;
289 [label="entropy = 0.0\nsamples = 311\nvalue = [311, 0]"] ;
288 -> 289 ;
290 [label="entropy = 0.0\nsamples = 1\nvalue = [0, 1]"] ;
288 -> 290 ;
291 [label="entropy = 0.0\nsamples = 1\nvalue = [0, 1]"] ;
287 -> 291 ;
292 [label="entropy = 0.0\nsamples = 1\nvalue = [0, 1]"] ;
286 -> 292 ;
293 [label="entropy = 0.0\nsamples = 1\nvalue = [0, 1]"] ;
285 -> 293 ;
294 [label="entropy = 0.0\nsamples = 1\nvalue = [0, 1]"] ;
284 -> 294 ;
295 [label="entropy = 0.0\nsamples = 1\nvalue = [0, 1]"] ;
283 -> 295 ;
296 [label="entropy = 0.0\nsamples = 1\nvalue = [0, 1]"] ;
282 -> 296 ;
297 [label="X[1873] <= 0.5\nentropy = 0.918\nsamples = 6\nvalue = [4, 2]"] ;
281 -> 297 ;
298 [label="X[1415] <= 0.5\nentropy = 0.918\nsamples = 3\nvalue = [1, 2]"] ;
297 -> 298 ;
299 [label="entropy = 0.0\nsamples = 2\nvalue = [0, 2]"] ;
298 -> 299 ;
300 [label="entropy = 0.0\nsamples = 1\nvalue = [1, 0]"] ;
298 -> 300 ;
301 [label="entropy = 0.0\nsamples = 3\nvalue = [3, 0]"] ;
297 -> 301 ;
302 [label="entropy = 0.0\nsamples = 1\nvalue = [0, 1]"] ;
280 -> 302 ;
303 [label="entropy = 0.0\nsamples = 1\nvalue = [0, 1]"] ;
279 -> 303 ;
304 [label="entropy = 0.0\nsamples = 1\nvalue = [0, 1]"] ;
278 -> 304 ;
305 [label="entropy = 0.0\nsamples = 1\nvalue = [0, 1]"] ;
277 -> 305 ;
306 [label="entropy = 0.0\nsamples = 1\nvalue = [0, 1]"] ;
276 -> 306 ;
307 [label="entropy = 0.0\nsamples = 1\nvalue = [0, 1]"] ;
275 -> 307 ;
308 [label="entropy = 0.0\nsamples = 1\nvalue = [0, 1]"] ;
274 -> 308 ;
309 [label="X[59] <= 0.5\nentropy = 1.0\nsamples = 4\nvalue = [2, 2]"] ;
273 -> 309 ;
310 [label="X[2555] <= 0.5\nentropy = 0.918\nsamples = 3\nvalue = [2, 1]"] ;
309 -> 310 ;
311 [label="entropy = 0.0\nsamples = 2\nvalue = [2, 0]"] ;
310 -> 311 ;
312 [label="entropy = 0.0\nsamples = 1\nvalue = [0, 1]"] ;
310 -> 312 ;
313 [label="entropy = 0.0\nsamples = 1\nvalue = [0, 1]"] ;
309 -> 313 ;
314 [label="X[38] <= 0.5\nentropy = 1.0\nsamples = 4\nvalue = [2, 2]"] ;
272 -> 314 ;
315 [label="X[2258] <= 0.5\nentropy = 0.918\nsamples = 3\nvalue = [2, 1]"] ;
314 -> 315 ;
316 [label="entropy = 0.0\nsamples = 2\nvalue = [2, 0]"] ;
315 -> 316 ;
317 [label="entropy = 0.0\nsamples = 1\nvalue = [0, 1]"] ;
315 -> 317 ;
318 [label="entropy = 0.0\nsamples = 1\nvalue = [0, 1]"] ;
314 -> 318 ;
319 [label="X[346] <= 0.5\nentropy = 0.709\nsamples = 31\nvalue = [25, 6]"] ;
271 -> 319 ;
320 [label="X[75] <= 0.5\nentropy = 0.65\nsamples = 30\nvalue = [25, 5]"] ;
319 -> 320 ;
321 [label="X[959] <= 0.5\nentropy = 0.579\nsamples = 29\nvalue = [25, 4]"] ;
320 -> 321 ;
322 [label="X[311] <= 0.5\nentropy = 0.491\nsamples = 28\nvalue = [25, 3]"] ;
321 -> 322 ;
323 [label="X[2876] <= 0.5\nentropy = 0.381\nsamples = 27\nvalue = [25, 2]"] ;
322 -> 323 ;
324 [label="X[1719] <= 0.5\nentropy = 0.235\nsamples = 26\nvalue = [25, 1]"] ;
323 -> 324 ;
325 [label="entropy = 0.0\nsamples = 25\nvalue = [25, 0]"] ;
324 -> 325 ;
326 [label="entropy = 0.0\nsamples = 1\nvalue = [0, 1]"] ;
324 -> 326 ;
327 [label="entropy = 0.0\nsamples = 1\nvalue = [0, 1]"] ;
323 -> 327 ;
328 [label="entropy = 0.0\nsamples = 1\nvalue = [0, 1]"] ;
322 -> 328 ;
329 [label="entropy = 0.0\nsamples = 1\nvalue = [0, 1]"] ;
321 -> 329 ;
330 [label="entropy = 0.0\nsamples = 1\nvalue = [0, 1]"] ;
320 -> 330 ;
331 [label="entropy = 0.0\nsamples = 1\nvalue = [0, 1]"] ;
319 -> 331 ;
332 [label="X[3412] <= 0.5\nentropy = 0.918\nsamples = 3\nvalue = [1, 2]"] ;
270 -> 332 ;
333 [label="entropy = 0.0\nsamples = 2\nvalue = [0, 2]"] ;
332 -> 333 ;
334 [label="entropy = 0.0\nsamples = 1\nvalue = [1, 0]"] ;
332 -> 334 ;
335 [label="X[347] <= 0.5\nentropy = 0.918\nsamples = 3\nvalue = [1, 2]"] ;
269 -> 335 ;
336 [label="entropy = 0.0\nsamples = 2\nvalue = [0, 2]"] ;
335 -> 336 ;
337 [label="entropy = 0.0\nsamples = 1\nvalue = [1, 0]"] ;
335 -> 337 ;
338 [label="X[118] <= 0.5\nentropy = 1.0\nsamples = 6\nvalue = [3, 3]"] ;
268 -> 338 ;
339 [label="X[4160] <= 0.5\nentropy = 0.971\nsamples = 5\nvalue = [2, 3]"] ;
338 -> 339 ;
340 [label="X[448] <= 0.5\nentropy = 0.811\nsamples = 4\nvalue = [1, 3]"] ;
339 -> 340 ;
341 [label="entropy = 0.0\nsamples = 3\nvalue = [0, 3]"] ;
340 -> 341 ;
342 [label="entropy = 0.0\nsamples = 1\nvalue = [1, 0]"] ;
340 -> 342 ;
343 [label="entropy = 0.0\nsamples = 1\nvalue = [1, 0]"] ;
339 -> 343 ;
344 [label="entropy = 0.0\nsamples = 1\nvalue = [1, 0]"] ;
338 -> 344 ;
345 [label="entropy = 0.0\nsamples = 2\nvalue = [0, 2]"] ;
267 -> 345 ;
346 [label="entropy = 0.0\nsamples = 2\nvalue = [0, 2]"] ;
266 -> 346 ;
347 [label="entropy = 0.0\nsamples = 2\nvalue = [0, 2]"] ;
265 -> 347 ;
348 [label="entropy = 0.0\nsamples = 2\nvalue = [0, 2]"] ;
264 -> 348 ;
349 [label="X[3849] <= 0.5\nentropy = 0.811\nsamples = 4\nvalue = [1, 3]"] ;
263 -> 349 ;
350 [label="entropy = 0.0\nsamples = 3\nvalue = [0, 3]"] ;
349 -> 350 ;
351 [label="entropy = 0.0\nsamples = 1\nvalue = [1, 0]"] ;
349 -> 351 ;
352 [label="X[24] <= 0.5\nentropy = 0.847\nsamples = 84\nvalue = [61, 23]"] ;
262 -> 352 ;
353 [label="X[318] <= 0.5\nentropy = 0.806\nsamples = 81\nvalue = [61, 20]"] ;
352 -> 353 ;
354 [label="X[724] <= 0.5\nentropy = 0.756\nsamples = 78\nvalue = [61, 17]"] ;
353 -> 354 ;
355 [label="X[1112] <= 0.5\nentropy = 0.717\nsamples = 76\nvalue = [61, 15]"] ;
354 -> 355 ;
356 [label="X[289] <= 0.5\nentropy = 0.671\nsamples = 74\nvalue = [61, 13]"] ;
355 -> 356 ;
357 [label="X[1122] <= 0.5\nentropy = 0.592\nsamples = 70\nvalue = [60, 10]"] ;
356 -> 357 ;
358 [label="X[3463] <= 0.5\nentropy = 0.559\nsamples = 69\nvalue = [60, 9]"] ;
357 -> 358 ;
359 [label="X[390] <= 0.5\nentropy = 0.523\nsamples = 68\nvalue = [60, 8]"] ;
358 -> 359 ;
360 [label="X[3033] <= 0.5\nentropy = 0.483\nsamples = 67\nvalue = [60, 7]"] ;
359 -> 360 ;
361 [label="X[1787] <= 0.5\nentropy = 0.439\nsamples = 66\nvalue = [60, 6]"] ;
360 -> 361 ;
362 [label="X[2085] <= 0.5\nentropy = 0.391\nsamples = 65\nvalue = [60, 5]"] ;
361 -> 362 ;
363 [label="X[454] <= 0.5\nentropy = 0.337\nsamples = 64\nvalue = [60, 4]"] ;
362 -> 363 ;
364 [label="X[519] <= 0.5\nentropy = 0.276\nsamples = 63\nvalue = [60, 3]"] ;
363 -> 364 ;
365 [label="X[931] <= 0.5\nentropy = 0.206\nsamples = 62\nvalue = [60, 2]"] ;
364 -> 365 ;
366 [label="X[363] <= 0.5\nentropy = 0.121\nsamples = 61\nvalue = [60, 1]"] ;
365 -> 366 ;
367 [label="entropy = 0.0\nsamples = 60\nvalue = [60, 0]"] ;
366 -> 367 ;
368 [label="entropy = 0.0\nsamples = 1\nvalue = [0, 1]"] ;
366 -> 368 ;
369 [label="entropy = 0.0\nsamples = 1\nvalue = [0, 1]"] ;
365 -> 369 ;
370 [label="entropy = 0.0\nsamples = 1\nvalue = [0, 1]"] ;
364 -> 370 ;
371 [label="entropy = 0.0\nsamples = 1\nvalue = [0, 1]"] ;
363 -> 371 ;
372 [label="entropy = 0.0\nsamples = 1\nvalue = [0, 1]"] ;
362 -> 372 ;
373 [label="entropy = 0.0\nsamples = 1\nvalue = [0, 1]"] ;
361 -> 373 ;
374 [label="entropy = 0.0\nsamples = 1\nvalue = [0, 1]"] ;
360 -> 374 ;
375 [label="entropy = 0.0\nsamples = 1\nvalue = [0, 1]"] ;
359 -> 375 ;
376 [label="entropy = 0.0\nsamples = 1\nvalue = [0, 1]"] ;
358 -> 376 ;
377 [label="entropy = 0.0\nsamples = 1\nvalue = [0, 1]"] ;
357 -> 377 ;
378 [label="X[5676] <= 0.5\nentropy = 0.811\nsamples = 4\nvalue = [1, 3]"] ;
356 -> 378 ;
379 [label="entropy = 0.0\nsamples = 3\nvalue = [0, 3]"] ;
378 -> 379 ;
380 [label="entropy = 0.0\nsamples = 1\nvalue = [1, 0]"] ;
378 -> 380 ;
381 [label="entropy = 0.0\nsamples = 2\nvalue = [0, 2]"] ;
355 -> 381 ;
382 [label="entropy = 0.0\nsamples = 2\nvalue = [0, 2]"] ;
354 -> 382 ;
383 [label="entropy = 0.0\nsamples = 3\nvalue = [0, 3]"] ;
353 -> 383 ;
384 [label="entropy = 0.0\nsamples = 3\nvalue = [0, 3]"] ;
352 -> 384 ;
385 [label="X[239] <= 0.5\nentropy = 1.0\nsamples = 22\nvalue = [11, 11]"] ;
261 -> 385 ;
386 [label="X[289] <= 0.5\nentropy = 0.993\nsamples = 20\nvalue = [11, 9]"] ;
385 -> 386 ;
387 [label="X[226] <= 0.5\nentropy = 0.964\nsamples = 18\nvalue = [11, 7]"] ;
386 -> 387 ;
388 [label="X[454] <= 0.5\nentropy = 0.997\nsamples = 15\nvalue = [8, 7]"] ;
387 -> 388 ;
389 [label="X[515] <= 0.5\nentropy = 0.985\nsamples = 14\nvalue = [8, 6]"] ;
388 -> 389 ;
390 [label="X[392] <= 0.5\nentropy = 0.961\nsamples = 13\nvalue = [8, 5]"] ;
389 -> 390 ;
391 [label="X[60] <= 0.5\nentropy = 0.918\nsamples = 12\nvalue = [8, 4]"] ;
390 -> 391 ;
392 [label="X[704] <= 0.5\nentropy = 0.845\nsamples = 11\nvalue = [8, 3]"] ;
391 -> 392 ;
393 [label="X[26] <= 0.5\nentropy = 0.722\nsamples = 10\nvalue = [8, 2]"] ;
392 -> 393 ;
394 [label="entropy = 0.0\nsamples = 6\nvalue = [6, 0]"] ;
393 -> 394 ;
395 [label="X[1957] <= 0.5\nentropy = 1.0\nsamples = 4\nvalue = [2, 2]"] ;
393 -> 395 ;
396 [label="X[5223] <= 0.5\nentropy = 0.918\nsamples = 3\nvalue = [1, 2]"] ;
395 -> 396 ;
397 [label="entropy = 0.0\nsamples = 2\nvalue = [0, 2]"] ;
396 -> 397 ;
398 [label="entropy = 0.0\nsamples = 1\nvalue = [1, 0]"] ;
396 -> 398 ;
399 [label="entropy = 0.0\nsamples = 1\nvalue = [1, 0]"] ;
395 -> 399 ;
400 [label="entropy = 0.0\nsamples = 1\nvalue = [0, 1]"] ;
392 -> 400 ;
401 [label="entropy = 0.0\nsamples = 1\nvalue = [0, 1]"] ;
391 -> 401 ;
402 [label="entropy = 0.0\nsamples = 1\nvalue = [0, 1]"] ;
390 -> 402 ;
403 [label="entropy = 0.0\nsamples = 1\nvalue = [0, 1]"] ;
389 -> 403 ;
404 [label="entropy = 0.0\nsamples = 1\nvalue = [0, 1]"] ;
388 -> 404 ;
405 [label="entropy = 0.0\nsamples = 3\nvalue = [3, 0]"] ;
387 -> 405 ;
406 [label="entropy = 0.0\nsamples = 2\nvalue = [0, 2]"] ;
386 -> 406 ;
407 [label="entropy = 0.0\nsamples = 2\nvalue = [0, 2]"] ;
385 -> 407 ;
408 [label="X[32] <= 0.5\nentropy = 1.0\nsamples = 28\nvalue = [14, 14]"] ;
260 -> 408 ;
409 [label="X[7] <= 0.5\nentropy = 0.966\nsamples = 23\nvalue = [14, 9]"] ;
408 -> 409 ;
410 [label="X[118] <= 0.5\nentropy = 0.787\nsamples = 17\nvalue = [13, 4]"] ;
409 -> 410 ;
411 [label="X[3778] <= 0.5\nentropy = 0.918\nsamples = 12\nvalue = [8, 4]"] ;
410 -> 411 ;
412 [label="X[0] <= 0.5\nentropy = 0.991\nsamples = 9\nvalue = [5, 4]"] ;
411 -> 412 ;
413 [label="X[412] <= 0.5\nentropy = 0.954\nsamples = 8\nvalue = [5, 3]"] ;
412 -> 413 ;
414 [label="X[1639] <= 0.5\nentropy = 0.863\nsamples = 7\nvalue = [5, 2]"] ;
413 -> 414 ;
415 [label="X[3051] <= 0.5\nentropy = 0.65\nsamples = 6\nvalue = [5, 1]"] ;
414 -> 415 ;
416 [label="entropy = 0.0\nsamples = 5\nvalue = [5, 0]"] ;
415 -> 416 ;
417 [label="entropy = 0.0\nsamples = 1\nvalue = [0, 1]"] ;
415 -> 417 ;
418 [label="entropy = 0.0\nsamples = 1\nvalue = [0, 1]"] ;
414 -> 418 ;
419 [label="entropy = 0.0\nsamples = 1\nvalue = [0, 1]"] ;
413 -> 419 ;
420 [label="entropy = 0.0\nsamples = 1\nvalue = [0, 1]"] ;
412 -> 420 ;
421 [label="entropy = 0.0\nsamples = 3\nvalue = [3, 0]"] ;
411 -> 421 ;
422 [label="entropy = 0.0\nsamples = 5\nvalue = [5, 0]"] ;
410 -> 422 ;
423 [label="X[1057] <= 0.5\nentropy = 0.65\nsamples = 6\nvalue = [1, 5]"] ;
409 -> 423 ;
424 [label="entropy = 0.0\nsamples = 5\nvalue = [0, 5]"] ;
423 -> 424 ;
425 [label="entropy = 0.0\nsamples = 1\nvalue = [1, 0]"] ;
423 -> 425 ;
426 [label="entropy = 0.0\nsamples = 5\nvalue = [0, 5]"] ;
408 -> 426 ;
427 [label="entropy = 0.0\nsamples = 5\nvalue = [0, 5]"] ;
259 -> 427 ;
428 [label="entropy = 0.0\nsamples = 5\nvalue = [0, 5]"] ;
258 -> 428 ;
429 [label="entropy = 0.0\nsamples = 47\nvalue = [47, 0]"] ;
257 -> 429 ;
430 [label="X[3] <= 0.5\nentropy = 1.0\nsamples = 87\nvalue = [43, 44]"] ;
254 -> 430 ;
431 [label="entropy = 0.0\nsamples = 7\nvalue = [7, 0]"] ;
430 -> 431 ;
432 [label="X[128] <= 0.5\nentropy = 0.993\nsamples = 80\nvalue = [36, 44]"] ;
430 -> 432 ;
433 [label="X[318] <= 0.5\nentropy = 1.0\nsamples = 73\nvalue = [36, 37]"] ;
432 -> 433 ;
434 [label="X[68] <= 0.5\nentropy = 0.998\nsamples = 68\nvalue = [36, 32]"] ;
433 -> 434 ;
435 [label="X[285] <= 0.5\nentropy = 0.989\nsamples = 64\nvalue = [36, 28]"] ;
434 -> 435 ;
436 [label="X[182] <= 0.5\nentropy = 0.971\nsamples = 60\nvalue = [36, 24]"] ;
435 -> 436 ;
437 [label="X[939] <= 0.5\nentropy = 0.949\nsamples = 57\nvalue = [36, 21]"] ;
436 -> 437 ;
438 [label="X[53] <= 0.5\nentropy = 0.918\nsamples = 54\nvalue = [36, 18]"] ;
437 -> 438 ;
439 [label="X[449] <= 0.5\nentropy = 0.89\nsamples = 52\nvalue = [36, 16]"] ;
438 -> 439 ;
440 [label="X[6] <= 0.5\nentropy = 0.855\nsamples = 50\nvalue = [36, 14]"] ;
439 -> 440 ;
441 [label="X[167] <= 0.5\nentropy = 0.811\nsamples = 48\nvalue = [36, 12]"] ;
440 -> 441 ;
442 [label="X[7] <= 0.5\nentropy = 0.731\nsamples = 44\nvalue = [35, 9]"] ;
441 -> 442 ;
443 [label="X[263] <= 0.5\nentropy = 0.619\nsamples = 39\nvalue = [33, 6]"] ;
442 -> 443 ;
444 [label="X[3603] <= 0.5\nentropy = 0.562\nsamples = 38\nvalue = [33, 5]"] ;
443 -> 444 ;
445 [label="X[477] <= 0.5\nentropy = 0.494\nsamples = 37\nvalue = [33, 4]"] ;
444 -> 445 ;
446 [label="X[2252] <= 0.5\nentropy = 0.414\nsamples = 36\nvalue = [33, 3]"] ;
445 -> 446 ;
447 [label="X[3688] <= 0.5\nentropy = 0.316\nsamples = 35\nvalue = [33, 2]"] ;
446 -> 447 ;
448 [label="X[1068] <= 0.5\nentropy = 0.191\nsamples = 34\nvalue = [33, 1]"] ;
447 -> 448 ;
449 [label="entropy = 0.0\nsamples = 33\nvalue = [33, 0]"] ;
448 -> 449 ;
450 [label="entropy = 0.0\nsamples = 1\nvalue = [0, 1]"] ;
448 -> 450 ;
451 [label="entropy = 0.0\nsamples = 1\nvalue = [0, 1]"] ;
447 -> 451 ;
452 [label="entropy = 0.0\nsamples = 1\nvalue = [0, 1]"] ;
446 -> 452 ;
453 [label="entropy = 0.0\nsamples = 1\nvalue = [0, 1]"] ;
445 -> 453 ;
454 [label="entropy = 0.0\nsamples = 1\nvalue = [0, 1]"] ;
444 -> 454 ;
455 [label="entropy = 0.0\nsamples = 1\nvalue = [0, 1]"] ;
443 -> 455 ;
456 [label="X[5242] <= 0.5\nentropy = 0.971\nsamples = 5\nvalue = [2, 3]"] ;
442 -> 456 ;
457 [label="X[511] <= 0.5\nentropy = 0.811\nsamples = 4\nvalue = [1, 3]"] ;
456 -> 457 ;
458 [label="entropy = 0.0\nsamples = 3\nvalue = [0, 3]"] ;
457 -> 458 ;
459 [label="entropy = 0.0\nsamples = 1\nvalue = [1, 0]"] ;
457 -> 459 ;
460 [label="entropy = 0.0\nsamples = 1\nvalue = [1, 0]"] ;
456 -> 460 ;
461 [label="X[512] <= 0.5\nentropy = 0.811\nsamples = 4\nvalue = [1, 3]"] ;
441 -> 461 ;
462 [label="entropy = 0.0\nsamples = 3\nvalue = [0, 3]"] ;
461 -> 462 ;
463 [label="entropy = 0.0\nsamples = 1\nvalue = [1, 0]"] ;
461 -> 463 ;
464 [label="entropy = 0.0\nsamples = 2\nvalue = [0, 2]"] ;
440 -> 464 ;
465 [label="entropy = 0.0\nsamples = 2\nvalue = [0, 2]"] ;
439 -> 465 ;
466 [label="entropy = 0.0\nsamples = 2\nvalue = [0, 2]"] ;
438 -> 466 ;
467 [label="entropy = 0.0\nsamples = 3\nvalue = [0, 3]"] ;
437 -> 467 ;
468 [label="entropy = 0.0\nsamples = 3\nvalue = [0, 3]"] ;
436 -> 468 ;
469 [label="entropy = 0.0\nsamples = 4\nvalue = [0, 4]"] ;
435 -> 469 ;
470 [label="entropy = 0.0\nsamples = 4\nvalue = [0, 4]"] ;
434 -> 470 ;
471 [label="entropy = 0.0\nsamples = 5\nvalue = [0, 5]"] ;
433 -> 471 ;
472 [label="entropy = 0.0\nsamples = 7\nvalue = [0, 7]"] ;
432 -> 472 ;
}