digraph Tree {
node [shape=box] ;
0 [label="X[131] <= 0.5\nentropy = 0.969\nsamples = 2287\nvalue = [1378, 909]"] ;
1 [label="X[2749] <= 0.5\nentropy = 0.966\nsamples = 2259\nvalue = [1375, 884]"] ;
0 -> 1 [labeldistance=2.5, labelangle=45, headlabel="True"] ;
2 [label="X[103] <= 0.5\nentropy = 0.965\nsamples = 2257\nvalue = [1375, 882]"] ;
1 -> 2 ;
3 [label="X[3001] <= 0.5\nentropy = 0.965\nsamples = 2254\nvalue = [1375, 879]"] ;
2 -> 3 ;
4 [label="X[2327] <= 0.5\nentropy = 0.965\nsamples = 2253\nvalue = [1375, 878]"] ;
3 -> 4 ;
5 [label="X[4079] <= 0.5\nentropy = 0.964\nsamples = 2252\nvalue = [1375, 877]"] ;
4 -> 5 ;
6 [label="X[3175] <= 0.5\nentropy = 0.965\nsamples = 2251\nvalue = [1374, 877]"] ;
5 -> 6 ;
7 [label="X[4755] <= 0.5\nentropy = 0.964\nsamples = 2250\nvalue = [1374, 876]"] ;
6 -> 7 ;
8 [label="X[5214] <= 0.5\nentropy = 0.964\nsamples = 2249\nvalue = [1373, 876]"] ;
7 -> 8 ;
9 [label="X[1389] <= 0.5\nentropy = 0.965\nsamples = 2247\nvalue = [1371, 876]"] ;
8 -> 9 ;
10 [label="X[2308] <= 0.5\nentropy = 0.964\nsamples = 2241\nvalue = [1371, 870]"] ;
9 -> 10 ;
11 [label="X[339] <= 0.5\nentropy = 0.963\nsamples = 2240\nvalue = [1371, 869]"] ;
10 -> 11 ;
12 [label="X[213] <= 0.5\nentropy = 0.962\nsamples = 2233\nvalue = [1370, 863]"] ;
11 -> 12 ;
13 [label="X[2404] <= 0.5\nentropy = 0.961\nsamples = 2200\nvalue = [1354, 846]"] ;
12 -> 13 ;
14 [label="X[5419] <= 0.5\nentropy = 0.961\nsamples = 2198\nvalue = [1354, 844]"] ;
13 -> 14 ;
15 [label="X[1308] <= 0.5\nentropy = 0.961\nsamples = 2197\nvalue = [1353, 844]"] ;
14 -> 15 ;
16 [label="X[4201] <= 0.5\nentropy = 0.961\nsamples = 2196\nvalue = [1353, 843]"] ;
15 -> 16 ;
17 [label="X[274] <= 0.5\nentropy = 0.961\nsamples = 2193\nvalue = [1350, 843]"] ;
16 -> 17 ;
18 [label="X[1169] <= 0.5\nentropy = 0.961\nsamples = 2190\nvalue = [1350, 840]"] ;
17 -> 18 ;
19 [label="X[3129] <= 0.5\nentropy = 0.96\nsamples = 2179\nvalue = [1346, 833]"] ;
18 -> 19 ;
20 [label="X[2700] <= 0.5\nentropy = 0.959\nsamples = 2177\nvalue = [1346, 831]"] ;
19 -> 20 ;
21 [label="X[3439] <= 0.5\nentropy = 0.959\nsamples = 2175\nvalue = [1346, 829]"] ;
20 -> 21 ;
22 [label="X[2824] <= 0.5\nentropy = 0.959\nsamples = 2174\nvalue = [1346, 828]"] ;
21 -> 22 ;
23 [label="X[3048] <= 0.5\nentropy = 0.958\nsamples = 2173\nvalue = [1346, 827]"] ;
22 -> 23 ;
24 [label="X[67] <= 0.5\nentropy = 0.958\nsamples = 2172\nvalue = [1346, 826]"] ;
23 -> 24 ;
25 [label="X[40] <= 0.5\nentropy = 0.956\nsamples = 2155\nvalue = [1343, 812]"] ;
24 -> 25 ;
26 [label="X[1914] <= 0.5\nentropy = 0.952\nsamples = 2134\nvalue = [1341, 793]"] ;
25 -> 26 ;
27 [label="X[1162] <= 0.5\nentropy = 0.952\nsamples = 2133\nvalue = [1341, 792]"] ;
26 -> 27 ;
28 [label="X[3580] <= 0.5\nentropy = 0.951\nsamples = 2131\nvalue = [1341, 790]"] ;
27 -> 28 ;
29 [label="X[3354] <= 0.5\nentropy = 0.951\nsamples = 2130\nvalue = [1341, 789]"] ;
28 -> 29 ;
30 [label="X[1009] <= 0.5\nentropy = 0.951\nsamples = 2129\nvalue = [1341, 788]"] ;
29 -> 30 ;
31 [label="X[519] <= 0.5\nentropy = 0.95\nsamples = 2122\nvalue = [1340, 782]"] ;
30 -> 31 ;
32 [label="X[4260] <= 0.5\nentropy = 0.948\nsamples = 2114\nvalue = [1340, 774]"] ;
31 -> 32 ;
33 [label="X[1524] <= 0.5\nentropy = 0.948\nsamples = 2111\nvalue = [1337, 774]"] ;
32 -> 33 ;
34 [label="X[4253] <= 0.5\nentropy = 0.948\nsamples = 2110\nvalue = [1337, 773]"] ;
33 -> 34 ;
35 [label="X[4881] <= 0.5\nentropy = 0.948\nsamples = 2108\nvalue = [1335, 773]"] ;
34 -> 35 ;
36 [label="X[384] <= 0.5\nentropy = 0.948\nsamples = 2107\nvalue = [1334, 773]"] ;
35 -> 36 ;
37 [label="X[766] <= 0.5\nentropy = 0.948\nsamples = 2103\nvalue = [1333, 770]"] ;
36 -> 37 ;
38 [label="X[610] <= 0.5\nentropy = 0.947\nsamples = 2100\nvalue = [1332, 768]"] ;
37 -> 38 ;
39 [label="X[5273] <= 0.5\nentropy = 0.947\nsamples = 2099\nvalue = [1332, 767]"] ;
38 -> 39 ;
40 [label="X[2793] <= 0.5\nentropy = 0.947\nsamples = 2098\nvalue = [1331, 767]"] ;
39 -> 40 ;
41 [label="X[1967] <= 0.5\nentropy = 0.947\nsamples = 2095\nvalue = [1330, 765]"] ;
40 -> 41 ;
42 [label="X[337] <= 0.5\nentropy = 0.946\nsamples = 2093\nvalue = [1330, 763]"] ;
41 -> 42 ;
43 [label="X[3496] <= 0.5\nentropy = 0.946\nsamples = 2089\nvalue = [1329, 760]"] ;
42 -> 43 ;
44 [label="X[1899] <= 0.5\nentropy = 0.946\nsamples = 2088\nvalue = [1329, 759]"] ;
43 -> 44 ;
45 [label="X[235] <= 0.5\nentropy = 0.945\nsamples = 2087\nvalue = [1329, 758]"] ;
44 -> 45 ;
46 [label="X[83] <= 0.5\nentropy = 0.945\nsamples = 2085\nvalue = [1329, 756]"] ;
45 -> 46 ;
47 [label="X[1112] <= 0.5\nentropy = 0.944\nsamples = 2083\nvalue = [1329, 754]"] ;
46 -> 47 ;
48 [label="X[4031] <= 0.5\nentropy = 0.942\nsamples = 2071\nvalue = [1327, 744]"] ;
47 -> 48 ;
49 [label="X[1003] <= 0.5\nentropy = 0.943\nsamples = 2067\nvalue = [1323, 744]"] ;
48 -> 49 ;
50 [label="X[4515] <= 0.5\nentropy = 0.942\nsamples = 2064\nvalue = [1323, 741]"] ;
49 -> 50 ;
51 [label="X[171] <= 0.5\nentropy = 0.942\nsamples = 2063\nvalue = [1322, 741]"] ;
50 -> 51 ;
52 [label="X[4635] <= 0.5\nentropy = 0.942\nsamples = 2062\nvalue = [1322, 740]"] ;
51 -> 52 ;
53 [label="X[516] <= 0.5\nentropy = 0.942\nsamples = 2061\nvalue = [1321, 740]"] ;
52 -> 53 ;
54 [label="X[1125] <= 0.5\nentropy = 0.94\nsamples = 2055\nvalue = [1321, 734]"] ;
53 -> 54 ;
55 [label="X[3999] <= 0.5\nentropy = 0.94\nsamples = 2054\nvalue = [1321, 733]"] ;
54 -> 55 ;
56 [label="X[2197] <= 0.5\nentropy = 0.94\nsamples = 2053\nvalue = [1320, 733]"] ;
55 -> 56 ;
57 [label="X[2486] <= 0.5\nentropy = 0.94\nsamples = 2052\nvalue = [1320, 732]"] ;
56 -> 57 ;
58 [label="X[2343] <= 0.5\nentropy = 0.94\nsamples = 2051\nvalue = [1320, 731]"] ;
57 -> 58 ;
59 [label="X[2759] <= 0.5\nentropy = 0.939\nsamples = 2050\nvalue = [1320, 730]"] ;
58 -> 59 ;
60 [label="X[3434] <= 0.5\nentropy = 0.939\nsamples = 2049\nvalue = [1320, 729]"] ;
59 -> 60 ;
61 [label="X[699] <= 0.5\nentropy = 0.939\nsamples = 2048\nvalue = [1320, 728]"] ;
60 -> 61 ;
62 [label="X[5313] <= 0.5\nentropy = 0.939\nsamples = 2047\nvalue = [1320, 727]"] ;
61 -> 62 ;
63 [label="X[4584] <= 0.5\nentropy = 0.939\nsamples = 2046\nvalue = [1319, 727]"] ;
62 -> 63 ;
64 [label="X[5040] <= 0.5\nentropy = 0.939\nsamples = 2041\nvalue = [1314, 727]"] ;
63 -> 64 ;
65 [label="X[452] <= 0.5\nentropy = 0.94\nsamples = 2039\nvalue = [1312, 727]"] ;
64 -> 65 ;
66 [label="X[2991] <= 0.5\nentropy = 0.938\nsamples = 2023\nvalue = [1307, 716]"] ;
65 -> 66 ;
67 [label="X[1007] <= 0.5\nentropy = 0.937\nsamples = 2022\nvalue = [1307, 715]"] ;
66 -> 67 ;
68 [label="X[3986] <= 0.5\nentropy = 0.938\nsamples = 2019\nvalue = [1304, 715]"] ;
67 -> 68 ;
69 [label="X[881] <= 0.5\nentropy = 0.938\nsamples = 2017\nvalue = [1302, 715]"] ;
68 -> 69 ;
70 [label="X[5733] <= 0.5\nentropy = 0.938\nsamples = 2016\nvalue = [1302, 714]"] ;
69 -> 70 ;
71 [label="X[2256] <= 0.5\nentropy = 0.938\nsamples = 2015\nvalue = [1301, 714]"] ;
70 -> 71 ;
72 [label="X[2346] <= 0.5\nentropy = 0.937\nsamples = 2012\nvalue = [1301, 711]"] ;
71 -> 72 ;
73 [label="X[1977] <= 0.5\nentropy = 0.938\nsamples = 2008\nvalue = [1297, 711]"] ;
72 -> 73 ;
74 [label="X[838] <= 0.5\nentropy = 0.938\nsamples = 2000\nvalue = [1290, 710]"] ;
73 -> 74 ;
75 [label="X[2282] <= 0.5\nentropy = 0.938\nsamples = 1999\nvalue = [1290, 709]"] ;
74 -> 75 ;
76 [label="X[1036] <= 0.5\nentropy = 0.938\nsamples = 1998\nvalue = [1290, 708]"] ;
75 -> 76 ;
77 [label="X[1274] <= 0.5\nentropy = 0.937\nsamples = 1996\nvalue = [1290, 706]"] ;
76 -> 77 ;
78 [label="X[4243] <= 0.5\nentropy = 0.937\nsamples = 1995\nvalue = [1290, 705]"] ;
77 -> 78 ;
79 [label="X[703] <= 0.5\nentropy = 0.938\nsamples = 1992\nvalue = [1287, 705]"] ;
78 -> 79 ;
80 [label="X[874] <= 0.5\nentropy = 0.937\nsamples = 1991\nvalue = [1287, 704]"] ;
79 -> 80 ;
81 [label="X[894] <= 0.5\nentropy = 0.937\nsamples = 1990\nvalue = [1286, 704]"] ;
80 -> 81 ;
82 [label="X[10] <= 0.5\nentropy = 0.937\nsamples = 1988\nvalue = [1286, 702]"] ;
81 -> 82 ;
83 [label="X[716] <= 0.5\nentropy = 0.935\nsamples = 1981\nvalue = [1285, 696]"] ;
82 -> 83 ;
84 [label="X[3680] <= 0.5\nentropy = 0.934\nsamples = 1978\nvalue = [1285, 693]"] ;
83 -> 84 ;
85 [label="X[5162] <= 0.5\nentropy = 0.934\nsamples = 1977\nvalue = [1285, 692]"] ;
84 -> 85 ;
86 [label="X[4589] <= 0.5\nentropy = 0.935\nsamples = 1974\nvalue = [1282, 692]"] ;
85 -> 86 ;
87 [label="X[5146] <= 0.5\nentropy = 0.935\nsamples = 1973\nvalue = [1281, 692]"] ;
86 -> 87 ;
88 [label="X[3676] <= 0.5\nentropy = 0.935\nsamples = 1972\nvalue = [1280, 692]"] ;
87 -> 88 ;
89 [label="X[3878] <= 0.5\nentropy = 0.935\nsamples = 1971\nvalue = [1280, 691]"] ;
88 -> 89 ;
90 [label="X[759] <= 0.5\nentropy = 0.935\nsamples = 1968\nvalue = [1277, 691]"] ;
89 -> 90 ;
91 [label="X[664] <= 0.5\nentropy = 0.934\nsamples = 1966\nvalue = [1277, 689]"] ;
90 -> 91 ;
92 [label="X[546] <= 0.5\nentropy = 0.932\nsamples = 1959\nvalue = [1277, 682]"] ;
91 -> 92 ;
93 [label="X[5047] <= 0.5\nentropy = 0.931\nsamples = 1949\nvalue = [1274, 675]"] ;
92 -> 93 ;
94 [label="X[3893] <= 0.5\nentropy = 0.931\nsamples = 1948\nvalue = [1273, 675]"] ;
93 -> 94 ;
95 [label="X[2051] <= 0.5\nentropy = 0.931\nsamples = 1947\nvalue = [1272, 675]"] ;
94 -> 95 ;
96 [label="X[1127] <= 0.5\nentropy = 0.931\nsamples = 1946\nvalue = [1272, 674]"] ;
95 -> 96 ;
97 [label="X[4257] <= 0.5\nentropy = 0.931\nsamples = 1944\nvalue = [1271, 673]"] ;
96 -> 97 ;
98 [label="X[1484] <= 0.5\nentropy = 0.931\nsamples = 1941\nvalue = [1268, 673]"] ;
97 -> 98 ;
99 [label="X[1034] <= 0.5\nentropy = 0.931\nsamples = 1938\nvalue = [1267, 671]"] ;
98 -> 99 ;
100 [label="X[156] <= 0.5\nentropy = 0.93\nsamples = 1937\nvalue = [1267, 670]"] ;
99 -> 100 ;
101 [label="X[48] <= 0.5\nentropy = 0.929\nsamples = 1932\nvalue = [1267, 665]"] ;
100 -> 101 ;
102 [label="X[416] <= 0.5\nentropy = 0.926\nsamples = 1918\nvalue = [1263, 655]"] ;
101 -> 102 ;
103 [label="X[342] <= 0.5\nentropy = 0.927\nsamples = 1913\nvalue = [1258, 655]"] ;
102 -> 103 ;
104 [label="X[1054] <= 0.5\nentropy = 0.927\nsamples = 1912\nvalue = [1258, 654]"] ;
103 -> 104 ;
105 [label="X[3186] <= 0.5\nentropy = 0.926\nsamples = 1911\nvalue = [1258, 653]"] ;
104 -> 105 ;
106 [label="X[1925] <= 0.5\nentropy = 0.926\nsamples = 1909\nvalue = [1258, 651]"] ;
105 -> 106 ;
107 [label="X[955] <= 0.5\nentropy = 0.925\nsamples = 1908\nvalue = [1258, 650]"] ;
106 -> 107 ;
108 [label="X[1537] <= 0.5\nentropy = 0.925\nsamples = 1907\nvalue = [1258, 649]"] ;
107 -> 108 ;
109 [label="X[3472] <= 0.5\nentropy = 0.924\nsamples = 1905\nvalue = [1258, 647]"] ;
108 -> 109 ;
110 [label="X[4309] <= 0.5\nentropy = 0.924\nsamples = 1904\nvalue = [1258, 646]"] ;
109 -> 110 ;
111 [label="X[3890] <= 0.5\nentropy = 0.925\nsamples = 1901\nvalue = [1255, 646]"] ;
110 -> 111 ;
112 [label="X[1157] <= 0.5\nentropy = 0.925\nsamples = 1900\nvalue = [1254, 646]"] ;
111 -> 112 ;
113 [label="X[4397] <= 0.5\nentropy = 0.924\nsamples = 1898\nvalue = [1254, 644]"] ;
112 -> 113 ;
114 [label="X[2843] <= 0.5\nentropy = 0.924\nsamples = 1896\nvalue = [1252, 644]"] ;
113 -> 114 ;
115 [label="X[5637] <= 0.5\nentropy = 0.924\nsamples = 1892\nvalue = [1250, 642]"] ;
114 -> 115 ;
116 [label="X[1044] <= 0.5\nentropy = 0.924\nsamples = 1891\nvalue = [1249, 642]"] ;
115 -> 116 ;
117 [label="X[1074] <= 0.5\nentropy = 0.924\nsamples = 1890\nvalue = [1249, 641]"] ;
116 -> 117 ;
118 [label="X[4020] <= 0.5\nentropy = 0.924\nsamples = 1889\nvalue = [1249, 640]"] ;
117 -> 118 ;
119 [label="X[2598] <= 0.5\nentropy = 0.925\nsamples = 1884\nvalue = [1244, 640]"] ;
118 -> 119 ;
120 [label="X[2820] <= 0.5\nentropy = 0.924\nsamples = 1883\nvalue = [1244, 639]"] ;
119 -> 120 ;
121 [label="X[3761] <= 0.5\nentropy = 0.925\nsamples = 1878\nvalue = [1239, 639]"] ;
120 -> 121 ;
122 [label="X[3762] <= 0.5\nentropy = 0.925\nsamples = 1876\nvalue = [1237, 639]"] ;
121 -> 122 ;
123 [label="X[730] <= 0.5\nentropy = 0.927\nsamples = 1866\nvalue = [1227, 639]"] ;
122 -> 123 ;
124 [label="X[5747] <= 0.5\nentropy = 0.926\nsamples = 1862\nvalue = [1227, 635]"] ;
123 -> 124 ;
125 [label="X[1526] <= 0.5\nentropy = 0.926\nsamples = 1861\nvalue = [1226, 635]"] ;
124 -> 125 ;
126 [label="X[2207] <= 0.5\nentropy = 0.925\nsamples = 1859\nvalue = [1226, 633]"] ;
125 -> 126 ;
127 [label="X[705] <= 0.5\nentropy = 0.925\nsamples = 1858\nvalue = [1226, 632]"] ;
126 -> 127 ;
128 [label="X[2618] <= 0.5\nentropy = 0.925\nsamples = 1857\nvalue = [1226, 631]"] ;
127 -> 128 ;
129 [label="X[1088] <= 0.5\nentropy = 0.924\nsamples = 1856\nvalue = [1226, 630]"] ;
128 -> 129 ;
130 [label="X[1313] <= 0.5\nentropy = 0.924\nsamples = 1854\nvalue = [1226, 628]"] ;
129 -> 130 ;
131 [label="X[2552] <= 0.5\nentropy = 0.923\nsamples = 1852\nvalue = [1226, 626]"] ;
130 -> 131 ;
132 [label="X[2365] <= 0.5\nentropy = 0.923\nsamples = 1851\nvalue = [1226, 625]"] ;
131 -> 132 ;
133 [label="X[4259] <= 0.5\nentropy = 0.922\nsamples = 1849\nvalue = [1226, 623]"] ;
132 -> 133 ;
134 [label="X[2939] <= 0.5\nentropy = 0.922\nsamples = 1848\nvalue = [1225, 623]"] ;
133 -> 134 ;
135 [label="X[1701] <= 0.5\nentropy = 0.922\nsamples = 1847\nvalue = [1225, 622]"] ;
134 -> 135 ;
136 [label="X[299] <= 0.5\nentropy = 0.921\nsamples = 1845\nvalue = [1225, 620]"] ;
135 -> 136 ;
137 [label="X[2640] <= 0.5\nentropy = 0.92\nsamples = 1843\nvalue = [1225, 618]"] ;
136 -> 137 ;
138 [label="X[239] <= 0.5\nentropy = 0.92\nsamples = 1842\nvalue = [1224, 618]"] ;
137 -> 138 ;
139 [label="X[2684] <= 0.5\nentropy = 0.911\nsamples = 1798\nvalue = [1211, 587]"] ;
138 -> 139 ;
140 [label="X[2324] <= 0.5\nentropy = 0.911\nsamples = 1797\nvalue = [1211, 586]"] ;
139 -> 140 ;
141 [label="X[2021] <= 0.5\nentropy = 0.912\nsamples = 1790\nvalue = [1204, 586]"] ;
140 -> 141 ;
142 [label="X[4487] <= 0.5\nentropy = 0.912\nsamples = 1789\nvalue = [1204, 585]"] ;
141 -> 142 ;
143 [label="X[4759] <= 0.5\nentropy = 0.912\nsamples = 1788\nvalue = [1203, 585]"] ;
142 -> 143 ;
144 [label="X[184] <= 0.5\nentropy = 0.912\nsamples = 1787\nvalue = [1202, 585]"] ;
143 -> 144 ;
145 [label="X[2008] <= 0.5\nentropy = 0.911\nsamples = 1783\nvalue = [1202, 581]"] ;
144 -> 145 ;
146 [label="X[3064] <= 0.5\nentropy = 0.91\nsamples = 1782\nvalue = [1202, 580]"] ;
145 -> 146 ;
147 [label="X[1285] <= 0.5\nentropy = 0.91\nsamples = 1781\nvalue = [1202, 579]"] ;
146 -> 147 ;
148 [label="X[2086] <= 0.5\nentropy = 0.909\nsamples = 1780\nvalue = [1202, 578]"] ;
147 -> 148 ;
149 [label="X[1948] <= 0.5\nentropy = 0.909\nsamples = 1778\nvalue = [1202, 576]"] ;
148 -> 149 ;
150 [label="X[988] <= 0.5\nentropy = 0.908\nsamples = 1777\nvalue = [1202, 575]"] ;
149 -> 150 ;
151 [label="X[4418] <= 0.5\nentropy = 0.908\nsamples = 1776\nvalue = [1202, 574]"] ;
150 -> 151 ;
152 [label="X[228] <= 0.5\nentropy = 0.908\nsamples = 1775\nvalue = [1201, 574]"] ;
151 -> 152 ;
153 [label="X[501] <= 0.5\nentropy = 0.904\nsamples = 1748\nvalue = [1190, 558]"] ;
152 -> 153 ;
154 [label="X[2717] <= 0.5\nentropy = 0.903\nsamples = 1747\nvalue = [1190, 557]"] ;
153 -> 154 ;
155 [label="X[538] <= 0.5\nentropy = 0.903\nsamples = 1746\nvalue = [1190, 556]"] ;
154 -> 155 ;
156 [label="X[2126] <= 0.5\nentropy = 0.898\nsamples = 1732\nvalue = [1187, 545]"] ;
155 -> 156 ;
157 [label="X[1578] <= 0.5\nentropy = 0.897\nsamples = 1729\nvalue = [1187, 542]"] ;
156 -> 157 ;
158 [label="X[380] <= 0.5\nentropy = 0.899\nsamples = 1717\nvalue = [1176, 541]"] ;
157 -> 158 ;
159 [label="X[267] <= 0.5\nentropy = 0.899\nsamples = 1716\nvalue = [1176, 540]"] ;
158 -> 159 ;
160 [label="X[2924] <= 0.5\nentropy = 0.894\nsamples = 1700\nvalue = [1172, 528]"] ;
159 -> 160 ;
161 [label="X[4315] <= 0.5\nentropy = 0.893\nsamples = 1699\nvalue = [1172, 527]"] ;
160 -> 161 ;
162 [label="X[4104] <= 0.5\nentropy = 0.894\nsamples = 1695\nvalue = [1168, 527]"] ;
161 -> 162 ;
163 [label="X[532] <= 0.5\nentropy = 0.895\nsamples = 1691\nvalue = [1164, 527]"] ;
162 -> 163 ;
164 [label="X[1399] <= 0.5\nentropy = 0.894\nsamples = 1684\nvalue = [1161, 523]"] ;
163 -> 164 ;
165 [label="X[2241] <= 0.5\nentropy = 0.893\nsamples = 1683\nvalue = [1161, 522]"] ;
164 -> 165 ;
166 [label="X[5701] <= 0.5\nentropy = 0.893\nsamples = 1682\nvalue = [1161, 521]"] ;
165 -> 166 ;
167 [label="X[1197] <= 0.5\nentropy = 0.893\nsamples = 1681\nvalue = [1160, 521]"] ;
166 -> 167 ;
168 [label="X[3609] <= 0.5\nentropy = 0.892\nsamples = 1674\nvalue = [1157, 517]"] ;
167 -> 168 ;
169 [label="X[4282] <= 0.5\nentropy = 0.891\nsamples = 1673\nvalue = [1157, 516]"] ;
168 -> 169 ;
170 [label="X[2737] <= 0.5\nentropy = 0.892\nsamples = 1672\nvalue = [1156, 516]"] ;
169 -> 170 ;
171 [label="X[85] <= 0.5\nentropy = 0.891\nsamples = 1670\nvalue = [1155, 515]"] ;
170 -> 171 ;
172 [label="X[718] <= 0.5\nentropy = 0.885\nsamples = 1642\nvalue = [1144, 498]"] ;
171 -> 172 ;
173 [label="X[3216] <= 0.5\nentropy = 0.885\nsamples = 1641\nvalue = [1144, 497]"] ;
172 -> 173 ;
174 [label="X[2638] <= 0.5\nentropy = 0.884\nsamples = 1640\nvalue = [1144, 496]"] ;
173 -> 174 ;
175 [label="X[3405] <= 0.5\nentropy = 0.884\nsamples = 1639\nvalue = [1144, 495]"] ;
174 -> 175 ;
176 [label="X[5065] <= 0.5\nentropy = 0.883\nsamples = 1638\nvalue = [1144, 494]"] ;
175 -> 176 ;
177 [label="X[2204] <= 0.5\nentropy = 0.883\nsamples = 1637\nvalue = [1143, 494]"] ;
176 -> 177 ;
178 [label="X[4452] <= 0.5\nentropy = 0.883\nsamples = 1636\nvalue = [1143, 493]"] ;
177 -> 178 ;
179 [label="X[2493] <= 0.5\nentropy = 0.883\nsamples = 1635\nvalue = [1142, 493]"] ;
178 -> 179 ;
180 [label="X[147] <= 0.5\nentropy = 0.884\nsamples = 1632\nvalue = [1139, 493]"] ;
179 -> 180 ;
181 [label="X[682] <= 0.5\nentropy = 0.883\nsamples = 1631\nvalue = [1139, 492]"] ;
180 -> 181 ;
182 [label="X[2182] <= 0.5\nentropy = 0.882\nsamples = 1625\nvalue = [1136, 489]"] ;
181 -> 182 ;
183 [label="X[4625] <= 0.5\nentropy = 0.882\nsamples = 1624\nvalue = [1136, 488]"] ;
182 -> 183 ;
184 [label="X[1966] <= 0.5\nentropy = 0.882\nsamples = 1623\nvalue = [1135, 488]"] ;
183 -> 184 ;
185 [label="X[3127] <= 0.5\nentropy = 0.881\nsamples = 1620\nvalue = [1135, 485]"] ;
184 -> 185 ;
186 [label="X[1707] <= 0.5\nentropy = 0.88\nsamples = 1619\nvalue = [1135, 484]"] ;
185 -> 186 ;
187 [label="X[2636] <= 0.5\nentropy = 0.879\nsamples = 1617\nvalue = [1135, 482]"] ;
186 -> 187 ;
188 [label="X[3486] <= 0.5\nentropy = 0.878\nsamples = 1612\nvalue = [1133, 479]"] ;
187 -> 188 ;
189 [label="X[262] <= 0.5\nentropy = 0.877\nsamples = 1611\nvalue = [1133, 478]"] ;
188 -> 189 ;
190 [label="X[2030] <= 0.5\nentropy = 0.876\nsamples = 1607\nvalue = [1132, 475]"] ;
189 -> 190 ;
191 [label="X[3002] <= 0.5\nentropy = 0.875\nsamples = 1606\nvalue = [1132, 474]"] ;
190 -> 191 ;
192 [label="X[5574] <= 0.5\nentropy = 0.876\nsamples = 1605\nvalue = [1131, 474]"] ;
191 -> 192 ;
193 [label="X[4335] <= 0.5\nentropy = 0.876\nsamples = 1604\nvalue = [1130, 474]"] ;
192 -> 193 ;
194 [label="X[55] <= 0.5\nentropy = 0.876\nsamples = 1603\nvalue = [1129, 474]"] ;
193 -> 194 ;
195 [label="X[4339] <= 0.5\nentropy = 0.87\nsamples = 1564\nvalue = [1109, 455]"] ;
194 -> 195 ;
196 [label="X[1456] <= 0.5\nentropy = 0.87\nsamples = 1563\nvalue = [1108, 455]"] ;
195 -> 196 ;
197 [label="X[1982] <= 0.5\nentropy = 0.87\nsamples = 1562\nvalue = [1108, 454]"] ;
196 -> 197 ;
198 [label="X[5188] <= 0.5\nentropy = 0.868\nsamples = 1560\nvalue = [1108, 452]"] ;
197 -> 198 ;
199 [label="X[109] <= 0.5\nentropy = 0.869\nsamples = 1559\nvalue = [1107, 452]"] ;
198 -> 199 ;
200 [label="X[900] <= 0.5\nentropy = 0.867\nsamples = 1556\nvalue = [1107, 449]"] ;
199 -> 200 ;
201 [label="X[1737] <= 0.5\nentropy = 0.866\nsamples = 1555\nvalue = [1107, 448]"] ;
200 -> 201 ;
202 [label="X[586] <= 0.5\nentropy = 0.868\nsamples = 1549\nvalue = [1101, 448]"] ;
201 -> 202 ;
203 [label="X[2144] <= 0.5\nentropy = 0.867\nsamples = 1548\nvalue = [1101, 447]"] ;
202 -> 203 ;
204 [label="X[685] <= 0.5\nentropy = 0.867\nsamples = 1547\nvalue = [1101, 446]"] ;
203 -> 204 ;
205 [label="X[1644] <= 0.5\nentropy = 0.868\nsamples = 1542\nvalue = [1096, 446]"] ;
204 -> 205 ;
206 [label="X[136] <= 0.5\nentropy = 0.867\nsamples = 1541\nvalue = [1096, 445]"] ;
205 -> 206 ;
207 [label="X[1284] <= 0.5\nentropy = 0.866\nsamples = 1538\nvalue = [1095, 443]"] ;
206 -> 207 ;
208 [label="X[4429] <= 0.5\nentropy = 0.867\nsamples = 1534\nvalue = [1091, 443]"] ;
207 -> 208 ;
209 [label="X[5366] <= 0.5\nentropy = 0.868\nsamples = 1532\nvalue = [1089, 443]"] ;
208 -> 209 ;
210 [label="X[3371] <= 0.5\nentropy = 0.868\nsamples = 1531\nvalue = [1088, 443]"] ;
209 -> 210 ;
211 [label="X[4437] <= 0.5\nentropy = 0.868\nsamples = 1529\nvalue = [1086, 443]"] ;
210 -> 211 ;
212 [label="X[2188] <= 0.5\nentropy = 0.869\nsamples = 1528\nvalue = [1085, 443]"] ;
211 -> 212 ;
213 [label="X[3784] <= 0.5\nentropy = 0.867\nsamples = 1526\nvalue = [1085, 441]"] ;
212 -> 213 ;
214 [label="X[4993] <= 0.5\nentropy = 0.869\nsamples = 1521\nvalue = [1080, 441]"] ;
213 -> 214 ;
215 [label="X[5446] <= 0.5\nentropy = 0.869\nsamples = 1520\nvalue = [1079, 441]"] ;
214 -> 215 ;
216 [label="X[1402] <= 0.5\nentropy = 0.869\nsamples = 1519\nvalue = [1078, 441]"] ;
215 -> 216 ;
217 [label="X[2330] <= 0.5\nentropy = 0.869\nsamples = 1518\nvalue = [1078, 440]"] ;
216 -> 217 ;
218 [label="X[1826] <= 0.5\nentropy = 0.868\nsamples = 1517\nvalue = [1078, 439]"] ;
217 -> 218 ;
219 [label="X[940] <= 0.5\nentropy = 0.867\nsamples = 1515\nvalue = [1078, 437]"] ;
218 -> 219 ;
220 [label="X[96] <= 0.5\nentropy = 0.866\nsamples = 1512\nvalue = [1077, 435]"] ;
219 -> 220 ;
221 [label="X[3906] <= 0.5\nentropy = 0.864\nsamples = 1510\nvalue = [1077, 433]"] ;
220 -> 221 ;
222 [label="X[2243] <= 0.5\nentropy = 0.865\nsamples = 1509\nvalue = [1076, 433]"] ;
221 -> 222 ;
223 [label="X[2140] <= 0.5\nentropy = 0.865\nsamples = 1507\nvalue = [1074, 433]"] ;
222 -> 223 ;
224 [label="X[5580] <= 0.5\nentropy = 0.865\nsamples = 1506\nvalue = [1074, 432]"] ;
223 -> 224 ;
225 [label="X[191] <= 0.5\nentropy = 0.865\nsamples = 1505\nvalue = [1073, 432]"] ;
224 -> 225 ;
226 [label="X[890] <= 0.5\nentropy = 0.864\nsamples = 1503\nvalue = [1072, 431]"] ;
225 -> 226 ;
227 [label="X[4152] <= 0.5\nentropy = 0.864\nsamples = 1502\nvalue = [1072, 430]"] ;
226 -> 227 ;
228 [label="X[2297] <= 0.5\nentropy = 0.864\nsamples = 1501\nvalue = [1071, 430]"] ;
227 -> 228 ;
229 [label="X[162] <= 0.5\nentropy = 0.863\nsamples = 1500\nvalue = [1071, 429]"] ;
228 -> 229 ;
230 [label="X[3775] <= 0.5\nentropy = 0.864\nsamples = 1499\nvalue = [1070, 429]"] ;
229 -> 230 ;
231 [label="X[1650] <= 0.5\nentropy = 0.864\nsamples = 1498\nvalue = [1069, 429]"] ;
230 -> 231 ;
232 [label="X[2004] <= 0.5\nentropy = 0.863\nsamples = 1497\nvalue = [1069, 428]"] ;
231 -> 232 ;
233 [label="X[4592] <= 0.5\nentropy = 0.864\nsamples = 1496\nvalue = [1068, 428]"] ;
232 -> 233 ;
234 [label="X[5498] <= 0.5\nentropy = 0.864\nsamples = 1495\nvalue = [1067, 428]"] ;
233 -> 234 ;
235 [label="X[5606] <= 0.5\nentropy = 0.864\nsamples = 1493\nvalue = [1065, 428]"] ;
234 -> 235 ;
236 [label="X[82] <= 0.5\nentropy = 0.865\nsamples = 1492\nvalue = [1064, 428]"] ;
235 -> 236 ;
237 [label="X[5717] <= 0.5\nentropy = 0.863\nsamples = 1487\nvalue = [1062, 425]"] ;
236 -> 237 ;
238 [label="X[3099] <= 0.5\nentropy = 0.864\nsamples = 1486\nvalue = [1061, 425]"] ;
237 -> 238 ;
239 [label="X[1941] <= 0.5\nentropy = 0.863\nsamples = 1485\nvalue = [1061, 424]"] ;
238 -> 239 ;
240 [label="X[4978] <= 0.5\nentropy = 0.862\nsamples = 1484\nvalue = [1061, 423]"] ;
239 -> 240 ;
241 [label="X[3632] <= 0.5\nentropy = 0.862\nsamples = 1483\nvalue = [1060, 423]"] ;
240 -> 241 ;
242 [label="X[545] <= 0.5\nentropy = 0.862\nsamples = 1482\nvalue = [1060, 422]"] ;
241 -> 242 ;
243 [label="X[371] <= 0.5\nentropy = 0.861\nsamples = 1481\nvalue = [1060, 421]"] ;
242 -> 243 ;
244 [label="X[3830] <= 0.5\nentropy = 0.858\nsamples = 1467\nvalue = [1054, 413]"] ;
243 -> 244 ;
245 [label="X[1319] <= 0.5\nentropy = 0.858\nsamples = 1466\nvalue = [1053, 413]"] ;
244 -> 245 ;
246 [label="X[5607] <= 0.5\nentropy = 0.857\nsamples = 1465\nvalue = [1053, 412]"] ;
245 -> 246 ;
247 [label="X[3462] <= 0.5\nentropy = 0.857\nsamples = 1464\nvalue = [1052, 412]"] ;
246 -> 247 ;
248 [label="X[566] <= 0.5\nentropy = 0.857\nsamples = 1463\nvalue = [1052, 411]"] ;
247 -> 248 ;
249 [label="X[3957] <= 0.5\nentropy = 0.856\nsamples = 1462\nvalue = [1052, 410]"] ;
248 -> 249 ;
250 [label="X[2226] <= 0.5\nentropy = 0.856\nsamples = 1461\nvalue = [1051, 410]"] ;
249 -> 250 ;
251 [label="X[5415] <= 0.5\nentropy = 0.856\nsamples = 1460\nvalue = [1051, 409]"] ;
250 -> 251 ;
252 [label="X[4726] <= 0.5\nentropy = 0.856\nsamples = 1459\nvalue = [1050, 409]"] ;
251 -> 252 ;
253 [label="X[5336] <= 0.5\nentropy = 0.856\nsamples = 1458\nvalue = [1049, 409]"] ;
252 -> 253 ;
254 [label="X[493] <= 0.5\nentropy = 0.856\nsamples = 1457\nvalue = [1048, 409]"] ;
253 -> 254 ;
255 [label="X[1392] <= 0.5\nentropy = 0.855\nsamples = 1455\nvalue = [1048, 407]"] ;
254 -> 255 ;
256 [label="X[2400] <= 0.5\nentropy = 0.854\nsamples = 1454\nvalue = [1048, 406]"] ;
255 -> 256 ;
257 [label="X[1531] <= 0.5\nentropy = 0.854\nsamples = 1453\nvalue = [1048, 405]"] ;
256 -> 257 ;
258 [label="X[2869] <= 0.5\nentropy = 0.85\nsamples = 1435\nvalue = [1039, 396]"] ;
257 -> 258 ;
259 [label="X[1866] <= 0.5\nentropy = 0.85\nsamples = 1434\nvalue = [1038, 396]"] ;
258 -> 259 ;
260 [label="X[1106] <= 0.5\nentropy = 0.849\nsamples = 1432\nvalue = [1038, 394]"] ;
259 -> 260 ;
261 [label="X[4350] <= 0.5\nentropy = 0.848\nsamples = 1429\nvalue = [1037, 392]"] ;
260 -> 261 ;
262 [label="X[4217] <= 0.5\nentropy = 0.848\nsamples = 1426\nvalue = [1034, 392]"] ;
261 -> 262 ;
263 [label="X[1551] <= 0.5\nentropy = 0.849\nsamples = 1425\nvalue = [1033, 392]"] ;
262 -> 263 ;
264 [label="X[4052] <= 0.5\nentropy = 0.848\nsamples = 1424\nvalue = [1033, 391]"] ;
263 -> 264 ;
265 [label="X[1803] <= 0.5\nentropy = 0.848\nsamples = 1423\nvalue = [1032, 391]"] ;
264 -> 265 ;
266 [label="X[2500] <= 0.5\nentropy = 0.849\nsamples = 1419\nvalue = [1028, 391]"] ;
265 -> 266 ;
267 [label="X[5001] <= 0.5\nentropy = 0.85\nsamples = 1414\nvalue = [1024, 390]"] ;
266 -> 267 ;
268 [label="X[4027] <= 0.5\nentropy = 0.85\nsamples = 1413\nvalue = [1023, 390]"] ;
267 -> 268 ;
269 [label="X[3160] <= 0.5\nentropy = 0.85\nsamples = 1411\nvalue = [1021, 390]"] ;
268 -> 269 ;
270 [label="X[4988] <= 0.5\nentropy = 0.85\nsamples = 1410\nvalue = [1021, 389]"] ;
269 -> 270 ;
271 [label="X[4549] <= 0.5\nentropy = 0.85\nsamples = 1409\nvalue = [1020, 389]"] ;
270 -> 271 ;
272 [label="X[17] <= 0.5\nentropy = 0.85\nsamples = 1408\nvalue = [1019, 389]"] ;
271 -> 272 ;
273 [label="X[1880] <= 0.5\nentropy = 0.85\nsamples = 1407\nvalue = [1019, 388]"] ;
272 -> 273 ;
274 [label="X[4365] <= 0.5\nentropy = 0.853\nsamples = 1396\nvalue = [1008, 388]"] ;
273 -> 274 ;
275 [label="X[5491] <= 0.5\nentropy = 0.853\nsamples = 1394\nvalue = [1006, 388]"] ;
274 -> 275 ;
276 [label="X[1549] <= 0.5\nentropy = 0.853\nsamples = 1393\nvalue = [1005, 388]"] ;
275 -> 276 ;
277 [label="X[3778] <= 0.5\nentropy = 0.853\nsamples = 1392\nvalue = [1005, 387]"] ;
276 -> 277 ;
278 [label="X[3915] <= 0.5\nentropy = 0.856\nsamples = 1380\nvalue = [993, 387]"] ;
277 -> 278 ;
279 [label="X[1545] <= 0.5\nentropy = 0.856\nsamples = 1379\nvalue = [992, 387]"] ;
278 -> 279 ;
280 [label="X[3095] <= 0.5\nentropy = 0.856\nsamples = 1378\nvalue = [992, 386]"] ;
279 -> 280 ;
281 [label="X[5772] <= 0.5\nentropy = 0.855\nsamples = 1377\nvalue = [992, 385]"] ;
280 -> 281 ;
282 [label="X[4878] <= 0.5\nentropy = 0.855\nsamples = 1376\nvalue = [991, 385]"] ;
281 -> 282 ;
283 [label="X[314] <= 0.5\nentropy = 0.855\nsamples = 1375\nvalue = [990, 385]"] ;
282 -> 283 ;
284 [label="X[2257] <= 0.5\nentropy = 0.855\nsamples = 1373\nvalue = [989, 384]"] ;
283 -> 284 ;
285 [label="X[3316] <= 0.5\nentropy = 0.855\nsamples = 1372\nvalue = [988, 384]"] ;
284 -> 285 ;
286 [label="X[2810] <= 0.5\nentropy = 0.855\nsamples = 1371\nvalue = [988, 383]"] ;
285 -> 286 ;
287 [label="X[2095] <= 0.5\nentropy = 0.854\nsamples = 1370\nvalue = [988, 382]"] ;
286 -> 287 ;
288 [label="X[2897] <= 0.5\nentropy = 0.853\nsamples = 1369\nvalue = [988, 381]"] ;
287 -> 288 ;
289 [label="X[554] <= 0.5\nentropy = 0.852\nsamples = 1368\nvalue = [988, 380]"] ;
288 -> 289 ;
290 [label="X[1364] <= 0.5\nentropy = 0.852\nsamples = 1367\nvalue = [988, 379]"] ;
289 -> 290 ;
291 [label="X[2475] <= 0.5\nentropy = 0.851\nsamples = 1366\nvalue = [988, 378]"] ;
290 -> 291 ;
292 [label="X[2818] <= 0.5\nentropy = 0.852\nsamples = 1364\nvalue = [986, 378]"] ;
291 -> 292 ;
293 [label="X[1099] <= 0.5\nentropy = 0.851\nsamples = 1363\nvalue = [986, 377]"] ;
292 -> 293 ;
294 [label="X[3056] <= 0.5\nentropy = 0.851\nsamples = 1361\nvalue = [984, 377]"] ;
293 -> 294 ;
295 [label="X[2449] <= 0.5\nentropy = 0.851\nsamples = 1360\nvalue = [984, 376]"] ;
294 -> 295 ;
296 [label="X[4624] <= 0.5\nentropy = 0.85\nsamples = 1358\nvalue = [983, 375]"] ;
295 -> 296 ;
297 [label="X[5268] <= 0.5\nentropy = 0.85\nsamples = 1357\nvalue = [982, 375]"] ;
296 -> 297 ;
298 [label="X[458] <= 0.5\nentropy = 0.851\nsamples = 1354\nvalue = [979, 375]"] ;
297 -> 298 ;
299 [label="X[2716] <= 0.5\nentropy = 0.851\nsamples = 1353\nvalue = [979, 374]"] ;
298 -> 299 ;
300 [label="X[3588] <= 0.5\nentropy = 0.851\nsamples = 1352\nvalue = [978, 374]"] ;
299 -> 300 ;
301 [label="X[1218] <= 0.5\nentropy = 0.85\nsamples = 1351\nvalue = [978, 373]"] ;
300 -> 301 ;
302 [label="X[3586] <= 0.5\nentropy = 0.846\nsamples = 1345\nvalue = [978, 367]"] ;
301 -> 302 ;
303 [label="X[5696] <= 0.5\nentropy = 0.846\nsamples = 1343\nvalue = [976, 367]"] ;
302 -> 303 ;
304 [label="X[2528] <= 0.5\nentropy = 0.846\nsamples = 1342\nvalue = [975, 367]"] ;
303 -> 304 ;
305 [label="X[678] <= 0.5\nentropy = 0.848\nsamples = 1337\nvalue = [970, 367]"] ;
304 -> 305 ;
306 [label="X[287] <= 0.5\nentropy = 0.847\nsamples = 1336\nvalue = [970, 366]"] ;
305 -> 306 ;
307 [label="X[5030] <= 0.5\nentropy = 0.846\nsamples = 1335\nvalue = [970, 365]"] ;
306 -> 307 ;
308 [label="X[4407] <= 0.5\nentropy = 0.847\nsamples = 1331\nvalue = [966, 365]"] ;
307 -> 308 ;
309 [label="X[1046] <= 0.5\nentropy = 0.848\nsamples = 1329\nvalue = [964, 365]"] ;
308 -> 309 ;
310 [label="X[4810] <= 0.5\nentropy = 0.847\nsamples = 1328\nvalue = [964, 364]"] ;
309 -> 310 ;
311 [label="X[3520] <= 0.5\nentropy = 0.848\nsamples = 1327\nvalue = [963, 364]"] ;
310 -> 311 ;
312 [label="X[813] <= 0.5\nentropy = 0.847\nsamples = 1326\nvalue = [963, 363]"] ;
311 -> 312 ;
313 [label="X[4818] <= 0.5\nentropy = 0.846\nsamples = 1325\nvalue = [963, 362]"] ;
312 -> 313 ;
314 [label="X[1761] <= 0.5\nentropy = 0.846\nsamples = 1324\nvalue = [962, 362]"] ;
313 -> 314 ;
315 [label="X[3787] <= 0.5\nentropy = 0.845\nsamples = 1321\nvalue = [961, 360]"] ;
314 -> 315 ;
316 [label="X[227] <= 0.5\nentropy = 0.845\nsamples = 1320\nvalue = [960, 360]"] ;
315 -> 316 ;
317 [label="X[3526] <= 0.5\nentropy = 0.846\nsamples = 1318\nvalue = [958, 360]"] ;
316 -> 317 ;
318 [label="X[1585] <= 0.5\nentropy = 0.845\nsamples = 1317\nvalue = [958, 359]"] ;
317 -> 318 ;
319 [label="X[1533] <= 0.5\nentropy = 0.844\nsamples = 1314\nvalue = [957, 357]"] ;
318 -> 319 ;
320 [label="X[1732] <= 0.5\nentropy = 0.842\nsamples = 1309\nvalue = [955, 354]"] ;
319 -> 320 ;
321 [label="X[2540] <= 0.5\nentropy = 0.843\nsamples = 1307\nvalue = [953, 354]"] ;
320 -> 321 ;
322 [label="X[4403] <= 0.5\nentropy = 0.843\nsamples = 1306\nvalue = [952, 354]"] ;
321 -> 322 ;
323 [label="X[5304] <= 0.5\nentropy = 0.844\nsamples = 1303\nvalue = [949, 354]"] ;
322 -> 323 ;
324 [label="X[761] <= 0.5\nentropy = 0.844\nsamples = 1302\nvalue = [948, 354]"] ;
323 -> 324 ;
325 [label="X[4732] <= 0.5\nentropy = 0.843\nsamples = 1301\nvalue = [948, 353]"] ;
324 -> 325 ;
326 [label="X[2445] <= 0.5\nentropy = 0.844\nsamples = 1300\nvalue = [947, 353]"] ;
325 -> 326 ;
327 [label="X[1546] <= 0.5\nentropy = 0.843\nsamples = 1299\nvalue = [947, 352]"] ;
326 -> 327 ;
328 [label="X[2036] <= 0.5\nentropy = 0.842\nsamples = 1296\nvalue = [946, 350]"] ;
327 -> 328 ;
329 [label="X[73] <= 0.5\nentropy = 0.841\nsamples = 1295\nvalue = [946, 349]"] ;
328 -> 329 ;
330 [label="X[3430] <= 0.5\nentropy = 0.839\nsamples = 1293\nvalue = [946, 347]"] ;
329 -> 330 ;
331 [label="X[5538] <= 0.5\nentropy = 0.838\nsamples = 1292\nvalue = [946, 346]"] ;
330 -> 331 ;
332 [label="X[4823] <= 0.5\nentropy = 0.839\nsamples = 1290\nvalue = [944, 346]"] ;
331 -> 332 ;
333 [label="X[3671] <= 0.5\nentropy = 0.839\nsamples = 1289\nvalue = [943, 346]"] ;
332 -> 333 ;
334 [label="X[2989] <= 0.5\nentropy = 0.838\nsamples = 1288\nvalue = [943, 345]"] ;
333 -> 334 ;
335 [label="X[2533] <= 0.5\nentropy = 0.838\nsamples = 1287\nvalue = [943, 344]"] ;
334 -> 335 ;
336 [label="X[2102] <= 0.5\nentropy = 0.837\nsamples = 1286\nvalue = [943, 343]"] ;
335 -> 336 ;
337 [label="X[3561] <= 0.5\nentropy = 0.836\nsamples = 1285\nvalue = [943, 342]"] ;
336 -> 337 ;
338 [label="X[4322] <= 0.5\nentropy = 0.835\nsamples = 1284\nvalue = [943, 341]"] ;
337 -> 338 ;
339 [label="X[3603] <= 0.5\nentropy = 0.836\nsamples = 1281\nvalue = [940, 341]"] ;
338 -> 339 ;
340 [label="X[3842] <= 0.5\nentropy = 0.835\nsamples = 1280\nvalue = [940, 340]"] ;
339 -> 340 ;
341 [label="X[5355] <= 0.5\nentropy = 0.835\nsamples = 1279\nvalue = [939, 340]"] ;
340 -> 341 ;
342 [label="X[2797] <= 0.5\nentropy = 0.836\nsamples = 1278\nvalue = [938, 340]"] ;
341 -> 342 ;
343 [label="X[627] <= 0.5\nentropy = 0.834\nsamples = 1276\nvalue = [938, 338]"] ;
342 -> 343 ;
344 [label="X[4937] <= 0.5\nentropy = 0.833\nsamples = 1275\nvalue = [938, 337]"] ;
343 -> 344 ;
345 [label="X[4803] <= 0.5\nentropy = 0.833\nsamples = 1274\nvalue = [937, 337]"] ;
344 -> 345 ;
346 [label="X[419] <= 0.5\nentropy = 0.834\nsamples = 1273\nvalue = [936, 337]"] ;
345 -> 346 ;
347 [label="X[595] <= 0.5\nentropy = 0.834\nsamples = 1267\nvalue = [931, 336]"] ;
346 -> 347 ;
348 [label="X[1085] <= 0.5\nentropy = 0.833\nsamples = 1265\nvalue = [931, 334]"] ;
347 -> 348 ;
349 [label="X[823] <= 0.5\nentropy = 0.833\nsamples = 1264\nvalue = [930, 334]"] ;
348 -> 349 ;
350 [label="X[4124] <= 0.5\nentropy = 0.831\nsamples = 1262\nvalue = [930, 332]"] ;
349 -> 350 ;
351 [label="X[5673] <= 0.5\nentropy = 0.832\nsamples = 1259\nvalue = [927, 332]"] ;
350 -> 351 ;
352 [label="X[243] <= 0.5\nentropy = 0.833\nsamples = 1258\nvalue = [926, 332]"] ;
351 -> 352 ;
353 [label="X[1532] <= 0.5\nentropy = 0.833\nsamples = 1256\nvalue = [924, 332]"] ;
352 -> 353 ;
354 [label="X[764] <= 0.5\nentropy = 0.833\nsamples = 1253\nvalue = [922, 331]"] ;
353 -> 354 ;
355 [label="X[3267] <= 0.5\nentropy = 0.833\nsamples = 1244\nvalue = [915, 329]"] ;
354 -> 355 ;
356 [label="X[185] <= 0.5\nentropy = 0.833\nsamples = 1243\nvalue = [915, 328]"] ;
355 -> 356 ;
357 [label="X[3843] <= 0.5\nentropy = 0.829\nsamples = 1234\nvalue = [911, 323]"] ;
356 -> 357 ;
358 [label="X[1092] <= 0.5\nentropy = 0.83\nsamples = 1232\nvalue = [909, 323]"] ;
357 -> 358 ;
359 [label="X[5639] <= 0.5\nentropy = 0.832\nsamples = 1226\nvalue = [903, 323]"] ;
358 -> 359 ;
360 [label="X[1871] <= 0.5\nentropy = 0.832\nsamples = 1225\nvalue = [902, 323]"] ;
359 -> 360 ;
361 [label="X[2103] <= 0.5\nentropy = 0.831\nsamples = 1224\nvalue = [902, 322]"] ;
360 -> 361 ;
362 [label="X[3383] <= 0.5\nentropy = 0.83\nsamples = 1223\nvalue = [902, 321]"] ;
361 -> 362 ;
363 [label="X[5435] <= 0.5\nentropy = 0.83\nsamples = 1222\nvalue = [902, 320]"] ;
362 -> 363 ;
364 [label="X[1996] <= 0.5\nentropy = 0.83\nsamples = 1221\nvalue = [901, 320]"] ;
363 -> 364 ;
365 [label="X[1341] <= 0.5\nentropy = 0.834\nsamples = 1204\nvalue = [885, 319]"] ;
364 -> 365 ;
366 [label="X[1419] <= 0.5\nentropy = 0.833\nsamples = 1203\nvalue = [885, 318]"] ;
365 -> 366 ;
367 [label="X[3409] <= 0.5\nentropy = 0.833\nsamples = 1200\nvalue = [883, 317]"] ;
366 -> 367 ;
368 [label="X[5460] <= 0.5\nentropy = 0.832\nsamples = 1199\nvalue = [883, 316]"] ;
367 -> 368 ;
369 [label="X[5785] <= 0.5\nentropy = 0.832\nsamples = 1198\nvalue = [882, 316]"] ;
368 -> 369 ;
370 [label="X[3544] <= 0.5\nentropy = 0.833\nsamples = 1197\nvalue = [881, 316]"] ;
369 -> 370 ;
371 [label="X[3004] <= 0.5\nentropy = 0.832\nsamples = 1196\nvalue = [881, 315]"] ;
370 -> 371 ;
372 [label="X[331] <= 0.5\nentropy = 0.831\nsamples = 1195\nvalue = [881, 314]"] ;
371 -> 372 ;
373 [label="X[4884] <= 0.5\nentropy = 0.828\nsamples = 1189\nvalue = [879, 310]"] ;
372 -> 373 ;
374 [label="X[1093] <= 0.5\nentropy = 0.828\nsamples = 1188\nvalue = [878, 310]"] ;
373 -> 374 ;
375 [label="X[4524] <= 0.5\nentropy = 0.828\nsamples = 1178\nvalue = [871, 307]"] ;
374 -> 375 ;
376 [label="X[2335] <= 0.5\nentropy = 0.828\nsamples = 1176\nvalue = [869, 307]"] ;
375 -> 376 ;
377 [label="X[4834] <= 0.5\nentropy = 0.827\nsamples = 1175\nvalue = [869, 306]"] ;
376 -> 377 ;
378 [label="X[2427] <= 0.5\nentropy = 0.828\nsamples = 1174\nvalue = [868, 306]"] ;
377 -> 378 ;
379 [label="X[1332] <= 0.5\nentropy = 0.828\nsamples = 1173\nvalue = [867, 306]"] ;
378 -> 379 ;
380 [label="X[81] <= 0.5\nentropy = 0.826\nsamples = 1171\nvalue = [867, 304]"] ;
379 -> 380 ;
381 [label="X[3615] <= 0.5\nentropy = 0.755\nsamples = 1003\nvalue = [785, 218]"] ;
380 -> 381 ;
382 [label="X[1934] <= 0.5\nentropy = 0.754\nsamples = 1001\nvalue = [784, 217]"] ;
381 -> 382 ;
383 [label="X[4208] <= 0.5\nentropy = 0.755\nsamples = 999\nvalue = [782, 217]"] ;
382 -> 383 ;
384 [label="X[2914] <= 0.5\nentropy = 0.756\nsamples = 997\nvalue = [780, 217]"] ;
383 -> 384 ;
385 [label="X[4784] <= 0.5\nentropy = 0.755\nsamples = 995\nvalue = [779, 216]"] ;
384 -> 385 ;
386 [label="X[5327] <= 0.5\nentropy = 0.755\nsamples = 994\nvalue = [778, 216]"] ;
385 -> 386 ;
387 [label="X[1713] <= 0.5\nentropy = 0.756\nsamples = 993\nvalue = [777, 216]"] ;
386 -> 387 ;
388 [label="X[0] <= 0.5\nentropy = 0.754\nsamples = 992\nvalue = [777, 215]"] ;
387 -> 388 ;
389 [label="X[2555] <= 0.5\nentropy = 0.753\nsamples = 949\nvalue = [744, 205]"] ;
388 -> 389 ;
390 [label="X[728] <= 0.5\nentropy = 0.751\nsamples = 948\nvalue = [744, 204]"] ;
389 -> 390 ;
391 [label="X[4193] <= 0.5\nentropy = 0.748\nsamples = 946\nvalue = [744, 202]"] ;
390 -> 391 ;
392 [label="X[1766] <= 0.5\nentropy = 0.749\nsamples = 945\nvalue = [743, 202]"] ;
391 -> 392 ;
393 [label="X[5109] <= 0.5\nentropy = 0.748\nsamples = 941\nvalue = [740, 201]"] ;
392 -> 393 ;
394 [label="X[5289] <= 0.5\nentropy = 0.749\nsamples = 940\nvalue = [739, 201]"] ;
393 -> 394 ;
395 [label="X[4130] <= 0.5\nentropy = 0.749\nsamples = 939\nvalue = [738, 201]"] ;
394 -> 395 ;
396 [label="X[3125] <= 0.5\nentropy = 0.75\nsamples = 938\nvalue = [737, 201]"] ;
395 -> 396 ;
397 [label="X[971] <= 0.5\nentropy = 0.75\nsamples = 936\nvalue = [735, 201]"] ;
396 -> 397 ;
398 [label="X[4723] <= 0.5\nentropy = 0.751\nsamples = 935\nvalue = [734, 201]"] ;
397 -> 398 ;
399 [label="X[5583] <= 0.5\nentropy = 0.751\nsamples = 934\nvalue = [733, 201]"] ;
398 -> 399 ;
400 [label="X[3891] <= 0.5\nentropy = 0.752\nsamples = 933\nvalue = [732, 201]"] ;
399 -> 400 ;
401 [label="X[1069] <= 0.5\nentropy = 0.753\nsamples = 931\nvalue = [730, 201]"] ;
400 -> 401 ;
402 [label="X[2186] <= 0.5\nentropy = 0.753\nsamples = 930\nvalue = [729, 201]"] ;
401 -> 402 ;
403 [label="X[4095] <= 0.5\nentropy = 0.752\nsamples = 928\nvalue = [728, 200]"] ;
402 -> 403 ;
404 [label="X[1301] <= 0.5\nentropy = 0.752\nsamples = 927\nvalue = [727, 200]"] ;
403 -> 404 ;
405 [label="X[1144] <= 0.5\nentropy = 0.753\nsamples = 925\nvalue = [725, 200]"] ;
404 -> 405 ;
406 [label="X[1981] <= 0.5\nentropy = 0.755\nsamples = 920\nvalue = [720, 200]"] ;
405 -> 406 ;
407 [label="X[1010] <= 0.5\nentropy = 0.756\nsamples = 918\nvalue = [718, 200]"] ;
406 -> 407 ;
408 [label="X[3971] <= 0.5\nentropy = 0.755\nsamples = 917\nvalue = [718, 199]"] ;
407 -> 408 ;
409 [label="X[4601] <= 0.5\nentropy = 0.756\nsamples = 913\nvalue = [714, 199]"] ;
408 -> 409 ;
410 [label="X[2632] <= 0.5\nentropy = 0.757\nsamples = 912\nvalue = [713, 199]"] ;
409 -> 410 ;
411 [label="X[3736] <= 0.5\nentropy = 0.755\nsamples = 911\nvalue = [713, 198]"] ;
410 -> 411 ;
412 [label="X[1453] <= 0.5\nentropy = 0.756\nsamples = 910\nvalue = [712, 198]"] ;
411 -> 412 ;
413 [label="X[468] <= 0.5\nentropy = 0.758\nsamples = 904\nvalue = [706, 198]"] ;
412 -> 413 ;
414 [label="X[1870] <= 0.5\nentropy = 0.757\nsamples = 898\nvalue = [702, 196]"] ;
413 -> 414 ;
415 [label="X[1755] <= 0.5\nentropy = 0.757\nsamples = 897\nvalue = [701, 196]"] ;
414 -> 415 ;
416 [label="X[1075] <= 0.5\nentropy = 0.756\nsamples = 896\nvalue = [701, 195]"] ;
415 -> 416 ;
417 [label="X[4953] <= 0.5\nentropy = 0.76\nsamples = 887\nvalue = [692, 195]"] ;
416 -> 417 ;
418 [label="X[1646] <= 0.5\nentropy = 0.76\nsamples = 886\nvalue = [691, 195]"] ;
417 -> 418 ;
419 [label="X[418] <= 0.5\nentropy = 0.761\nsamples = 885\nvalue = [690, 195]"] ;
418 -> 419 ;
420 [label="X[432] <= 0.5\nentropy = 0.761\nsamples = 884\nvalue = [689, 195]"] ;
419 -> 420 ;
421 [label="X[591] <= 0.5\nentropy = 0.75\nsamples = 877\nvalue = [689, 188]"] ;
420 -> 421 ;
422 [label="X[1133] <= 0.5\nentropy = 0.746\nsamples = 875\nvalue = [689, 186]"] ;
421 -> 422 ;
423 [label="X[4719] <= 0.5\nentropy = 0.745\nsamples = 874\nvalue = [689, 185]"] ;
422 -> 423 ;
424 [label="X[2314] <= 0.5\nentropy = 0.745\nsamples = 873\nvalue = [688, 185]"] ;
423 -> 424 ;
425 [label="X[1372] <= 0.5\nentropy = 0.747\nsamples = 870\nvalue = [685, 185]"] ;
424 -> 425 ;
426 [label="X[2483] <= 0.5\nentropy = 0.747\nsamples = 869\nvalue = [684, 185]"] ;
425 -> 426 ;
427 [label="X[4555] <= 0.5\nentropy = 0.748\nsamples = 866\nvalue = [681, 185]"] ;
426 -> 427 ;
428 [label="X[2726] <= 0.5\nentropy = 0.75\nsamples = 863\nvalue = [678, 185]"] ;
427 -> 428 ;
429 [label="X[1503] <= 0.5\nentropy = 0.75\nsamples = 862\nvalue = [677, 185]"] ;
428 -> 429 ;
430 [label="X[1917] <= 0.5\nentropy = 0.749\nsamples = 860\nvalue = [676, 184]"] ;
429 -> 430 ;
431 [label="X[2389] <= 0.5\nentropy = 0.748\nsamples = 857\nvalue = [674, 183]"] ;
430 -> 431 ;
432 [label="X[4434] <= 0.5\nentropy = 0.752\nsamples = 849\nvalue = [666, 183]"] ;
431 -> 432 ;
433 [label="X[5053] <= 0.5\nentropy = 0.752\nsamples = 848\nvalue = [665, 183]"] ;
432 -> 433 ;
434 [label="X[408] <= 0.5\nentropy = 0.753\nsamples = 847\nvalue = [664, 183]"] ;
433 -> 434 ;
435 [label="X[4249] <= 0.5\nentropy = 0.751\nsamples = 846\nvalue = [664, 182]"] ;
434 -> 435 ;
436 [label="X[576] <= 0.5\nentropy = 0.752\nsamples = 844\nvalue = [662, 182]"] ;
435 -> 436 ;
437 [label="X[1939] <= 0.5\nentropy = 0.752\nsamples = 839\nvalue = [658, 181]"] ;
436 -> 437 ;
438 [label="X[2044] <= 0.5\nentropy = 0.745\nsamples = 835\nvalue = [658, 177]"] ;
437 -> 438 ;
439 [label="X[1882] <= 0.5\nentropy = 0.746\nsamples = 834\nvalue = [657, 177]"] ;
438 -> 439 ;
440 [label="X[368] <= 0.5\nentropy = 0.747\nsamples = 831\nvalue = [654, 177]"] ;
439 -> 440 ;
441 [label="X[1985] <= 0.5\nentropy = 0.745\nsamples = 826\nvalue = [651, 175]"] ;
440 -> 441 ;
442 [label="X[2081] <= 0.5\nentropy = 0.743\nsamples = 825\nvalue = [651, 174]"] ;
441 -> 442 ;
443 [label="X[5220] <= 0.5\nentropy = 0.741\nsamples = 824\nvalue = [651, 173]"] ;
442 -> 443 ;
444 [label="X[1756] <= 0.5\nentropy = 0.742\nsamples = 823\nvalue = [650, 173]"] ;
443 -> 444 ;
445 [label="X[4730] <= 0.5\nentropy = 0.74\nsamples = 822\nvalue = [650, 172]"] ;
444 -> 445 ;
446 [label="X[3720] <= 0.5\nentropy = 0.741\nsamples = 821\nvalue = [649, 172]"] ;
445 -> 446 ;
447 [label="X[377] <= 0.5\nentropy = 0.758\nsamples = 787\nvalue = [615, 172]"] ;
446 -> 447 ;
448 [label="X[4112] <= 0.5\nentropy = 0.753\nsamples = 778\nvalue = [610, 168]"] ;
447 -> 448 ;
449 [label="X[2590] <= 0.5\nentropy = 0.754\nsamples = 775\nvalue = [607, 168]"] ;
448 -> 449 ;
450 [label="X[4989] <= 0.5\nentropy = 0.752\nsamples = 774\nvalue = [607, 167]"] ;
449 -> 450 ;
451 [label="X[1660] <= 0.5\nentropy = 0.753\nsamples = 773\nvalue = [606, 167]"] ;
450 -> 451 ;
452 [label="X[4137] <= 0.5\nentropy = 0.751\nsamples = 772\nvalue = [606, 166]"] ;
451 -> 452 ;
453 [label="X[4893] <= 0.5\nentropy = 0.755\nsamples = 765\nvalue = [599, 166]"] ;
452 -> 453 ;
454 [label="X[1176] <= 0.5\nentropy = 0.755\nsamples = 764\nvalue = [598, 166]"] ;
453 -> 454 ;
455 [label="X[32] <= 0.5\nentropy = 0.758\nsamples = 758\nvalue = [592, 166]"] ;
454 -> 455 ;
456 [label="X[4877] <= 0.5\nentropy = 0.718\nsamples = 717\nvalue = [575, 142]"] ;
455 -> 456 ;
457 [label="X[5520] <= 0.5\nentropy = 0.719\nsamples = 716\nvalue = [574, 142]"] ;
456 -> 457 ;
458 [label="X[1261] <= 0.5\nentropy = 0.719\nsamples = 715\nvalue = [573, 142]"] ;
457 -> 458 ;
459 [label="X[1895] <= 0.5\nentropy = 0.72\nsamples = 713\nvalue = [571, 142]"] ;
458 -> 459 ;
460 [label="X[298] <= 0.5\nentropy = 0.722\nsamples = 709\nvalue = [567, 142]"] ;
459 -> 460 ;
461 [label="X[223] <= 0.5\nentropy = 0.724\nsamples = 687\nvalue = [549, 138]"] ;
460 -> 461 ;
462 [label="X[481] <= 0.5\nentropy = 0.726\nsamples = 673\nvalue = [537, 136]"] ;
461 -> 462 ;
463 [label="X[142] <= 0.5\nentropy = 0.724\nsamples = 672\nvalue = [537, 135]"] ;
462 -> 463 ;
464 [label="X[4773] <= 0.5\nentropy = 0.714\nsamples = 658\nvalue = [529, 129]"] ;
463 -> 464 ;
465 [label="X[4045] <= 0.5\nentropy = 0.715\nsamples = 657\nvalue = [528, 129]"] ;
464 -> 465 ;
466 [label="X[2018] <= 0.5\nentropy = 0.717\nsamples = 653\nvalue = [524, 129]"] ;
465 -> 466 ;
467 [label="X[189] <= 0.5\nentropy = 0.715\nsamples = 652\nvalue = [524, 128]"] ;
466 -> 467 ;
468 [label="X[1057] <= 0.5\nentropy = 0.715\nsamples = 651\nvalue = [523, 128]"] ;
467 -> 468 ;
469 [label="X[1760] <= 0.5\nentropy = 0.721\nsamples = 642\nvalue = [514, 128]"] ;
468 -> 469 ;
470 [label="X[1266] <= 0.5\nentropy = 0.718\nsamples = 641\nvalue = [514, 127]"] ;
469 -> 470 ;
471 [label="X[4957] <= 0.5\nentropy = 0.716\nsamples = 639\nvalue = [513, 126]"] ;
470 -> 471 ;
472 [label="X[3899] <= 0.5\nentropy = 0.717\nsamples = 638\nvalue = [512, 126]"] ;
471 -> 472 ;
473 [label="X[5316] <= 0.5\nentropy = 0.718\nsamples = 636\nvalue = [510, 126]"] ;
472 -> 473 ;
474 [label="X[277] <= 0.5\nentropy = 0.719\nsamples = 635\nvalue = [509, 126]"] ;
473 -> 474 ;
475 [label="X[2651] <= 0.5\nentropy = 0.717\nsamples = 633\nvalue = [508, 125]"] ;
474 -> 475 ;
476 [label="X[4150] <= 0.5\nentropy = 0.714\nsamples = 632\nvalue = [508, 124]"] ;
475 -> 476 ;
477 [label="X[364] <= 0.5\nentropy = 0.716\nsamples = 630\nvalue = [506, 124]"] ;
476 -> 477 ;
478 [label="X[617] <= 0.5\nentropy = 0.716\nsamples = 619\nvalue = [497, 122]"] ;
477 -> 478 ;
479 [label="X[3807] <= 0.5\nentropy = 0.719\nsamples = 615\nvalue = [493, 122]"] ;
478 -> 479 ;
480 [label="X[1215] <= 0.5\nentropy = 0.719\nsamples = 614\nvalue = [492, 122]"] ;
479 -> 480 ;
481 [label="X[1296] <= 0.5\nentropy = 0.717\nsamples = 613\nvalue = [492, 121]"] ;
480 -> 481 ;
482 [label="X[5524] <= 0.5\nentropy = 0.717\nsamples = 612\nvalue = [491, 121]"] ;
481 -> 482 ;
483 [label="X[2456] <= 0.5\nentropy = 0.718\nsamples = 611\nvalue = [490, 121]"] ;
482 -> 483 ;
484 [label="X[2072] <= 0.5\nentropy = 0.715\nsamples = 610\nvalue = [490, 120]"] ;
483 -> 484 ;
485 [label="X[2504] <= 0.5\nentropy = 0.717\nsamples = 608\nvalue = [488, 120]"] ;
484 -> 485 ;
486 [label="X[104] <= 0.5\nentropy = 0.712\nsamples = 605\nvalue = [487, 118]"] ;
485 -> 486 ;
487 [label="X[5370] <= 0.5\nentropy = 0.707\nsamples = 597\nvalue = [482, 115]"] ;
486 -> 487 ;
488 [label="X[4639] <= 0.5\nentropy = 0.708\nsamples = 596\nvalue = [481, 115]"] ;
487 -> 488 ;
489 [label="X[2239] <= 0.5\nentropy = 0.708\nsamples = 595\nvalue = [480, 115]"] ;
488 -> 489 ;
490 [label="X[2678] <= 0.5\nentropy = 0.705\nsamples = 594\nvalue = [480, 114]"] ;
489 -> 490 ;
491 [label="X[2510] <= 0.5\nentropy = 0.706\nsamples = 593\nvalue = [479, 114]"] ;
490 -> 491 ;
492 [label="X[675] <= 0.5\nentropy = 0.707\nsamples = 592\nvalue = [478, 114]"] ;
491 -> 492 ;
493 [label="X[447] <= 0.5\nentropy = 0.704\nsamples = 591\nvalue = [478, 113]"] ;
492 -> 493 ;
494 [label="X[4503] <= 0.5\nentropy = 0.705\nsamples = 589\nvalue = [476, 113]"] ;
493 -> 494 ;
495 [label="X[333] <= 0.5\nentropy = 0.706\nsamples = 588\nvalue = [475, 113]"] ;
494 -> 495 ;
496 [label="X[526] <= 0.5\nentropy = 0.707\nsamples = 586\nvalue = [473, 113]"] ;
495 -> 496 ;
497 [label="X[118] <= 0.5\nentropy = 0.707\nsamples = 581\nvalue = [469, 112]"] ;
496 -> 497 ;
498 [label="X[787] <= 0.5\nentropy = 0.735\nsamples = 513\nvalue = [407, 106]"] ;
497 -> 498 ;
499 [label="X[2150] <= 0.5\nentropy = 0.732\nsamples = 512\nvalue = [407, 105]"] ;
498 -> 499 ;
500 [label="X[3771] <= 0.5\nentropy = 0.729\nsamples = 511\nvalue = [407, 104]"] ;
499 -> 500 ;
501 [label="X[570] <= 0.5\nentropy = 0.73\nsamples = 510\nvalue = [406, 104]"] ;
500 -> 501 ;
502 [label="X[5740] <= 0.5\nentropy = 0.727\nsamples = 509\nvalue = [406, 103]"] ;
501 -> 502 ;
503 [label="X[1802] <= 0.5\nentropy = 0.727\nsamples = 508\nvalue = [405, 103]"] ;
502 -> 503 ;
504 [label="X[4942] <= 0.5\nentropy = 0.728\nsamples = 507\nvalue = [404, 103]"] ;
503 -> 504 ;
505 [label="X[111] <= 0.5\nentropy = 0.729\nsamples = 506\nvalue = [403, 103]"] ;
504 -> 505 ;
506 [label="X[3836] <= 0.5\nentropy = 0.73\nsamples = 505\nvalue = [402, 103]"] ;
505 -> 506 ;
507 [label="X[2278] <= 0.5\nentropy = 0.731\nsamples = 504\nvalue = [401, 103]"] ;
506 -> 507 ;
508 [label="X[1012] <= 0.5\nentropy = 0.724\nsamples = 502\nvalue = [401, 101]"] ;
507 -> 508 ;
509 [label="X[319] <= 0.5\nentropy = 0.725\nsamples = 501\nvalue = [400, 101]"] ;
508 -> 509 ;
510 [label="X[4554] <= 0.5\nentropy = 0.722\nsamples = 500\nvalue = [400, 100]"] ;
509 -> 510 ;
511 [label="X[2232] <= 0.5\nentropy = 0.723\nsamples = 499\nvalue = [399, 100]"] ;
510 -> 511 ;
512 [label="X[3596] <= 0.5\nentropy = 0.72\nsamples = 498\nvalue = [399, 99]"] ;
511 -> 512 ;
513 [label="X[2582] <= 0.5\nentropy = 0.72\nsamples = 497\nvalue = [398, 99]"] ;
512 -> 513 ;
514 [label="X[5029] <= 0.5\nentropy = 0.721\nsamples = 496\nvalue = [397, 99]"] ;
513 -> 514 ;
515 [label="X[843] <= 0.5\nentropy = 0.722\nsamples = 495\nvalue = [396, 99]"] ;
514 -> 515 ;
516 [label="X[4666] <= 0.5\nentropy = 0.719\nsamples = 494\nvalue = [396, 98]"] ;
515 -> 516 ;
517 [label="X[511] <= 0.5\nentropy = 0.719\nsamples = 493\nvalue = [395, 98]"] ;
516 -> 517 ;
518 [label="X[2032] <= 0.5\nentropy = 0.716\nsamples = 492\nvalue = [395, 97]"] ;
517 -> 518 ;
519 [label="X[5617] <= 0.5\nentropy = 0.717\nsamples = 491\nvalue = [394, 97]"] ;
518 -> 519 ;
520 [label="X[214] <= 0.5\nentropy = 0.718\nsamples = 490\nvalue = [393, 97]"] ;
519 -> 520 ;
521 [label="X[2635] <= 0.5\nentropy = 0.715\nsamples = 489\nvalue = [393, 96]"] ;
520 -> 521 ;
522 [label="X[1181] <= 0.5\nentropy = 0.711\nsamples = 488\nvalue = [393, 95]"] ;
521 -> 522 ;
523 [label="X[3956] <= 0.5\nentropy = 0.712\nsamples = 487\nvalue = [392, 95]"] ;
522 -> 523 ;
524 [label="X[4781] <= 0.5\nentropy = 0.713\nsamples = 486\nvalue = [391, 95]"] ;
523 -> 524 ;
525 [label="X[84] <= 0.5\nentropy = 0.715\nsamples = 483\nvalue = [388, 95]"] ;
524 -> 525 ;
526 [label="X[2118] <= 0.5\nentropy = 0.708\nsamples = 481\nvalue = [388, 93]"] ;
525 -> 526 ;
527 [label="X[3975] <= 0.5\nentropy = 0.709\nsamples = 480\nvalue = [387, 93]"] ;
526 -> 527 ;
528 [label="X[3888] <= 0.5\nentropy = 0.71\nsamples = 479\nvalue = [386, 93]"] ;
527 -> 528 ;
529 [label="X[5744] <= 0.5\nentropy = 0.712\nsamples = 477\nvalue = [384, 93]"] ;
528 -> 529 ;
530 [label="X[1596] <= 0.5\nentropy = 0.713\nsamples = 476\nvalue = [383, 93]"] ;
529 -> 530 ;
531 [label="X[4247] <= 0.5\nentropy = 0.713\nsamples = 475\nvalue = [382, 93]"] ;
530 -> 531 ;
532 [label="X[257] <= 0.5\nentropy = 0.714\nsamples = 474\nvalue = [381, 93]"] ;
531 -> 532 ;
533 [label="X[1385] <= 0.5\nentropy = 0.711\nsamples = 473\nvalue = [381, 92]"] ;
532 -> 533 ;
534 [label="X[5443] <= 0.5\nentropy = 0.714\nsamples = 469\nvalue = [377, 92]"] ;
533 -> 534 ;
535 [label="X[1312] <= 0.5\nentropy = 0.715\nsamples = 468\nvalue = [376, 92]"] ;
534 -> 535 ;
536 [label="X[1409] <= 0.5\nentropy = 0.712\nsamples = 467\nvalue = [376, 91]"] ;
535 -> 536 ;
537 [label="X[4077] <= 0.5\nentropy = 0.712\nsamples = 466\nvalue = [375, 91]"] ;
536 -> 537 ;
538 [label="X[502] <= 0.5\nentropy = 0.713\nsamples = 465\nvalue = [374, 91]"] ;
537 -> 538 ;
539 [label="X[5165] <= 0.5\nentropy = 0.714\nsamples = 464\nvalue = [373, 91]"] ;
538 -> 539 ;
540 [label="X[4974] <= 0.5\nentropy = 0.715\nsamples = 463\nvalue = [372, 91]"] ;
539 -> 540 ;
541 [label="X[354] <= 0.5\nentropy = 0.716\nsamples = 462\nvalue = [371, 91]"] ;
540 -> 541 ;
542 [label="X[1887] <= 0.5\nentropy = 0.714\nsamples = 459\nvalue = [369, 90]"] ;
541 -> 542 ;
543 [label="X[332] <= 0.5\nentropy = 0.715\nsamples = 458\nvalue = [368, 90]"] ;
542 -> 543 ;
544 [label="X[1989] <= 0.5\nentropy = 0.702\nsamples = 452\nvalue = [366, 86]"] ;
543 -> 544 ;
545 [label="X[3838] <= 0.5\nentropy = 0.703\nsamples = 451\nvalue = [365, 86]"] ;
544 -> 545 ;
546 [label="X[965] <= 0.5\nentropy = 0.704\nsamples = 450\nvalue = [364, 86]"] ;
545 -> 546 ;
547 [label="X[200] <= 0.5\nentropy = 0.707\nsamples = 446\nvalue = [360, 86]"] ;
546 -> 547 ;
548 [label="X[1845] <= 0.5\nentropy = 0.696\nsamples = 438\nvalue = [356, 82]"] ;
547 -> 548 ;
549 [label="X[2312] <= 0.5\nentropy = 0.692\nsamples = 437\nvalue = [356, 81]"] ;
548 -> 549 ;
550 [label="X[31] <= 0.5\nentropy = 0.684\nsamples = 435\nvalue = [356, 79]"] ;
549 -> 550 ;
551 [label="X[4807] <= 0.5\nentropy = 0.684\nsamples = 434\nvalue = [355, 79]"] ;
550 -> 551 ;
552 [label="X[2288] <= 0.5\nentropy = 0.685\nsamples = 433\nvalue = [354, 79]"] ;
551 -> 552 ;
553 [label="X[485] <= 0.5\nentropy = 0.686\nsamples = 432\nvalue = [353, 79]"] ;
552 -> 553 ;
554 [label="X[2053] <= 0.5\nentropy = 0.687\nsamples = 431\nvalue = [352, 79]"] ;
553 -> 554 ;
555 [label="X[5057] <= 0.5\nentropy = 0.688\nsamples = 430\nvalue = [351, 79]"] ;
554 -> 555 ;
556 [label="X[192] <= 0.5\nentropy = 0.689\nsamples = 429\nvalue = [350, 79]"] ;
555 -> 556 ;
557 [label="X[4018] <= 0.5\nentropy = 0.691\nsamples = 427\nvalue = [348, 79]"] ;
556 -> 557 ;
558 [label="X[4330] <= 0.5\nentropy = 0.692\nsamples = 426\nvalue = [347, 79]"] ;
557 -> 558 ;
559 [label="X[446] <= 0.5\nentropy = 0.693\nsamples = 425\nvalue = [346, 79]"] ;
558 -> 559 ;
560 [label="X[1623] <= 0.5\nentropy = 0.694\nsamples = 424\nvalue = [345, 79]"] ;
559 -> 560 ;
561 [label="X[2105] <= 0.5\nentropy = 0.695\nsamples = 423\nvalue = [344, 79]"] ;
560 -> 561 ;
562 [label="X[4689] <= 0.5\nentropy = 0.696\nsamples = 422\nvalue = [343, 79]"] ;
561 -> 562 ;
563 [label="X[2845] <= 0.5\nentropy = 0.697\nsamples = 421\nvalue = [342, 79]"] ;
562 -> 563 ;
564 [label="X[4708] <= 0.5\nentropy = 0.697\nsamples = 420\nvalue = [341, 79]"] ;
563 -> 564 ;
565 [label="X[3996] <= 0.5\nentropy = 0.698\nsamples = 419\nvalue = [340, 79]"] ;
564 -> 565 ;
566 [label="X[3868] <= 0.5\nentropy = 0.699\nsamples = 418\nvalue = [339, 79]"] ;
565 -> 566 ;
567 [label="X[2273] <= 0.5\nentropy = 0.701\nsamples = 416\nvalue = [337, 79]"] ;
566 -> 567 ;
568 [label="X[4629] <= 0.5\nentropy = 0.702\nsamples = 415\nvalue = [336, 79]"] ;
567 -> 568 ;
569 [label="X[187] <= 0.5\nentropy = 0.703\nsamples = 414\nvalue = [335, 79]"] ;
568 -> 569 ;
570 [label="X[3196] <= 0.5\nentropy = 0.704\nsamples = 413\nvalue = [334, 79]"] ;
569 -> 570 ;
571 [label="X[4805] <= 0.5\nentropy = 0.7\nsamples = 412\nvalue = [334, 78]"] ;
570 -> 571 ;
572 [label="X[2057] <= 0.5\nentropy = 0.701\nsamples = 411\nvalue = [333, 78]"] ;
571 -> 572 ;
573 [label="X[1061] <= 0.5\nentropy = 0.703\nsamples = 409\nvalue = [331, 78]"] ;
572 -> 573 ;
574 [label="X[1736] <= 0.5\nentropy = 0.699\nsamples = 408\nvalue = [331, 77]"] ;
573 -> 574 ;
575 [label="X[910] <= 0.5\nentropy = 0.695\nsamples = 407\nvalue = [331, 76]"] ;
574 -> 575 ;
576 [label="X[4426] <= 0.5\nentropy = 0.701\nsamples = 400\nvalue = [324, 76]"] ;
575 -> 576 ;
577 [label="X[3949] <= 0.5\nentropy = 0.703\nsamples = 398\nvalue = [322, 76]"] ;
576 -> 577 ;
578 [label="X[2817] <= 0.5\nentropy = 0.704\nsamples = 397\nvalue = [321, 76]"] ;
577 -> 578 ;
579 [label="X[1645] <= 0.5\nentropy = 0.706\nsamples = 395\nvalue = [319, 76]"] ;
578 -> 579 ;
580 [label="X[2768] <= 0.5\nentropy = 0.708\nsamples = 393\nvalue = [317, 76]"] ;
579 -> 580 ;
581 [label="X[343] <= 0.5\nentropy = 0.704\nsamples = 392\nvalue = [317, 75]"] ;
580 -> 581 ;
582 [label="X[4615] <= 0.5\nentropy = 0.705\nsamples = 391\nvalue = [316, 75]"] ;
581 -> 582 ;
583 [label="X[774] <= 0.5\nentropy = 0.706\nsamples = 390\nvalue = [315, 75]"] ;
582 -> 583 ;
584 [label="X[51] <= 0.5\nentropy = 0.709\nsamples = 387\nvalue = [312, 75]"] ;
583 -> 584 ;
585 [label="X[71] <= 0.5\nentropy = 0.696\nsamples = 384\nvalue = [312, 72]"] ;
584 -> 585 ;
586 [label="X[5429] <= 0.5\nentropy = 0.7\nsamples = 380\nvalue = [308, 72]"] ;
585 -> 586 ;
587 [label="X[2372] <= 0.5\nentropy = 0.701\nsamples = 379\nvalue = [307, 72]"] ;
586 -> 587 ;
588 [label="X[2311] <= 0.5\nentropy = 0.704\nsamples = 377\nvalue = [305, 72]"] ;
587 -> 588 ;
589 [label="X[348] <= 0.5\nentropy = 0.699\nsamples = 376\nvalue = [305, 71]"] ;
588 -> 589 ;
590 [label="X[1564] <= 0.5\nentropy = 0.7\nsamples = 375\nvalue = [304, 71]"] ;
589 -> 590 ;
591 [label="X[5455] <= 0.5\nentropy = 0.701\nsamples = 374\nvalue = [303, 71]"] ;
590 -> 591 ;
592 [label="X[2572] <= 0.5\nentropy = 0.703\nsamples = 372\nvalue = [301, 71]"] ;
591 -> 592 ;
593 [label="X[454] <= 0.5\nentropy = 0.704\nsamples = 371\nvalue = [300, 71]"] ;
592 -> 593 ;
594 [label="X[4292] <= 0.5\nentropy = 0.701\nsamples = 369\nvalue = [299, 70]"] ;
593 -> 594 ;
595 [label="X[12] <= 0.5\nentropy = 0.703\nsamples = 367\nvalue = [297, 70]"] ;
594 -> 595 ;
596 [label="X[5757] <= 0.5\nentropy = 0.706\nsamples = 364\nvalue = [294, 70]"] ;
595 -> 596 ;
597 [label="X[4295] <= 0.5\nentropy = 0.707\nsamples = 363\nvalue = [293, 70]"] ;
596 -> 597 ;
598 [label="X[201] <= 0.5\nentropy = 0.708\nsamples = 362\nvalue = [292, 70]"] ;
597 -> 598 ;
599 [label="X[3363] <= 0.5\nentropy = 0.707\nsamples = 358\nvalue = [289, 69]"] ;
598 -> 599 ;
600 [label="X[1260] <= 0.5\nentropy = 0.702\nsamples = 357\nvalue = [289, 68]"] ;
599 -> 600 ;
601 [label="X[4583] <= 0.5\nentropy = 0.704\nsamples = 356\nvalue = [288, 68]"] ;
600 -> 601 ;
602 [label="X[5407] <= 0.5\nentropy = 0.705\nsamples = 355\nvalue = [287, 68]"] ;
601 -> 602 ;
603 [label="X[3930] <= 0.5\nentropy = 0.706\nsamples = 354\nvalue = [286, 68]"] ;
602 -> 603 ;
604 [label="X[1222] <= 0.5\nentropy = 0.707\nsamples = 353\nvalue = [285, 68]"] ;
603 -> 604 ;
605 [label="X[734] <= 0.5\nentropy = 0.708\nsamples = 352\nvalue = [284, 68]"] ;
604 -> 605 ;
606 [label="X[3454] <= 0.5\nentropy = 0.709\nsamples = 351\nvalue = [283, 68]"] ;
605 -> 606 ;
607 [label="X[4159] <= 0.5\nentropy = 0.706\nsamples = 349\nvalue = [282, 67]"] ;
606 -> 607 ;
608 [label="X[5487] <= 0.5\nentropy = 0.707\nsamples = 348\nvalue = [281, 67]"] ;
607 -> 608 ;
609 [label="X[4068] <= 0.5\nentropy = 0.708\nsamples = 347\nvalue = [280, 67]"] ;
608 -> 609 ;
610 [label="X[428] <= 0.5\nentropy = 0.71\nsamples = 345\nvalue = [278, 67]"] ;
609 -> 610 ;
611 [label="X[395] <= 0.5\nentropy = 0.711\nsamples = 344\nvalue = [277, 67]"] ;
610 -> 611 ;
612 [label="X[204] <= 0.5\nentropy = 0.707\nsamples = 343\nvalue = [277, 66]"] ;
611 -> 612 ;
613 [label="X[2337] <= 0.5\nentropy = 0.708\nsamples = 342\nvalue = [276, 66]"] ;
612 -> 613 ;
614 [label="X[64] <= 0.5\nentropy = 0.703\nsamples = 341\nvalue = [276, 65]"] ;
613 -> 614 ;
615 [label="X[89] <= 0.5\nentropy = 0.693\nsamples = 339\nvalue = [276, 63]"] ;
614 -> 615 ;
616 [label="X[613] <= 0.5\nentropy = 0.687\nsamples = 333\nvalue = [272, 61]"] ;
615 -> 616 ;
617 [label="X[2251] <= 0.5\nentropy = 0.682\nsamples = 332\nvalue = [272, 60]"] ;
616 -> 617 ;
618 [label="X[888] <= 0.5\nentropy = 0.683\nsamples = 331\nvalue = [271, 60]"] ;
617 -> 618 ;
619 [label="X[3221] <= 0.5\nentropy = 0.68\nsamples = 328\nvalue = [269, 59]"] ;
618 -> 619 ;
620 [label="X[1652] <= 0.5\nentropy = 0.674\nsamples = 327\nvalue = [269, 58]"] ;
619 -> 620 ;
621 [label="X[4196] <= 0.5\nentropy = 0.675\nsamples = 326\nvalue = [268, 58]"] ;
620 -> 621 ;
622 [label="X[5470] <= 0.5\nentropy = 0.677\nsamples = 325\nvalue = [267, 58]"] ;
621 -> 622 ;
623 [label="X[714] <= 0.5\nentropy = 0.678\nsamples = 324\nvalue = [266, 58]"] ;
622 -> 623 ;
624 [label="X[3800] <= 0.5\nentropy = 0.679\nsamples = 323\nvalue = [265, 58]"] ;
623 -> 624 ;
625 [label="X[630] <= 0.5\nentropy = 0.682\nsamples = 321\nvalue = [263, 58]"] ;
624 -> 625 ;
626 [label="X[831] <= 0.5\nentropy = 0.688\nsamples = 316\nvalue = [258, 58]"] ;
625 -> 626 ;
627 [label="X[4828] <= 0.5\nentropy = 0.682\nsamples = 315\nvalue = [258, 57]"] ;
626 -> 627 ;
628 [label="X[2084] <= 0.5\nentropy = 0.683\nsamples = 314\nvalue = [257, 57]"] ;
627 -> 628 ;
629 [label="X[3184] <= 0.5\nentropy = 0.685\nsamples = 313\nvalue = [256, 57]"] ;
628 -> 629 ;
630 [label="X[5176] <= 0.5\nentropy = 0.679\nsamples = 312\nvalue = [256, 56]"] ;
629 -> 630 ;
631 [label="X[1791] <= 0.5\nentropy = 0.68\nsamples = 311\nvalue = [255, 56]"] ;
630 -> 631 ;
632 [label="X[3840] <= 0.5\nentropy = 0.674\nsamples = 310\nvalue = [255, 55]"] ;
631 -> 632 ;
633 [label="X[404] <= 0.5\nentropy = 0.676\nsamples = 309\nvalue = [254, 55]"] ;
632 -> 633 ;
634 [label="X[4815] <= 0.5\nentropy = 0.677\nsamples = 308\nvalue = [253, 55]"] ;
633 -> 634 ;
635 [label="X[4568] <= 0.5\nentropy = 0.678\nsamples = 307\nvalue = [252, 55]"] ;
634 -> 635 ;
636 [label="X[33] <= 0.5\nentropy = 0.68\nsamples = 306\nvalue = [251, 55]"] ;
635 -> 636 ;
637 [label="X[4013] <= 0.5\nentropy = 0.674\nsamples = 305\nvalue = [251, 54]"] ;
636 -> 637 ;
638 [label="X[1210] <= 0.5\nentropy = 0.675\nsamples = 304\nvalue = [250, 54]"] ;
637 -> 638 ;
639 [label="X[4833] <= 0.5\nentropy = 0.67\nsamples = 302\nvalue = [249, 53]"] ;
638 -> 639 ;
640 [label="X[309] <= 0.5\nentropy = 0.671\nsamples = 301\nvalue = [248, 53]"] ;
639 -> 640 ;
641 [label="X[5032] <= 0.5\nentropy = 0.673\nsamples = 300\nvalue = [247, 53]"] ;
640 -> 641 ;
642 [label="X[793] <= 0.5\nentropy = 0.674\nsamples = 299\nvalue = [246, 53]"] ;
641 -> 642 ;
643 [label="X[5614] <= 0.5\nentropy = 0.662\nsamples = 297\nvalue = [246, 51]"] ;
642 -> 643 ;
644 [label="X[2317] <= 0.5\nentropy = 0.663\nsamples = 296\nvalue = [245, 51]"] ;
643 -> 644 ;
645 [label="X[2877] <= 0.5\nentropy = 0.664\nsamples = 295\nvalue = [244, 51]"] ;
644 -> 645 ;
646 [label="X[3766] <= 0.5\nentropy = 0.658\nsamples = 294\nvalue = [244, 50]"] ;
645 -> 646 ;
647 [label="X[961] <= 0.5\nentropy = 0.659\nsamples = 293\nvalue = [243, 50]"] ;
646 -> 647 ;
648 [label="X[1056] <= 0.5\nentropy = 0.653\nsamples = 292\nvalue = [243, 49]"] ;
647 -> 648 ;
649 [label="X[1436] <= 0.5\nentropy = 0.654\nsamples = 291\nvalue = [242, 49]"] ;
648 -> 649 ;
650 [label="X[556] <= 0.5\nentropy = 0.659\nsamples = 287\nvalue = [238, 49]"] ;
649 -> 650 ;
651 [label="X[2333] <= 0.5\nentropy = 0.655\nsamples = 284\nvalue = [236, 48]"] ;
650 -> 651 ;
652 [label="X[448] <= 0.5\nentropy = 0.658\nsamples = 282\nvalue = [234, 48]"] ;
651 -> 652 ;
653 [label="X[606] <= 0.5\nentropy = 0.656\nsamples = 278\nvalue = [231, 47]"] ;
652 -> 653 ;
654 [label="X[5229] <= 0.5\nentropy = 0.649\nsamples = 277\nvalue = [231, 46]"] ;
653 -> 654 ;
655 [label="X[4740] <= 0.5\nentropy = 0.65\nsamples = 276\nvalue = [230, 46]"] ;
654 -> 655 ;
656 [label="X[601] <= 0.5\nentropy = 0.651\nsamples = 275\nvalue = [229, 46]"] ;
655 -> 656 ;
657 [label="X[5206] <= 0.5\nentropy = 0.653\nsamples = 274\nvalue = [228, 46]"] ;
656 -> 657 ;
658 [label="X[5306] <= 0.5\nentropy = 0.654\nsamples = 273\nvalue = [227, 46]"] ;
657 -> 658 ;
659 [label="X[373] <= 0.5\nentropy = 0.656\nsamples = 272\nvalue = [226, 46]"] ;
658 -> 659 ;
660 [label="X[632] <= 0.5\nentropy = 0.657\nsamples = 271\nvalue = [225, 46]"] ;
659 -> 660 ;
661 [label="X[489] <= 0.5\nentropy = 0.659\nsamples = 270\nvalue = [224, 46]"] ;
660 -> 661 ;
662 [label="X[953] <= 0.5\nentropy = 0.651\nsamples = 269\nvalue = [224, 45]"] ;
661 -> 662 ;
663 [label="X[472] <= 0.5\nentropy = 0.641\nsamples = 264\nvalue = [221, 43]"] ;
662 -> 663 ;
664 [label="X[3922] <= 0.5\nentropy = 0.634\nsamples = 263\nvalue = [221, 42]"] ;
663 -> 664 ;
665 [label="X[1912] <= 0.5\nentropy = 0.635\nsamples = 262\nvalue = [220, 42]"] ;
664 -> 665 ;
666 [label="X[3191] <= 0.5\nentropy = 0.627\nsamples = 261\nvalue = [220, 41]"] ;
665 -> 666 ;
667 [label="X[1425] <= 0.5\nentropy = 0.619\nsamples = 260\nvalue = [220, 40]"] ;
666 -> 667 ;
668 [label="X[3907] <= 0.5\nentropy = 0.622\nsamples = 258\nvalue = [218, 40]"] ;
667 -> 668 ;
669 [label="X[5000] <= 0.5\nentropy = 0.628\nsamples = 254\nvalue = [214, 40]"] ;
668 -> 669 ;
670 [label="X[2379] <= 0.5\nentropy = 0.63\nsamples = 253\nvalue = [213, 40]"] ;
669 -> 670 ;
671 [label="X[4575] <= 0.5\nentropy = 0.631\nsamples = 252\nvalue = [212, 40]"] ;
670 -> 671 ;
672 [label="X[1158] <= 0.5\nentropy = 0.633\nsamples = 251\nvalue = [211, 40]"] ;
671 -> 672 ;
673 [label="X[2411] <= 0.5\nentropy = 0.626\nsamples = 249\nvalue = [210, 39]"] ;
672 -> 673 ;
674 [label="X[2708] <= 0.5\nentropy = 0.618\nsamples = 248\nvalue = [210, 38]"] ;
673 -> 674 ;
675 [label="X[3824] <= 0.5\nentropy = 0.619\nsamples = 247\nvalue = [209, 38]"] ;
674 -> 675 ;
676 [label="X[4812] <= 0.5\nentropy = 0.621\nsamples = 246\nvalue = [208, 38]"] ;
675 -> 676 ;
677 [label="X[679] <= 0.5\nentropy = 0.622\nsamples = 245\nvalue = [207, 38]"] ;
676 -> 677 ;
678 [label="X[105] <= 0.5\nentropy = 0.624\nsamples = 244\nvalue = [206, 38]"] ;
677 -> 678 ;
679 [label="X[268] <= 0.5\nentropy = 0.625\nsamples = 224\nvalue = [189, 35]"] ;
678 -> 679 ;
680 [label="X[4232] <= 0.5\nentropy = 0.627\nsamples = 223\nvalue = [188, 35]"] ;
679 -> 680 ;
681 [label="X[2068] <= 0.5\nentropy = 0.629\nsamples = 222\nvalue = [187, 35]"] ;
680 -> 681 ;
682 [label="X[3547] <= 0.5\nentropy = 0.632\nsamples = 220\nvalue = [185, 35]"] ;
681 -> 682 ;
683 [label="X[1816] <= 0.5\nentropy = 0.623\nsamples = 219\nvalue = [185, 34]"] ;
682 -> 683 ;
684 [label="X[4228] <= 0.5\nentropy = 0.626\nsamples = 217\nvalue = [183, 34]"] ;
683 -> 684 ;
685 [label="X[106] <= 0.5\nentropy = 0.632\nsamples = 214\nvalue = [180, 34]"] ;
684 -> 685 ;
686 [label="X[592] <= 0.5\nentropy = 0.627\nsamples = 210\nvalue = [177, 33]"] ;
685 -> 686 ;
687 [label="X[3003] <= 0.5\nentropy = 0.629\nsamples = 209\nvalue = [176, 33]"] ;
686 -> 687 ;
688 [label="X[1442] <= 0.5\nentropy = 0.631\nsamples = 208\nvalue = [175, 33]"] ;
687 -> 688 ;
689 [label="X[1822] <= 0.5\nentropy = 0.633\nsamples = 207\nvalue = [174, 33]"] ;
688 -> 689 ;
690 [label="X[361] <= 0.5\nentropy = 0.637\nsamples = 205\nvalue = [172, 33]"] ;
689 -> 690 ;
691 [label="X[4846] <= 0.5\nentropy = 0.639\nsamples = 204\nvalue = [171, 33]"] ;
690 -> 691 ;
692 [label="X[2131] <= 0.5\nentropy = 0.64\nsamples = 203\nvalue = [170, 33]"] ;
691 -> 692 ;
693 [label="X[288] <= 0.5\nentropy = 0.642\nsamples = 202\nvalue = [169, 33]"] ;
692 -> 693 ;
694 [label="X[918] <= 0.5\nentropy = 0.644\nsamples = 201\nvalue = [168, 33]"] ;
693 -> 694 ;
695 [label="X[4306] <= 0.5\nentropy = 0.646\nsamples = 200\nvalue = [167, 33]"] ;
694 -> 695 ;
696 [label="X[442] <= 0.5\nentropy = 0.648\nsamples = 199\nvalue = [166, 33]"] ;
695 -> 696 ;
697 [label="X[4448] <= 0.5\nentropy = 0.638\nsamples = 198\nvalue = [166, 32]"] ;
696 -> 697 ;
698 [label="X[3961] <= 0.5\nentropy = 0.64\nsamples = 197\nvalue = [165, 32]"] ;
697 -> 698 ;
699 [label="X[4762] <= 0.5\nentropy = 0.642\nsamples = 196\nvalue = [164, 32]"] ;
698 -> 699 ;
700 [label="X[5531] <= 0.5\nentropy = 0.644\nsamples = 195\nvalue = [163, 32]"] ;
699 -> 700 ;
701 [label="X[5517] <= 0.5\nentropy = 0.646\nsamples = 194\nvalue = [162, 32]"] ;
700 -> 701 ;
702 [label="X[5010] <= 0.5\nentropy = 0.648\nsamples = 193\nvalue = [161, 32]"] ;
701 -> 702 ;
703 [label="X[4019] <= 0.5\nentropy = 0.65\nsamples = 192\nvalue = [160, 32]"] ;
702 -> 703 ;
704 [label="X[513] <= 0.5\nentropy = 0.652\nsamples = 191\nvalue = [159, 32]"] ;
703 -> 704 ;
705 [label="X[139] <= 0.5\nentropy = 0.642\nsamples = 190\nvalue = [159, 31]"] ;
704 -> 705 ;
706 [label="X[1438] <= 0.5\nentropy = 0.644\nsamples = 189\nvalue = [158, 31]"] ;
705 -> 706 ;
707 [label="X[4442] <= 0.5\nentropy = 0.635\nsamples = 187\nvalue = [157, 30]"] ;
706 -> 707 ;
708 [label="X[2435] <= 0.5\nentropy = 0.637\nsamples = 186\nvalue = [156, 30]"] ;
707 -> 708 ;
709 [label="X[639] <= 0.5\nentropy = 0.626\nsamples = 185\nvalue = [156, 29]"] ;
708 -> 709 ;
710 [label="X[461] <= 0.5\nentropy = 0.604\nsamples = 183\nvalue = [156, 27]"] ;
709 -> 710 ;
711 [label="X[1388] <= 0.5\nentropy = 0.61\nsamples = 180\nvalue = [153, 27]"] ;
710 -> 711 ;
712 [label="X[23] <= 0.5\nentropy = 0.612\nsamples = 179\nvalue = [152, 27]"] ;
711 -> 712 ;
713 [label="X[5106] <= 0.5\nentropy = 0.789\nsamples = 110\nvalue = [84, 26]"] ;
712 -> 713 ;
714 [label="X[1254] <= 0.5\nentropy = 0.793\nsamples = 109\nvalue = [83, 26]"] ;
713 -> 714 ;
715 [label="X[3] <= 0.5\nentropy = 0.784\nsamples = 107\nvalue = [82, 25]"] ;
714 -> 715 ;
716 [label="X[5091] <= 0.5\nentropy = 0.286\nsamples = 20\nvalue = [19, 1]"] ;
715 -> 716 ;
717 [label="X[125] <= 0.5\nentropy = 0.297\nsamples = 19\nvalue = [18, 1]"] ;
716 -> 717 ;
718 [label="X[1063] <= 0.5\nentropy = 0.337\nsamples = 16\nvalue = [15, 1]"] ;
717 -> 718 ;
719 [label="X[2672] <= 0.5\nentropy = 0.353\nsamples = 15\nvalue = [14, 1]"] ;
718 -> 719 ;
720 [label="X[271] <= 0.5\nentropy = 0.371\nsamples = 14\nvalue = [13, 1]"] ;
719 -> 720 ;
721 [label="X[815] <= 0.5\nentropy = 0.391\nsamples = 13\nvalue = [12, 1]"] ;
720 -> 721 ;
722 [label="X[3156] <= 0.5\nentropy = 0.414\nsamples = 12\nvalue = [11, 1]"] ;
721 -> 722 ;
723 [label="X[4166] <= 0.5\nentropy = 0.439\nsamples = 11\nvalue = [10, 1]"] ;
722 -> 723 ;
724 [label="X[3804] <= 0.5\nentropy = 0.469\nsamples = 10\nvalue = [9, 1]"] ;
723 -> 724 ;
725 [label="X[1772] <= 0.5\nentropy = 0.503\nsamples = 9\nvalue = [8, 1]"] ;
724 -> 725 ;
726 [label="X[145] <= 0.5\nentropy = 0.544\nsamples = 8\nvalue = [7, 1]"] ;
725 -> 726 ;
727 [label="X[5556] <= 0.5\nentropy = 0.592\nsamples = 7\nvalue = [6, 1]"] ;
726 -> 727 ;
728 [label="X[74] <= 0.5\nentropy = 0.65\nsamples = 6\nvalue = [5, 1]"] ;
727 -> 728 ;
729 [label="X[77] <= 0.5\nentropy = 0.722\nsamples = 5\nvalue = [4, 1]"] ;
728 -> 729 ;
730 [label="X[1277] <= 0.5\nentropy = 0.811\nsamples = 4\nvalue = [3, 1]"] ;
729 -> 730 ;
731 [label="X[3379] <= 0.5\nentropy = 0.918\nsamples = 3\nvalue = [2, 1]"] ;
730 -> 731 ;
732 [label="X[3754] <= 0.5\nentropy = 1.0\nsamples = 2\nvalue = [1, 1]"] ;
731 -> 732 ;
733 [label="entropy = 0.0\nsamples = 1\nvalue = [0, 1]"] ;
732 -> 733 ;
734 [label="entropy = 0.0\nsamples = 1\nvalue = [1, 0]"] ;
732 -> 734 ;
735 [label="entropy = 0.0\nsamples = 1\nvalue = [1, 0]"] ;
731 -> 735 ;
736 [label="entropy = 0.0\nsamples = 1\nvalue = [1, 0]"] ;
730 -> 736 ;
737 [label="entropy = 0.0\nsamples = 1\nvalue = [1, 0]"] ;
729 -> 737 ;
738 [label="entropy = 0.0\nsamples = 1\nvalue = [1, 0]"] ;
728 -> 738 ;
739 [label="entropy = 0.0\nsamples = 1\nvalue = [1, 0]"] ;
727 -> 739 ;
740 [label="entropy = 0.0\nsamples = 1\nvalue = [1, 0]"] ;
726 -> 740 ;
741 [label="entropy = 0.0\nsamples = 1\nvalue = [1, 0]"] ;
725 -> 741 ;
742 [label="entropy = 0.0\nsamples = 1\nvalue = [1, 0]"] ;
724 -> 742 ;
743 [label="entropy = 0.0\nsamples = 1\nvalue = [1, 0]"] ;
723 -> 743 ;
744 [label="entropy = 0.0\nsamples = 1\nvalue = [1, 0]"] ;
722 -> 744 ;
745 [label="entropy = 0.0\nsamples = 1\nvalue = [1, 0]"] ;
721 -> 745 ;
746 [label="entropy = 0.0\nsamples = 1\nvalue = [1, 0]"] ;
720 -> 746 ;
747 [label="entropy = 0.0\nsamples = 1\nvalue = [1, 0]"] ;
719 -> 747 ;
748 [label="entropy = 0.0\nsamples = 1\nvalue = [1, 0]"] ;
718 -> 748 ;
749 [label="entropy = 0.0\nsamples = 3\nvalue = [3, 0]"] ;
717 -> 749 ;
750 [label="entropy = 0.0\nsamples = 1\nvalue = [1, 0]"] ;
716 -> 750 ;
751 [label="X[1226] <= 0.5\nentropy = 0.85\nsamples = 87\nvalue = [63, 24]"] ;
715 -> 751 ;
752 [label="X[5135] <= 0.5\nentropy = 0.838\nsamples = 86\nvalue = [63, 23]"] ;
751 -> 752 ;
753 [label="X[5369] <= 0.5\nentropy = 0.842\nsamples = 85\nvalue = [62, 23]"] ;
752 -> 753 ;
754 [label="X[128] <= 0.5\nentropy = 0.847\nsamples = 84\nvalue = [61, 23]"] ;
753 -> 754 ;
755 [label="X[467] <= 0.5\nentropy = 0.851\nsamples = 83\nvalue = [60, 23]"] ;
754 -> 755 ;
756 [label="X[4187] <= 0.5\nentropy = 0.856\nsamples = 82\nvalue = [59, 23]"] ;
755 -> 756 ;
757 [label="X[490] <= 0.5\nentropy = 0.861\nsamples = 81\nvalue = [58, 23]"] ;
756 -> 757 ;
758 [label="X[285] <= 0.5\nentropy = 0.849\nsamples = 80\nvalue = [58, 22]"] ;
757 -> 758 ;
759 [label="X[686] <= 0.5\nentropy = 0.863\nsamples = 77\nvalue = [55, 22]"] ;
758 -> 759 ;
760 [label="X[2604] <= 0.5\nentropy = 0.85\nsamples = 76\nvalue = [55, 21]"] ;
759 -> 760 ;
761 [label="X[117] <= 0.5\nentropy = 0.855\nsamples = 75\nvalue = [54, 21]"] ;
760 -> 761 ;
762 [label="X[629] <= 0.5\nentropy = 0.833\nsamples = 72\nvalue = [53, 19]"] ;
761 -> 762 ;
763 [label="X[3460] <= 0.5\nentropy = 0.817\nsamples = 71\nvalue = [53, 18]"] ;
762 -> 763 ;
764 [label="X[2275] <= 0.5\nentropy = 0.828\nsamples = 69\nvalue = [51, 18]"] ;
763 -> 764 ;
765 [label="X[3654] <= 0.5\nentropy = 0.834\nsamples = 68\nvalue = [50, 18]"] ;
764 -> 765 ;
766 [label="X[2235] <= 0.5\nentropy = 0.817\nsamples = 67\nvalue = [50, 17]"] ;
765 -> 766 ;
767 [label="X[94] <= 0.5\nentropy = 0.823\nsamples = 66\nvalue = [49, 17]"] ;
766 -> 767 ;
768 [label="X[1329] <= 0.5\nentropy = 0.818\nsamples = 63\nvalue = [47, 16]"] ;
767 -> 768 ;
769 [label="X[4320] <= 0.5\nentropy = 0.824\nsamples = 62\nvalue = [46, 16]"] ;
768 -> 769 ;
770 [label="X[3334] <= 0.5\nentropy = 0.83\nsamples = 61\nvalue = [45, 16]"] ;
769 -> 770 ;
771 [label="X[382] <= 0.5\nentropy = 0.811\nsamples = 60\nvalue = [45, 15]"] ;
770 -> 771 ;
772 [label="X[5333] <= 0.5\nentropy = 0.818\nsamples = 59\nvalue = [44, 15]"] ;
771 -> 772 ;
773 [label="X[242] <= 0.5\nentropy = 0.825\nsamples = 58\nvalue = [43, 15]"] ;
772 -> 773 ;
774 [label="X[1139] <= 0.5\nentropy = 0.831\nsamples = 57\nvalue = [42, 15]"] ;
773 -> 774 ;
775 [label="X[8] <= 0.5\nentropy = 0.845\nsamples = 55\nvalue = [40, 15]"] ;
774 -> 775 ;
776 [label="X[1490] <= 0.5\nentropy = 0.881\nsamples = 50\nvalue = [35, 15]"] ;
775 -> 776 ;
777 [label="X[3493] <= 0.5\nentropy = 0.863\nsamples = 49\nvalue = [35, 14]"] ;
776 -> 777 ;
778 [label="X[3858] <= 0.5\nentropy = 0.843\nsamples = 48\nvalue = [35, 13]"] ;
777 -> 778 ;
779 [label="X[5078] <= 0.5\nentropy = 0.851\nsamples = 47\nvalue = [34, 13]"] ;
778 -> 779 ;
780 [label="X[5317] <= 0.5\nentropy = 0.859\nsamples = 46\nvalue = [33, 13]"] ;
779 -> 780 ;
781 [label="X[152] <= 0.5\nentropy = 0.867\nsamples = 45\nvalue = [32, 13]"] ;
780 -> 781 ;
782 [label="X[125] <= 0.5\nentropy = 0.858\nsamples = 39\nvalue = [28, 11]"] ;
781 -> 782 ;
783 [label="X[5644] <= 0.5\nentropy = 0.831\nsamples = 38\nvalue = [28, 10]"] ;
782 -> 783 ;
784 [label="X[2347] <= 0.5\nentropy = 0.842\nsamples = 37\nvalue = [27, 10]"] ;
783 -> 784 ;
785 [label="X[77] <= 0.5\nentropy = 0.852\nsamples = 36\nvalue = [26, 10]"] ;
784 -> 785 ;
786 [label="X[238] <= 0.5\nentropy = 0.824\nsamples = 31\nvalue = [23, 8]"] ;
785 -> 786 ;
787 [label="X[1227] <= 0.5\nentropy = 0.837\nsamples = 30\nvalue = [22, 8]"] ;
786 -> 787 ;
788 [label="X[4342] <= 0.5\nentropy = 0.797\nsamples = 29\nvalue = [22, 7]"] ;
787 -> 788 ;
789 [label="X[389] <= 0.5\nentropy = 0.811\nsamples = 28\nvalue = [21, 7]"] ;
788 -> 789 ;
790 [label="X[1459] <= 0.5\nentropy = 0.764\nsamples = 27\nvalue = [21, 6]"] ;
789 -> 790 ;
791 [label="X[3008] <= 0.5\nentropy = 0.779\nsamples = 26\nvalue = [20, 6]"] ;
790 -> 791 ;
792 [label="X[1097] <= 0.5\nentropy = 0.722\nsamples = 25\nvalue = [20, 5]"] ;
791 -> 792 ;
793 [label="X[4748] <= 0.5\nentropy = 0.738\nsamples = 24\nvalue = [19, 5]"] ;
792 -> 793 ;
794 [label="X[4787] <= 0.5\nentropy = 0.755\nsamples = 23\nvalue = [18, 5]"] ;
793 -> 794 ;
795 [label="X[291] <= 0.5\nentropy = 0.773\nsamples = 22\nvalue = [17, 5]"] ;
794 -> 795 ;
796 [label="X[4316] <= 0.5\nentropy = 0.811\nsamples = 20\nvalue = [15, 5]"] ;
795 -> 796 ;
797 [label="X[1698] <= 0.5\nentropy = 0.831\nsamples = 19\nvalue = [14, 5]"] ;
796 -> 797 ;
798 [label="X[1543] <= 0.5\nentropy = 0.764\nsamples = 18\nvalue = [14, 4]"] ;
797 -> 798 ;
799 [label="X[3788] <= 0.5\nentropy = 0.787\nsamples = 17\nvalue = [13, 4]"] ;
798 -> 799 ;
800 [label="X[1990] <= 0.5\nentropy = 0.811\nsamples = 16\nvalue = [12, 4]"] ;
799 -> 800 ;
801 [label="X[658] <= 0.5\nentropy = 0.837\nsamples = 15\nvalue = [11, 4]"] ;
800 -> 801 ;
802 [label="X[986] <= 0.5\nentropy = 0.863\nsamples = 14\nvalue = [10, 4]"] ;
801 -> 802 ;
803 [label="X[5147] <= 0.5\nentropy = 0.89\nsamples = 13\nvalue = [9, 4]"] ;
802 -> 803 ;
804 [label="X[1310] <= 0.5\nentropy = 0.918\nsamples = 12\nvalue = [8, 4]"] ;
803 -> 804 ;
805 [label="X[4954] <= 0.5\nentropy = 0.946\nsamples = 11\nvalue = [7, 4]"] ;
804 -> 805 ;
806 [label="X[3474] <= 0.5\nentropy = 0.971\nsamples = 10\nvalue = [6, 4]"] ;
805 -> 806 ;
807 [label="X[3288] <= 0.5\nentropy = 0.918\nsamples = 9\nvalue = [6, 3]"] ;
806 -> 807 ;
808 [label="X[1014] <= 0.5\nentropy = 0.954\nsamples = 8\nvalue = [5, 3]"] ;
807 -> 808 ;
809 [label="X[6] <= 0.5\nentropy = 0.863\nsamples = 7\nvalue = [5, 2]"] ;
808 -> 809 ;
810 [label="X[410] <= 0.5\nentropy = 0.65\nsamples = 6\nvalue = [5, 1]"] ;
809 -> 810 ;
811 [label="X[3729] <= 0.5\nentropy = 0.722\nsamples = 5\nvalue = [4, 1]"] ;
810 -> 811 ;
812 [label="X[574] <= 0.5\nentropy = 0.811\nsamples = 4\nvalue = [3, 1]"] ;
811 -> 812 ;
813 [label="entropy = 0.0\nsamples = 3\nvalue = [3, 0]"] ;
812 -> 813 ;
814 [label="entropy = 0.0\nsamples = 1\nvalue = [0, 1]"] ;
812 -> 814 ;
815 [label="entropy = 0.0\nsamples = 1\nvalue = [1, 0]"] ;
811 -> 815 ;
816 [label="entropy = 0.0\nsamples = 1\nvalue = [1, 0]"] ;
810 -> 816 ;
817 [label="entropy = 0.0\nsamples = 1\nvalue = [0, 1]"] ;
809 -> 817 ;
818 [label="entropy = 0.0\nsamples = 1\nvalue = [0, 1]"] ;
808 -> 818 ;
819 [label="entropy = 0.0\nsamples = 1\nvalue = [1, 0]"] ;
807 -> 819 ;
820 [label="entropy = 0.0\nsamples = 1\nvalue = [0, 1]"] ;
806 -> 820 ;
821 [label="entropy = 0.0\nsamples = 1\nvalue = [1, 0]"] ;
805 -> 821 ;
822 [label="entropy = 0.0\nsamples = 1\nvalue = [1, 0]"] ;
804 -> 822 ;
823 [label="entropy = 0.0\nsamples = 1\nvalue = [1, 0]"] ;
803 -> 823 ;
824 [label="entropy = 0.0\nsamples = 1\nvalue = [1, 0]"] ;
802 -> 824 ;
825 [label="entropy = 0.0\nsamples = 1\nvalue = [1, 0]"] ;
801 -> 825 ;
826 [label="entropy = 0.0\nsamples = 1\nvalue = [1, 0]"] ;
800 -> 826 ;
827 [label="entropy = 0.0\nsamples = 1\nvalue = [1, 0]"] ;
799 -> 827 ;
828 [label="entropy = 0.0\nsamples = 1\nvalue = [1, 0]"] ;
798 -> 828 ;
829 [label="entropy = 0.0\nsamples = 1\nvalue = [0, 1]"] ;
797 -> 829 ;
830 [label="entropy = 0.0\nsamples = 1\nvalue = [1, 0]"] ;
796 -> 830 ;
831 [label="entropy = 0.0\nsamples = 2\nvalue = [2, 0]"] ;
795 -> 831 ;
832 [label="entropy = 0.0\nsamples = 1\nvalue = [1, 0]"] ;
794 -> 832 ;
833 [label="entropy = 0.0\nsamples = 1\nvalue = [1, 0]"] ;
793 -> 833 ;
834 [label="entropy = 0.0\nsamples = 1\nvalue = [1, 0]"] ;
792 -> 834 ;
835 [label="entropy = 0.0\nsamples = 1\nvalue = [0, 1]"] ;
791 -> 835 ;
836 [label="entropy = 0.0\nsamples = 1\nvalue = [1, 0]"] ;
790 -> 836 ;
837 [label="entropy = 0.0\nsamples = 1\nvalue = [0, 1]"] ;
789 -> 837 ;
838 [label="entropy = 0.0\nsamples = 1\nvalue = [1, 0]"] ;
788 -> 838 ;
839 [label="entropy = 0.0\nsamples = 1\nvalue = [0, 1]"] ;
787 -> 839 ;
840 [label="entropy = 0.0\nsamples = 1\nvalue = [1, 0]"] ;
786 -> 840 ;
841 [label="X[4333] <= 0.5\nentropy = 0.971\nsamples = 5\nvalue = [3, 2]"] ;
785 -> 841 ;
842 [label="X[3988] <= 0.5\nentropy = 1.0\nsamples = 4\nvalue = [2, 2]"] ;
841 -> 842 ;
843 [label="X[2995] <= 0.5\nentropy = 0.918\nsamples = 3\nvalue = [1, 2]"] ;
842 -> 843 ;
844 [label="entropy = 0.0\nsamples = 2\nvalue = [0, 2]"] ;
843 -> 844 ;
845 [label="entropy = 0.0\nsamples = 1\nvalue = [1, 0]"] ;
843 -> 845 ;
846 [label="entropy = 0.0\nsamples = 1\nvalue = [1, 0]"] ;
842 -> 846 ;
847 [label="entropy = 0.0\nsamples = 1\nvalue = [1, 0]"] ;
841 -> 847 ;
848 [label="entropy = 0.0\nsamples = 1\nvalue = [1, 0]"] ;
784 -> 848 ;
849 [label="entropy = 0.0\nsamples = 1\nvalue = [1, 0]"] ;
783 -> 849 ;
850 [label="entropy = 0.0\nsamples = 1\nvalue = [0, 1]"] ;
782 -> 850 ;
851 [label="X[822] <= 0.5\nentropy = 0.918\nsamples = 6\nvalue = [4, 2]"] ;
781 -> 851 ;
852 [label="X[1204] <= 0.5\nentropy = 0.971\nsamples = 5\nvalue = [3, 2]"] ;
851 -> 852 ;
853 [label="X[37] <= 0.5\nentropy = 1.0\nsamples = 4\nvalue = [2, 2]"] ;
852 -> 853 ;
854 [label="X[674] <= 0.5\nentropy = 0.918\nsamples = 3\nvalue = [2, 1]"] ;
853 -> 854 ;
855 [label="entropy = 0.0\nsamples = 1\nvalue = [0, 1]"] ;
854 -> 855 ;
856 [label="entropy = 0.0\nsamples = 2\nvalue = [2, 0]"] ;
854 -> 856 ;
857 [label="entropy = 0.0\nsamples = 1\nvalue = [0, 1]"] ;
853 -> 857 ;
858 [label="entropy = 0.0\nsamples = 1\nvalue = [1, 0]"] ;
852 -> 858 ;
859 [label="entropy = 0.0\nsamples = 1\nvalue = [1, 0]"] ;
851 -> 859 ;
860 [label="entropy = 0.0\nsamples = 1\nvalue = [1, 0]"] ;
780 -> 860 ;
861 [label="entropy = 0.0\nsamples = 1\nvalue = [1, 0]"] ;
779 -> 861 ;
862 [label="entropy = 0.0\nsamples = 1\nvalue = [1, 0]"] ;
778 -> 862 ;
863 [label="entropy = 0.0\nsamples = 1\nvalue = [0, 1]"] ;
777 -> 863 ;
864 [label="entropy = 0.0\nsamples = 1\nvalue = [0, 1]"] ;
776 -> 864 ;
865 [label="entropy = 0.0\nsamples = 5\nvalue = [5, 0]"] ;
775 -> 865 ;
866 [label="entropy = 0.0\nsamples = 2\nvalue = [2, 0]"] ;
774 -> 866 ;
867 [label="entropy = 0.0\nsamples = 1\nvalue = [1, 0]"] ;
773 -> 867 ;
868 [label="entropy = 0.0\nsamples = 1\nvalue = [1, 0]"] ;
772 -> 868 ;
869 [label="entropy = 0.0\nsamples = 1\nvalue = [1, 0]"] ;
771 -> 869 ;
870 [label="entropy = 0.0\nsamples = 1\nvalue = [0, 1]"] ;
770 -> 870 ;
871 [label="entropy = 0.0\nsamples = 1\nvalue = [1, 0]"] ;
769 -> 871 ;
872 [label="entropy = 0.0\nsamples = 1\nvalue = [1, 0]"] ;
768 -> 872 ;
873 [label="X[584] <= 0.5\nentropy = 0.918\nsamples = 3\nvalue = [2, 1]"] ;
767 -> 873 ;
874 [label="entropy = 0.0\nsamples = 2\nvalue = [2, 0]"] ;
873 -> 874 ;
875 [label="entropy = 0.0\nsamples = 1\nvalue = [0, 1]"] ;
873 -> 875 ;
876 [label="entropy = 0.0\nsamples = 1\nvalue = [1, 0]"] ;
766 -> 876 ;
877 [label="entropy = 0.0\nsamples = 1\nvalue = [0, 1]"] ;
765 -> 877 ;
878 [label="entropy = 0.0\nsamples = 1\nvalue = [1, 0]"] ;
764 -> 878 ;
879 [label="entropy = 0.0\nsamples = 2\nvalue = [2, 0]"] ;
763 -> 879 ;
880 [label="entropy = 0.0\nsamples = 1\nvalue = [0, 1]"] ;
762 -> 880 ;
881 [label="X[26] <= 0.5\nentropy = 0.918\nsamples = 3\nvalue = [1, 2]"] ;
761 -> 881 ;
882 [label="entropy = 0.0\nsamples = 1\nvalue = [1, 0]"] ;
881 -> 882 ;
883 [label="entropy = 0.0\nsamples = 2\nvalue = [0, 2]"] ;
881 -> 883 ;
884 [label="entropy = 0.0\nsamples = 1\nvalue = [1, 0]"] ;
760 -> 884 ;
885 [label="entropy = 0.0\nsamples = 1\nvalue = [0, 1]"] ;
759 -> 885 ;
886 [label="entropy = 0.0\nsamples = 3\nvalue = [3, 0]"] ;
758 -> 886 ;
887 [label="entropy = 0.0\nsamples = 1\nvalue = [0, 1]"] ;
757 -> 887 ;
888 [label="entropy = 0.0\nsamples = 1\nvalue = [1, 0]"] ;
756 -> 888 ;
889 [label="entropy = 0.0\nsamples = 1\nvalue = [1, 0]"] ;
755 -> 889 ;
890 [label="entropy = 0.0\nsamples = 1\nvalue = [1, 0]"] ;
754 -> 890 ;
891 [label="entropy = 0.0\nsamples = 1\nvalue = [1, 0]"] ;
753 -> 891 ;
892 [label="entropy = 0.0\nsamples = 1\nvalue = [1, 0]"] ;
752 -> 892 ;
893 [label="entropy = 0.0\nsamples = 1\nvalue = [0, 1]"] ;
751 -> 893 ;
894 [label="X[440] <= 0.5\nentropy = 1.0\nsamples = 2\nvalue = [1, 1]"] ;
714 -> 894 ;
895 [label="entropy = 0.0\nsamples = 1\nvalue = [0, 1]"] ;
894 -> 895 ;
896 [label="entropy = 0.0\nsamples = 1\nvalue = [1, 0]"] ;
894 -> 896 ;
897 [label="entropy = 0.0\nsamples = 1\nvalue = [1, 0]"] ;
713 -> 897 ;
898 [label="X[308] <= 0.5\nentropy = 0.109\nsamples = 69\nvalue = [68, 1]"] ;
712 -> 898 ;
899 [label="X[3799] <= 0.5\nentropy = 0.111\nsamples = 68\nvalue = [67, 1]"] ;
898 -> 899 ;
900 [label="X[5597] <= 0.5\nentropy = 0.112\nsamples = 67\nvalue = [66, 1]"] ;
899 -> 900 ;
901 [label="X[3158] <= 0.5\nentropy = 0.113\nsamples = 66\nvalue = [65, 1]"] ;
900 -> 901 ;
902 [label="X[4086] <= 0.5\nentropy = 0.115\nsamples = 65\nvalue = [64, 1]"] ;
901 -> 902 ;
903 [label="X[4219] <= 0.5\nentropy = 0.116\nsamples = 64\nvalue = [63, 1]"] ;
902 -> 903 ;
904 [label="X[1490] <= 0.5\nentropy = 0.119\nsamples = 62\nvalue = [61, 1]"] ;
903 -> 904 ;
905 [label="X[1781] <= 0.5\nentropy = 0.121\nsamples = 61\nvalue = [60, 1]"] ;
904 -> 905 ;
906 [label="X[721] <= 0.5\nentropy = 0.122\nsamples = 60\nvalue = [59, 1]"] ;
905 -> 906 ;
907 [label="X[1217] <= 0.5\nentropy = 0.124\nsamples = 59\nvalue = [58, 1]"] ;
906 -> 907 ;
908 [label="X[4499] <= 0.5\nentropy = 0.126\nsamples = 58\nvalue = [57, 1]"] ;
907 -> 908 ;
909 [label="X[5079] <= 0.5\nentropy = 0.127\nsamples = 57\nvalue = [56, 1]"] ;
908 -> 909 ;
910 [label="X[4119] <= 0.5\nentropy = 0.129\nsamples = 56\nvalue = [55, 1]"] ;
909 -> 910 ;
911 [label="X[735] <= 0.5\nentropy = 0.131\nsamples = 55\nvalue = [54, 1]"] ;
910 -> 911 ;
912 [label="X[271] <= 0.5\nentropy = 0.133\nsamples = 54\nvalue = [53, 1]"] ;
911 -> 912 ;
913 [label="X[61] <= 0.5\nentropy = 0.137\nsamples = 52\nvalue = [51, 1]"] ;
912 -> 913 ;
914 [label="X[5777] <= 0.5\nentropy = 0.141\nsamples = 50\nvalue = [49, 1]"] ;
913 -> 914 ;
915 [label="X[3765] <= 0.5\nentropy = 0.144\nsamples = 49\nvalue = [48, 1]"] ;
914 -> 915 ;
916 [label="X[4623] <= 0.5\nentropy = 0.146\nsamples = 48\nvalue = [47, 1]"] ;
915 -> 916 ;
917 [label="X[779] <= 0.5\nentropy = 0.149\nsamples = 47\nvalue = [46, 1]"] ;
916 -> 917 ;
918 [label="entropy = 0.0\nsamples = 46\nvalue = [46, 0]"] ;
917 -> 918 ;
919 [label="entropy = 0.0\nsamples = 1\nvalue = [0, 1]"] ;
917 -> 919 ;
920 [label="entropy = 0.0\nsamples = 1\nvalue = [1, 0]"] ;
916 -> 920 ;
921 [label="entropy = 0.0\nsamples = 1\nvalue = [1, 0]"] ;
915 -> 921 ;
922 [label="entropy = 0.0\nsamples = 1\nvalue = [1, 0]"] ;
914 -> 922 ;
923 [label="entropy = 0.0\nsamples = 2\nvalue = [2, 0]"] ;
913 -> 923 ;
924 [label="entropy = 0.0\nsamples = 2\nvalue = [2, 0]"] ;
912 -> 924 ;
925 [label="entropy = 0.0\nsamples = 1\nvalue = [1, 0]"] ;
911 -> 925 ;
926 [label="entropy = 0.0\nsamples = 1\nvalue = [1, 0]"] ;
910 -> 926 ;
927 [label="entropy = 0.0\nsamples = 1\nvalue = [1, 0]"] ;
909 -> 927 ;
928 [label="entropy = 0.0\nsamples = 1\nvalue = [1, 0]"] ;
908 -> 928 ;
929 [label="entropy = 0.0\nsamples = 1\nvalue = [1, 0]"] ;
907 -> 929 ;
930 [label="entropy = 0.0\nsamples = 1\nvalue = [1, 0]"] ;
906 -> 930 ;
931 [label="entropy = 0.0\nsamples = 1\nvalue = [1, 0]"] ;
905 -> 931 ;
932 [label="entropy = 0.0\nsamples = 1\nvalue = [1, 0]"] ;
904 -> 932 ;
933 [label="entropy = 0.0\nsamples = 2\nvalue = [2, 0]"] ;
903 -> 933 ;
934 [label="entropy = 0.0\nsamples = 1\nvalue = [1, 0]"] ;
902 -> 934 ;
935 [label="entropy = 0.0\nsamples = 1\nvalue = [1, 0]"] ;
901 -> 935 ;
936 [label="entropy = 0.0\nsamples = 1\nvalue = [1, 0]"] ;
900 -> 936 ;
937 [label="entropy = 0.0\nsamples = 1\nvalue = [1, 0]"] ;
899 -> 937 ;
938 [label="entropy = 0.0\nsamples = 1\nvalue = [1, 0]"] ;
898 -> 938 ;
939 [label="entropy = 0.0\nsamples = 1\nvalue = [1, 0]"] ;
711 -> 939 ;
940 [label="entropy = 0.0\nsamples = 3\nvalue = [3, 0]"] ;
710 -> 940 ;
941 [label="entropy = 0.0\nsamples = 2\nvalue = [0, 2]"] ;
709 -> 941 ;
942 [label="entropy = 0.0\nsamples = 1\nvalue = [0, 1]"] ;
708 -> 942 ;
943 [label="entropy = 0.0\nsamples = 1\nvalue = [1, 0]"] ;
707 -> 943 ;
944 [label="X[2763] <= 0.5\nentropy = 1.0\nsamples = 2\nvalue = [1, 1]"] ;
706 -> 944 ;
945 [label="entropy = 0.0\nsamples = 1\nvalue = [1, 0]"] ;
944 -> 945 ;
946 [label="entropy = 0.0\nsamples = 1\nvalue = [0, 1]"] ;
944 -> 946 ;
947 [label="entropy = 0.0\nsamples = 1\nvalue = [1, 0]"] ;
705 -> 947 ;
948 [label="entropy = 0.0\nsamples = 1\nvalue = [0, 1]"] ;
704 -> 948 ;
949 [label="entropy = 0.0\nsamples = 1\nvalue = [1, 0]"] ;
703 -> 949 ;
950 [label="entropy = 0.0\nsamples = 1\nvalue = [1, 0]"] ;
702 -> 950 ;
951 [label="entropy = 0.0\nsamples = 1\nvalue = [1, 0]"] ;
701 -> 951 ;
952 [label="entropy = 0.0\nsamples = 1\nvalue = [1, 0]"] ;
700 -> 952 ;
953 [label="entropy = 0.0\nsamples = 1\nvalue = [1, 0]"] ;
699 -> 953 ;
954 [label="entropy = 0.0\nsamples = 1\nvalue = [1, 0]"] ;
698 -> 954 ;
955 [label="entropy = 0.0\nsamples = 1\nvalue = [1, 0]"] ;
697 -> 955 ;
956 [label="entropy = 0.0\nsamples = 1\nvalue = [0, 1]"] ;
696 -> 956 ;
957 [label="entropy = 0.0\nsamples = 1\nvalue = [1, 0]"] ;
695 -> 957 ;
958 [label="entropy = 0.0\nsamples = 1\nvalue = [1, 0]"] ;
694 -> 958 ;
959 [label="entropy = 0.0\nsamples = 1\nvalue = [1, 0]"] ;
693 -> 959 ;
960 [label="entropy = 0.0\nsamples = 1\nvalue = [1, 0]"] ;
692 -> 960 ;
961 [label="entropy = 0.0\nsamples = 1\nvalue = [1, 0]"] ;
691 -> 961 ;
962 [label="entropy = 0.0\nsamples = 1\nvalue = [1, 0]"] ;
690 -> 962 ;
963 [label="entropy = 0.0\nsamples = 2\nvalue = [2, 0]"] ;
689 -> 963 ;
964 [label="entropy = 0.0\nsamples = 1\nvalue = [1, 0]"] ;
688 -> 964 ;
965 [label="entropy = 0.0\nsamples = 1\nvalue = [1, 0]"] ;
687 -> 965 ;
966 [label="entropy = 0.0\nsamples = 1\nvalue = [1, 0]"] ;
686 -> 966 ;
967 [label="X[117] <= 0.5\nentropy = 0.811\nsamples = 4\nvalue = [3, 1]"] ;
685 -> 967 ;
968 [label="X[3756] <= 0.5\nentropy = 0.918\nsamples = 3\nvalue = [2, 1]"] ;
967 -> 968 ;
969 [label="X[1141] <= 0.5\nentropy = 1.0\nsamples = 2\nvalue = [1, 1]"] ;
968 -> 969 ;
970 [label="entropy = 0.0\nsamples = 1\nvalue = [1, 0]"] ;
969 -> 970 ;
971 [label="entropy = 0.0\nsamples = 1\nvalue = [0, 1]"] ;
969 -> 971 ;
972 [label="entropy = 0.0\nsamples = 1\nvalue = [1, 0]"] ;
968 -> 972 ;
973 [label="entropy = 0.0\nsamples = 1\nvalue = [1, 0]"] ;
967 -> 973 ;
974 [label="entropy = 0.0\nsamples = 3\nvalue = [3, 0]"] ;
684 -> 974 ;
975 [label="entropy = 0.0\nsamples = 2\nvalue = [2, 0]"] ;
683 -> 975 ;
976 [label="entropy = 0.0\nsamples = 1\nvalue = [0, 1]"] ;
682 -> 976 ;
977 [label="entropy = 0.0\nsamples = 2\nvalue = [2, 0]"] ;
681 -> 977 ;
978 [label="entropy = 0.0\nsamples = 1\nvalue = [1, 0]"] ;
680 -> 978 ;
979 [label="entropy = 0.0\nsamples = 1\nvalue = [1, 0]"] ;
679 -> 979 ;
980 [label="X[1415] <= 0.5\nentropy = 0.61\nsamples = 20\nvalue = [17, 3]"] ;
678 -> 980 ;
981 [label="X[674] <= 0.5\nentropy = 0.629\nsamples = 19\nvalue = [16, 3]"] ;
980 -> 981 ;
982 [label="X[959] <= 0.5\nentropy = 0.65\nsamples = 18\nvalue = [15, 3]"] ;
981 -> 982 ;
983 [label="X[6] <= 0.5\nentropy = 0.672\nsamples = 17\nvalue = [14, 3]"] ;
982 -> 983 ;
984 [label="X[1329] <= 0.5\nentropy = 0.592\nsamples = 14\nvalue = [12, 2]"] ;
983 -> 984 ;
985 [label="X[270] <= 0.5\nentropy = 0.391\nsamples = 13\nvalue = [12, 1]"] ;
984 -> 985 ;
986 [label="X[1698] <= 0.5\nentropy = 0.414\nsamples = 12\nvalue = [11, 1]"] ;
985 -> 986 ;
987 [label="X[623] <= 0.5\nentropy = 0.439\nsamples = 11\nvalue = [10, 1]"] ;
986 -> 987 ;
988 [label="entropy = 0.0\nsamples = 10\nvalue = [10, 0]"] ;
987 -> 988 ;
989 [label="entropy = 0.0\nsamples = 1\nvalue = [0, 1]"] ;
987 -> 989 ;
990 [label="entropy = 0.0\nsamples = 1\nvalue = [1, 0]"] ;
986 -> 990 ;
991 [label="entropy = 0.0\nsamples = 1\nvalue = [1, 0]"] ;
985 -> 991 ;
992 [label="entropy = 0.0\nsamples = 1\nvalue = [0, 1]"] ;
984 -> 992 ;
993 [label="X[1604] <= 0.5\nentropy = 0.918\nsamples = 3\nvalue = [2, 1]"] ;
983 -> 993 ;
994 [label="X[2625] <= 0.5\nentropy = 1.0\nsamples = 2\nvalue = [1, 1]"] ;
993 -> 994 ;
995 [label="entropy = 0.0\nsamples = 1\nvalue = [1, 0]"] ;
994 -> 995 ;
996 [label="entropy = 0.0\nsamples = 1\nvalue = [0, 1]"] ;
994 -> 996 ;
997 [label="entropy = 0.0\nsamples = 1\nvalue = [1, 0]"] ;
993 -> 997 ;
998 [label="entropy = 0.0\nsamples = 1\nvalue = [1, 0]"] ;
982 -> 998 ;
999 [label="entropy = 0.0\nsamples = 1\nvalue = [1, 0]"] ;
981 -> 999 ;
1000 [label="entropy = 0.0\nsamples = 1\nvalue = [1, 0]"] ;
980 -> 1000 ;
1001 [label="entropy = 0.0\nsamples = 1\nvalue = [1, 0]"] ;
677 -> 1001 ;
1002 [label="entropy = 0.0\nsamples = 1\nvalue = [1, 0]"] ;
676 -> 1002 ;
1003 [label="entropy = 0.0\nsamples = 1\nvalue = [1, 0]"] ;
675 -> 1003 ;
1004 [label="entropy = 0.0\nsamples = 1\nvalue = [1, 0]"] ;
674 -> 1004 ;
1005 [label="entropy = 0.0\nsamples = 1\nvalue = [0, 1]"] ;
673 -> 1005 ;
1006 [label="X[230] <= 0.5\nentropy = 1.0\nsamples = 2\nvalue = [1, 1]"] ;
672 -> 1006 ;
1007 [label="entropy = 0.0\nsamples = 1\nvalue = [0, 1]"] ;
1006 -> 1007 ;
1008 [label="entropy = 0.0\nsamples = 1\nvalue = [1, 0]"] ;
1006 -> 1008 ;
1009 [label="entropy = 0.0\nsamples = 1\nvalue = [1, 0]"] ;
671 -> 1009 ;
1010 [label="entropy = 0.0\nsamples = 1\nvalue = [1, 0]"] ;
670 -> 1010 ;
1011 [label="entropy = 0.0\nsamples = 1\nvalue = [1, 0]"] ;
669 -> 1011 ;
1012 [label="entropy = 0.0\nsamples = 4\nvalue = [4, 0]"] ;
668 -> 1012 ;
1013 [label="entropy = 0.0\nsamples = 2\nvalue = [2, 0]"] ;
667 -> 1013 ;
1014 [label="entropy = 0.0\nsamples = 1\nvalue = [0, 1]"] ;
666 -> 1014 ;
1015 [label="entropy = 0.0\nsamples = 1\nvalue = [0, 1]"] ;
665 -> 1015 ;
1016 [label="entropy = 0.0\nsamples = 1\nvalue = [1, 0]"] ;
664 -> 1016 ;
1017 [label="entropy = 0.0\nsamples = 1\nvalue = [0, 1]"] ;
663 -> 1017 ;
1018 [label="X[5827] <= 0.5\nentropy = 0.971\nsamples = 5\nvalue = [3, 2]"] ;
662 -> 1018 ;
1019 [label="X[264] <= 0.5\nentropy = 1.0\nsamples = 4\nvalue = [2, 2]"] ;
1018 -> 1019 ;
1020 [label="X[4861] <= 0.5\nentropy = 0.918\nsamples = 3\nvalue = [1, 2]"] ;
1019 -> 1020 ;
1021 [label="entropy = 0.0\nsamples = 2\nvalue = [0, 2]"] ;
1020 -> 1021 ;
1022 [label="entropy = 0.0\nsamples = 1\nvalue = [1, 0]"] ;
1020 -> 1022 ;
1023 [label="entropy = 0.0\nsamples = 1\nvalue = [1, 0]"] ;
1019 -> 1023 ;
1024 [label="entropy = 0.0\nsamples = 1\nvalue = [1, 0]"] ;
1018 -> 1024 ;
1025 [label="entropy = 0.0\nsamples = 1\nvalue = [0, 1]"] ;
661 -> 1025 ;
1026 [label="entropy = 0.0\nsamples = 1\nvalue = [1, 0]"] ;
660 -> 1026 ;
1027 [label="entropy = 0.0\nsamples = 1\nvalue = [1, 0]"] ;
659 -> 1027 ;
1028 [label="entropy = 0.0\nsamples = 1\nvalue = [1, 0]"] ;
658 -> 1028 ;
1029 [label="entropy = 0.0\nsamples = 1\nvalue = [1, 0]"] ;
657 -> 1029 ;
1030 [label="entropy = 0.0\nsamples = 1\nvalue = [1, 0]"] ;
656 -> 1030 ;
1031 [label="entropy = 0.0\nsamples = 1\nvalue = [1, 0]"] ;
655 -> 1031 ;
1032 [label="entropy = 0.0\nsamples = 1\nvalue = [1, 0]"] ;
654 -> 1032 ;
1033 [label="entropy = 0.0\nsamples = 1\nvalue = [0, 1]"] ;
653 -> 1033 ;
1034 [label="X[721] <= 0.5\nentropy = 0.811\nsamples = 4\nvalue = [3, 1]"] ;
652 -> 1034 ;
1035 [label="X[23] <= 0.5\nentropy = 0.918\nsamples = 3\nvalue = [2, 1]"] ;
1034 -> 1035 ;
1036 [label="X[5041] <= 0.5\nentropy = 1.0\nsamples = 2\nvalue = [1, 1]"] ;
1035 -> 1036 ;
1037 [label="entropy = 0.0\nsamples = 1\nvalue = [0, 1]"] ;
1036 -> 1037 ;
1038 [label="entropy = 0.0\nsamples = 1\nvalue = [1, 0]"] ;
1036 -> 1038 ;
1039 [label="entropy = 0.0\nsamples = 1\nvalue = [1, 0]"] ;
1035 -> 1039 ;
1040 [label="entropy = 0.0\nsamples = 1\nvalue = [1, 0]"] ;
1034 -> 1040 ;
1041 [label="entropy = 0.0\nsamples = 2\nvalue = [2, 0]"] ;
651 -> 1041 ;
1042 [label="X[23] <= 0.5\nentropy = 0.918\nsamples = 3\nvalue = [2, 1]"] ;
650 -> 1042 ;
1043 [label="entropy = 0.0\nsamples = 1\nvalue = [0, 1]"] ;
1042 -> 1043 ;
1044 [label="entropy = 0.0\nsamples = 2\nvalue = [2, 0]"] ;
1042 -> 1044 ;
1045 [label="entropy = 0.0\nsamples = 4\nvalue = [4, 0]"] ;
649 -> 1045 ;
1046 [label="entropy = 0.0\nsamples = 1\nvalue = [1, 0]"] ;
648 -> 1046 ;
1047 [label="entropy = 0.0\nsamples = 1\nvalue = [0, 1]"] ;
647 -> 1047 ;
1048 [label="entropy = 0.0\nsamples = 1\nvalue = [1, 0]"] ;
646 -> 1048 ;
1049 [label="entropy = 0.0\nsamples = 1\nvalue = [0, 1]"] ;
645 -> 1049 ;
1050 [label="entropy = 0.0\nsamples = 1\nvalue = [1, 0]"] ;
644 -> 1050 ;
1051 [label="entropy = 0.0\nsamples = 1\nvalue = [1, 0]"] ;
643 -> 1051 ;
1052 [label="entropy = 0.0\nsamples = 2\nvalue = [0, 2]"] ;
642 -> 1052 ;
1053 [label="entropy = 0.0\nsamples = 1\nvalue = [1, 0]"] ;
641 -> 1053 ;
1054 [label="entropy = 0.0\nsamples = 1\nvalue = [1, 0]"] ;
640 -> 1054 ;
1055 [label="entropy = 0.0\nsamples = 1\nvalue = [1, 0]"] ;
639 -> 1055 ;
1056 [label="X[1208] <= 0.5\nentropy = 1.0\nsamples = 2\nvalue = [1, 1]"] ;
638 -> 1056 ;
1057 [label="entropy = 0.0\nsamples = 1\nvalue = [1, 0]"] ;
1056 -> 1057 ;
1058 [label="entropy = 0.0\nsamples = 1\nvalue = [0, 1]"] ;
1056 -> 1058 ;
1059 [label="entropy = 0.0\nsamples = 1\nvalue = [1, 0]"] ;
637 -> 1059 ;
1060 [label="entropy = 0.0\nsamples = 1\nvalue = [0, 1]"] ;
636 -> 1060 ;
1061 [label="entropy = 0.0\nsamples = 1\nvalue = [1, 0]"] ;
635 -> 1061 ;
1062 [label="entropy = 0.0\nsamples = 1\nvalue = [1, 0]"] ;
634 -> 1062 ;
1063 [label="entropy = 0.0\nsamples = 1\nvalue = [1, 0]"] ;
633 -> 1063 ;
1064 [label="entropy = 0.0\nsamples = 1\nvalue = [1, 0]"] ;
632 -> 1064 ;
1065 [label="entropy = 0.0\nsamples = 1\nvalue = [0, 1]"] ;
631 -> 1065 ;
1066 [label="entropy = 0.0\nsamples = 1\nvalue = [1, 0]"] ;
630 -> 1066 ;
1067 [label="entropy = 0.0\nsamples = 1\nvalue = [0, 1]"] ;
629 -> 1067 ;
1068 [label="entropy = 0.0\nsamples = 1\nvalue = [1, 0]"] ;
628 -> 1068 ;
1069 [label="entropy = 0.0\nsamples = 1\nvalue = [1, 0]"] ;
627 -> 1069 ;
1070 [label="entropy = 0.0\nsamples = 1\nvalue = [0, 1]"] ;
626 -> 1070 ;
1071 [label="entropy = 0.0\nsamples = 5\nvalue = [5, 0]"] ;
625 -> 1071 ;
1072 [label="entropy = 0.0\nsamples = 2\nvalue = [2, 0]"] ;
624 -> 1072 ;
1073 [label="entropy = 0.0\nsamples = 1\nvalue = [1, 0]"] ;
623 -> 1073 ;
1074 [label="entropy = 0.0\nsamples = 1\nvalue = [1, 0]"] ;
622 -> 1074 ;
1075 [label="entropy = 0.0\nsamples = 1\nvalue = [1, 0]"] ;
621 -> 1075 ;
1076 [label="entropy = 0.0\nsamples = 1\nvalue = [1, 0]"] ;
620 -> 1076 ;
1077 [label="entropy = 0.0\nsamples = 1\nvalue = [0, 1]"] ;
619 -> 1077 ;
1078 [label="X[3928] <= 0.5\nentropy = 0.918\nsamples = 3\nvalue = [2, 1]"] ;
618 -> 1078 ;
1079 [label="X[125] <= 0.5\nentropy = 1.0\nsamples = 2\nvalue = [1, 1]"] ;
1078 -> 1079 ;
1080 [label="entropy = 0.0\nsamples = 1\nvalue = [1, 0]"] ;
1079 -> 1080 ;
1081 [label="entropy = 0.0\nsamples = 1\nvalue = [0, 1]"] ;
1079 -> 1081 ;
1082 [label="entropy = 0.0\nsamples = 1\nvalue = [1, 0]"] ;
1078 -> 1082 ;
1083 [label="entropy = 0.0\nsamples = 1\nvalue = [1, 0]"] ;
617 -> 1083 ;
1084 [label="entropy = 0.0\nsamples = 1\nvalue = [0, 1]"] ;
616 -> 1084 ;
1085 [label="X[1096] <= 0.5\nentropy = 0.918\nsamples = 6\nvalue = [4, 2]"] ;
615 -> 1085 ;
1086 [label="X[167] <= 0.5\nentropy = 0.971\nsamples = 5\nvalue = [3, 2]"] ;
1085 -> 1086 ;
1087 [label="X[839] <= 0.5\nentropy = 1.0\nsamples = 4\nvalue = [2, 2]"] ;
1086 -> 1087 ;
1088 [label="X[15] <= 0.5\nentropy = 0.918\nsamples = 3\nvalue = [2, 1]"] ;
1087 -> 1088 ;
1089 [label="entropy = 0.0\nsamples = 2\nvalue = [2, 0]"] ;
1088 -> 1089 ;
1090 [label="entropy = 0.0\nsamples = 1\nvalue = [0, 1]"] ;
1088 -> 1090 ;
1091 [label="entropy = 0.0\nsamples = 1\nvalue = [0, 1]"] ;
1087 -> 1091 ;
1092 [label="entropy = 0.0\nsamples = 1\nvalue = [1, 0]"] ;
1086 -> 1092 ;
1093 [label="entropy = 0.0\nsamples = 1\nvalue = [1, 0]"] ;
1085 -> 1093 ;
1094 [label="entropy = 0.0\nsamples = 2\nvalue = [0, 2]"] ;
614 -> 1094 ;
1095 [label="entropy = 0.0\nsamples = 1\nvalue = [0, 1]"] ;
613 -> 1095 ;
1096 [label="entropy = 0.0\nsamples = 1\nvalue = [1, 0]"] ;
612 -> 1096 ;
1097 [label="entropy = 0.0\nsamples = 1\nvalue = [0, 1]"] ;
611 -> 1097 ;
1098 [label="entropy = 0.0\nsamples = 1\nvalue = [1, 0]"] ;
610 -> 1098 ;
1099 [label="entropy = 0.0\nsamples = 2\nvalue = [2, 0]"] ;
609 -> 1099 ;
1100 [label="entropy = 0.0\nsamples = 1\nvalue = [1, 0]"] ;
608 -> 1100 ;
1101 [label="entropy = 0.0\nsamples = 1\nvalue = [1, 0]"] ;
607 -> 1101 ;
1102 [label="X[3451] <= 0.5\nentropy = 1.0\nsamples = 2\nvalue = [1, 1]"] ;
606 -> 1102 ;
1103 [label="entropy = 0.0\nsamples = 1\nvalue = [1, 0]"] ;
1102 -> 1103 ;
1104 [label="entropy = 0.0\nsamples = 1\nvalue = [0, 1]"] ;
1102 -> 1104 ;
1105 [label="entropy = 0.0\nsamples = 1\nvalue = [1, 0]"] ;
605 -> 1105 ;
1106 [label="entropy = 0.0\nsamples = 1\nvalue = [1, 0]"] ;
604 -> 1106 ;
1107 [label="entropy = 0.0\nsamples = 1\nvalue = [1, 0]"] ;
603 -> 1107 ;
1108 [label="entropy = 0.0\nsamples = 1\nvalue = [1, 0]"] ;
602 -> 1108 ;
1109 [label="entropy = 0.0\nsamples = 1\nvalue = [1, 0]"] ;
601 -> 1109 ;
1110 [label="entropy = 0.0\nsamples = 1\nvalue = [1, 0]"] ;
600 -> 1110 ;
