digraph Tree {
node [shape=box] ;
0 [label="X[4850] <= 0.5\nentropy = 0.969\nsamples = 2287\nvalue = [1378, 909]"] ;
1 [label="X[3565] <= 0.5\nentropy = 0.97\nsamples = 2285\nvalue = [1376, 909]"] ;
0 -> 1 [labeldistance=2.5, labelangle=45, headlabel="True"] ;
2 [label="X[42] <= 0.5\nentropy = 0.97\nsamples = 2282\nvalue = [1373, 909]"] ;
1 -> 2 ;
3 [label="X[2936] <= 0.5\nentropy = 0.97\nsamples = 2280\nvalue = [1373, 907]"] ;
2 -> 3 ;
4 [label="X[805] <= 0.5\nentropy = 0.969\nsamples = 2278\nvalue = [1373, 905]"] ;
3 -> 4 ;
5 [label="X[208] <= 0.5\nentropy = 0.969\nsamples = 2274\nvalue = [1373, 901]"] ;
4 -> 5 ;
6 [label="X[3241] <= 0.5\nentropy = 0.968\nsamples = 2247\nvalue = [1361, 886]"] ;
5 -> 6 ;
7 [label="X[1313] <= 0.5\nentropy = 0.967\nsamples = 2246\nvalue = [1361, 885]"] ;
6 -> 7 ;
8 [label="X[3807] <= 0.5\nentropy = 0.967\nsamples = 2245\nvalue = [1361, 884]"] ;
7 -> 8 ;
9 [label="X[3716] <= 0.5\nentropy = 0.967\nsamples = 2243\nvalue = [1359, 884]"] ;
8 -> 9 ;
10 [label="X[69] <= 0.5\nentropy = 0.968\nsamples = 2242\nvalue = [1358, 884]"] ;
9 -> 10 ;
11 [label="X[4928] <= 0.5\nentropy = 0.967\nsamples = 2240\nvalue = [1358, 882]"] ;
10 -> 11 ;
12 [label="X[4335] <= 0.5\nentropy = 0.967\nsamples = 2238\nvalue = [1356, 882]"] ;
11 -> 12 ;
13 [label="X[482] <= 0.5\nentropy = 0.968\nsamples = 2236\nvalue = [1354, 882]"] ;
12 -> 13 ;
14 [label="X[594] <= 0.5\nentropy = 0.964\nsamples = 2194\nvalue = [1341, 853]"] ;
13 -> 14 ;
15 [label="entropy = 0.964\nsamples = 2190\nvalue = [1340, 850]"] ;
14 -> 15 ;
16 [label="entropy = 0.811\nsamples = 4\nvalue = [1, 3]"] ;
14 -> 16 ;
17 [label="X[3198] <= 0.5\nentropy = 0.893\nsamples = 42\nvalue = [13, 29]"] ;
13 -> 17 ;
18 [label="entropy = 0.901\nsamples = 41\nvalue = [13, 28]"] ;
17 -> 18 ;
19 [label="entropy = 0.0\nsamples = 1\nvalue = [0, 1]"] ;
17 -> 19 ;
20 [label="entropy = 0.0\nsamples = 2\nvalue = [2, 0]"] ;
12 -> 20 ;
21 [label="entropy = 0.0\nsamples = 2\nvalue = [2, 0]"] ;
11 -> 21 ;
22 [label="entropy = 0.0\nsamples = 2\nvalue = [0, 2]"] ;
10 -> 22 ;
23 [label="entropy = 0.0\nsamples = 1\nvalue = [1, 0]"] ;
9 -> 23 ;
24 [label="entropy = 0.0\nsamples = 2\nvalue = [2, 0]"] ;
8 -> 24 ;
25 [label="entropy = 0.0\nsamples = 1\nvalue = [0, 1]"] ;
7 -> 25 ;
26 [label="entropy = 0.0\nsamples = 1\nvalue = [0, 1]"] ;
6 -> 26 ;
27 [label="X[3940] <= 0.5\nentropy = 0.991\nsamples = 27\nvalue = [12, 15]"] ;
5 -> 27 ;
28 [label="X[1224] <= 0.5\nentropy = 0.983\nsamples = 26\nvalue = [11, 15]"] ;
27 -> 28 ;
29 [label="X[869] <= 0.5\nentropy = 0.99\nsamples = 25\nvalue = [11, 14]"] ;
28 -> 29 ;
30 [label="X[1212] <= 0.5\nentropy = 0.995\nsamples = 24\nvalue = [11, 13]"] ;
29 -> 30 ;
31 [label="X[643] <= 0.5\nentropy = 0.999\nsamples = 23\nvalue = [11, 12]"] ;
30 -> 31 ;
32 [label="X[214] <= 0.5\nentropy = 1.0\nsamples = 22\nvalue = [11, 11]"] ;
31 -> 32 ;
33 [label="X[3464] <= 0.5\nentropy = 0.998\nsamples = 21\nvalue = [11, 10]"] ;
32 -> 33 ;
34 [label="X[746] <= 0.5\nentropy = 0.993\nsamples = 20\nvalue = [11, 9]"] ;
33 -> 34 ;
35 [label="X[2175] <= 0.5\nentropy = 0.998\nsamples = 19\nvalue = [10, 9]"] ;
34 -> 35 ;
36 [label="entropy = 0.991\nsamples = 18\nvalue = [10, 8]"] ;
35 -> 36 ;
37 [label="entropy = 0.0\nsamples = 1\nvalue = [0, 1]"] ;
35 -> 37 ;
38 [label="entropy = 0.0\nsamples = 1\nvalue = [1, 0]"] ;
34 -> 38 ;
39 [label="entropy = 0.0\nsamples = 1\nvalue = [0, 1]"] ;
33 -> 39 ;
40 [label="entropy = 0.0\nsamples = 1\nvalue = [0, 1]"] ;
32 -> 40 ;
41 [label="entropy = 0.0\nsamples = 1\nvalue = [0, 1]"] ;
31 -> 41 ;
42 [label="entropy = 0.0\nsamples = 1\nvalue = [0, 1]"] ;
30 -> 42 ;
43 [label="entropy = 0.0\nsamples = 1\nvalue = [0, 1]"] ;
29 -> 43 ;
44 [label="entropy = 0.0\nsamples = 1\nvalue = [0, 1]"] ;
28 -> 44 ;
45 [label="entropy = 0.0\nsamples = 1\nvalue = [1, 0]"] ;
27 -> 45 ;
46 [label="entropy = 0.0\nsamples = 4\nvalue = [0, 4]"] ;
4 -> 46 ;
47 [label="entropy = 0.0\nsamples = 2\nvalue = [0, 2]"] ;
3 -> 47 ;
48 [label="entropy = 0.0\nsamples = 2\nvalue = [0, 2]"] ;
2 -> 48 ;
49 [label="entropy = 0.0\nsamples = 3\nvalue = [3, 0]"] ;
1 -> 49 ;
50 [label="entropy = 0.0\nsamples = 2\nvalue = [2, 0]"] ;
0 -> 50 [labeldistance=2.5, labelangle=-45, headlabel="False"] ;
}