digraph Tree {
node [shape=box] ;
0 [label="X[439] <= 0.5\nentropy = 0.969\nsamples = 2287\nvalue = [1378, 909]"] ;
1 [label="X[713] <= 0.5\nentropy = 0.969\nsamples = 2285\nvalue = [1378, 907]"] ;
0 -> 1 [labeldistance=2.5, labelangle=45, headlabel="True"] ;
2 [label="X[558] <= 0.5\nentropy = 0.968\nsamples = 2280\nvalue = [1378, 902]"] ;
1 -> 2 ;
3 [label="X[4386] <= 0.5\nentropy = 0.969\nsamples = 2273\nvalue = [1371, 902]"] ;
2 -> 3 ;
4 [label="X[4912] <= 0.5\nentropy = 0.97\nsamples = 2266\nvalue = [1364, 902]"] ;
3 -> 4 ;
5 [label="X[2868] <= 0.5\nentropy = 0.97\nsamples = 2263\nvalue = [1361, 902]"] ;
4 -> 5 ;
6 [label="X[294] <= 0.5\nentropy = 0.97\nsamples = 2261\nvalue = [1361, 900]"] ;
5 -> 6 ;
7 [label="X[1925] <= 0.5\nentropy = 0.969\nsamples = 2253\nvalue = [1361, 892]"] ;
6 -> 7 ;
8 [label="X[170] <= 0.5\nentropy = 0.968\nsamples = 2251\nvalue = [1361, 890]"] ;
7 -> 8 ;
9 [label="X[730] <= 0.5\nentropy = 0.967\nsamples = 2245\nvalue = [1361, 884]"] ;
8 -> 9 ;
10 [label="X[2086] <= 0.5\nentropy = 0.967\nsamples = 2241\nvalue = [1361, 880]"] ;
9 -> 10 ;
11 [label="X[1578] <= 0.5\nentropy = 0.966\nsamples = 2239\nvalue = [1361, 878]"] ;
10 -> 11 ;
12 [label="X[3762] <= 0.5\nentropy = 0.967\nsamples = 2225\nvalue = [1349, 876]"] ;
11 -> 12 ;
13 [label="X[769] <= 0.5\nentropy = 0.969\nsamples = 2211\nvalue = [1335, 876]"] ;
12 -> 13 ;
14 [label="X[488] <= 0.5\nentropy = 0.968\nsamples = 2208\nvalue = [1335, 873]"] ;
13 -> 14 ;
15 [label="X[121] <= 0.5\nentropy = 0.968\nsamples = 2204\nvalue = [1335, 869]"] ;
14 -> 15 ;
16 [label="X[153] <= 0.5\nentropy = 0.966\nsamples = 2192\nvalue = [1332, 860]"] ;
15 -> 16 ;
17 [label="X[1500] <= 0.5\nentropy = 0.965\nsamples = 2181\nvalue = [1331, 850]"] ;
16 -> 17 ;
18 [label="X[399] <= 0.5\nentropy = 0.964\nsamples = 2180\nvalue = [1331, 849]"] ;
17 -> 18 ;
19 [label="X[3720] <= 0.5\nentropy = 0.964\nsamples = 2178\nvalue = [1331, 847]"] ;
18 -> 19 ;
20 [label="X[2628] <= 0.5\nentropy = 0.97\nsamples = 2129\nvalue = [1282, 847]"] ;
19 -> 20 ;
21 [label="X[1267] <= 0.5\nentropy = 0.971\nsamples = 2118\nvalue = [1271, 847]"] ;
20 -> 21 ;
22 [label="X[2190] <= 0.5\nentropy = 0.97\nsamples = 2112\nvalue = [1271, 841]"] ;
21 -> 22 ;
23 [label="X[2467] <= 0.5\nentropy = 0.969\nsamples = 2109\nvalue = [1271, 838]"] ;
22 -> 23 ;
24 [label="X[67] <= 0.5\nentropy = 0.969\nsamples = 2107\nvalue = [1271, 836]"] ;
23 -> 24 ;
25 [label="X[1313] <= 0.5\nentropy = 0.967\nsamples = 2090\nvalue = [1268, 822]"] ;
24 -> 25 ;
26 [label="X[2126] <= 0.5\nentropy = 0.967\nsamples = 2088\nvalue = [1268, 820]"] ;
25 -> 26 ;
27 [label="X[3854] <= 0.5\nentropy = 0.966\nsamples = 2084\nvalue = [1268, 816]"] ;
26 -> 27 ;
28 [label="X[2969] <= 0.5\nentropy = 0.966\nsamples = 2079\nvalue = [1263, 816]"] ;
27 -> 28 ;
29 [label="X[570] <= 0.5\nentropy = 0.966\nsamples = 2078\nvalue = [1263, 815]"] ;
28 -> 29 ;
30 [label="X[810] <= 0.5\nentropy = 0.966\nsamples = 2075\nvalue = [1263, 812]"] ;
29 -> 30 ;
31 [label="X[118] <= 0.5\nentropy = 0.965\nsamples = 2073\nvalue = [1263, 810]"] ;
30 -> 31 ;
32 [label="X[1547] <= 0.5\nentropy = 0.98\nsamples = 1892\nvalue = [1102, 790]"] ;
31 -> 32 ;
33 [label="X[58] <= 0.5\nentropy = 0.98\nsamples = 1886\nvalue = [1101, 785]"] ;
32 -> 33 ;
34 [label="X[1324] <= 0.5\nentropy = 0.978\nsamples = 1864\nvalue = [1095, 769]"] ;
33 -> 34 ;
35 [label="X[2462] <= 0.5\nentropy = 0.977\nsamples = 1861\nvalue = [1095, 766]"] ;
34 -> 35 ;
36 [label="X[252] <= 0.5\nentropy = 0.977\nsamples = 1859\nvalue = [1095, 764]"] ;
35 -> 36 ;
37 [label="X[91] <= 0.5\nentropy = 0.976\nsamples = 1845\nvalue = [1092, 753]"] ;
36 -> 37 ;
38 [label="X[172] <= 0.5\nentropy = 0.975\nsamples = 1842\nvalue = [1092, 750]"] ;
37 -> 38 ;
39 [label="X[3356] <= 0.5\nentropy = 0.974\nsamples = 1838\nvalue = [1092, 746]"] ;
38 -> 39 ;
40 [label="X[4759] <= 0.5\nentropy = 0.974\nsamples = 1837\nvalue = [1092, 745]"] ;
39 -> 40 ;
41 [label="X[1790] <= 0.5\nentropy = 0.974\nsamples = 1835\nvalue = [1090, 745]"] ;
40 -> 41 ;
42 [label="X[931] <= 0.5\nentropy = 0.974\nsamples = 1832\nvalue = [1090, 742]"] ;
41 -> 42 ;
43 [label="X[1809] <= 0.5\nentropy = 0.973\nsamples = 1830\nvalue = [1090, 740]"] ;
42 -> 43 ;
44 [label="X[519] <= 0.5\nentropy = 0.973\nsamples = 1829\nvalue = [1090, 739]"] ;
43 -> 44 ;
45 [label="X[291] <= 0.5\nentropy = 0.973\nsamples = 1825\nvalue = [1090, 735]"] ;
44 -> 45 ;
46 [label="X[611] <= 0.5\nentropy = 0.969\nsamples = 1777\nvalue = [1071, 706]"] ;
45 -> 46 ;
47 [label="X[512] <= 0.5\nentropy = 0.968\nsamples = 1770\nvalue = [1071, 699]"] ;
46 -> 47 ;
48 [label="X[331] <= 0.5\nentropy = 0.967\nsamples = 1761\nvalue = [1068, 693]"] ;
47 -> 48 ;
49 [label="X[7] <= 0.5\nentropy = 0.965\nsamples = 1745\nvalue = [1064, 681]"] ;
48 -> 49 ;
50 [label="X[2207] <= 0.5\nentropy = 0.956\nsamples = 1511\nvalue = [942, 569]"] ;
49 -> 50 ;
51 [label="X[125] <= 0.5\nentropy = 0.955\nsamples = 1510\nvalue = [942, 568]"] ;
50 -> 51 ;
52 [label="X[577] <= 0.5\nentropy = 0.941\nsamples = 1414\nvalue = [907, 507]"] ;
51 -> 52 ;
53 [label="X[1] <= 0.5\nentropy = 0.94\nsamples = 1411\nvalue = [907, 504]"] ;
52 -> 53 ;
54 [label="X[392] <= 0.5\nentropy = 0.938\nsamples = 1403\nvalue = [906, 497]"] ;
53 -> 54 ;
55 [label="X[1489] <= 0.5\nentropy = 0.936\nsamples = 1395\nvalue = [904, 491]"] ;
54 -> 55 ;
56 [label="X[275] <= 0.5\nentropy = 0.935\nsamples = 1393\nvalue = [904, 489]"] ;
55 -> 56 ;
57 [label="X[3522] <= 0.5\nentropy = 0.927\nsamples = 1353\nvalue = [890, 463]"] ;
56 -> 57 ;
58 [label="X[1982] <= 0.5\nentropy = 0.926\nsamples = 1352\nvalue = [890, 462]"] ;
57 -> 58 ;
59 [label="X[289] <= 0.5\nentropy = 0.926\nsamples = 1350\nvalue = [890, 460]"] ;
58 -> 59 ;
60 [label="X[1514] <= 0.5\nentropy = 0.915\nsamples = 1284\nvalue = [860, 424]"] ;
59 -> 60 ;
61 [label="X[2895] <= 0.5\nentropy = 0.915\nsamples = 1283\nvalue = [860, 423]"] ;
60 -> 61 ;
62 [label="X[1357] <= 0.5\nentropy = 0.914\nsamples = 1282\nvalue = [860, 422]"] ;
61 -> 62 ;
63 [label="X[24] <= 0.5\nentropy = 0.913\nsamples = 1280\nvalue = [860, 420]"] ;
62 -> 63 ;
64 [label="X[3423] <= 0.5\nentropy = 0.907\nsamples = 1264\nvalue = [857, 407]"] ;
63 -> 64 ;
65 [label="X[32] <= 0.5\nentropy = 0.906\nsamples = 1263\nvalue = [857, 406]"] ;
64 -> 65 ;
66 [label="X[60] <= 0.5\nentropy = 0.884\nsamples = 1187\nvalue = [828, 359]"] ;
65 -> 66 ;
67 [label="X[539] <= 0.5\nentropy = 0.877\nsamples = 1177\nvalue = [828, 349]"] ;
66 -> 67 ;
68 [label="X[465] <= 0.5\nentropy = 0.875\nsamples = 1175\nvalue = [828, 347]"] ;
67 -> 68 ;
69 [label="X[2839] <= 0.5\nentropy = 0.873\nsamples = 1172\nvalue = [828, 344]"] ;
68 -> 69 ;
70 [label="X[1178] <= 0.5\nentropy = 0.872\nsamples = 1171\nvalue = [828, 343]"] ;
69 -> 70 ;
71 [label="X[468] <= 0.5\nentropy = 0.872\nsamples = 1170\nvalue = [828, 342]"] ;
70 -> 71 ;
72 [label="X[156] <= 0.5\nentropy = 0.874\nsamples = 1162\nvalue = [820, 342]"] ;
71 -> 72 ;
73 [label="X[2283] <= 0.5\nentropy = 0.871\nsamples = 1158\nvalue = [820, 338]"] ;
72 -> 73 ;
74 [label="X[3958] <= 0.5\nentropy = 0.875\nsamples = 1144\nvalue = [807, 337]"] ;
73 -> 74 ;
75 [label="X[1488] <= 0.5\nentropy = 0.878\nsamples = 1133\nvalue = [796, 337]"] ;
74 -> 75 ;
76 [label="X[1661] <= 0.5\nentropy = 0.877\nsamples = 1132\nvalue = [796, 336]"] ;
75 -> 76 ;
77 [label="X[3319] <= 0.5\nentropy = 0.877\nsamples = 1131\nvalue = [796, 335]"] ;
76 -> 77 ;
78 [label="X[3120] <= 0.5\nentropy = 0.876\nsamples = 1130\nvalue = [796, 334]"] ;
77 -> 78 ;
79 [label="X[1111] <= 0.5\nentropy = 0.875\nsamples = 1129\nvalue = [796, 333]"] ;
78 -> 79 ;
80 [label="X[3059] <= 0.5\nentropy = 0.873\nsamples = 1127\nvalue = [796, 331]"] ;
79 -> 80 ;
81 [label="X[3156] <= 0.5\nentropy = 0.873\nsamples = 1126\nvalue = [796, 330]"] ;
80 -> 81 ;
82 [label="X[365] <= 0.5\nentropy = 0.874\nsamples = 1122\nvalue = [792, 330]"] ;
81 -> 82 ;
83 [label="X[191] <= 0.5\nentropy = 0.872\nsamples = 1120\nvalue = [792, 328]"] ;
82 -> 83 ;
84 [label="X[377] <= 0.5\nentropy = 0.872\nsamples = 1119\nvalue = [792, 327]"] ;
83 -> 84 ;
85 [label="X[2688] <= 0.5\nentropy = 0.865\nsamples = 1107\nvalue = [789, 318]"] ;
84 -> 85 ;
86 [label="X[134] <= 0.5\nentropy = 0.863\nsamples = 1105\nvalue = [789, 316]"] ;
85 -> 86 ;
87 [label="X[2514] <= 0.5\nentropy = 0.862\nsamples = 1103\nvalue = [789, 314]"] ;
86 -> 87 ;
88 [label="X[932] <= 0.5\nentropy = 0.86\nsamples = 1101\nvalue = [789, 312]"] ;
87 -> 88 ;
89 [label="X[5087] <= 0.5\nentropy = 0.863\nsamples = 1088\nvalue = [777, 311]"] ;
88 -> 89 ;
90 [label="X[36] <= 0.5\nentropy = 0.864\nsamples = 1085\nvalue = [774, 311]"] ;
89 -> 90 ;
91 [label="X[1678] <= 0.5\nentropy = 0.86\nsamples = 1080\nvalue = [774, 306]"] ;
90 -> 91 ;
92 [label="X[1097] <= 0.5\nentropy = 0.861\nsamples = 1078\nvalue = [772, 306]"] ;
91 -> 92 ;
93 [label="X[1714] <= 0.5\nentropy = 0.862\nsamples = 1074\nvalue = [768, 306]"] ;
92 -> 93 ;
94 [label="X[108] <= 0.5\nentropy = 0.861\nsamples = 1073\nvalue = [768, 305]"] ;
93 -> 94 ;
95 [label="X[1428] <= 0.5\nentropy = 0.86\nsamples = 1072\nvalue = [768, 304]"] ;
94 -> 95 ;
96 [label="X[1764] <= 0.5\nentropy = 0.859\nsamples = 1069\nvalue = [767, 302]"] ;
95 -> 96 ;
97 [label="X[3972] <= 0.5\nentropy = 0.856\nsamples = 1066\nvalue = [767, 299]"] ;
96 -> 97 ;
98 [label="X[1994] <= 0.5\nentropy = 0.858\nsamples = 1062\nvalue = [763, 299]"] ;
97 -> 98 ;
99 [label="X[2527] <= 0.5\nentropy = 0.857\nsamples = 1061\nvalue = [763, 298]"] ;
98 -> 99 ;
100 [label="X[574] <= 0.5\nentropy = 0.856\nsamples = 1060\nvalue = [763, 297]"] ;
99 -> 100 ;
101 [label="X[1409] <= 0.5\nentropy = 0.846\nsamples = 1044\nvalue = [759, 285]"] ;
100 -> 101 ;
102 [label="X[3725] <= 0.5\nentropy = 0.848\nsamples = 1038\nvalue = [753, 285]"] ;
101 -> 102 ;
103 [label="X[2854] <= 0.5\nentropy = 0.85\nsamples = 1032\nvalue = [747, 285]"] ;
102 -> 103 ;
104 [label="X[1214] <= 0.5\nentropy = 0.849\nsamples = 1031\nvalue = [747, 284]"] ;
103 -> 104 ;
105 [label="X[2748] <= 0.5\nentropy = 0.848\nsamples = 1030\nvalue = [747, 283]"] ;
104 -> 105 ;
106 [label="X[892] <= 0.5\nentropy = 0.847\nsamples = 1029\nvalue = [747, 282]"] ;
105 -> 106 ;
107 [label="X[1009] <= 0.5\nentropy = 0.848\nsamples = 1027\nvalue = [745, 282]"] ;
106 -> 107 ;
108 [label="X[285] <= 0.5\nentropy = 0.845\nsamples = 1023\nvalue = [744, 279]"] ;
107 -> 108 ;
109 [label="X[1657] <= 0.5\nentropy = 0.839\nsamples = 992\nvalue = [726, 266]"] ;
108 -> 109 ;
110 [label="X[2318] <= 0.5\nentropy = 0.837\nsamples = 990\nvalue = [726, 264]"] ;
109 -> 110 ;
111 [label="X[1680] <= 0.5\nentropy = 0.838\nsamples = 986\nvalue = [722, 264]"] ;
110 -> 111 ;
112 [label="X[1379] <= 0.5\nentropy = 0.835\nsamples = 983\nvalue = [722, 261]"] ;
111 -> 112 ;
113 [label="X[300] <= 0.5\nentropy = 0.836\nsamples = 981\nvalue = [720, 261]"] ;
112 -> 113 ;
114 [label="X[2453] <= 0.5\nentropy = 0.835\nsamples = 980\nvalue = [720, 260]"] ;
113 -> 114 ;
115 [label="X[119] <= 0.5\nentropy = 0.834\nsamples = 979\nvalue = [720, 259]"] ;
114 -> 115 ;
116 [label="X[1694] <= 0.5\nentropy = 0.828\nsamples = 971\nvalue = [718, 253]"] ;
115 -> 116 ;
117 [label="X[3527] <= 0.5\nentropy = 0.826\nsamples = 970\nvalue = [718, 252]"] ;
116 -> 117 ;
118 [label="X[2262] <= 0.5\nentropy = 0.825\nsamples = 969\nvalue = [718, 251]"] ;
117 -> 118 ;
119 [label="X[99] <= 0.5\nentropy = 0.824\nsamples = 968\nvalue = [718, 250]"] ;
118 -> 119 ;
120 [label="X[482] <= 0.5\nentropy = 0.815\nsamples = 958\nvalue = [716, 242]"] ;
119 -> 120 ;
121 [label="X[135] <= 0.5\nentropy = 0.81\nsamples = 954\nvalue = [716, 238]"] ;
120 -> 121 ;
122 [label="X[652] <= 0.5\nentropy = 0.809\nsamples = 953\nvalue = [716, 237]"] ;
121 -> 122 ;
123 [label="X[45] <= 0.5\nentropy = 0.808\nsamples = 952\nvalue = [716, 236]"] ;
122 -> 123 ;
124 [label="X[18] <= 0.5\nentropy = 0.807\nsamples = 951\nvalue = [716, 235]"] ;
123 -> 124 ;
125 [label="X[13] <= 0.5\nentropy = 0.804\nsamples = 949\nvalue = [716, 233]"] ;
124 -> 125 ;
126 [label="X[3236] <= 0.5\nentropy = 0.815\nsamples = 923\nvalue = [690, 233]"] ;
125 -> 126 ;
127 [label="X[96] <= 0.5\nentropy = 0.814\nsamples = 922\nvalue = [690, 232]"] ;
126 -> 127 ;
128 [label="X[259] <= 0.5\nentropy = 0.813\nsamples = 921\nvalue = [690, 231]"] ;
127 -> 128 ;
129 [label="X[333] <= 0.5\nentropy = 0.818\nsamples = 909\nvalue = [678, 231]"] ;
128 -> 129 ;
130 [label="X[637] <= 0.5\nentropy = 0.814\nsamples = 905\nvalue = [677, 228]"] ;
129 -> 130 ;
131 [label="X[3957] <= 0.5\nentropy = 0.813\nsamples = 904\nvalue = [677, 227]"] ;
130 -> 131 ;
132 [label="X[4013] <= 0.5\nentropy = 0.813\nsamples = 903\nvalue = [676, 227]"] ;
131 -> 132 ;
133 [label="X[5002] <= 0.5\nentropy = 0.816\nsamples = 897\nvalue = [670, 227]"] ;
132 -> 133 ;
134 [label="X[1872] <= 0.5\nentropy = 0.817\nsamples = 896\nvalue = [669, 227]"] ;
133 -> 134 ;
135 [label="X[2377] <= 0.5\nentropy = 0.815\nsamples = 895\nvalue = [669, 226]"] ;
134 -> 135 ;
136 [label="X[3673] <= 0.5\nentropy = 0.814\nsamples = 894\nvalue = [669, 225]"] ;
135 -> 136 ;
137 [label="X[760] <= 0.5\nentropy = 0.813\nsamples = 893\nvalue = [669, 224]"] ;
136 -> 137 ;
138 [label="X[1527] <= 0.5\nentropy = 0.81\nsamples = 891\nvalue = [669, 222]"] ;
137 -> 138 ;
139 [label="X[957] <= 0.5\nentropy = 0.809\nsamples = 890\nvalue = [669, 221]"] ;
138 -> 139 ;
140 [label="X[3487] <= 0.5\nentropy = 0.807\nsamples = 889\nvalue = [669, 220]"] ;
139 -> 140 ;
141 [label="X[2333] <= 0.5\nentropy = 0.806\nsamples = 888\nvalue = [669, 219]"] ;
140 -> 141 ;
142 [label="X[235] <= 0.5\nentropy = 0.809\nsamples = 882\nvalue = [663, 219]"] ;
141 -> 142 ;
143 [label="X[77] <= 0.5\nentropy = 0.807\nsamples = 881\nvalue = [663, 218]"] ;
142 -> 143 ;
144 [label="X[3268] <= 0.5\nentropy = 0.792\nsamples = 785\nvalue = [598, 187]"] ;
143 -> 144 ;
145 [label="X[2745] <= 0.5\nentropy = 0.79\nsamples = 784\nvalue = [598, 186]"] ;
144 -> 145 ;
146 [label="X[1928] <= 0.5\nentropy = 0.789\nsamples = 783\nvalue = [598, 185]"] ;
145 -> 146 ;
147 [label="X[1640] <= 0.5\nentropy = 0.787\nsamples = 782\nvalue = [598, 184]"] ;
146 -> 147 ;
148 [label="X[2759] <= 0.5\nentropy = 0.785\nsamples = 781\nvalue = [598, 183]"] ;
147 -> 148 ;
149 [label="X[382] <= 0.5\nentropy = 0.784\nsamples = 780\nvalue = [598, 182]"] ;
148 -> 149 ;
150 [label="X[1326] <= 0.5\nentropy = 0.78\nsamples = 778\nvalue = [598, 180]"] ;
149 -> 150 ;
151 [label="X[173] <= 0.5\nentropy = 0.779\nsamples = 777\nvalue = [598, 179]"] ;
150 -> 151 ;
152 [label="X[2278] <= 0.5\nentropy = 0.777\nsamples = 776\nvalue = [598, 178]"] ;
151 -> 152 ;
153 [label="X[5152] <= 0.5\nentropy = 0.775\nsamples = 775\nvalue = [598, 177]"] ;
152 -> 153 ;
154 [label="X[2380] <= 0.5\nentropy = 0.776\nsamples = 774\nvalue = [597, 177]"] ;
153 -> 154 ;
155 [label="X[98] <= 0.5\nentropy = 0.774\nsamples = 773\nvalue = [597, 176]"] ;
154 -> 155 ;
156 [label="X[2478] <= 0.5\nentropy = 0.775\nsamples = 771\nvalue = [595, 176]"] ;
155 -> 156 ;
157 [label="X[295] <= 0.5\nentropy = 0.773\nsamples = 770\nvalue = [595, 175]"] ;
156 -> 157 ;
158 [label="X[1386] <= 0.5\nentropy = 0.778\nsamples = 760\nvalue = [585, 175]"] ;
157 -> 158 ;
159 [label="X[698] <= 0.5\nentropy = 0.777\nsamples = 759\nvalue = [585, 174]"] ;
158 -> 159 ;
160 [label="X[443] <= 0.5\nentropy = 0.777\nsamples = 758\nvalue = [584, 174]"] ;
159 -> 160 ;
161 [label="X[1747] <= 0.5\nentropy = 0.775\nsamples = 757\nvalue = [584, 173]"] ;
160 -> 161 ;
162 [label="X[909] <= 0.5\nentropy = 0.772\nsamples = 755\nvalue = [584, 171]"] ;
161 -> 162 ;
163 [label="X[1343] <= 0.5\nentropy = 0.769\nsamples = 752\nvalue = [583, 169]"] ;
162 -> 163 ;
164 [label="X[4321] <= 0.5\nentropy = 0.767\nsamples = 751\nvalue = [583, 168]"] ;
163 -> 164 ;
165 [label="X[2330] <= 0.5\nentropy = 0.768\nsamples = 749\nvalue = [581, 168]"] ;
164 -> 165 ;
166 [label="X[1416] <= 0.5\nentropy = 0.766\nsamples = 748\nvalue = [581, 167]"] ;
165 -> 166 ;
167 [label="X[4911] <= 0.5\nentropy = 0.764\nsamples = 747\nvalue = [581, 166]"] ;
166 -> 167 ;
168 [label="X[862] <= 0.5\nentropy = 0.765\nsamples = 745\nvalue = [579, 166]"] ;
167 -> 168 ;
169 [label="X[2457] <= 0.5\nentropy = 0.757\nsamples = 737\nvalue = [576, 161]"] ;
168 -> 169 ;
170 [label="X[2550] <= 0.5\nentropy = 0.755\nsamples = 736\nvalue = [576, 160]"] ;
169 -> 170 ;
171 [label="X[2356] <= 0.5\nentropy = 0.753\nsamples = 735\nvalue = [576, 159]"] ;
170 -> 171 ;
172 [label="X[1651] <= 0.5\nentropy = 0.751\nsamples = 734\nvalue = [576, 158]"] ;
171 -> 172 ;
173 [label="X[4115] <= 0.5\nentropy = 0.749\nsamples = 733\nvalue = [576, 157]"] ;
172 -> 173 ;
174 [label="X[411] <= 0.5\nentropy = 0.753\nsamples = 726\nvalue = [569, 157]"] ;
173 -> 174 ;
175 [label="X[126] <= 0.5\nentropy = 0.748\nsamples = 721\nvalue = [567, 154]"] ;
174 -> 175 ;
176 [label="X[3368] <= 0.5\nentropy = 0.746\nsamples = 720\nvalue = [567, 153]"] ;
175 -> 176 ;
177 [label="X[1604] <= 0.5\nentropy = 0.744\nsamples = 719\nvalue = [567, 152]"] ;
176 -> 177 ;
178 [label="X[4407] <= 0.5\nentropy = 0.781\nsamples = 656\nvalue = [504, 152]"] ;
177 -> 178 ;
179 [label="X[204] <= 0.5\nentropy = 0.782\nsamples = 654\nvalue = [502, 152]"] ;
178 -> 179 ;
180 [label="X[1388] <= 0.5\nentropy = 0.775\nsamples = 648\nvalue = [500, 148]"] ;
179 -> 180 ;
181 [label="X[428] <= 0.5\nentropy = 0.776\nsamples = 646\nvalue = [498, 148]"] ;
180 -> 181 ;
182 [label="X[1903] <= 0.5\nentropy = 0.774\nsamples = 645\nvalue = [498, 147]"] ;
181 -> 182 ;
183 [label="X[2885] <= 0.5\nentropy = 0.772\nsamples = 644\nvalue = [498, 146]"] ;
182 -> 183 ;
184 [label="X[1729] <= 0.5\nentropy = 0.77\nsamples = 643\nvalue = [498, 145]"] ;
183 -> 184 ;
185 [label="X[366] <= 0.5\nentropy = 0.768\nsamples = 642\nvalue = [498, 144]"] ;
184 -> 185 ;
186 [label="X[230] <= 0.5\nentropy = 0.759\nsamples = 633\nvalue = [494, 139]"] ;
185 -> 186 ;
187 [label="X[3765] <= 0.5\nentropy = 0.748\nsamples = 628\nvalue = [494, 134]"] ;
186 -> 187 ;
188 [label="X[2435] <= 0.5\nentropy = 0.749\nsamples = 626\nvalue = [492, 134]"] ;
187 -> 188 ;
189 [label="X[718] <= 0.5\nentropy = 0.747\nsamples = 625\nvalue = [492, 133]"] ;
188 -> 189 ;
190 [label="X[376] <= 0.5\nentropy = 0.744\nsamples = 624\nvalue = [492, 132]"] ;
189 -> 190 ;
191 [label="X[3063] <= 0.5\nentropy = 0.74\nsamples = 622\nvalue = [492, 130]"] ;
190 -> 191 ;
192 [label="X[1306] <= 0.5\nentropy = 0.737\nsamples = 621\nvalue = [492, 129]"] ;
191 -> 192 ;
193 [label="X[3562] <= 0.5\nentropy = 0.735\nsamples = 620\nvalue = [492, 128]"] ;
192 -> 193 ;
194 [label="X[2153] <= 0.5\nentropy = 0.735\nsamples = 619\nvalue = [491, 128]"] ;
193 -> 194 ;
195 [label="X[1883] <= 0.5\nentropy = 0.733\nsamples = 618\nvalue = [491, 127]"] ;
194 -> 195 ;
196 [label="X[565] <= 0.5\nentropy = 0.73\nsamples = 617\nvalue = [491, 126]"] ;
195 -> 196 ;
197 [label="X[40] <= 0.5\nentropy = 0.723\nsamples = 613\nvalue = [490, 123]"] ;
196 -> 197 ;
198 [label="X[1582] <= 0.5\nentropy = 0.718\nsamples = 611\nvalue = [490, 121]"] ;
197 -> 198 ;
199 [label="X[1063] <= 0.5\nentropy = 0.715\nsamples = 610\nvalue = [490, 120]"] ;
198 -> 199 ;
200 [label="X[1381] <= 0.5\nentropy = 0.717\nsamples = 608\nvalue = [488, 120]"] ;
199 -> 200 ;
201 [label="X[3263] <= 0.5\nentropy = 0.72\nsamples = 603\nvalue = [483, 120]"] ;
200 -> 201 ;
202 [label="X[1207] <= 0.5\nentropy = 0.717\nsamples = 602\nvalue = [483, 119]"] ;
201 -> 202 ;
203 [label="X[151] <= 0.5\nentropy = 0.719\nsamples = 599\nvalue = [480, 119]"] ;
202 -> 203 ;
204 [label="X[4902] <= 0.5\nentropy = 0.717\nsamples = 597\nvalue = [479, 118]"] ;
203 -> 204 ;
205 [label="X[2423] <= 0.5\nentropy = 0.718\nsamples = 596\nvalue = [478, 118]"] ;
204 -> 205 ;
206 [label="X[185] <= 0.5\nentropy = 0.715\nsamples = 595\nvalue = [478, 117]"] ;
205 -> 206 ;
207 [label="X[4257] <= 0.5\nentropy = 0.71\nsamples = 592\nvalue = [477, 115]"] ;
206 -> 207 ;
208 [label="X[3616] <= 0.5\nentropy = 0.712\nsamples = 590\nvalue = [475, 115]"] ;
207 -> 208 ;
209 [label="X[2291] <= 0.5\nentropy = 0.709\nsamples = 589\nvalue = [475, 114]"] ;
208 -> 209 ;
210 [label="X[68] <= 0.5\nentropy = 0.71\nsamples = 587\nvalue = [473, 114]"] ;
209 -> 210 ;
211 [label="X[444] <= 0.5\nentropy = 0.718\nsamples = 561\nvalue = [450, 111]"] ;
210 -> 211 ;
212 [label="X[679] <= 0.5\nentropy = 0.712\nsamples = 559\nvalue = [450, 109]"] ;
211 -> 212 ;
213 [label="X[50] <= 0.5\nentropy = 0.714\nsamples = 556\nvalue = [447, 109]"] ;
212 -> 213 ;
214 [label="X[368] <= 0.5\nentropy = 0.715\nsamples = 554\nvalue = [445, 109]"] ;
213 -> 214 ;
215 [label="X[2665] <= 0.5\nentropy = 0.709\nsamples = 552\nvalue = [445, 107]"] ;
214 -> 215 ;
216 [label="X[2125] <= 0.5\nentropy = 0.707\nsamples = 550\nvalue = [444, 106]"] ;
215 -> 216 ;
217 [label="X[2106] <= 0.5\nentropy = 0.709\nsamples = 548\nvalue = [442, 106]"] ;
216 -> 217 ;
218 [label="X[1850] <= 0.5\nentropy = 0.706\nsamples = 547\nvalue = [442, 105]"] ;
217 -> 218 ;
219 [label="X[189] <= 0.5\nentropy = 0.707\nsamples = 545\nvalue = [440, 105]"] ;
218 -> 219 ;
220 [label="X[4116] <= 0.5\nentropy = 0.708\nsamples = 544\nvalue = [439, 105]"] ;
219 -> 220 ;
221 [label="X[273] <= 0.5\nentropy = 0.708\nsamples = 543\nvalue = [438, 105]"] ;
220 -> 221 ;
222 [label="X[364] <= 0.5\nentropy = 0.705\nsamples = 542\nvalue = [438, 104]"] ;
221 -> 222 ;
223 [label="X[318] <= 0.5\nentropy = 0.701\nsamples = 538\nvalue = [436, 102]"] ;
222 -> 223 ;
224 [label="X[1046] <= 0.5\nentropy = 0.693\nsamples = 532\nvalue = [433, 99]"] ;
223 -> 224 ;
225 [label="X[131] <= 0.5\nentropy = 0.69\nsamples = 531\nvalue = [433, 98]"] ;
224 -> 225 ;
226 [label="X[3013] <= 0.5\nentropy = 0.684\nsamples = 528\nvalue = [432, 96]"] ;
225 -> 226 ;
227 [label="X[1602] <= 0.5\nentropy = 0.691\nsamples = 519\nvalue = [423, 96]"] ;
226 -> 227 ;
228 [label="X[2572] <= 0.5\nentropy = 0.688\nsamples = 517\nvalue = [422, 95]"] ;
227 -> 228 ;
229 [label="X[1033] <= 0.5\nentropy = 0.69\nsamples = 515\nvalue = [420, 95]"] ;
228 -> 229 ;
230 [label="X[3135] <= 0.5\nentropy = 0.691\nsamples = 513\nvalue = [418, 95]"] ;
229 -> 230 ;
231 [label="X[774] <= 0.5\nentropy = 0.688\nsamples = 512\nvalue = [418, 94]"] ;
230 -> 231 ;
232 [label="X[2705] <= 0.5\nentropy = 0.697\nsamples = 500\nvalue = [406, 94]"] ;
231 -> 232 ;
233 [label="X[1050] <= 0.5\nentropy = 0.698\nsamples = 499\nvalue = [405, 94]"] ;
232 -> 233 ;
234 [label="X[311] <= 0.5\nentropy = 0.695\nsamples = 498\nvalue = [405, 93]"] ;
233 -> 234 ;
235 [label="X[591] <= 0.5\nentropy = 0.691\nsamples = 497\nvalue = [405, 92]"] ;
234 -> 235 ;
236 [label="X[1492] <= 0.5\nentropy = 0.688\nsamples = 496\nvalue = [405, 91]"] ;
235 -> 236 ;
237 [label="X[757] <= 0.5\nentropy = 0.684\nsamples = 495\nvalue = [405, 90]"] ;
236 -> 237 ;
238 [label="X[128] <= 0.5\nentropy = 0.68\nsamples = 494\nvalue = [405, 89]"] ;
237 -> 238 ;
239 [label="X[1634] <= 0.5\nentropy = 0.645\nsamples = 480\nvalue = [401, 79]"] ;
238 -> 239 ;
240 [label="X[538] <= 0.5\nentropy = 0.646\nsamples = 479\nvalue = [400, 79]"] ;
239 -> 240 ;
241 [label="X[2288] <= 0.5\nentropy = 0.634\nsamples = 476\nvalue = [400, 76]"] ;
240 -> 241 ;
242 [label="X[2279] <= 0.5\nentropy = 0.634\nsamples = 475\nvalue = [399, 76]"] ;
241 -> 242 ;
243 [label="X[4585] <= 0.5\nentropy = 0.637\nsamples = 472\nvalue = [396, 76]"] ;
242 -> 243 ;
244 [label="X[2526] <= 0.5\nentropy = 0.638\nsamples = 470\nvalue = [394, 76]"] ;
243 -> 244 ;
245 [label="X[1706] <= 0.5\nentropy = 0.634\nsamples = 469\nvalue = [394, 75]"] ;
244 -> 245 ;
246 [label="X[455] <= 0.5\nentropy = 0.63\nsamples = 468\nvalue = [394, 74]"] ;
245 -> 246 ;
247 [label="X[2821] <= 0.5\nentropy = 0.625\nsamples = 467\nvalue = [394, 73]"] ;
246 -> 247 ;
248 [label="X[152] <= 0.5\nentropy = 0.627\nsamples = 465\nvalue = [392, 73]"] ;
247 -> 248 ;
249 [label="X[3451] <= 0.5\nentropy = 0.608\nsamples = 449\nvalue = [382, 67]"] ;
248 -> 249 ;
250 [label="X[1698] <= 0.5\nentropy = 0.603\nsamples = 448\nvalue = [382, 66]"] ;
249 -> 250 ;
251 [label="X[81] <= 0.5\nentropy = 0.593\nsamples = 446\nvalue = [382, 64]"] ;
250 -> 251 ;
252 [label="X[864] <= 0.5\nentropy = 0.53\nsamples = 399\nvalue = [351, 48]"] ;
251 -> 252 ;
253 [label="X[5436] <= 0.5\nentropy = 0.535\nsamples = 394\nvalue = [346, 48]"] ;
252 -> 253 ;
254 [label="X[2938] <= 0.5\nentropy = 0.536\nsamples = 392\nvalue = [344, 48]"] ;
253 -> 254 ;
255 [label="X[38] <= 0.5\nentropy = 0.53\nsamples = 391\nvalue = [344, 47]"] ;
254 -> 255 ;
256 [label="X[686] <= 0.5\nentropy = 0.518\nsamples = 388\nvalue = [343, 45]"] ;
255 -> 256 ;
257 [label="X[677] <= 0.5\nentropy = 0.519\nsamples = 386\nvalue = [341, 45]"] ;
256 -> 257 ;
258 [label="X[4811] <= 0.5\nentropy = 0.514\nsamples = 384\nvalue = [340, 44]"] ;
257 -> 258 ;
259 [label="X[3051] <= 0.5\nentropy = 0.514\nsamples = 383\nvalue = [339, 44]"] ;
258 -> 259 ;
260 [label="X[1209] <= 0.5\nentropy = 0.509\nsamples = 380\nvalue = [337, 43]"] ;
259 -> 260 ;
261 [label="X[486] <= 0.5\nentropy = 0.502\nsamples = 379\nvalue = [337, 42]"] ;
260 -> 261 ;
262 [label="X[801] <= 0.5\nentropy = 0.505\nsamples = 376\nvalue = [334, 42]"] ;
261 -> 262 ;
263 [label="X[1849] <= 0.5\nentropy = 0.511\nsamples = 369\nvalue = [327, 42]"] ;
262 -> 263 ;
264 [label="X[1400] <= 0.5\nentropy = 0.512\nsamples = 368\nvalue = [326, 42]"] ;
263 -> 264 ;
265 [label="X[4778] <= 0.5\nentropy = 0.505\nsamples = 367\nvalue = [326, 41]"] ;
264 -> 265 ;
266 [label="X[4535] <= 0.5\nentropy = 0.506\nsamples = 366\nvalue = [325, 41]"] ;
265 -> 266 ;
267 [label="X[2235] <= 0.5\nentropy = 0.507\nsamples = 365\nvalue = [324, 41]"] ;
266 -> 267 ;
268 [label="X[322] <= 0.5\nentropy = 0.5\nsamples = 363\nvalue = [323, 40]"] ;
267 -> 268 ;
269 [label="X[1350] <= 0.5\nentropy = 0.483\nsamples = 354\nvalue = [317, 37]"] ;
268 -> 269 ;
270 [label="X[412] <= 0.5\nentropy = 0.476\nsamples = 352\nvalue = [316, 36]"] ;
269 -> 270 ;
271 [label="X[2314] <= 0.5\nentropy = 0.468\nsamples = 351\nvalue = [316, 35]"] ;
270 -> 271 ;
272 [label="X[595] <= 0.5\nentropy = 0.47\nsamples = 349\nvalue = [314, 35]"] ;
271 -> 272 ;
273 [label="X[1957] <= 0.5\nentropy = 0.462\nsamples = 348\nvalue = [314, 34]"] ;
272 -> 273 ;
274 [label="X[4296] <= 0.5\nentropy = 0.467\nsamples = 342\nvalue = [308, 34]"] ;
273 -> 274 ;
275 [label="X[385] <= 0.5\nentropy = 0.471\nsamples = 338\nvalue = [304, 34]"] ;
274 -> 275 ;
276 [label="X[5648] <= 0.5\nentropy = 0.473\nsamples = 336\nvalue = [302, 34]"] ;
275 -> 276 ;
277 [label="X[5198] <= 0.5\nentropy = 0.474\nsamples = 335\nvalue = [301, 34]"] ;
276 -> 277 ;
278 [label="X[5530] <= 0.5\nentropy = 0.476\nsamples = 333\nvalue = [299, 34]"] ;
277 -> 278 ;
279 [label="X[37] <= 0.5\nentropy = 0.477\nsamples = 332\nvalue = [298, 34]"] ;
278 -> 279 ;
280 [label="X[3839] <= 0.5\nentropy = 0.478\nsamples = 331\nvalue = [297, 34]"] ;
279 -> 280 ;
281 [label="X[2332] <= 0.5\nentropy = 0.48\nsamples = 329\nvalue = [295, 34]"] ;
280 -> 281 ;
282 [label="X[1905] <= 0.5\nentropy = 0.48\nsamples = 328\nvalue = [294, 34]"] ;
281 -> 282 ;
283 [label="X[2690] <= 0.5\nentropy = 0.472\nsamples = 327\nvalue = [294, 33]"] ;
282 -> 283 ;
284 [label="X[2427] <= 0.5\nentropy = 0.463\nsamples = 326\nvalue = [294, 32]"] ;
283 -> 284 ;
285 [label="X[4593] <= 0.5\nentropy = 0.454\nsamples = 325\nvalue = [294, 31]"] ;
284 -> 285 ;
286 [label="X[4723] <= 0.5\nentropy = 0.455\nsamples = 324\nvalue = [293, 31]"] ;
285 -> 286 ;
287 [label="X[5030] <= 0.5\nentropy = 0.456\nsamples = 323\nvalue = [292, 31]"] ;
286 -> 287 ;
288 [label="X[2883] <= 0.5\nentropy = 0.458\nsamples = 321\nvalue = [290, 31]"] ;
287 -> 288 ;
289 [label="X[1144] <= 0.5\nentropy = 0.459\nsamples = 320\nvalue = [289, 31]"] ;
288 -> 289 ;
290 [label="X[1435] <= 0.5\nentropy = 0.461\nsamples = 318\nvalue = [287, 31]"] ;
289 -> 290 ;
291 [label="X[117] <= 0.5\nentropy = 0.464\nsamples = 315\nvalue = [284, 31]"] ;
290 -> 291 ;
292 [label="X[964] <= 0.5\nentropy = 0.468\nsamples = 311\nvalue = [280, 31]"] ;
291 -> 292 ;
293 [label="X[851] <= 0.5\nentropy = 0.471\nsamples = 308\nvalue = [277, 31]"] ;
292 -> 293 ;
294 [label="X[4318] <= 0.5\nentropy = 0.472\nsamples = 307\nvalue = [276, 31]"] ;
293 -> 294 ;
295 [label="X[238] <= 0.5\nentropy = 0.474\nsamples = 305\nvalue = [274, 31]"] ;
294 -> 295 ;
296 [label="X[440] <= 0.5\nentropy = 0.475\nsamples = 304\nvalue = [273, 31]"] ;
295 -> 296 ;
297 [label="X[3439] <= 0.5\nentropy = 0.476\nsamples = 303\nvalue = [272, 31]"] ;
296 -> 297 ;
298 [label="X[1286] <= 0.5\nentropy = 0.477\nsamples = 302\nvalue = [271, 31]"] ;
297 -> 298 ;
299 [label="X[534] <= 0.5\nentropy = 0.479\nsamples = 300\nvalue = [269, 31]"] ;
298 -> 299 ;
300 [label="X[2528] <= 0.5\nentropy = 0.483\nsamples = 297\nvalue = [266, 31]"] ;
299 -> 300 ;
301 [label="X[223] <= 0.5\nentropy = 0.485\nsamples = 295\nvalue = [264, 31]"] ;
300 -> 301 ;
302 [label="X[5705] <= 0.5\nentropy = 0.493\nsamples = 288\nvalue = [257, 31]"] ;
301 -> 302 ;
303 [label="X[363] <= 0.5\nentropy = 0.494\nsamples = 287\nvalue = [256, 31]"] ;
302 -> 303 ;
304 [label="X[1404] <= 0.5\nentropy = 0.497\nsamples = 284\nvalue = [253, 31]"] ;
303 -> 304 ;
305 [label="X[4030] <= 0.5\nentropy = 0.488\nsamples = 283\nvalue = [253, 30]"] ;
304 -> 305 ;
306 [label="X[142] <= 0.5\nentropy = 0.489\nsamples = 282\nvalue = [252, 30]"] ;
305 -> 306 ;
307 [label="X[1256] <= 0.5\nentropy = 0.466\nsamples = 273\nvalue = [246, 27]"] ;
306 -> 307 ;
308 [label="X[351] <= 0.5\nentropy = 0.455\nsamples = 272\nvalue = [246, 26]"] ;
307 -> 308 ;
309 [label="X[2105] <= 0.5\nentropy = 0.456\nsamples = 271\nvalue = [245, 26]"] ;
308 -> 309 ;
310 [label="X[1958] <= 0.5\nentropy = 0.457\nsamples = 270\nvalue = [244, 26]"] ;
309 -> 310 ;
311 [label="X[5224] <= 0.5\nentropy = 0.446\nsamples = 269\nvalue = [244, 25]"] ;
310 -> 311 ;
312 [label="X[1218] <= 0.5\nentropy = 0.447\nsamples = 268\nvalue = [243, 25]"] ;
311 -> 312 ;
313 [label="X[4476] <= 0.5\nentropy = 0.436\nsamples = 267\nvalue = [243, 24]"] ;
312 -> 313 ;
314 [label="X[55] <= 0.5\nentropy = 0.437\nsamples = 266\nvalue = [242, 24]"] ;
313 -> 314 ;
315 [label="X[265] <= 0.5\nentropy = 0.439\nsamples = 264\nvalue = [240, 24]"] ;
314 -> 315 ;
316 [label="X[887] <= 0.5\nentropy = 0.428\nsamples = 263\nvalue = [240, 23]"] ;
315 -> 316 ;
317 [label="X[1759] <= 0.5\nentropy = 0.429\nsamples = 262\nvalue = [239, 23]"] ;
316 -> 317 ;
318 [label="X[249] <= 0.5\nentropy = 0.417\nsamples = 261\nvalue = [239, 22]"] ;
317 -> 318 ;
319 [label="X[1447] <= 0.5\nentropy = 0.419\nsamples = 259\nvalue = [237, 22]"] ;
318 -> 319 ;
320 [label="X[2835] <= 0.5\nentropy = 0.407\nsamples = 258\nvalue = [237, 21]"] ;
319 -> 320 ;
321 [label="X[340] <= 0.5\nentropy = 0.394\nsamples = 257\nvalue = [237, 20]"] ;
320 -> 321 ;
322 [label="X[1725] <= 0.5\nentropy = 0.399\nsamples = 253\nvalue = [233, 20]"] ;
321 -> 322 ;
323 [label="X[316] <= 0.5\nentropy = 0.4\nsamples = 252\nvalue = [232, 20]"] ;
322 -> 323 ;
324 [label="X[5597] <= 0.5\nentropy = 0.401\nsamples = 251\nvalue = [231, 20]"] ;
323 -> 324 ;
325 [label="X[3738] <= 0.5\nentropy = 0.402\nsamples = 250\nvalue = [230, 20]"] ;
324 -> 325 ;
326 [label="X[85] <= 0.5\nentropy = 0.404\nsamples = 248\nvalue = [228, 20]"] ;
325 -> 326 ;
327 [label="X[3351] <= 0.5\nentropy = 0.396\nsamples = 243\nvalue = [224, 19]"] ;
326 -> 327 ;
328 [label="X[4529] <= 0.5\nentropy = 0.382\nsamples = 242\nvalue = [224, 18]"] ;
327 -> 328 ;
329 [label="X[2422] <= 0.5\nentropy = 0.383\nsamples = 241\nvalue = [223, 18]"] ;
328 -> 329 ;
330 [label="X[682] <= 0.5\nentropy = 0.385\nsamples = 239\nvalue = [221, 18]"] ;
329 -> 330 ;
331 [label="X[3159] <= 0.5\nentropy = 0.387\nsamples = 238\nvalue = [220, 18]"] ;
330 -> 331 ;
332 [label="X[3398] <= 0.5\nentropy = 0.372\nsamples = 237\nvalue = [220, 17]"] ;
331 -> 332 ;
333 [label="X[660] <= 0.5\nentropy = 0.375\nsamples = 235\nvalue = [218, 17]"] ;
332 -> 333 ;
334 [label="X[49] <= 0.5\nentropy = 0.36\nsamples = 234\nvalue = [218, 16]"] ;
333 -> 334 ;
335 [label="X[5234] <= 0.5\nentropy = 0.363\nsamples = 231\nvalue = [215, 16]"] ;
334 -> 335 ;
336 [label="X[986] <= 0.5\nentropy = 0.364\nsamples = 230\nvalue = [214, 16]"] ;
335 -> 336 ;
337 [label="X[4018] <= 0.5\nentropy = 0.367\nsamples = 228\nvalue = [212, 16]"] ;
336 -> 337 ;
338 [label="X[2287] <= 0.5\nentropy = 0.368\nsamples = 227\nvalue = [211, 16]"] ;
337 -> 338 ;
339 [label="X[766] <= 0.5\nentropy = 0.352\nsamples = 226\nvalue = [211, 15]"] ;
338 -> 339 ;
340 [label="X[919] <= 0.5\nentropy = 0.353\nsamples = 225\nvalue = [210, 15]"] ;
339 -> 340 ;
341 [label="X[3484] <= 0.5\nentropy = 0.337\nsamples = 224\nvalue = [210, 14]"] ;
340 -> 341 ;
342 [label="X[3] <= 0.5\nentropy = 0.341\nsamples = 221\nvalue = [207, 14]"] ;
341 -> 342 ;
343 [label="entropy = 0.0\nsamples = 2\nvalue = [2, 0]"] ;
342 -> 343 ;
344 [label="X[44] <= 0.5\nentropy = 0.343\nsamples = 219\nvalue = [205, 14]"] ;
342 -> 344 ;
345 [label="X[5537] <= 0.5\nentropy = 0.316\nsamples = 210\nvalue = [198, 12]"] ;
344 -> 345 ;
346 [label="X[888] <= 0.5\nentropy = 0.317\nsamples = 209\nvalue = [197, 12]"] ;
345 -> 346 ;
347 [label="X[5584] <= 0.5\nentropy = 0.318\nsamples = 208\nvalue = [196, 12]"] ;
346 -> 347 ;
348 [label="X[260] <= 0.5\nentropy = 0.319\nsamples = 207\nvalue = [195, 12]"] ;
347 -> 348 ;
349 [label="X[4442] <= 0.5\nentropy = 0.322\nsamples = 205\nvalue = [193, 12]"] ;
348 -> 349 ;
350 [label="X[3890] <= 0.5\nentropy = 0.323\nsamples = 204\nvalue = [192, 12]"] ;
349 -> 350 ;
351 [label="X[529] <= 0.5\nentropy = 0.324\nsamples = 203\nvalue = [191, 12]"] ;
350 -> 351 ;
352 [label="X[5359] <= 0.5\nentropy = 0.305\nsamples = 202\nvalue = [191, 11]"] ;
351 -> 352 ;
353 [label="X[1197] <= 0.5\nentropy = 0.306\nsamples = 201\nvalue = [190, 11]"] ;
352 -> 353 ;
354 [label="X[3333] <= 0.5\nentropy = 0.307\nsamples = 200\nvalue = [189, 11]"] ;
353 -> 354 ;
355 [label="X[4093] <= 0.5\nentropy = 0.308\nsamples = 199\nvalue = [188, 11]"] ;
354 -> 355 ;
356 [label="X[4326] <= 0.5\nentropy = 0.31\nsamples = 198\nvalue = [187, 11]"] ;
355 -> 356 ;
357 [label="X[23] <= 0.5\nentropy = 0.312\nsamples = 196\nvalue = [185, 11]"] ;
356 -> 357 ;
358 [label="X[450] <= 0.5\nentropy = 0.363\nsamples = 101\nvalue = [94, 7]"] ;
357 -> 358 ;
359 [label="X[621] <= 0.5\nentropy = 0.366\nsamples = 100\nvalue = [93, 7]"] ;
358 -> 359 ;
360 [label="X[5009] <= 0.5\nentropy = 0.33\nsamples = 99\nvalue = [93, 6]"] ;
359 -> 360 ;
361 [label="X[4732] <= 0.5\nentropy = 0.332\nsamples = 98\nvalue = [92, 6]"] ;
360 -> 361 ;
362 [label="X[5822] <= 0.5\nentropy = 0.335\nsamples = 97\nvalue = [91, 6]"] ;
361 -> 362 ;
363 [label="X[3158] <= 0.5\nentropy = 0.337\nsamples = 96\nvalue = [90, 6]"] ;
362 -> 363 ;
364 [label="X[89] <= 0.5\nentropy = 0.297\nsamples = 95\nvalue = [90, 5]"] ;
363 -> 364 ;
365 [label="X[1243] <= 0.5\nentropy = 0.307\nsamples = 91\nvalue = [86, 5]"] ;
364 -> 365 ;
366 [label="X[78] <= 0.5\nentropy = 0.31\nsamples = 90\nvalue = [85, 5]"] ;
365 -> 366 ;
367 [label="X[4770] <= 0.5\nentropy = 0.312\nsamples = 89\nvalue = [84, 5]"] ;
366 -> 367 ;
368 [label="X[981] <= 0.5\nentropy = 0.315\nsamples = 88\nvalue = [83, 5]"] ;
367 -> 368 ;
369 [label="X[1136] <= 0.5\nentropy = 0.317\nsamples = 87\nvalue = [82, 5]"] ;
368 -> 369 ;
370 [label="X[4278] <= 0.5\nentropy = 0.32\nsamples = 86\nvalue = [81, 5]"] ;
369 -> 370 ;
371 [label="X[395] <= 0.5\nentropy = 0.323\nsamples = 85\nvalue = [80, 5]"] ;
370 -> 371 ;
372 [label="X[5235] <= 0.5\nentropy = 0.326\nsamples = 84\nvalue = [79, 5]"] ;
371 -> 372 ;
373 [label="X[22] <= 0.5\nentropy = 0.328\nsamples = 83\nvalue = [78, 5]"] ;
372 -> 373 ;
374 [label="X[4569] <= 0.5\nentropy = 0.334\nsamples = 81\nvalue = [76, 5]"] ;
373 -> 374 ;
375 [label="X[5630] <= 0.5\nentropy = 0.337\nsamples = 80\nvalue = [75, 5]"] ;
374 -> 375 ;
376 [label="X[564] <= 0.5\nentropy = 0.34\nsamples = 79\nvalue = [74, 5]"] ;
375 -> 376 ;
377 [label="X[628] <= 0.5\nentropy = 0.347\nsamples = 77\nvalue = [72, 5]"] ;
376 -> 377 ;
378 [label="X[4324] <= 0.5\nentropy = 0.353\nsamples = 75\nvalue = [70, 5]"] ;
377 -> 378 ;
379 [label="X[4432] <= 0.5\nentropy = 0.357\nsamples = 74\nvalue = [69, 5]"] ;
378 -> 379 ;
380 [label="X[4673] <= 0.5\nentropy = 0.36\nsamples = 73\nvalue = [68, 5]"] ;
379 -> 380 ;
381 [label="X[3831] <= 0.5\nentropy = 0.364\nsamples = 72\nvalue = [67, 5]"] ;
380 -> 381 ;
382 [label="X[3379] <= 0.5\nentropy = 0.367\nsamples = 71\nvalue = [66, 5]"] ;
381 -> 382 ;
383 [label="X[404] <= 0.5\nentropy = 0.371\nsamples = 70\nvalue = [65, 5]"] ;
382 -> 383 ;
384 [label="X[3334] <= 0.5\nentropy = 0.375\nsamples = 69\nvalue = [64, 5]"] ;
383 -> 384 ;
385 [label="X[298] <= 0.5\nentropy = 0.323\nsamples = 68\nvalue = [64, 4]"] ;
384 -> 385 ;
386 [label="X[2822] <= 0.5\nentropy = 0.337\nsamples = 64\nvalue = [60, 4]"] ;
385 -> 386 ;
387 [label="X[4656] <= 0.5\nentropy = 0.341\nsamples = 63\nvalue = [59, 4]"] ;
386 -> 387 ;
388 [label="X[5601] <= 0.5\nentropy = 0.345\nsamples = 62\nvalue = [58, 4]"] ;
387 -> 388 ;
389 [label="X[4951] <= 0.5\nentropy = 0.349\nsamples = 61\nvalue = [57, 4]"] ;
388 -> 389 ;
390 [label="X[1641] <= 0.5\nentropy = 0.353\nsamples = 60\nvalue = [56, 4]"] ;
389 -> 390 ;
391 [label="X[958] <= 0.5\nentropy = 0.358\nsamples = 59\nvalue = [55, 4]"] ;
390 -> 391 ;
392 [label="X[1012] <= 0.5\nentropy = 0.362\nsamples = 58\nvalue = [54, 4]"] ;
391 -> 392 ;
393 [label="X[1007] <= 0.5\nentropy = 0.371\nsamples = 56\nvalue = [52, 4]"] ;
392 -> 393 ;
394 [label="X[912] <= 0.5\nentropy = 0.376\nsamples = 55\nvalue = [51, 4]"] ;
393 -> 394 ;
395 [label="X[3546] <= 0.5\nentropy = 0.381\nsamples = 54\nvalue = [50, 4]"] ;
394 -> 395 ;
396 [label="X[5452] <= 0.5\nentropy = 0.386\nsamples = 53\nvalue = [49, 4]"] ;
395 -> 396 ;
397 [label="X[895] <= 0.5\nentropy = 0.391\nsamples = 52\nvalue = [48, 4]"] ;
396 -> 397 ;
398 [label="X[245] <= 0.5\nentropy = 0.397\nsamples = 51\nvalue = [47, 4]"] ;
397 -> 398 ;
399 [label="X[5449] <= 0.5\nentropy = 0.408\nsamples = 49\nvalue = [45, 4]"] ;
398 -> 399 ;
400 [label="X[4627] <= 0.5\nentropy = 0.414\nsamples = 48\nvalue = [44, 4]"] ;
399 -> 400 ;
401 [label="X[402] <= 0.5\nentropy = 0.42\nsamples = 47\nvalue = [43, 4]"] ;
400 -> 401 ;
402 [label="X[1413] <= 0.5\nentropy = 0.348\nsamples = 46\nvalue = [43, 3]"] ;
401 -> 402 ;
403 [label="X[3746] <= 0.5\nentropy = 0.353\nsamples = 45\nvalue = [42, 3]"] ;
402 -> 403 ;
404 [label="X[69] <= 0.5\nentropy = 0.359\nsamples = 44\nvalue = [41, 3]"] ;
403 -> 404 ;
405 [label="X[631] <= 0.5\nentropy = 0.365\nsamples = 43\nvalue = [40, 3]"] ;
404 -> 405 ;
406 [label="X[2013] <= 0.5\nentropy = 0.371\nsamples = 42\nvalue = [39, 3]"] ;
405 -> 406 ;
407 [label="X[183] <= 0.5\nentropy = 0.378\nsamples = 41\nvalue = [38, 3]"] ;
406 -> 407 ;
408 [label="X[1938] <= 0.5\nentropy = 0.384\nsamples = 40\nvalue = [37, 3]"] ;
407 -> 408 ;
409 [label="X[3877] <= 0.5\nentropy = 0.391\nsamples = 39\nvalue = [36, 3]"] ;
408 -> 409 ;
410 [label="X[4842] <= 0.5\nentropy = 0.398\nsamples = 38\nvalue = [35, 3]"] ;
409 -> 410 ;
411 [label="X[650] <= 0.5\nentropy = 0.406\nsamples = 37\nvalue = [34, 3]"] ;
410 -> 411 ;
412 [label="X[353] <= 0.5\nentropy = 0.414\nsamples = 36\nvalue = [33, 3]"] ;
411 -> 412 ;
413 [label="X[638] <= 0.5\nentropy = 0.422\nsamples = 35\nvalue = [32, 3]"] ;
412 -> 413 ;
414 [label="X[4383] <= 0.5\nentropy = 0.431\nsamples = 34\nvalue = [31, 3]"] ;
413 -> 414 ;
415 [label="X[4192] <= 0.5\nentropy = 0.439\nsamples = 33\nvalue = [30, 3]"] ;
414 -> 415 ;
416 [label="X[4137] <= 0.5\nentropy = 0.449\nsamples = 32\nvalue = [29, 3]"] ;
415 -> 416 ;
417 [label="X[4263] <= 0.5\nentropy = 0.459\nsamples = 31\nvalue = [28, 3]"] ;
416 -> 417 ;
418 [label="X[1258] <= 0.5\nentropy = 0.469\nsamples = 30\nvalue = [27, 3]"] ;
417 -> 418 ;
419 [label="X[145] <= 0.5\nentropy = 0.48\nsamples = 29\nvalue = [26, 3]"] ;
418 -> 419 ;
420 [label="X[5394] <= 0.5\nentropy = 0.402\nsamples = 25\nvalue = [23, 2]"] ;
419 -> 420 ;
421 [label="X[5069] <= 0.5\nentropy = 0.414\nsamples = 24\nvalue = [22, 2]"] ;
420 -> 421 ;
422 [label="X[724] <= 0.5\nentropy = 0.426\nsamples = 23\nvalue = [21, 2]"] ;
421 -> 422 ;
423 [label="X[1254] <= 0.5\nentropy = 0.439\nsamples = 22\nvalue = [20, 2]"] ;
422 -> 423 ;
424 [label="X[8] <= 0.5\nentropy = 0.454\nsamples = 21\nvalue = [19, 2]"] ;
423 -> 424 ;
425 [label="X[1912] <= 0.5\nentropy = 0.469\nsamples = 20\nvalue = [18, 2]"] ;
424 -> 425 ;
426 [label="X[2817] <= 0.5\nentropy = 0.297\nsamples = 19\nvalue = [18, 1]"] ;
425 -> 426 ;
427 [label="X[4374] <= 0.5\nentropy = 0.31\nsamples = 18\nvalue = [17, 1]"] ;
426 -> 427 ;
428 [label="X[4909] <= 0.5\nentropy = 0.323\nsamples = 17\nvalue = [16, 1]"] ;
427 -> 428 ;
429 [label="X[432] <= 0.5\nentropy = 0.337\nsamples = 16\nvalue = [15, 1]"] ;
428 -> 429 ;
430 [label="entropy = 0.0\nsamples = 15\nvalue = [15, 0]"] ;
429 -> 430 ;
431 [label="entropy = 0.0\nsamples = 1\nvalue = [0, 1]"] ;
429 -> 431 ;
432 [label="entropy = 0.0\nsamples = 1\nvalue = [1, 0]"] ;
428 -> 432 ;
433 [label="entropy = 0.0\nsamples = 1\nvalue = [1, 0]"] ;
427 -> 433 ;
434 [label="entropy = 0.0\nsamples = 1\nvalue = [1, 0]"] ;
426 -> 434 ;
435 [label="entropy = 0.0\nsamples = 1\nvalue = [0, 1]"] ;
425 -> 435 ;
436 [label="entropy = 0.0\nsamples = 1\nvalue = [1, 0]"] ;
424 -> 436 ;
437 [label="entropy = 0.0\nsamples = 1\nvalue = [1, 0]"] ;
423 -> 437 ;
438 [label="entropy = 0.0\nsamples = 1\nvalue = [1, 0]"] ;
422 -> 438 ;
439 [label="entropy = 0.0\nsamples = 1\nvalue = [1, 0]"] ;
421 -> 439 ;
440 [label="entropy = 0.0\nsamples = 1\nvalue = [1, 0]"] ;
420 -> 440 ;
441 [label="X[12] <= 0.5\nentropy = 0.811\nsamples = 4\nvalue = [3, 1]"] ;
419 -> 441 ;
442 [label="X[59] <= 0.5\nentropy = 0.918\nsamples = 3\nvalue = [2, 1]"] ;
441 -> 442 ;
443 [label="X[2619] <= 0.5\nentropy = 1.0\nsamples = 2\nvalue = [1, 1]"] ;
442 -> 443 ;
444 [label="entropy = 0.0\nsamples = 1\nvalue = [1, 0]"] ;
443 -> 444 ;
445 [label="entropy = 0.0\nsamples = 1\nvalue = [0, 1]"] ;
443 -> 445 ;
446 [label="entropy = 0.0\nsamples = 1\nvalue = [1, 0]"] ;
442 -> 446 ;
447 [label="entropy = 0.0\nsamples = 1\nvalue = [1, 0]"] ;
441 -> 447 ;
448 [label="entropy = 0.0\nsamples = 1\nvalue = [1, 0]"] ;
418 -> 448 ;
449 [label="entropy = 0.0\nsamples = 1\nvalue = [1, 0]"] ;
417 -> 449 ;
450 [label="entropy = 0.0\nsamples = 1\nvalue = [1, 0]"] ;
416 -> 450 ;
451 [label="entropy = 0.0\nsamples = 1\nvalue = [1, 0]"] ;
415 -> 451 ;
452 [label="entropy = 0.0\nsamples = 1\nvalue = [1, 0]"] ;
414 -> 452 ;
453 [label="entropy = 0.0\nsamples = 1\nvalue = [1, 0]"] ;
413 -> 453 ;
454 [label="entropy = 0.0\nsamples = 1\nvalue = [1, 0]"] ;
412 -> 454 ;
455 [label="entropy = 0.0\nsamples = 1\nvalue = [1, 0]"] ;
411 -> 455 ;
456 [label="entropy = 0.0\nsamples = 1\nvalue = [1, 0]"] ;
410 -> 456 ;
457 [label="entropy = 0.0\nsamples = 1\nvalue = [1, 0]"] ;
409 -> 457 ;
458 [label="entropy = 0.0\nsamples = 1\nvalue = [1, 0]"] ;
408 -> 458 ;
459 [label="entropy = 0.0\nsamples = 1\nvalue = [1, 0]"] ;
407 -> 459 ;
460 [label="entropy = 0.0\nsamples = 1\nvalue = [1, 0]"] ;
406 -> 460 ;
461 [label="entropy = 0.0\nsamples = 1\nvalue = [1, 0]"] ;
405 -> 461 ;
462 [label="entropy = 0.0\nsamples = 1\nvalue = [1, 0]"] ;
404 -> 462 ;
463 [label="entropy = 0.0\nsamples = 1\nvalue = [1, 0]"] ;
403 -> 463 ;
464 [label="entropy = 0.0\nsamples = 1\nvalue = [1, 0]"] ;
402 -> 464 ;
465 [label="entropy = 0.0\nsamples = 1\nvalue = [0, 1]"] ;
401 -> 465 ;
466 [label="entropy = 0.0\nsamples = 1\nvalue = [1, 0]"] ;
400 -> 466 ;
467 [label="entropy = 0.0\nsamples = 1\nvalue = [1, 0]"] ;
399 -> 467 ;
468 [label="entropy = 0.0\nsamples = 2\nvalue = [2, 0]"] ;
398 -> 468 ;
469 [label="entropy = 0.0\nsamples = 1\nvalue = [1, 0]"] ;
397 -> 469 ;
470 [label="entropy = 0.0\nsamples = 1\nvalue = [1, 0]"] ;
396 -> 470 ;
471 [label="entropy = 0.0\nsamples = 1\nvalue = [1, 0]"] ;
395 -> 471 ;
472 [label="entropy = 0.0\nsamples = 1\nvalue = [1, 0]"] ;
394 -> 472 ;
473 [label="entropy = 0.0\nsamples = 1\nvalue = [1, 0]"] ;
393 -> 473 ;
474 [label="entropy = 0.0\nsamples = 2\nvalue = [2, 0]"] ;
392 -> 474 ;
475 [label="entropy = 0.0\nsamples = 1\nvalue = [1, 0]"] ;
391 -> 475 ;
476 [label="entropy = 0.0\nsamples = 1\nvalue = [1, 0]"] ;
390 -> 476 ;
477 [label="entropy = 0.0\nsamples = 1\nvalue = [1, 0]"] ;
389 -> 477 ;
478 [label="entropy = 0.0\nsamples = 1\nvalue = [1, 0]"] ;
388 -> 478 ;
479 [label="entropy = 0.0\nsamples = 1\nvalue = [1, 0]"] ;
387 -> 479 ;
480 [label="entropy = 0.0\nsamples = 1\nvalue = [1, 0]"] ;
386 -> 480 ;
481 [label="entropy = 0.0\nsamples = 4\nvalue = [4, 0]"] ;
385 -> 481 ;
482 [label="entropy = 0.0\nsamples = 1\nvalue = [0, 1]"] ;
384 -> 482 ;
483 [label="entropy = 0.0\nsamples = 1\nvalue = [1, 0]"] ;
383 -> 483 ;
484 [label="entropy = 0.0\nsamples = 1\nvalue = [1, 0]"] ;
382 -> 484 ;
485 [label="entropy = 0.0\nsamples = 1\nvalue = [1, 0]"] ;
381 -> 485 ;
486 [label="entropy = 0.0\nsamples = 1\nvalue = [1, 0]"] ;
380 -> 486 ;
487 [label="entropy = 0.0\nsamples = 1\nvalue = [1, 0]"] ;
379 -> 487 ;
488 [label="entropy = 0.0\nsamples = 1\nvalue = [1, 0]"] ;
378 -> 488 ;
489 [label="entropy = 0.0\nsamples = 2\nvalue = [2, 0]"] ;
377 -> 489 ;
490 [label="entropy = 0.0\nsamples = 2\nvalue = [2, 0]"] ;
376 -> 490 ;
491 [label="entropy = 0.0\nsamples = 1\nvalue = [1, 0]"] ;
375 -> 491 ;
492 [label="entropy = 0.0\nsamples = 1\nvalue = [1, 0]"] ;
374 -> 492 ;
493 [label="entropy = 0.0\nsamples = 2\nvalue = [2, 0]"] ;
373 -> 493 ;
494 [label="entropy = 0.0\nsamples = 1\nvalue = [1, 0]"] ;
372 -> 494 ;
495 [label="entropy = 0.0\nsamples = 1\nvalue = [1, 0]"] ;
371 -> 495 ;
496 [label="entropy = 0.0\nsamples = 1\nvalue = [1, 0]"] ;
370 -> 496 ;
497 [label="entropy = 0.0\nsamples = 1\nvalue = [1, 0]"] ;
369 -> 497 ;
498 [label="entropy = 0.0\nsamples = 1\nvalue = [1, 0]"] ;
368 -> 498 ;
499 [label="entropy = 0.0\nsamples = 1\nvalue = [1, 0]"] ;
367 -> 499 ;
500 [label="entropy = 0.0\nsamples = 1\nvalue = [1, 0]"] ;
366 -> 500 ;
501 [label="entropy = 0.0\nsamples = 1\nvalue = [1, 0]"] ;
365 -> 501 ;
502 [label="entropy = 0.0\nsamples = 4\nvalue = [4, 0]"] ;
364 -> 502 ;
503 [label="entropy = 0.0\nsamples = 1\nvalue = [0, 1]"] ;
363 -> 503 ;
504 [label="entropy = 0.0\nsamples = 1\nvalue = [1, 0]"] ;
362 -> 504 ;
505 [label="entropy = 0.0\nsamples = 1\nvalue = [1, 0]"] ;
361 -> 505 ;
506 [label="entropy = 0.0\nsamples = 1\nvalue = [1, 0]"] ;
360 -> 506 ;
507 [label="entropy = 0.0\nsamples = 1\nvalue = [0, 1]"] ;
359 -> 507 ;
508 [label="entropy = 0.0\nsamples = 1\nvalue = [1, 0]"] ;
358 -> 508 ;
509 [label="X[1258] <= 0.5\nentropy = 0.252\nsamples = 95\nvalue = [91, 4]"] ;
357 -> 509 ;
510 [label="X[2325] <= 0.5\nentropy = 0.254\nsamples = 94\nvalue = [90, 4]"] ;
509 -> 510 ;
511 [label="X[4615] <= 0.5\nentropy = 0.258\nsamples = 92\nvalue = [88, 4]"] ;
510 -> 511 ;
512 [label="X[3743] <= 0.5\nentropy = 0.26\nsamples = 91\nvalue = [87, 4]"] ;
511 -> 512 ;
513 [label="X[5174] <= 0.5\nentropy = 0.262\nsamples = 90\nvalue = [86, 4]"] ;
512 -> 513 ;
514 [label="X[94] <= 0.5\nentropy = 0.265\nsamples = 89\nvalue = [85, 4]"] ;
513 -> 514 ;
515 [label="X[1511] <= 0.5\nentropy = 0.269\nsamples = 87\nvalue = [83, 4]"] ;
514 -> 515 ;
516 [label="X[674] <= 0.5\nentropy = 0.271\nsamples = 86\nvalue = [82, 4]"] ;
515 -> 516 ;
517 [label="X[4623] <= 0.5\nentropy = 0.274\nsamples = 85\nvalue = [81, 4]"] ;
516 -> 517 ;
518 [label="X[822] <= 0.5\nentropy = 0.276\nsamples = 84\nvalue = [80, 4]"] ;
517 -> 518 ;
519 [label="X[447] <= 0.5\nentropy = 0.279\nsamples = 83\nvalue = [79, 4]"] ;
518 -> 519 ;
520 [label="X[5214] <= 0.5\nentropy = 0.281\nsamples = 82\nvalue = [78, 4]"] ;
519 -> 520 ;
521 [label="X[140] <= 0.5\nentropy = 0.284\nsamples = 81\nvalue = [77, 4]"] ;
520 -> 521 ;
522 [label="X[226] <= 0.5\nentropy = 0.292\nsamples = 78\nvalue = [74, 4]"] ;
521 -> 522 ;
523 [label="X[5045] <= 0.5\nentropy = 0.295\nsamples = 77\nvalue = [73, 4]"] ;
522 -> 523 ;
524 [label="X[1807] <= 0.5\nentropy = 0.297\nsamples = 76\nvalue = [72, 4]"] ;
523 -> 524 ;
525 [label="X[0] <= 0.5\nentropy = 0.3\nsamples = 75\nvalue = [71, 4]"] ;
524 -> 525 ;
526 [label="X[1993] <= 0.5\nentropy = 0.306\nsamples = 73\nvalue = [69, 4]"] ;
525 -> 526 ;
527 [label="X[105] <= 0.5\nentropy = 0.31\nsamples = 72\nvalue = [68, 4]"] ;
526 -> 527 ;
528 [label="X[4168] <= 0.5\nentropy = 0.345\nsamples = 62\nvalue = [58, 4]"] ;
527 -> 528 ;
529 [label="X[1787] <= 0.5\nentropy = 0.349\nsamples = 61\nvalue = [57, 4]"] ;
528 -> 529 ;
530 [label="X[3920] <= 0.5\nentropy = 0.286\nsamples = 60\nvalue = [57, 3]"] ;
529 -> 530 ;
531 [label="X[1792] <= 0.5\nentropy = 0.29\nsamples = 59\nvalue = [56, 3]"] ;
530 -> 531 ;
532 [label="X[5728] <= 0.5\nentropy = 0.294\nsamples = 58\nvalue = [55, 3]"] ;
531 -> 532 ;
533 [label="X[556] <= 0.5\nentropy = 0.297\nsamples = 57\nvalue = [54, 3]"] ;
532 -> 533 ;
534 [label="X[4999] <= 0.5\nentropy = 0.301\nsamples = 56\nvalue = [53, 3]"] ;
533 -> 534 ;
535 [label="X[5453] <= 0.5\nentropy = 0.305\nsamples = 55\nvalue = [52, 3]"] ;
534 -> 535 ;
536 [label="X[193] <= 0.5\nentropy = 0.31\nsamples = 54\nvalue = [51, 3]"] ;
535 -> 536 ;
537 [label="X[4197] <= 0.5\nentropy = 0.235\nsamples = 52\nvalue = [50, 2]"] ;
536 -> 537 ;
538 [label="X[2243] <= 0.5\nentropy = 0.239\nsamples = 51\nvalue = [49, 2]"] ;
537 -> 538 ;
539 [label="X[647] <= 0.5\nentropy = 0.242\nsamples = 50\nvalue = [48, 2]"] ;
538 -> 539 ;
540 [label="X[2569] <= 0.5\nentropy = 0.144\nsamples = 49\nvalue = [48, 1]"] ;
539 -> 540 ;
541 [label="X[5824] <= 0.5\nentropy = 0.146\nsamples = 48\nvalue = [47, 1]"] ;
540 -> 541 ;
542 [label="X[1284] <= 0.5\nentropy = 0.149\nsamples = 47\nvalue = [46, 1]"] ;
541 -> 542 ;
543 [label="X[4448] <= 0.5\nentropy = 0.151\nsamples = 46\nvalue = [45, 1]"] ;
542 -> 543 ;
544 [label="X[3288] <= 0.5\nentropy = 0.154\nsamples = 45\nvalue = [44, 1]"] ;
543 -> 544 ;
545 [label="X[3924] <= 0.5\nentropy = 0.156\nsamples = 44\nvalue = [43, 1]"] ;
544 -> 545 ;
546 [label="X[4323] <= 0.5\nentropy = 0.159\nsamples = 43\nvalue = [42, 1]"] ;
545 -> 546 ;
547 [label="X[2585] <= 0.5\nentropy = 0.162\nsamples = 42\nvalue = [41, 1]"] ;
546 -> 547 ;
548 [label="X[338] <= 0.5\nentropy = 0.165\nsamples = 41\nvalue = [40, 1]"] ;
547 -> 548 ;
549 [label="X[12] <= 0.5\nentropy = 0.172\nsamples = 39\nvalue = [38, 1]"] ;
548 -> 549 ;
550 [label="X[4314] <= 0.5\nentropy = 0.176\nsamples = 38\nvalue = [37, 1]"] ;
549 -> 550 ;
551 [label="X[4245] <= 0.5\nentropy = 0.179\nsamples = 37\nvalue = [36, 1]"] ;
550 -> 551 ;
552 [label="X[3379] <= 0.5\nentropy = 0.183\nsamples = 36\nvalue = [35, 1]"] ;
551 -> 552 ;
553 [label="X[4149] <= 0.5\nentropy = 0.187\nsamples = 35\nvalue = [34, 1]"] ;
552 -> 553 ;
554 [label="X[3545] <= 0.5\nentropy = 0.191\nsamples = 34\nvalue = [33, 1]"] ;
553 -> 554 ;
555 [label="X[4254] <= 0.5\nentropy = 0.196\nsamples = 33\nvalue = [32, 1]"] ;
554 -> 555 ;
556 [label="X[5607] <= 0.5\nentropy = 0.201\nsamples = 32\nvalue = [31, 1]"] ;
555 -> 556 ;
557 [label="X[2032] <= 0.5\nentropy = 0.206\nsamples = 31\nvalue = [30, 1]"] ;
556 -> 557 ;
558 [label="X[1766] <= 0.5\nentropy = 0.211\nsamples = 30\nvalue = [29, 1]"] ;
557 -> 558 ;
559 [label="X[4306] <= 0.5\nentropy = 0.216\nsamples = 29\nvalue = [28, 1]"] ;
558 -> 559 ;
560 [label="X[65] <= 0.5\nentropy = 0.222\nsamples = 28\nvalue = [27, 1]"] ;
559 -> 560 ;
561 [label="X[3019] <= 0.5\nentropy = 0.229\nsamples = 27\nvalue = [26, 1]"] ;
560 -> 561 ;
562 [label="X[4515] <= 0.5\nentropy = 0.235\nsamples = 26\nvalue = [25, 1]"] ;
561 -> 562 ;
563 [label="X[1366] <= 0.5\nentropy = 0.242\nsamples = 25\nvalue = [24, 1]"] ;
562 -> 563 ;
564 [label="entropy = 0.0\nsamples = 24\nvalue = [24, 0]"] ;
563 -> 564 ;
565 [label="entropy = 0.0\nsamples = 1\nvalue = [0, 1]"] ;
563 -> 565 ;
566 [label="entropy = 0.0\nsamples = 1\nvalue = [1, 0]"] ;
562 -> 566 ;
567 [label="entropy = 0.0\nsamples = 1\nvalue = [1, 0]"] ;
561 -> 567 ;
568 [label="entropy = 0.0\nsamples = 1\nvalue = [1, 0]"] ;
560 -> 568 ;
569 [label="entropy = 0.0\nsamples = 1\nvalue = [1, 0]"] ;
559 -> 569 ;
570 [label="entropy = 0.0\nsamples = 1\nvalue = [1, 0]"] ;
558 -> 570 ;
571 [label="entropy = 0.0\nsamples = 1\nvalue = [1, 0]"] ;
557 -> 571 ;
572 [label="entropy = 0.0\nsamples = 1\nvalue = [1, 0]"] ;
556 -> 572 ;
573 [label="entropy = 0.0\nsamples = 1\nvalue = [1, 0]"] ;
555 -> 573 ;
574 [label="entropy = 0.0\nsamples = 1\nvalue = [1, 0]"] ;
554 -> 574 ;
575 [label="entropy = 0.0\nsamples = 1\nvalue = [1, 0]"] ;
553 -> 575 ;
576 [label="entropy = 0.0\nsamples = 1\nvalue = [1, 0]"] ;
552 -> 576 ;
577 [label="entropy = 0.0\nsamples = 1\nvalue = [1, 0]"] ;
551 -> 577 ;
578 [label="entropy = 0.0\nsamples = 1\nvalue = [1, 0]"] ;
550 -> 578 ;
579 [label="entropy = 0.0\nsamples = 1\nvalue = [1, 0]"] ;
549 -> 579 ;
580 [label="entropy = 0.0\nsamples = 2\nvalue = [2, 0]"] ;
548 -> 580 ;
581 [label="entropy = 0.0\nsamples = 1\nvalue = [1, 0]"] ;
547 -> 581 ;
582 [label="entropy = 0.0\nsamples = 1\nvalue = [1, 0]"] ;
546 -> 582 ;
583 [label="entropy = 0.0\nsamples = 1\nvalue = [1, 0]"] ;
545 -> 583 ;
584 [label="entropy = 0.0\nsamples = 1\nvalue = [1, 0]"] ;
544 -> 584 ;
585 [label="entropy = 0.0\nsamples = 1\nvalue = [1, 0]"] ;
543 -> 585 ;
586 [label="entropy = 0.0\nsamples = 1\nvalue = [1, 0]"] ;
542 -> 586 ;
587 [label="entropy = 0.0\nsamples = 1\nvalue = [1, 0]"] ;
541 -> 587 ;
588 [label="entropy = 0.0\nsamples = 1\nvalue = [1, 0]"] ;
540 -> 588 ;
589 [label="entropy = 0.0\nsamples = 1\nvalue = [0, 1]"] ;
539 -> 589 ;
590 [label="entropy = 0.0\nsamples = 1\nvalue = [1, 0]"] ;
538 -> 590 ;
591 [label="entropy = 0.0\nsamples = 1\nvalue = [1, 0]"] ;
537 -> 591 ;
592 [label="X[269] <= 0.5\nentropy = 1.0\nsamples = 2\nvalue = [1, 1]"] ;
536 -> 592 ;
593 [label="entropy = 0.0\nsamples = 1\nvalue = [1, 0]"] ;
592 -> 593 ;
594 [label="entropy = 0.0\nsamples = 1\nvalue = [0, 1]"] ;
592 -> 594 ;
595 [label="entropy = 0.0\nsamples = 1\nvalue = [1, 0]"] ;
535 -> 595 ;
596 [label="entropy = 0.0\nsamples = 1\nvalue = [1, 0]"] ;
534 -> 596 ;
597 [label="entropy = 0.0\nsamples = 1\nvalue = [1, 0]"] ;
533 -> 597 ;
598 [label="entropy = 0.0\nsamples = 1\nvalue = [1, 0]"] ;
532 -> 598 ;
599 [label="entropy = 0.0\nsamples = 1\nvalue = [1, 0]"] ;
531 -> 599 ;
600 [label="entropy = 0.0\nsamples = 1\nvalue = [1, 0]"] ;
530 -> 600 ;
601 [label="entropy = 0.0\nsamples = 1\nvalue = [0, 1]"] ;
529 -> 601 ;
602 [label="entropy = 0.0\nsamples = 1\nvalue = [1, 0]"] ;
528 -> 602 ;
603 [label="entropy = 0.0\nsamples = 10\nvalue = [10, 0]"] ;
527 -> 603 ;
604 [label="entropy = 0.0\nsamples = 1\nvalue = [1, 0]"] ;
526 -> 604 ;
605 [label="entropy = 0.0\nsamples = 2\nvalue = [2, 0]"] ;
525 -> 605 ;
606 [label="entropy = 0.0\nsamples = 1\nvalue = [1, 0]"] ;
524 -> 606 ;
607 [label="entropy = 0.0\nsamples = 1\nvalue = [1, 0]"] ;
523 -> 607 ;
608 [label="entropy = 0.0\nsamples = 1\nvalue = [1, 0]"] ;
522 -> 608 ;
609 [label="entropy = 0.0\nsamples = 3\nvalue = [3, 0]"] ;
521 -> 609 ;
610 [label="entropy = 0.0\nsamples = 1\nvalue = [1, 0]"] ;
520 -> 610 ;
611 [label="entropy = 0.0\nsamples = 1\nvalue = [1, 0]"] ;
519 -> 611 ;
612 [label="entropy = 0.0\nsamples = 1\nvalue = [1, 0]"] ;
518 -> 612 ;
613 [label="entropy = 0.0\nsamples = 1\nvalue = [1, 0]"] ;
517 -> 613 ;
614 [label="entropy = 0.0\nsamples = 1\nvalue = [1, 0]"] ;
516 -> 614 ;
615 [label="entropy = 0.0\nsamples = 1\nvalue = [1, 0]"] ;
515 -> 615 ;
616 [label="entropy = 0.0\nsamples = 2\nvalue = [2, 0]"] ;
514 -> 616 ;
617 [label="entropy = 0.0\nsamples = 1\nvalue = [1, 0]"] ;
513 -> 617 ;
618 [label="entropy = 0.0\nsamples = 1\nvalue = [1, 0]"] ;
512 -> 618 ;
619 [label="entropy = 0.0\nsamples = 1\nvalue = [1, 0]"] ;
511 -> 619 ;
620 [label="entropy = 0.0\nsamples = 2\nvalue = [2, 0]"] ;
510 -> 620 ;
621 [label="entropy = 0.0\nsamples = 1\nvalue = [1, 0]"] ;
509 -> 621 ;
622 [label="entropy = 0.0\nsamples = 2\nvalue = [2, 0]"] ;
356 -> 622 ;
623 [label="entropy = 0.0\nsamples = 1\nvalue = [1, 0]"] ;
355 -> 623 ;
624 [label="entropy = 0.0\nsamples = 1\nvalue = [1, 0]"] ;
354 -> 624 ;
625 [label="entropy = 0.0\nsamples = 1\nvalue = [1, 0]"] ;
353 -> 625 ;
626 [label="entropy = 0.0\nsamples = 1\nvalue = [1, 0]"] ;
352 -> 626 ;
627 [label="entropy = 0.0\nsamples = 1\nvalue = [0, 1]"] ;
351 -> 627 ;
628 [label="entropy = 0.0\nsamples = 1\nvalue = [1, 0]"] ;
350 -> 628 ;
629 [label="entropy = 0.0\nsamples = 1\nvalue = [1, 0]"] ;
349 -> 629 ;
630 [label="entropy = 0.0\nsamples = 2\nvalue = [2, 0]"] ;
348 -> 630 ;
631 [label="entropy = 0.0\nsamples = 1\nvalue = [1, 0]"] ;
347 -> 631 ;
632 [label="entropy = 0.0\nsamples = 1\nvalue = [1, 0]"] ;
346 -> 632 ;
633 [label="entropy = 0.0\nsamples = 1\nvalue = [1, 0]"] ;
345 -> 633 ;
634 [label="X[1157] <= 0.5\nentropy = 0.764\nsamples = 9\nvalue = [7, 2]"] ;
344 -> 634 ;
635 [label="X[43] <= 0.5\nentropy = 0.544\nsamples = 8\nvalue = [7, 1]"] ;
634 -> 635 ;
636 [label="X[145] <= 0.5\nentropy = 0.592\nsamples = 7\nvalue = [6, 1]"] ;
635 -> 636 ;
637 [label="X[3262] <= 0.5\nentropy = 0.65\nsamples = 6\nvalue = [5, 1]"] ;
636 -> 637 ;
638 [label="entropy = 0.0\nsamples = 5\nvalue = [5, 0]"] ;
637 -> 638 ;
639 [label="entropy = 0.0\nsamples = 1\nvalue = [0, 1]"] ;
637 -> 639 ;
640 [label="entropy = 0.0\nsamples = 1\nvalue = [1, 0]"] ;
636 -> 640 ;
641 [label="entropy = 0.0\nsamples = 1\nvalue = [1, 0]"] ;
635 -> 641 ;
642 [label="entropy = 0.0\nsamples = 1\nvalue = [0, 1]"] ;
634 -> 642 ;
643 [label="entropy = 0.0\nsamples = 3\nvalue = [3, 0]"] ;
341 -> 643 ;
644 [label="entropy = 0.0\nsamples = 1\nvalue = [0, 1]"] ;
340 -> 644 ;
645 [label="entropy = 0.0\nsamples = 1\nvalue = [1, 0]"] ;
339 -> 645 ;
646 [label="entropy = 0.0\nsamples = 1\nvalue = [0, 1]"] ;
338 -> 646 ;
647 [label="entropy = 0.0\nsamples = 1\nvalue = [1, 0]"] ;
337 -> 647 ;
648 [label="entropy = 0.0\nsamples = 2\nvalue = [2, 0]"] ;
336 -> 648 ;
649 [label="entropy = 0.0\nsamples = 1\nvalue = [1, 0]"] ;
335 -> 649 ;
650 [label="entropy = 0.0\nsamples = 3\nvalue = [3, 0]"] ;
334 -> 650 ;
651 [label="entropy = 0.0\nsamples = 1\nvalue = [0, 1]"] ;
333 -> 651 ;
652 [label="entropy = 0.0\nsamples = 2\nvalue = [2, 0]"] ;
332 -> 652 ;
653 [label="entropy = 0.0\nsamples = 1\nvalue = [0, 1]"] ;
331 -> 653 ;
654 [label="entropy = 0.0\nsamples = 1\nvalue = [1, 0]"] ;
330 -> 654 ;
655 [label="entropy = 0.0\nsamples = 2\nvalue = [2, 0]"] ;
329 -> 655 ;
656 [label="entropy = 0.0\nsamples = 1\nvalue = [1, 0]"] ;
328 -> 656 ;
657 [label="entropy = 0.0\nsamples = 1\nvalue = [0, 1]"] ;
327 -> 657 ;
658 [label="X[786] <= 0.5\nentropy = 0.722\nsamples = 5\nvalue = [4, 1]"] ;
326 -> 658 ;
659 [label="X[2645] <= 0.5\nentropy = 0.811\nsamples = 4\nvalue = [3, 1]"] ;
658 -> 659 ;
660 [label="X[2625] <= 0.5\nentropy = 1.0\nsamples = 2\nvalue = [1, 1]"] ;
659 -> 660 ;
661 [label="entropy = 0.0\nsamples = 1\nvalue = [1, 0]"] ;
660 -> 661 ;
662 [label="entropy = 0.0\nsamples = 1\nvalue = [0, 1]"] ;
660 -> 662 ;
663 [label="entropy = 0.0\nsamples = 2\nvalue = [2, 0]"] ;
659 -> 663 ;
664 [label="entropy = 0.0\nsamples = 1\nvalue = [1, 0]"] ;
658 -> 664 ;
665 [label="entropy = 0.0\nsamples = 2\nvalue = [2, 0]"] ;
325 -> 665 ;
666 [label="entropy = 0.0\nsamples = 1\nvalue = [1, 0]"] ;
324 -> 666 ;
667 [label="entropy = 0.0\nsamples = 1\nvalue = [1, 0]"] ;
323 -> 667 ;
668 [label="entropy = 0.0\nsamples = 1\nvalue = [1, 0]"] ;
322 -> 668 ;
669 [label="entropy = 0.0\nsamples = 4\nvalue = [4, 0]"] ;
321 -> 669 ;
670 [label="entropy = 0.0\nsamples = 1\nvalue = [0, 1]"] ;
320 -> 670 ;
671 [label="entropy = 0.0\nsamples = 1\nvalue = [0, 1]"] ;
319 -> 671 ;
672 [label="entropy = 0.0\nsamples = 2\nvalue = [2, 0]"] ;
318 -> 672 ;
673 [label="entropy = 0.0\nsamples = 1\nvalue = [0, 1]"] ;
317 -> 673 ;
674 [label="entropy = 0.0\nsamples = 1\nvalue = [1, 0]"] ;
316 -> 674 ;
675 [label="entropy = 0.0\nsamples = 1\nvalue = [0, 1]"] ;
315 -> 675 ;
676 [label="entropy = 0.0\nsamples = 2\nvalue = [2, 0]"] ;
314 -> 676 ;
677 [label="entropy = 0.0\nsamples = 1\nvalue = [1, 0]"] ;
313 -> 677 ;
678 [label="entropy = 0.0\nsamples = 1\nvalue = [0, 1]"] ;
312 -> 678 ;
679 [label="entropy = 0.0\nsamples = 1\nvalue = [1, 0]"] ;
311 -> 679 ;
680 [label="entropy = 0.0\nsamples = 1\nvalue = [0, 1]"] ;
310 -> 680 ;
681 [label="entropy = 0.0\nsamples = 1\nvalue = [1, 0]"] ;
309 -> 681 ;
682 [label="entropy = 0.0\nsamples = 1\nvalue = [1, 0]"] ;
308 -> 682 ;
683 [label="entropy = 0.0\nsamples = 1\nvalue = [0, 1]"] ;
307 -> 683 ;
684 [label="X[683] <= 0.5\nentropy = 0.918\nsamples = 9\nvalue = [6, 3]"] ;
306 -> 684 ;
685 [label="X[786] <= 0.5\nentropy = 0.954\nsamples = 8\nvalue = [5, 3]"] ;
684 -> 685 ;
686 [label="X[454] <= 0.5\nentropy = 0.985\nsamples = 7\nvalue = [4, 3]"] ;
685 -> 686 ;
687 [label="X[232] <= 0.5\nentropy = 0.918\nsamples = 6\nvalue = [4, 2]"] ;
686 -> 687 ;
688 [label="X[183] <= 0.5\nentropy = 0.811\nsamples = 4\nvalue = [3, 1]"] ;
687 -> 688 ;
689 [label="entropy = 0.0\nsamples = 2\nvalue = [2, 0]"] ;
688 -> 689 ;
690 [label="X[22] <= 0.5\nentropy = 1.0\nsamples = 2\nvalue = [1, 1]"] ;
688 -> 690 ;
691 [label="entropy = 0.0\nsamples = 1\nvalue = [1, 0]"] ;
690 -> 691 ;
692 [label="entropy = 0.0\nsamples = 1\nvalue = [0, 1]"] ;
690 -> 692 ;
693 [label="X[5056] <= 0.5\nentropy = 1.0\nsamples = 2\nvalue = [1, 1]"] ;
687 -> 693 ;
694 [label="entropy = 0.0\nsamples = 1\nvalue = [0, 1]"] ;
693 -> 694 ;
695 [label="entropy = 0.0\nsamples = 1\nvalue = [1, 0]"] ;
693 -> 695 ;
696 [label="entropy = 0.0\nsamples = 1\nvalue = [0, 1]"] ;
686 -> 696 ;
697 [label="entropy = 0.0\nsamples = 1\nvalue = [1, 0]"] ;
685 -> 697 ;
698 [label="entropy = 0.0\nsamples = 1\nvalue = [1, 0]"] ;
684 -> 698 ;
699 [label="entropy = 0.0\nsamples = 1\nvalue = [1, 0]"] ;
305 -> 699 ;
700 [label="entropy = 0.0\nsamples = 1\nvalue = [0, 1]"] ;
304 -> 700 ;
701 [label="entropy = 0.0\nsamples = 3\nvalue = [3, 0]"] ;
303 -> 701 ;
702 [label="entropy = 0.0\nsamples = 1\nvalue = [1, 0]"] ;
302 -> 702 ;
703 [label="entropy = 0.0\nsamples = 7\nvalue = [7, 0]"] ;
301 -> 703 ;
704 [label="entropy = 0.0\nsamples = 2\nvalue = [2, 0]"] ;
300 -> 704 ;
705 [label="entropy = 0.0\nsamples = 3\nvalue = [3, 0]"] ;
299 -> 705 ;
706 [label="entropy = 0.0\nsamples = 2\nvalue = [2, 0]"] ;
298 -> 706 ;
707 [label="entropy = 0.0\nsamples = 1\nvalue = [1, 0]"] ;
297 -> 707 ;
708 [label="entropy = 0.0\nsamples = 1\nvalue = [1, 0]"] ;
296 -> 708 ;
709 [label="entropy = 0.0\nsamples = 1\nvalue = [1, 0]"] ;
295 -> 709 ;
710 [label="entropy = 0.0\nsamples = 2\nvalue = [2, 0]"] ;
294 -> 710 ;
711 [label="entropy = 0.0\nsamples = 1\nvalue = [1, 0]"] ;
293 -> 711 ;
712 [label="entropy = 0.0\nsamples = 3\nvalue = [3, 0]"] ;
292 -> 712 ;
713 [label="entropy = 0.0\nsamples = 4\nvalue = [4, 0]"] ;
291 -> 713 ;
714 [label="entropy = 0.0\nsamples = 3\nvalue = [3, 0]"] ;
290 -> 714 ;
715 [label="entropy = 0.0\nsamples = 2\nvalue = [2, 0]"] ;
289 -> 715 ;
716 [label="entropy = 0.0\nsamples = 1\nvalue = [1, 0]"] ;
288 -> 716 ;
717 [label="entropy = 0.0\nsamples = 2\nvalue = [2, 0]"] ;
287 -> 717 ;
718 [label="entropy = 0.0\nsamples = 1\nvalue = [1, 0]"] ;
286 -> 718 ;
719 [label="entropy = 0.0\nsamples = 1\nvalue = [1, 0]"] ;
285 -> 719 ;
720 [label="entropy = 0.0\nsamples = 1\nvalue = [0, 1]"] ;
284 -> 720 ;
721 [label="entropy = 0.0\nsamples = 1\nvalue = [0, 1]"] ;
283 -> 721 ;
722 [label="entropy = 0.0\nsamples = 1\nvalue = [0, 1]"] ;
282 -> 722 ;
723 [label="entropy = 0.0\nsamples = 1\nvalue = [1, 0]"] ;
281 -> 723 ;
724 [label="entropy = 0.0\nsamples = 2\nvalue = [2, 0]"] ;
280 -> 724 ;
725 [label="entropy = 0.0\nsamples = 1\nvalue = [1, 0]"] ;
279 -> 725 ;
726 [label="entropy = 0.0\nsamples = 1\nvalue = [1, 0]"] ;
278 -> 726 ;
727 [label="entropy = 0.0\nsamples = 2\nvalue = [2, 0]"] ;
277 -> 727 ;
728 [label="entropy = 0.0\nsamples = 1\nvalue = [1, 0]"] ;
276 -> 728 ;
729 [label="entropy = 0.0\nsamples = 2\nvalue = [2, 0]"] ;
275 -> 729 ;
730 [label="entropy = 0.0\nsamples = 4\nvalue = [4, 0]"] ;
274 -> 730 ;
731 [label="entropy = 0.0\nsamples = 6\nvalue = [6, 0]"] ;
273 -> 731 ;
732 [label="entropy = 0.0\nsamples = 1\nvalue = [0, 1]"] ;
272 -> 732 ;
733 [label="entropy = 0.0\nsamples = 2\nvalue = [2, 0]"] ;
271 -> 733 ;
734 [label="entropy = 0.0\nsamples = 1\nvalue = [0, 1]"] ;
270 -> 734 ;
735 [label="X[353] <= 0.5\nentropy = 1.0\nsamples = 2\nvalue = [1, 1]"] ;
269 -> 735 ;
736 [label="entropy = 0.0\nsamples = 1\nvalue = [1, 0]"] ;
735 -> 736 ;
737 [label="entropy = 0.0\nsamples = 1\nvalue = [0, 1]"] ;
735 -> 737 ;
738 [label="X[1551] <= 0.5\nentropy = 0.918\nsamples = 9\nvalue = [6, 3]"] ;
268 -> 738 ;
739 [label="X[8] <= 0.5\nentropy = 0.811\nsamples = 8\nvalue = [6, 2]"] ;
738 -> 739 ;
740 [label="X[2324] <= 0.5\nentropy = 0.971\nsamples = 5\nvalue = [3, 2]"] ;
739 -> 740 ;
741 [label="X[182] <= 0.5\nentropy = 1.0\nsamples = 4\nvalue = [2, 2]"] ;
740 -> 741 ;
742 [label="X[345] <= 0.5\nentropy = 0.918\nsamples = 3\nvalue = [1, 2]"] ;
741 -> 742 ;
743 [label="X[26] <= 0.5\nentropy = 1.0\nsamples = 2\nvalue = [1, 1]"] ;
742 -> 743 ;
744 [label="entropy = 0.0\nsamples = 1\nvalue = [0, 1]"] ;
743 -> 744 ;
745 [label="entropy = 0.0\nsamples = 1\nvalue = [1, 0]"] ;
743 -> 745 ;
746 [label="entropy = 0.0\nsamples = 1\nvalue = [0, 1]"] ;
742 -> 746 ;
747 [label="entropy = 0.0\nsamples = 1\nvalue = [1, 0]"] ;
741 -> 747 ;
748 [label="entropy = 0.0\nsamples = 1\nvalue = [1, 0]"] ;
740 -> 748 ;
749 [label="entropy = 0.0\nsamples = 3\nvalue = [3, 0]"] ;
739 -> 749 ;
750 [label="entropy = 0.0\nsamples = 1\nvalue = [0, 1]"] ;
738 -> 750 ;
751 [label="X[116] <= 0.5\nentropy = 1.0\nsamples = 2\nvalue = [1, 1]"] ;
267 -> 751 ;
752 [label="entropy = 0.0\nsamples = 1\nvalue = [0, 1]"] ;
751 -> 752 ;
753 [label="entropy = 0.0\nsamples = 1\nvalue = [1, 0]"] ;
751 -> 753 ;
754 [label="entropy = 0.0\nsamples = 1\nvalue = [1, 0]"] ;
266 -> 754 ;
755 [label="entropy = 0.0\nsamples = 1\nvalue = [1, 0]"] ;
265 -> 755 ;
756 [label="entropy = 0.0\nsamples = 1\nvalue = [0, 1]"] ;
264 -> 756 ;
757 [label="entropy = 0.0\nsamples = 1\nvalue = [1, 0]"] ;
263 -> 757 ;
758 [label="entropy = 0.0\nsamples = 7\nvalue = [7, 0]"] ;
262 -> 758 ;
759 [label="entropy = 0.0\nsamples = 3\nvalue = [3, 0]"] ;
261 -> 759 ;
760 [label="entropy = 0.0\nsamples = 1\nvalue = [0, 1]"] ;
260 -> 760 ;
761 [label="X[2684] <= 0.5\nentropy = 0.918\nsamples = 3\nvalue = [2, 1]"] ;
259 -> 761 ;
762 [label="entropy = 0.0\nsamples = 2\nvalue = [2, 0]"] ;
761 -> 762 ;
763 [label="entropy = 0.0\nsamples = 1\nvalue = [0, 1]"] ;
761 -> 763 ;
764 [label="entropy = 0.0\nsamples = 1\nvalue = [1, 0]"] ;
258 -> 764 ;
765 [label="X[1641] <= 0.5\nentropy = 1.0\nsamples = 2\nvalue = [1, 1]"] ;
257 -> 765 ;
766 [label="entropy = 0.0\nsamples = 1\nvalue = [0, 1]"] ;
765 -> 766 ;
767 [label="entropy = 0.0\nsamples = 1\nvalue = [1, 0]"] ;
765 -> 767 ;
768 [label="entropy = 0.0\nsamples = 2\nvalue = [2, 0]"] ;
256 -> 768 ;
769 [label="X[764] <= 0.5\nentropy = 0.918\nsamples = 3\nvalue = [1, 2]"] ;
255 -> 769 ;
770 [label="entropy = 0.0\nsamples = 2\nvalue = [0, 2]"] ;
769 -> 770 ;
771 [label="entropy = 0.0\nsamples = 1\nvalue = [1, 0]"] ;
769 -> 771 ;
772 [label="entropy = 0.0\nsamples = 1\nvalue = [0, 1]"] ;
254 -> 772 ;
773 [label="entropy = 0.0\nsamples = 2\nvalue = [2, 0]"] ;
253 -> 773 ;
774 [label="entropy = 0.0\nsamples = 5\nvalue = [5, 0]"] ;
252 -> 774 ;
775 [label="X[8] <= 0.5\nentropy = 0.925\nsamples = 47\nvalue = [31, 16]"] ;
251 -> 775 ;
776 [label="X[464] <= 0.5\nentropy = 0.932\nsamples = 46\nvalue = [30, 16]"] ;
775 -> 776 ;
777 [label="X[1703] <= 0.5\nentropy = 0.926\nsamples = 44\nvalue = [29, 15]"] ;
776 -> 777 ;
778 [label="X[3] <= 0.5\nentropy = 0.933\nsamples = 43\nvalue = [28, 15]"] ;
777 -> 778 ;
779 [label="X[1895] <= 0.5\nentropy = 1.0\nsamples = 2\nvalue = [1, 1]"] ;
778 -> 779 ;
780 [label="entropy = 0.0\nsamples = 1\nvalue = [1, 0]"] ;
779 -> 780 ;
781 [label="entropy = 0.0\nsamples = 1\nvalue = [0, 1]"] ;
779 -> 781 ;
782 [label="X[607] <= 0.5\nentropy = 0.926\nsamples = 41\nvalue = [27, 14]"] ;
778 -> 782 ;
783 [label="X[1163] <= 0.5\nentropy = 0.934\nsamples = 40\nvalue = [26, 14]"] ;
782 -> 783 ;
784 [label="X[1460] <= 0.5\nentropy = 0.918\nsamples = 39\nvalue = [26, 13]"] ;
783 -> 784 ;
785 [label="X[642] <= 0.5\nentropy = 0.9\nsamples = 38\nvalue = [26, 12]"] ;
784 -> 785 ;
786 [label="X[2308] <= 0.5\nentropy = 0.909\nsamples = 37\nvalue = [25, 12]"] ;
785 -> 786 ;
787 [label="X[3878] <= 0.5\nentropy = 0.888\nsamples = 36\nvalue = [25, 11]"] ;
786 -> 787 ;
788 [label="X[3857] <= 0.5\nentropy = 0.898\nsamples = 35\nvalue = [24, 11]"] ;
787 -> 788 ;
789 [label="X[249] <= 0.5\nentropy = 0.908\nsamples = 34\nvalue = [23, 11]"] ;
788 -> 789 ;
790 [label="X[683] <= 0.5\nentropy = 0.907\nsamples = 31\nvalue = [21, 10]"] ;
789 -> 790 ;
791 [label="X[452] <= 0.5\nentropy = 0.881\nsamples = 30\nvalue = [21, 9]"] ;
790 -> 791 ;
792 [label="X[1728] <= 0.5\nentropy = 0.894\nsamples = 29\nvalue = [20, 9]"] ;
791 -> 792 ;
793 [label="X[200] <= 0.5\nentropy = 0.863\nsamples = 28\nvalue = [20, 8]"] ;
792 -> 793 ;
794 [label="X[710] <= 0.5\nentropy = 0.826\nsamples = 27\nvalue = [20, 7]"] ;
793 -> 794 ;
795 [label="X[106] <= 0.5\nentropy = 0.84\nsamples = 26\nvalue = [19, 7]"] ;
794 -> 795 ;
796 [label="X[4880] <= 0.5\nentropy = 0.855\nsamples = 25\nvalue = [18, 7]"] ;
795 -> 796 ;
797 [label="X[632] <= 0.5\nentropy = 0.871\nsamples = 24\nvalue = [17, 7]"] ;
796 -> 797 ;
798 [label="X[5586] <= 0.5\nentropy = 0.845\nsamples = 22\nvalue = [16, 6]"] ;
797 -> 798 ;
799 [label="X[5168] <= 0.5\nentropy = 0.863\nsamples = 21\nvalue = [15, 6]"] ;
798 -> 799 ;
800 [label="X[2555] <= 0.5\nentropy = 0.881\nsamples = 20\nvalue = [14, 6]"] ;
799 -> 800 ;
801 [label="X[4931] <= 0.5\nentropy = 0.9\nsamples = 19\nvalue = [13, 6]"] ;
800 -> 801 ;
802 [label="X[2189] <= 0.5\nentropy = 0.918\nsamples = 18\nvalue = [12, 6]"] ;
801 -> 802 ;
803 [label="X[44] <= 0.5\nentropy = 0.937\nsamples = 17\nvalue = [11, 6]"] ;
802 -> 803 ;
804 [label="X[141] <= 0.5\nentropy = 0.896\nsamples = 16\nvalue = [11, 5]"] ;
803 -> 804 ;
805 [label="X[3750] <= 0.5\nentropy = 0.961\nsamples = 13\nvalue = [8, 5]"] ;
804 -> 805 ;
806 [label="X[744] <= 0.5\nentropy = 0.98\nsamples = 12\nvalue = [7, 5]"] ;
805 -> 806 ;
807 [label="X[989] <= 0.5\nentropy = 0.994\nsamples = 11\nvalue = [6, 5]"] ;
806 -> 807 ;
808 [label="X[167] <= 0.5\nentropy = 0.971\nsamples = 10\nvalue = [6, 4]"] ;
807 -> 808 ;
809 [label="X[822] <= 0.5\nentropy = 0.811\nsamples = 8\nvalue = [6, 2]"] ;
808 -> 809 ;
810 [label="X[1226] <= 0.5\nentropy = 0.863\nsamples = 7\nvalue = [5, 2]"] ;
809 -> 810 ;
811 [label="X[1981] <= 0.5\nentropy = 0.918\nsamples = 6\nvalue = [4, 2]"] ;
810 -> 811 ;
812 [label="X[5460] <= 0.5\nentropy = 0.971\nsamples = 5\nvalue = [3, 2]"] ;
811 -> 812 ;
813 [label="X[5710] <= 0.5\nentropy = 1.0\nsamples = 4\nvalue = [2, 2]"] ;
812 -> 813 ;
814 [label="X[105] <= 0.5\nentropy = 0.918\nsamples = 3\nvalue = [1, 2]"] ;
813 -> 814 ;
815 [label="entropy = 0.0\nsamples = 1\nvalue = [0, 1]"] ;
814 -> 815 ;
816 [label="X[4951] <= 0.5\nentropy = 1.0\nsamples = 2\nvalue = [1, 1]"] ;
814 -> 816 ;
817 [label="entropy = 0.0\nsamples = 1\nvalue = [0, 1]"] ;
816 -> 817 ;
818 [label="entropy = 0.0\nsamples = 1\nvalue = [1, 0]"] ;
816 -> 818 ;
819 [label="entropy = 0.0\nsamples = 1\nvalue = [1, 0]"] ;
813 -> 819 ;
820 [label="entropy = 0.0\nsamples = 1\nvalue = [1, 0]"] ;
812 -> 820 ;
821 [label="entropy = 0.0\nsamples = 1\nvalue = [1, 0]"] ;
811 -> 821 ;
822 [label="entropy = 0.0\nsamples = 1\nvalue = [1, 0]"] ;
810 -> 822 ;
823 [label="entropy = 0.0\nsamples = 1\nvalue = [1, 0]"] ;
809 -> 823 ;
824 [label="entropy = 0.0\nsamples = 2\nvalue = [0, 2]"] ;
808 -> 824 ;
825 [label="entropy = 0.0\nsamples = 1\nvalue = [0, 1]"] ;
807 -> 825 ;
826 [label="entropy = 0.0\nsamples = 1\nvalue = [1, 0]"] ;
806 -> 826 ;
827 [label="entropy = 0.0\nsamples = 1\nvalue = [1, 0]"] ;
805 -> 827 ;
828 [label="entropy = 0.0\nsamples = 3\nvalue = [3, 0]"] ;
804 -> 828 ;
829 [label="entropy = 0.0\nsamples = 1\nvalue = [0, 1]"] ;
803 -> 829 ;
830 [label="entropy = 0.0\nsamples = 1\nvalue = [1, 0]"] ;
802 -> 830 ;
831 [label="entropy = 0.0\nsamples = 1\nvalue = [1, 0]"] ;
801 -> 831 ;
832 [label="entropy = 0.0\nsamples = 1\nvalue = [1, 0]"] ;
800 -> 832 ;
833 [label="entropy = 0.0\nsamples = 1\nvalue = [1, 0]"] ;
799 -> 833 ;
834 [label="entropy = 0.0\nsamples = 1\nvalue = [1, 0]"] ;
798 -> 834 ;
835 [label="X[15] <= 0.5\nentropy = 1.0\nsamples = 2\nvalue = [1, 1]"] ;
797 -> 835 ;
836 [label="entropy = 0.0\nsamples = 1\nvalue = [0, 1]"] ;
835 -> 836 ;
837 [label="entropy = 0.0\nsamples = 1\nvalue = [1, 0]"] ;
835 -> 837 ;
838 [label="entropy = 0.0\nsamples = 1\nvalue = [1, 0]"] ;
796 -> 838 ;
839 [label="entropy = 0.0\nsamples = 1\nvalue = [1, 0]"] ;
795 -> 839 ;
840 [label="entropy = 0.0\nsamples = 1\nvalue = [1, 0]"] ;
794 -> 840 ;
841 [label="entropy = 0.0\nsamples = 1\nvalue = [0, 1]"] ;
793 -> 841 ;
842 [label="entropy = 0.0\nsamples = 1\nvalue = [0, 1]"] ;
792 -> 842 ;
843 [label="entropy = 0.0\nsamples = 1\nvalue = [1, 0]"] ;
791 -> 843 ;
844 [label="entropy = 0.0\nsamples = 1\nvalue = [0, 1]"] ;
790 -> 844 ;
845 [label="X[246] <= 0.5\nentropy = 0.918\nsamples = 3\nvalue = [2, 1]"] ;
789 -> 845 ;
846 [label="entropy = 0.0\nsamples = 2\nvalue = [2, 0]"] ;
845 -> 846 ;
847 [label="entropy = 0.0\nsamples = 1\nvalue = [0, 1]"] ;
845 -> 847 ;
848 [label="entropy = 0.0\nsamples = 1\nvalue = [1, 0]"] ;
788 -> 848 ;
849 [label="entropy = 0.0\nsamples = 1\nvalue = [1, 0]"] ;
787 -> 849 ;
850 [label="entropy = 0.0\nsamples = 1\nvalue = [0, 1]"] ;
786 -> 850 ;
851 [label="entropy = 0.0\nsamples = 1\nvalue = [1, 0]"] ;
785 -> 851 ;
852 [label="entropy = 0.0\nsamples = 1\nvalue = [0, 1]"] ;
784 -> 852 ;
853 [label="entropy = 0.0\nsamples = 1\nvalue = [0, 1]"] ;
783 -> 853 ;
854 [label="entropy = 0.0\nsamples = 1\nvalue = [1, 0]"] ;
782 -> 854 ;
855 [label="entropy = 0.0\nsamples = 1\nvalue = [1, 0]"] ;
777 -> 855 ;
856 [label="X[3023] <= 0.5\nentropy = 1.0\nsamples = 2\nvalue = [1, 1]"] ;
776 -> 856 ;
857 [label="entropy = 0.0\nsamples = 1\nvalue = [1, 0]"] ;
856 -> 857 ;
858 [label="entropy = 0.0\nsamples = 1\nvalue = [0, 1]"] ;
856 -> 858 ;
859 [label="entropy = 0.0\nsamples = 1\nvalue = [1, 0]"] ;
775 -> 859 ;
860 [label="entropy = 0.0\nsamples = 2\nvalue = [0, 2]"] ;
250 -> 860 ;
861 [label="entropy = 0.0\nsamples = 1\nvalue = [0, 1]"] ;
249 -> 861 ;
862 [label="X[4768] <= 0.5\nentropy = 0.954\nsamples = 16\nvalue = [10, 6]"] ;
248 -> 862 ;
863 [label="X[2597] <= 0.5\nentropy = 0.971\nsamples = 15\nvalue = [9, 6]"] ;
862 -> 863 ;
864 [label="X[4276] <= 0.5\nentropy = 0.94\nsamples = 14\nvalue = [9, 5]"] ;
863 -> 864 ;
865 [label="X[167] <= 0.5\nentropy = 0.961\nsamples = 13\nvalue = [8, 5]"] ;
864 -> 865 ;
866 [label="X[484] <= 0.5\nentropy = 0.98\nsamples = 12\nvalue = [7, 5]"] ;
865 -> 866 ;
867 [label="X[5587] <= 0.5\nentropy = 0.946\nsamples = 11\nvalue = [7, 4]"] ;
866 -> 867 ;
868 [label="X[623] <= 0.5\nentropy = 0.971\nsamples = 10\nvalue = [6, 4]"] ;
867 -> 868 ;
869 [label="X[228] <= 0.5\nentropy = 0.918\nsamples = 9\nvalue = [6, 3]"] ;
868 -> 869 ;
870 [label="X[744] <= 0.5\nentropy = 0.811\nsamples = 8\nvalue = [6, 2]"] ;
869 -> 870 ;
871 [label="X[1805] <= 0.5\nentropy = 0.863\nsamples = 7\nvalue = [5, 2]"] ;
870 -> 871 ;
872 [label="X[4187] <= 0.5\nentropy = 0.65\nsamples = 6\nvalue = [5, 1]"] ;
871 -> 872 ;
873 [label="X[23] <= 0.5\nentropy = 0.722\nsamples = 5\nvalue = [4, 1]"] ;
872 -> 873 ;
874 [label="X[10] <= 0.5\nentropy = 0.811\nsamples = 4\nvalue = [3, 1]"] ;
873 -> 874 ;
875 [label="entropy = 0.0\nsamples = 3\nvalue = [3, 0]"] ;
874 -> 875 ;
876 [label="entropy = 0.0\nsamples = 1\nvalue = [0, 1]"] ;
874 -> 876 ;
877 [label="entropy = 0.0\nsamples = 1\nvalue = [1, 0]"] ;
873 -> 877 ;
878 [label="entropy = 0.0\nsamples = 1\nvalue = [1, 0]"] ;
872 -> 878 ;
879 [label="entropy = 0.0\nsamples = 1\nvalue = [0, 1]"] ;
871 -> 879 ;
880 [label="entropy = 0.0\nsamples = 1\nvalue = [1, 0]"] ;
870 -> 880 ;
881 [label="entropy = 0.0\nsamples = 1\nvalue = [0, 1]"] ;
869 -> 881 ;
882 [label="entropy = 0.0\nsamples = 1\nvalue = [0, 1]"] ;
868 -> 882 ;
883 [label="entropy = 0.0\nsamples = 1\nvalue = [1, 0]"] ;
867 -> 883 ;
884 [label="entropy = 0.0\nsamples = 1\nvalue = [0, 1]"] ;
866 -> 884 ;
885 [label="entropy = 0.0\nsamples = 1\nvalue = [1, 0]"] ;
865 -> 885 ;
886 [label="entropy = 0.0\nsamples = 1\nvalue = [1, 0]"] ;
864 -> 886 ;
887 [label="entropy = 0.0\nsamples = 1\nvalue = [0, 1]"] ;
863 -> 887 ;
888 [label="entropy = 0.0\nsamples = 1\nvalue = [1, 0]"] ;
862 -> 888 ;
889 [label="entropy = 0.0\nsamples = 2\nvalue = [2, 0]"] ;
247 -> 889 ;
890 [label="entropy = 0.0\nsamples = 1\nvalue = [0, 1]"] ;
246 -> 890 ;
891 [label="entropy = 0.0\nsamples = 1\nvalue = [0, 1]"] ;
245 -> 891 ;
892 [label="entropy = 0.0\nsamples = 1\nvalue = [0, 1]"] ;
244 -> 892 ;
893 [label="entropy = 0.0\nsamples = 2\nvalue = [2, 0]"] ;
243 -> 893 ;
894 [label="entropy = 0.0\nsamples = 3\nvalue = [3, 0]"] ;
242 -> 894 ;
895 [label="entropy = 0.0\nsamples = 1\nvalue = [1, 0]"] ;
241 -> 895 ;
896 [label="entropy = 0.0\nsamples = 3\nvalue = [0, 3]"] ;
240 -> 896 ;
897 [label="entropy = 0.0\nsamples = 1\nvalue = [1, 0]"] ;
239 -> 897 ;
898 [label="X[410] <= 0.5\nentropy = 0.863\nsamples = 14\nvalue = [4, 10]"] ;
238 -> 898 ;
899 [label="X[127] <= 0.5\nentropy = 0.779\nsamples = 13\nvalue = [3, 10]"] ;
898 -> 899 ;
900 [label="X[201] <= 0.5\nentropy = 0.811\nsamples = 12\nvalue = [3, 9]"] ;
899 -> 900 ;
901 [label="X[116] <= 0.5\nentropy = 0.845\nsamples = 11\nvalue = [3, 8]"] ;
900 -> 901 ;
902 [label="X[779] <= 0.5\nentropy = 0.722\nsamples = 10\nvalue = [2, 8]"] ;
901 -> 902 ;
903 [label="X[842] <= 0.5\nentropy = 0.764\nsamples = 9\nvalue = [2, 7]"] ;
902 -> 903 ;
904 [label="X[23] <= 0.5\nentropy = 0.811\nsamples = 8\nvalue = [2, 6]"] ;
903 -> 904 ;
905 [label="X[680] <= 0.5\nentropy = 0.65\nsamples = 6\nvalue = [1, 5]"] ;
904 -> 905 ;
906 [label="X[66] <= 0.5\nentropy = 0.722\nsamples = 5\nvalue = [1, 4]"] ;
905 -> 906 ;
907 [label="entropy = 0.0\nsamples = 4\nvalue = [0, 4]"] ;
906 -> 907 ;
908 [label="entropy = 0.0\nsamples = 1\nvalue = [1, 0]"] ;
906 -> 908 ;
909 [label="entropy = 0.0\nsamples = 1\nvalue = [0, 1]"] ;
905 -> 909 ;
910 [label="X[157] <= 0.5\nentropy = 1.0\nsamples = 2\nvalue = [1, 1]"] ;
904 -> 910 ;
911 [label="entropy = 0.0\nsamples = 1\nvalue = [1, 0]"] ;
910 -> 911 ;
912 [label="entropy = 0.0\nsamples = 1\nvalue = [0, 1]"] ;
910 -> 912 ;
913 [label="entropy = 0.0\nsamples = 1\nvalue = [0, 1]"] ;
903 -> 913 ;
914 [label="entropy = 0.0\nsamples = 1\nvalue = [0, 1]"] ;
902 -> 914 ;
915 [label="entropy = 0.0\nsamples = 1\nvalue = [1, 0]"] ;
901 -> 915 ;
916 [label="entropy = 0.0\nsamples = 1\nvalue = [0, 1]"] ;
900 -> 916 ;
917 [label="entropy = 0.0\nsamples = 1\nvalue = [0, 1]"] ;
899 -> 917 ;
918 [label="entropy = 0.0\nsamples = 1\nvalue = [1, 0]"] ;
898 -> 918 ;
919 [label="entropy = 0.0\nsamples = 1\nvalue = [0, 1]"] ;
237 -> 919 ;
920 [label="entropy = 0.0\nsamples = 1\nvalue = [0, 1]"] ;
236 -> 920 ;
921 [label="entropy = 0.0\nsamples = 1\nvalue = [0, 1]"] ;
235 -> 921 ;
922 [label="entropy = 0.0\nsamples = 1\nvalue = [0, 1]"] ;
234 -> 922 ;
923 [label="entropy = 0.0\nsamples = 1\nvalue = [0, 1]"] ;
233 -> 923 ;
924 [label="entropy = 0.0\nsamples = 1\nvalue = [1, 0]"] ;
232 -> 924 ;
925 [label="entropy = 0.0\nsamples = 12\nvalue = [12, 0]"] ;
231 -> 925 ;
926 [label="entropy = 0.0\nsamples = 1\nvalue = [0, 1]"] ;
230 -> 926 ;
927 [label="entropy = 0.0\nsamples = 2\nvalue = [2, 0]"] ;
229 -> 927 ;
928 [label="entropy = 0.0\nsamples = 2\nvalue = [2, 0]"] ;
228 -> 928 ;
929 [label="X[3474] <= 0.5\nentropy = 1.0\nsamples = 2\nvalue = [1, 1]"] ;
227 -> 929 ;
930 [label="entropy = 0.0\nsamples = 1\nvalue = [1, 0]"] ;
929 -> 930 ;
931 [label="entropy = 0.0\nsamples = 1\nvalue = [0, 1]"] ;
929 -> 931 ;
932 [label="entropy = 0.0\nsamples = 9\nvalue = [9, 0]"] ;
226 -> 932 ;
933 [label="X[3779] <= 0.5\nentropy = 0.918\nsamples = 3\nvalue = [1, 2]"] ;
225 -> 933 ;
934 [label="entropy = 0.0\nsamples = 2\nvalue = [0, 2]"] ;
933 -> 934 ;
935 [label="entropy = 0.0\nsamples = 1\nvalue = [1, 0]"] ;
933 -> 935 ;
936 [label="entropy = 0.0\nsamples = 1\nvalue = [0, 1]"] ;
224 -> 936 ;
937 [label="X[23] <= 0.5\nentropy = 1.0\nsamples = 6\nvalue = [3, 3]"] ;
223 -> 937 ;
938 [label="X[1531] <= 0.5\nentropy = 0.971\nsamples = 5\nvalue = [2, 3]"] ;
937 -> 938 ;
939 [label="X[984] <= 0.5\nentropy = 0.811\nsamples = 4\nvalue = [1, 3]"] ;
938 -> 939 ;
940 [label="X[5135] <= 0.5\nentropy = 0.918\nsamples = 3\nvalue = [1, 2]"] ;
939 -> 940 ;
941 [label="entropy = 0.0\nsamples = 2\nvalue = [0, 2]"] ;
940 -> 941 ;
942 [label="entropy = 0.0\nsamples = 1\nvalue = [1, 0]"] ;
940 -> 942 ;
943 [label="entropy = 0.0\nsamples = 1\nvalue = [0, 1]"] ;
939 -> 943 ;
944 [label="entropy = 0.0\nsamples = 1\nvalue = [1, 0]"] ;
938 -> 944 ;
945 [label="entropy = 0.0\nsamples = 1\nvalue = [1, 0]"] ;
937 -> 945 ;
946 [label="X[4804] <= 0.5\nentropy = 1.0\nsamples = 4\nvalue = [2, 2]"] ;
222 -> 946 ;
947 [label="X[2918] <= 0.5\nentropy = 0.918\nsamples = 3\nvalue = [1, 2]"] ;
946 -> 947 ;
948 [label="X[26] <= 0.5\nentropy = 1.0\nsamples = 2\nvalue = [1, 1]"] ;
947 -> 948 ;
949 [label="entropy = 0.0\nsamples = 1\nvalue = [1, 0]"] ;
948 -> 949 ;
950 [label="entropy = 0.0\nsamples = 1\nvalue = [0, 1]"] ;
948 -> 950 ;
951 [label="entropy = 0.0\nsamples = 1\nvalue = [0, 1]"] ;
947 -> 951 ;
952 [label="entropy = 0.0\nsamples = 1\nvalue = [1, 0]"] ;
946 -> 952 ;
953 [label="entropy = 0.0\nsamples = 1\nvalue = [0, 1]"] ;
221 -> 953 ;
954 [label="entropy = 0.0\nsamples = 1\nvalue = [1, 0]"] ;
220 -> 954 ;
955 [label="entropy = 0.0\nsamples = 1\nvalue = [1, 0]"] ;
219 -> 955 ;
956 [label="entropy = 0.0\nsamples = 2\nvalue = [2, 0]"] ;
218 -> 956 ;
957 [label="entropy = 0.0\nsamples = 1\nvalue = [0, 1]"] ;
217 -> 957 ;
958 [label="entropy = 0.0\nsamples = 2\nvalue = [2, 0]"] ;
216 -> 958 ;
959 [label="X[3881] <= 0.5\nentropy = 1.0\nsamples = 2\nvalue = [1, 1]"] ;
215 -> 959 ;
960 [label="entropy = 0.0\nsamples = 1\nvalue = [0, 1]"] ;
959 -> 960 ;
961 [label="entropy = 0.0\nsamples = 1\nvalue = [1, 0]"] ;
959 -> 961 ;
962 [label="entropy = 0.0\nsamples = 2\nvalue = [0, 2]"] ;
214 -> 962 ;
963 [label="entropy = 0.0\nsamples = 2\nvalue = [2, 0]"] ;
213 -> 963 ;
964 [label="entropy = 0.0\nsamples = 3\nvalue = [3, 0]"] ;
212 -> 964 ;
965 [label="entropy = 0.0\nsamples = 2\nvalue = [0, 2]"] ;
211 -> 965 ;
966 [label="X[3812] <= 0.5\nentropy = 0.516\nsamples = 26\nvalue = [23, 3]"] ;
210 -> 966 ;
967 [label="X[2251] <= 0.5\nentropy = 0.529\nsamples = 25\nvalue = [22, 3]"] ;
966 -> 967 ;
968 [label="X[5060] <= 0.5\nentropy = 0.544\nsamples = 24\nvalue = [21, 3]"] ;
967 -> 968 ;
969 [label="X[128] <= 0.5\nentropy = 0.559\nsamples = 23\nvalue = [20, 3]"] ;
968 -> 969 ;
970 [label="X[3395] <= 0.5\nentropy = 0.439\nsamples = 22\nvalue = [20, 2]"] ;
969 -> 970 ;
971 [label="X[2326] <= 0.5\nentropy = 0.454\nsamples = 21\nvalue = [19, 2]"] ;
970 -> 971 ;
972 [label="X[2363] <= 0.5\nentropy = 0.469\nsamples = 20\nvalue = [18, 2]"] ;
971 -> 972 ;
973 [label="X[5442] <= 0.5\nentropy = 0.485\nsamples = 19\nvalue = [17, 2]"] ;
972 -> 973 ;
974 [label="X[1698] <= 0.5\nentropy = 0.503\nsamples = 18\nvalue = [16, 2]"] ;
973 -> 974 ;
975 [label="X[393] <= 0.5\nentropy = 0.523\nsamples = 17\nvalue = [15, 2]"] ;
974 -> 975 ;
976 [label="X[1993] <= 0.5\nentropy = 0.544\nsamples = 16\nvalue = [14, 2]"] ;
975 -> 976 ;
977 [label="X[4330] <= 0.5\nentropy = 0.567\nsamples = 15\nvalue = [13, 2]"] ;
976 -> 977 ;
978 [label="X[5210] <= 0.5\nentropy = 0.592\nsamples = 14\nvalue = [12, 2]"] ;
977 -> 978 ;
979 [label="X[1268] <= 0.5\nentropy = 0.619\nsamples = 13\nvalue = [11, 2]"] ;
978 -> 979 ;
980 [label="X[213] <= 0.5\nentropy = 0.65\nsamples = 12\nvalue = [10, 2]"] ;
979 -> 980 ;
981 [label="X[4395] <= 0.5\nentropy = 0.684\nsamples = 11\nvalue = [9, 2]"] ;
980 -> 981 ;
982 [label="X[6] <= 0.5\nentropy = 0.722\nsamples = 10\nvalue = [8, 2]"] ;
981 -> 982 ;
983 [label="X[71] <= 0.5\nentropy = 0.503\nsamples = 9\nvalue = [8, 1]"] ;
982 -> 983 ;
984 [label="X[696] <= 0.5\nentropy = 0.544\nsamples = 8\nvalue = [7, 1]"] ;
983 -> 984 ;
985 [label="entropy = 0.0\nsamples = 7\nvalue = [7, 0]"] ;
984 -> 985 ;
986 [label="entropy = 0.0\nsamples = 1\nvalue = [0, 1]"] ;
984 -> 986 ;
987 [label="entropy = 0.0\nsamples = 1\nvalue = [1, 0]"] ;
983 -> 987 ;
988 [label="entropy = 0.0\nsamples = 1\nvalue = [0, 1]"] ;
982 -> 988 ;
989 [label="entropy = 0.0\nsamples = 1\nvalue = [1, 0]"] ;
981 -> 989 ;
990 [label="entropy = 0.0\nsamples = 1\nvalue = [1, 0]"] ;
980 -> 990 ;
991 [label="entropy = 0.0\nsamples = 1\nvalue = [1, 0]"] ;
979 -> 991 ;
992 [label="entropy = 0.0\nsamples = 1\nvalue = [1, 0]"] ;
978 -> 992 ;
993 [label="entropy = 0.0\nsamples = 1\nvalue = [1, 0]"] ;
977 -> 993 ;
994 [label="entropy = 0.0\nsamples = 1\nvalue = [1, 0]"] ;
976 -> 994 ;
995 [label="entropy = 0.0\nsamples = 1\nvalue = [1, 0]"] ;
975 -> 995 ;
996 [label="entropy = 0.0\nsamples = 1\nvalue = [1, 0]"] ;
974 -> 996 ;
997 [label="entropy = 0.0\nsamples = 1\nvalue = [1, 0]"] ;
973 -> 997 ;
998 [label="entropy = 0.0\nsamples = 1\nvalue = [1, 0]"] ;
972 -> 998 ;
999 [label="entropy = 0.0\nsamples = 1\nvalue = [1, 0]"] ;
971 -> 999 ;
1000 [label="entropy = 0.0\nsamples = 1\nvalue = [1, 0]"] ;
970 -> 1000 ;
1001 [label="entropy = 0.0\nsamples = 1\nvalue = [0, 1]"] ;
969 -> 1001 ;
1002 [label="entropy = 0.0\nsamples = 1\nvalue = [1, 0]"] ;
968 -> 1002 ;
1003 [label="entropy = 0.0\nsamples = 1\nvalue = [1, 0]"] ;
967 -> 1003 ;
1004 [label="entropy = 0.0\nsamples = 1\nvalue = [1, 0]"] ;
966 -> 1004 ;
1005 [label="entropy = 0.0\nsamples = 2\nvalue = [2, 0]"] ;
209 -> 1005 ;
1006 [label="entropy = 0.0\nsamples = 1\nvalue = [0, 1]"] ;
208 -> 1006 ;
1007 [label="entropy = 0.0\nsamples = 2\nvalue = [2, 0]"] ;
207 -> 1007 ;
1008 [label="X[212] <= 0.5\nentropy = 0.918\nsamples = 3\nvalue = [1, 2]"] ;
206 -> 1008 ;
1009 [label="entropy = 0.0\nsamples = 2\nvalue = [0, 2]"] ;
1008 -> 1009 ;
1010 [label="entropy = 0.0\nsamples = 1\nvalue = [1, 0]"] ;
1008 -> 1010 ;
1011 [label="entropy = 0.0\nsamples = 1\nvalue = [0, 1]"] ;
205 -> 1011 ;
1012 [label="entropy = 0.0\nsamples = 1\nvalue = [1, 0]"] ;
204 -> 1012 ;
1013 [label="X[4086] <= 0.5\nentropy = 1.0\nsamples = 2\nvalue = [1, 1]"] ;
203 -> 1013 ;
1014 [label="entropy = 0.0\nsamples = 1\nvalue = [0, 1]"] ;
1013 -> 1014 ;
1015 [label="entropy = 0.0\nsamples = 1\nvalue = [1, 0]"] ;
1013 -> 1015 ;
1016 [label="entropy = 0.0\nsamples = 3\nvalue = [3, 0]"] ;
202 -> 1016 ;
1017 [label="entropy = 0.0\nsamples = 1\nvalue = [0, 1]"] ;
201 -> 1017 ;
1018 [label="entropy = 0.0\nsamples = 5\nvalue = [5, 0]"] ;
200 -> 1018 ;
1019 [label="entropy = 0.0\nsamples = 2\nvalue = [2, 0]"] ;
199 -> 1019 ;
1020 [label="entropy = 0.0\nsamples = 1\nvalue = [0, 1]"] ;
198 -> 1020 ;
1021 [label="entropy = 0.0\nsamples = 2\nvalue = [0, 2]"] ;
197 -> 1021 ;
1022 [label="X[1217] <= 0.5\nentropy = 0.811\nsamples = 4\nvalue = [1, 3]"] ;
196 -> 1022 ;
1023 [label="entropy = 0.0\nsamples = 3\nvalue = [0, 3]"] ;
1022 -> 1023 ;
1024 [label="entropy = 0.0\nsamples = 1\nvalue = [1, 0]"] ;
1022 -> 1024 ;
1025 [label="entropy = 0.0\nsamples = 1\nvalue = [0, 1]"] ;
195 -> 1025 ;
1026 [label="entropy = 0.0\nsamples = 1\nvalue = [0, 1]"] ;
194 -> 1026 ;
1027 [label="entropy = 0.0\nsamples = 1\nvalue = [1, 0]"] ;
193 -> 1027 ;
1028 [label="entropy = 0.0\nsamples = 1\nvalue = [0, 1]"] ;
192 -> 1028 ;
1029 [label="entropy = 0.0\nsamples = 1\nvalue = [0, 1]"] ;
191 -> 1029 ;
1030 [label="entropy = 0.0\nsamples = 2\nvalue = [0, 2]"] ;
190 -> 1030 ;
1031 [label="entropy = 0.0\nsamples = 1\nvalue = [0, 1]"] ;
189 -> 1031 ;
1032 [label="entropy = 0.0\nsamples = 1\nvalue = [0, 1]"] ;
188 -> 1032 ;
1033 [label="entropy = 0.0\nsamples = 2\nvalue = [2, 0]"] ;
187 -> 1033 ;
1034 [label="entropy = 0.0\nsamples = 5\nvalue = [0, 5]"] ;
186 -> 1034 ;
1035 [label="X[82] <= 0.5\nentropy = 0.991\nsamples = 9\nvalue = [4, 5]"] ;
185 -> 1035 ;
1036 [label="X[453] <= 0.5\nentropy = 1.0\nsamples = 8\nvalue = [4, 4]"] ;
1035 -> 1036 ;
1037 [label="X[183] <= 0.5\nentropy = 0.985\nsamples = 7\nvalue = [4, 3]"] ;
1036 -> 1037 ;
1038 [label="X[420] <= 0.5\nentropy = 0.722\nsamples = 5\nvalue = [4, 1]"] ;
1037 -> 1038 ;
1039 [label="entropy = 0.0\nsamples = 4\nvalue = [4, 0]"] ;
1038 -> 1039 ;
1040 [label="entropy = 0.0\nsamples = 1\nvalue = [0, 1]"] ;
1038 -> 1040 ;
1041 [label="entropy = 0.0\nsamples = 2\nvalue = [0, 2]"] ;
1037 -> 1041 ;
1042 [label="entropy = 0.0\nsamples = 1\nvalue = [0, 1]"] ;
1036 -> 1042 ;
1043 [label="entropy = 0.0\nsamples = 1\nvalue = [0, 1]"] ;
1035 -> 1043 ;
1044 [label="entropy = 0.0\nsamples = 1\nvalue = [0, 1]"] ;
184 -> 1044 ;
1045 [label="entropy = 0.0\nsamples = 1\nvalue = [0, 1]"] ;
183 -> 1045 ;
1046 [label="entropy = 0.0\nsamples = 1\nvalue = [0, 1]"] ;
182 -> 1046 ;
1047 [label="entropy = 0.0\nsamples = 1\nvalue = [0, 1]"] ;
181 -> 1047 ;
1048 [label="entropy = 0.0\nsamples = 2\nvalue = [2, 0]"] ;
180 -> 1048 ;
1049 [label="X[4728] <= 0.5\nentropy = 0.918\nsamples = 6\nvalue = [2, 4]"] ;
179 -> 1049 ;
1050 [label="X[202] <= 0.5\nentropy = 0.722\nsamples = 5\nvalue = [1, 4]"] ;
1049 -> 1050 ;
1051 [label="X[2102] <= 0.5\nentropy = 0.811\nsamples = 4\nvalue = [1, 3]"] ;
1050 -> 1051 ;
1052 [label="X[182] <= 0.5\nentropy = 0.918\nsamples = 3\nvalue = [1, 2]"] ;
1051 -> 1052 ;
1053 [label="X[26] <= 0.5\nentropy = 1.0\nsamples = 2\nvalue = [1, 1]"] ;
1052 -> 1053 ;
1054 [label="entropy = 0.0\nsamples = 1\nvalue = [0, 1]"] ;
1053 -> 1054 ;
1055 [label="entropy = 0.0\nsamples = 1\nvalue = [1, 0]"] ;
1053 -> 1055 ;
1056 [label="entropy = 0.0\nsamples = 1\nvalue = [0, 1]"] ;
1052 -> 1056 ;
1057 [label="entropy = 0.0\nsamples = 1\nvalue = [0, 1]"] ;
1051 -> 1057 ;
1058 [label="entropy = 0.0\nsamples = 1\nvalue = [0, 1]"] ;
1050 -> 1058 ;
1059 [label="entropy = 0.0\nsamples = 1\nvalue = [1, 0]"] ;
1049 -> 1059 ;
1060 [label="entropy = 0.0\nsamples = 2\nvalue = [2, 0]"] ;
178 -> 1060 ;
1061 [label="entropy = 0.0\nsamples = 63\nvalue = [63, 0]"] ;
177 -> 1061 ;
1062 [label="entropy = 0.0\nsamples = 1\nvalue = [0, 1]"] ;
176 -> 1062 ;
1063 [label="entropy = 0.0\nsamples = 1\nvalue = [0, 1]"] ;
175 -> 1063 ;
1064 [label="X[1347] <= 0.5\nentropy = 0.971\nsamples = 5\nvalue = [2, 3]"] ;
174 -> 1064 ;
1065 [label="X[6] <= 0.5\nentropy = 1.0\nsamples = 4\nvalue = [2, 2]"] ;
1064 -> 1065 ;
1066 [label="X[409] <= 0.5\nentropy = 0.918\nsamples = 3\nvalue = [1, 2]"] ;
1065 -> 1066 ;
1067 [label="X[105] <= 0.5\nentropy = 1.0\nsamples = 2\nvalue = [1, 1]"] ;
1066 -> 1067 ;
1068 [label="entropy = 0.0\nsamples = 1\nvalue = [1, 0]"] ;
1067 -> 1068 ;
1069 [label="entropy = 0.0\nsamples = 1\nvalue = [0, 1]"] ;
1067 -> 1069 ;
1070 [label="entropy = 0.0\nsamples = 1\nvalue = [0, 1]"] ;
1066 -> 1070 ;
1071 [label="entropy = 0.0\nsamples = 1\nvalue = [1, 0]"] ;
1065 -> 1071 ;
1072 [label="entropy = 0.0\nsamples = 1\nvalue = [0, 1]"] ;
1064 -> 1072 ;
1073 [label="entropy = 0.0\nsamples = 7\nvalue = [7, 0]"] ;
173 -> 1073 ;
1074 [label="entropy = 0.0\nsamples = 1\nvalue = [0, 1]"] ;
172 -> 1074 ;
1075 [label="entropy = 0.0\nsamples = 1\nvalue = [0, 1]"] ;
171 -> 1075 ;
1076 [label="entropy = 0.0\nsamples = 1\nvalue = [0, 1]"] ;
170 -> 1076 ;
1077 [label="entropy = 0.0\nsamples = 1\nvalue = [0, 1]"] ;
169 -> 1077 ;
1078 [label="X[735] <= 0.5\nentropy = 0.954\nsamples = 8\nvalue = [3, 5]"] ;
168 -> 1078 ;
1079 [label="X[1719] <= 0.5\nentropy = 0.985\nsamples = 7\nvalue = [3, 4]"] ;
1078 -> 1079 ;
1080 [label="X[400] <= 0.5\nentropy = 0.811\nsamples = 4\nvalue = [1, 3]"] ;
1079 -> 1080 ;
1081 [label="X[3844] <= 0.5\nentropy = 0.918\nsamples = 3\nvalue = [1, 2]"] ;
1080 -> 1081 ;
1082 [label="entropy = 0.0\nsamples = 2\nvalue = [0, 2]"] ;
1081 -> 1082 ;
1083 [label="entropy = 0.0\nsamples = 1\nvalue = [1, 0]"] ;
1081 -> 1083 ;
1084 [label="entropy = 0.0\nsamples = 1\nvalue = [0, 1]"] ;
1080 -> 1084 ;
1085 [label="X[226] <= 0.5\nentropy = 0.918\nsamples = 3\nvalue = [2, 1]"] ;
1079 -> 1085 ;
1086 [label="X[332] <= 0.5\nentropy = 1.0\nsamples = 2\nvalue = [1, 1]"] ;
1085 -> 1086 ;
1087 [label="entropy = 0.0\nsamples = 1\nvalue = [0, 1]"] ;
1086 -> 1087 ;
1088 [label="entropy = 0.0\nsamples = 1\nvalue = [1, 0]"] ;
1086 -> 1088 ;
1089 [label="entropy = 0.0\nsamples = 1\nvalue = [1, 0]"] ;
1085 -> 1089 ;
1090 [label="entropy = 0.0\nsamples = 1\nvalue = [0, 1]"] ;
1078 -> 1090 ;
1091 [label="entropy = 0.0\nsamples = 2\nvalue = [2, 0]"] ;
167 -> 1091 ;
1092 [label="entropy = 0.0\nsamples = 1\nvalue = [0, 1]"] ;
166 -> 1092 ;
1093 [label="entropy = 0.0\nsamples = 1\nvalue = [0, 1]"] ;
165 -> 1093 ;
1094 [label="entropy = 0.0\nsamples = 2\nvalue = [2, 0]"] ;
164 -> 1094 ;
1095 [label="entropy = 0.0\nsamples = 1\nvalue = [0, 1]"] ;
163 -> 1095 ;
1096 [label="X[3034] <= 0.5\nentropy = 0.918\nsamples = 3\nvalue = [1, 2]"] ;
162 -> 1096 ;
1097 [label="X[1619] <= 0.5\nentropy = 1.0\nsamples = 2\nvalue = [1, 1]"] ;
1096 -> 1097 ;
1098 [label="entropy = 0.0\nsamples = 1\nvalue = [0, 1]"] ;
1097 -> 1098 ;
1099 [label="entropy = 0.0\nsamples = 1\nvalue = [1, 0]"] ;
1097 -> 1099 ;
1100 [label="entropy = 0.0\nsamples = 1\nvalue = [0, 1]"] ;
1096 -> 1100 ;
1101 [label="entropy = 0.0\nsamples = 2\nvalue = [0, 2]"] ;
161 -> 1101 ;
1102 [label="entropy = 0.0\nsamples = 1\nvalue = [0, 1]"] ;
160 -> 1102 ;
1103 [label="entropy = 0.0\nsamples = 1\nvalue = [1, 0]"] ;
159 -> 1103 ;
1104 [label="entropy = 0.0\nsamples = 1\nvalue = [0, 1]"] ;
158 -> 1104 ;
1105 [label="entropy = 0.0\nsamples = 10\nvalue = [10, 0]"] ;
157 -> 1105 ;
1106 [label="entropy = 0.0\nsamples = 1\nvalue = [0, 1]"] ;
156 -> 1106 ;
1107 [label="entropy = 0.0\nsamples = 2\nvalue = [2, 0]"] ;
155 -> 1107 ;
1108 [label="entropy = 0.0\nsamples = 1\nvalue = [0, 1]"] ;
154 -> 1108 ;
1109 [label="entropy = 0.0\nsamples = 1\nvalue = [1, 0]"] ;
153 -> 1109 ;
1110 [label="entropy = 0.0\nsamples = 1\nvalue = [0, 1]"] ;
152 -> 1110 ;
1111 [label="entropy = 0.0\nsamples = 1\nvalue = [0, 1]"] ;
151 -> 1111 ;
1112 [label="entropy = 0.0\nsamples = 1\nvalue = [0, 1]"] ;
150 -> 1112 ;
1113 [label="entropy = 0.0\nsamples = 2\nvalue = [0, 2]"] ;
149 -> 1113 ;
1114 [label="entropy = 0.0\nsamples = 1\nvalue = [0, 1]"] ;
148 -> 1114 ;
1115 [label="entropy = 0.0\nsamples = 1\nvalue = [0, 1]"] ;
147 -> 1115 ;
1116 [label="entropy = 0.0\nsamples = 1\nvalue = [0, 1]"] ;
146 -> 1116 ;
1117 [label="entropy = 0.0\nsamples = 1\nvalue = [0, 1]"] ;
145 -> 1117 ;
1118 [label="entropy = 0.0\nsamples = 1\nvalue = [0, 1]"] ;
144 -> 1118 ;
1119 [label="X[1243] <= 0.5\nentropy = 0.908\nsamples = 96\nvalue = [65, 31]"] ;
143 -> 1119 ;
1120 [label="X[2585] <= 0.5\nentropy = 0.911\nsamples = 95\nvalue = [64, 31]"] ;
1119 -> 1120 ;
1121 [label="X[202] <= 0.5\nentropy = 0.903\nsamples = 94\nvalue = [64, 30]"] ;
1120 -> 1121 ;
1122 [label="X[1957] <= 0.5\nentropy = 0.907\nsamples = 93\nvalue = [63, 30]"] ;
1121 -> 1122 ;
1123 [label="X[237] <= 0.5\nentropy = 0.899\nsamples = 92\nvalue = [63, 29]"] ;
1122 -> 1123 ;
1124 [label="X[511] <= 0.5\nentropy = 0.89\nsamples = 91\nvalue = [63, 28]"] ;
1123 -> 1124 ;
1125 [label="X[4647] <= 0.5\nentropy = 0.881\nsamples = 90\nvalue = [63, 27]"] ;
1124 -> 1125 ;
1126 [label="X[1389] <= 0.5\nentropy = 0.885\nsamples = 89\nvalue = [62, 27]"] ;
1125 -> 1126 ;
1127 [label="X[5493] <= 0.5\nentropy = 0.876\nsamples = 88\nvalue = [62, 26]"] ;
1126 -> 1127 ;
1128 [label="X[0] <= 0.5\nentropy = 0.88\nsamples = 87\nvalue = [61, 26]"] ;
1127 -> 1128 ;
1129 [label="X[245] <= 0.5\nentropy = 0.884\nsamples = 86\nvalue = [60, 26]"] ;
1128 -> 1129 ;
1130 [label="X[2648] <= 0.5\nentropy = 0.888\nsamples = 85\nvalue = [59, 26]"] ;
1129 -> 1130 ;
1131 [label="X[496] <= 0.5\nentropy = 0.878\nsamples = 84\nvalue = [59, 25]"] ;
1130 -> 1131 ;
1132 [label="X[1189] <= 0.5\nentropy = 0.868\nsamples = 83\nvalue = [59, 24]"] ;
1131 -> 1132 ;
1133 [label="X[1004] <= 0.5\nentropy = 0.856\nsamples = 82\nvalue = [59, 23]"] ;
1132 -> 1133 ;
1134 [label="X[5643] <= 0.5\nentropy = 0.861\nsamples = 81\nvalue = [58, 23]"] ;
1133 -> 1134 ;
1135 [label="X[1774] <= 0.5\nentropy = 0.865\nsamples = 80\nvalue = [57, 23]"] ;
1134 -> 1135 ;
1136 [label="X[78] <= 0.5\nentropy = 0.853\nsamples = 79\nvalue = [57, 22]"] ;
1135 -> 1136 ;
1137 [label="X[633] <= 0.5\nentropy = 0.858\nsamples = 78\nvalue = [56, 22]"] ;
1136 -> 1137 ;
1138 [label="X[322] <= 0.5\nentropy = 0.845\nsamples = 77\nvalue = [56, 21]"] ;
1137 -> 1138 ;
1139 [label="X[2762] <= 0.5\nentropy = 0.871\nsamples = 72\nvalue = [51, 21]"] ;
1138 -> 1139 ;
1140 [label="X[247] <= 0.5\nentropy = 0.858\nsamples = 71\nvalue = [51, 20]"] ;
1139 -> 1140 ;
1141 [label="X[5103] <= 0.5\nentropy = 0.844\nsamples = 70\nvalue = [51, 19]"] ;
1140 -> 1141 ;
1142 [label="X[4336] <= 0.5\nentropy = 0.849\nsamples = 69\nvalue = [50, 19]"] ;
1141 -> 1142 ;
1143 [label="X[4618] <= 0.5\nentropy = 0.855\nsamples = 68\nvalue = [49, 19]"] ;
1142 -> 1143 ;
1144 [label="X[395] <= 0.5\nentropy = 0.86\nsamples = 67\nvalue = [48, 19]"] ;
1143 -> 1144 ;
1145 [label="X[1719] <= 0.5\nentropy = 0.845\nsamples = 66\nvalue = [48, 18]"] ;
1144 -> 1145 ;
1146 [label="X[2662] <= 0.5\nentropy = 0.829\nsamples = 65\nvalue = [48, 17]"] ;
1145 -> 1146 ;
1147 [label="X[4538] <= 0.5\nentropy = 0.811\nsamples = 64\nvalue = [48, 16]"] ;
1146 -> 1147 ;
1148 [label="X[3941] <= 0.5\nentropy = 0.818\nsamples = 63\nvalue = [47, 16]"] ;
1147 -> 1148 ;
1149 [label="X[2358] <= 0.5\nentropy = 0.824\nsamples = 62\nvalue = [46, 16]"] ;
1148 -> 1149 ;
1150 [label="X[249] <= 0.5\nentropy = 0.83\nsamples = 61\nvalue = [45, 16]"] ;
1149 -> 1150 ;
1151 [label="X[232] <= 0.5\nentropy = 0.837\nsamples = 60\nvalue = [44, 16]"] ;
1150 -> 1151 ;
1152 [label="X[5153] <= 0.5\nentropy = 0.852\nsamples = 54\nvalue = [39, 15]"] ;
1151 -> 1152 ;
1153 [label="X[647] <= 0.5\nentropy = 0.86\nsamples = 53\nvalue = [38, 15]"] ;
1152 -> 1153 ;
1154 [label="X[3902] <= 0.5\nentropy = 0.84\nsamples = 52\nvalue = [38, 14]"] ;
1153 -> 1154 ;
1155 [label="X[4781] <= 0.5\nentropy = 0.848\nsamples = 51\nvalue = [37, 14]"] ;
1154 -> 1155 ;
1156 [label="X[1234] <= 0.5\nentropy = 0.855\nsamples = 50\nvalue = [36, 14]"] ;
1155 -> 1156 ;
1157 [label="X[3929] <= 0.5\nentropy = 0.835\nsamples = 49\nvalue = [36, 13]"] ;
1156 -> 1157 ;
1158 [label="X[5599] <= 0.5\nentropy = 0.843\nsamples = 48\nvalue = [35, 13]"] ;
1157 -> 1158 ;
1159 [label="X[4680] <= 0.5\nentropy = 0.851\nsamples = 47\nvalue = [34, 13]"] ;
1158 -> 1159 ;
1160 [label="X[434] <= 0.5\nentropy = 0.859\nsamples = 46\nvalue = [33, 13]"] ;
1159 -> 1160 ;
1161 [label="X[1068] <= 0.5\nentropy = 0.837\nsamples = 45\nvalue = [33, 12]"] ;
1160 -> 1161 ;
1162 [label="X[4334] <= 0.5\nentropy = 0.811\nsamples = 44\nvalue = [33, 11]"] ;
1161 -> 1162 ;
1163 [label="X[142] <= 0.5\nentropy = 0.82\nsamples = 43\nvalue = [32, 11]"] ;
1162 -> 1163 ;
1164 [label="X[824] <= 0.5\nentropy = 0.792\nsamples = 42\nvalue = [32, 10]"] ;
1163 -> 1164 ;
1165 [label="X[1895] <= 0.5\nentropy = 0.759\nsamples = 41\nvalue = [32, 9]"] ;
1164 -> 1165 ;
1166 [label="X[4051] <= 0.5\nentropy = 0.779\nsamples = 39\nvalue = [30, 9]"] ;
1165 -> 1166 ;
1167 [label="X[105] <= 0.5\nentropy = 0.79\nsamples = 38\nvalue = [29, 9]"] ;
1166 -> 1167 ;
1168 [label="X[795] <= 0.5\nentropy = 0.811\nsamples = 36\nvalue = [27, 9]"] ;
1167 -> 1168 ;
1169 [label="X[3897] <= 0.5\nentropy = 0.822\nsamples = 35\nvalue = [26, 9]"] ;
1168 -> 1169 ;
1170 [label="X[2324] <= 0.5\nentropy = 0.834\nsamples = 34\nvalue = [25, 9]"] ;
1169 -> 1170 ;
1171 [label="X[2232] <= 0.5\nentropy = 0.845\nsamples = 33\nvalue = [24, 9]"] ;
1170 -> 1171 ;
1172 [label="X[323] <= 0.5\nentropy = 0.811\nsamples = 32\nvalue = [24, 8]"] ;
1171 -> 1172 ;
1173 [label="X[223] <= 0.5\nentropy = 0.771\nsamples = 31\nvalue = [24, 7]"] ;
1172 -> 1173 ;
1174 [label="X[5740] <= 0.5\nentropy = 0.764\nsamples = 27\nvalue = [21, 6]"] ;
1173 -> 1174 ;
1175 [label="X[4462] <= 0.5\nentropy = 0.779\nsamples = 26\nvalue = [20, 6]"] ;
1174 -> 1175 ;
1176 [label="X[717] <= 0.5\nentropy = 0.795\nsamples = 25\nvalue = [19, 6]"] ;
1175 -> 1176 ;
1177 [label="X[81] <= 0.5\nentropy = 0.738\nsamples = 24\nvalue = [19, 5]"] ;
1176 -> 1177 ;
1178 [label="X[864] <= 0.5\nentropy = 0.764\nsamples = 18\nvalue = [14, 4]"] ;
1177 -> 1178 ;
1179 [label="X[353] <= 0.5\nentropy = 0.672\nsamples = 17\nvalue = [14, 3]"] ;
1178 -> 1179 ;
1180 [label="X[200] <= 0.5\nentropy = 0.696\nsamples = 16\nvalue = [13, 3]"] ;
1179 -> 1180 ;
