digraph Tree {
node [shape=box] ;
0 [label="X[443] <= 0.5\nentropy = 0.969\nsamples = 2287\nvalue = [1378, 909]"] ;
1 [label="X[122] <= 0.5\nentropy = 0.967\nsamples = 2262\nvalue = [1372, 890]"] ;
0 -> 1 [labeldistance=2.5, labelangle=45, headlabel="True"] ;
2 [label="X[371] <= 0.5\nentropy = 0.963\nsamples = 2208\nvalue = [1353, 855]"] ;
1 -> 2 ;
3 [label="X[4018] <= 0.5\nentropy = 0.962\nsamples = 2196\nvalue = [1350, 846]"] ;
2 -> 3 ;
4 [label="X[134] <= 0.5\nentropy = 0.962\nsamples = 2194\nvalue = [1348, 846]"] ;
3 -> 4 ;
5 [label="X[2868] <= 0.5\nentropy = 0.958\nsamples = 2167\nvalue = [1345, 822]"] ;
4 -> 5 ;
6 [label="X[294] <= 0.5\nentropy = 0.957\nsamples = 2165\nvalue = [1345, 820]"] ;
5 -> 6 ;
7 [label="X[3155] <= 0.5\nentropy = 0.951\nsamples = 2064\nvalue = [1299, 765]"] ;
6 -> 7 ;
8 [label="X[879] <= 0.5\nentropy = 0.952\nsamples = 2058\nvalue = [1293, 765]"] ;
7 -> 8 ;
9 [label="X[2599] <= 0.5\nentropy = 0.951\nsamples = 2054\nvalue = [1293, 761]"] ;
8 -> 9 ;
10 [label="X[915] <= 0.5\nentropy = 0.951\nsamples = 2053\nvalue = [1293, 760]"] ;
9 -> 10 ;
11 [label="X[1282] <= 0.5\nentropy = 0.953\nsamples = 2036\nvalue = [1277, 759]"] ;
10 -> 11 ;
12 [label="X[1234] <= 0.5\nentropy = 0.952\nsamples = 2033\nvalue = [1277, 756]"] ;
11 -> 12 ;
13 [label="X[1295] <= 0.5\nentropy = 0.951\nsamples = 2030\nvalue = [1277, 753]"] ;
12 -> 13 ;
14 [label="X[225] <= 0.5\nentropy = 0.951\nsamples = 2027\nvalue = [1277, 750]"] ;
13 -> 14 ;
15 [label="X[3043] <= 0.5\nentropy = 0.949\nsamples = 2000\nvalue = [1265, 735]"] ;
14 -> 15 ;
16 [label="X[153] <= 0.5\nentropy = 0.948\nsamples = 1999\nvalue = [1265, 734]"] ;
15 -> 16 ;
17 [label="X[3484] <= 0.5\nentropy = 0.947\nsamples = 1992\nvalue = [1264, 728]"] ;
16 -> 17 ;
18 [label="X[399] <= 0.5\nentropy = 0.948\nsamples = 1983\nvalue = [1256, 727]"] ;
17 -> 18 ;
19 [label="X[450] <= 0.5\nentropy = 0.948\nsamples = 1981\nvalue = [1256, 725]"] ;
18 -> 19 ;
20 [label="X[2630] <= 0.5\nentropy = 0.946\nsamples = 1967\nvalue = [1252, 715]"] ;
19 -> 20 ;
21 [label="X[1266] <= 0.5\nentropy = 0.947\nsamples = 1956\nvalue = [1241, 715]"] ;
20 -> 21 ;
22 [label="X[2188] <= 0.5\nentropy = 0.946\nsamples = 1951\nvalue = [1241, 710]"] ;
21 -> 22 ;
23 [label="X[249] <= 0.5\nentropy = 0.945\nsamples = 1948\nvalue = [1241, 707]"] ;
22 -> 23 ;
24 [label="X[3143] <= 0.5\nentropy = 0.941\nsamples = 1919\nvalue = [1231, 688]"] ;
23 -> 24 ;
25 [label="X[743] <= 0.5\nentropy = 0.941\nsamples = 1917\nvalue = [1231, 686]"] ;
24 -> 25 ;
26 [label="X[1215] <= 0.5\nentropy = 0.941\nsamples = 1916\nvalue = [1231, 685]"] ;
25 -> 26 ;
27 [label="X[412] <= 0.5\nentropy = 0.94\nsamples = 1914\nvalue = [1231, 683]"] ;
26 -> 27 ;
28 [label="X[848] <= 0.5\nentropy = 0.938\nsamples = 1899\nvalue = [1226, 673]"] ;
27 -> 28 ;
29 [label="X[570] <= 0.5\nentropy = 0.938\nsamples = 1896\nvalue = [1223, 673]"] ;
28 -> 29 ;
30 [label="X[1115] <= 0.5\nentropy = 0.933\nsamples = 1860\nvalue = [1212, 648]"] ;
29 -> 30 ;
31 [label="X[119] <= 0.5\nentropy = 0.929\nsamples = 1850\nvalue = [1212, 638]"] ;
30 -> 31 ;
32 [label="X[2040] <= 0.5\nentropy = 0.951\nsamples = 1690\nvalue = [1065, 625]"] ;
31 -> 32 ;
33 [label="X[539] <= 0.5\nentropy = 0.95\nsamples = 1689\nvalue = [1065, 624]"] ;
32 -> 33 ;
34 [label="X[1324] <= 0.5\nentropy = 0.946\nsamples = 1674\nvalue = [1064, 610]"] ;
33 -> 34 ;
35 [label="X[1288] <= 0.5\nentropy = 0.945\nsamples = 1667\nvalue = [1063, 604]"] ;
34 -> 35 ;
36 [label="X[252] <= 0.5\nentropy = 0.944\nsamples = 1666\nvalue = [1063, 603]"] ;
35 -> 36 ;
37 [label="X[3172] <= 0.5\nentropy = 0.942\nsamples = 1653\nvalue = [1060, 593]"] ;
36 -> 37 ;
38 [label="X[1713] <= 0.5\nentropy = 0.941\nsamples = 1652\nvalue = [1060, 592]"] ;
37 -> 38 ;
39 [label="X[418] <= 0.5\nentropy = 0.941\nsamples = 1651\nvalue = [1060, 591]"] ;
38 -> 39 ;
40 [label="X[619] <= 0.5\nentropy = 0.943\nsamples = 1633\nvalue = [1044, 589]"] ;
39 -> 40 ;
41 [label="X[1790] <= 0.5\nentropy = 0.942\nsamples = 1629\nvalue = [1044, 585]"] ;
40 -> 41 ;
42 [label="X[1649] <= 0.5\nentropy = 0.941\nsamples = 1626\nvalue = [1044, 582]"] ;
41 -> 42 ;
43 [label="X[142] <= 0.5\nentropy = 0.941\nsamples = 1625\nvalue = [1044, 581]"] ;
42 -> 43 ;
44 [label="X[519] <= 0.5\nentropy = 0.944\nsamples = 1585\nvalue = [1012, 573]"] ;
43 -> 44 ;
45 [label="X[58] <= 0.5\nentropy = 0.941\nsamples = 1574\nvalue = [1010, 564]"] ;
44 -> 45 ;
46 [label="X[34] <= 0.5\nentropy = 0.924\nsamples = 1452\nvalue = [959, 493]"] ;
45 -> 46 ;
47 [label="X[1739] <= 0.5\nentropy = 0.922\nsamples = 1447\nvalue = [959, 488]"] ;
46 -> 47 ;
48 [label="X[194] <= 0.5\nentropy = 0.924\nsamples = 1440\nvalue = [952, 488]"] ;
47 -> 48 ;
49 [label="X[81] <= 0.5\nentropy = 0.922\nsamples = 1436\nvalue = [952, 484]"] ;
48 -> 49 ;
50 [label="X[127] <= 0.5\nentropy = 0.869\nsamples = 1252\nvalue = [889, 363]"] ;
49 -> 50 ;
51 [label="X[1769] <= 0.5\nentropy = 0.877\nsamples = 1215\nvalue = [855, 360]"] ;
50 -> 51 ;
52 [label="X[374] <= 0.5\nentropy = 0.876\nsamples = 1214\nvalue = [855, 359]"] ;
51 -> 52 ;
53 [label="X[159] <= 0.5\nentropy = 0.872\nsamples = 1201\nvalue = [850, 351]"] ;
52 -> 53 ;
54 [label="X[3725] <= 0.5\nentropy = 0.869\nsamples = 1198\nvalue = [850, 348]"] ;
53 -> 54 ;
55 [label="X[177] <= 0.5\nentropy = 0.871\nsamples = 1193\nvalue = [845, 348]"] ;
54 -> 55 ;
56 [label="X[11] <= 0.5\nentropy = 0.868\nsamples = 1189\nvalue = [845, 344]"] ;
55 -> 56 ;
57 [label="X[4316] <= 0.5\nentropy = 0.887\nsamples = 1096\nvalue = [762, 334]"] ;
56 -> 57 ;
58 [label="X[1944] <= 0.5\nentropy = 0.888\nsamples = 1092\nvalue = [758, 334]"] ;
57 -> 58 ;
59 [label="X[290] <= 0.5\nentropy = 0.885\nsamples = 1087\nvalue = [758, 329]"] ;
58 -> 59 ;
60 [label="X[3186] <= 0.5\nentropy = 0.884\nsamples = 1086\nvalue = [758, 328]"] ;
59 -> 60 ;
61 [label="X[3109] <= 0.5\nentropy = 0.883\nsamples = 1085\nvalue = [758, 327]"] ;
60 -> 61 ;
62 [label="X[5077] <= 0.5\nentropy = 0.882\nsamples = 1084\nvalue = [758, 326]"] ;
61 -> 62 ;
63 [label="X[2616] <= 0.5\nentropy = 0.883\nsamples = 1081\nvalue = [755, 326]"] ;
62 -> 63 ;
64 [label="X[3194] <= 0.5\nentropy = 0.882\nsamples = 1079\nvalue = [755, 324]"] ;
63 -> 64 ;
65 [label="X[897] <= 0.5\nentropy = 0.881\nsamples = 1078\nvalue = [755, 323]"] ;
64 -> 65 ;
66 [label="X[2580] <= 0.5\nentropy = 0.882\nsamples = 1075\nvalue = [752, 323]"] ;
65 -> 66 ;
67 [label="X[685] <= 0.5\nentropy = 0.881\nsamples = 1074\nvalue = [752, 322]"] ;
66 -> 67 ;
68 [label="X[2216] <= 0.5\nentropy = 0.876\nsamples = 1063\nvalue = [749, 314]"] ;
67 -> 68 ;
69 [label="X[2467] <= 0.5\nentropy = 0.878\nsamples = 1056\nvalue = [742, 314]"] ;
68 -> 69 ;
70 [label="X[641] <= 0.5\nentropy = 0.876\nsamples = 1054\nvalue = [742, 312]"] ;
69 -> 70 ;
71 [label="X[3668] <= 0.5\nentropy = 0.876\nsamples = 1053\nvalue = [742, 311]"] ;
70 -> 71 ;
72 [label="X[2066] <= 0.5\nentropy = 0.875\nsamples = 1052\nvalue = [742, 310]"] ;
71 -> 72 ;
73 [label="X[1932] <= 0.5\nentropy = 0.873\nsamples = 1050\nvalue = [742, 308]"] ;
72 -> 73 ;
74 [label="X[1346] <= 0.5\nentropy = 0.872\nsamples = 1049\nvalue = [742, 307]"] ;
73 -> 74 ;
75 [label="X[1488] <= 0.5\nentropy = 0.871\nsamples = 1048\nvalue = [742, 306]"] ;
74 -> 75 ;
76 [label="X[2347] <= 0.5\nentropy = 0.87\nsamples = 1047\nvalue = [742, 305]"] ;
75 -> 76 ;
77 [label="X[1743] <= 0.5\nentropy = 0.882\nsamples = 1014\nvalue = [709, 305]"] ;
76 -> 77 ;
78 [label="X[1544] <= 0.5\nentropy = 0.881\nsamples = 1013\nvalue = [709, 304]"] ;
77 -> 78 ;
79 [label="X[66] <= 0.5\nentropy = 0.883\nsamples = 1009\nvalue = [705, 304]"] ;
78 -> 79 ;
80 [label="X[2349] <= 0.5\nentropy = 0.878\nsamples = 999\nvalue = [702, 297]"] ;
79 -> 80 ;
81 [label="X[586] <= 0.5\nentropy = 0.876\nsamples = 997\nvalue = [702, 295]"] ;
80 -> 81 ;
82 [label="X[1874] <= 0.5\nentropy = 0.874\nsamples = 995\nvalue = [702, 293]"] ;
81 -> 82 ;
83 [label="X[1156] <= 0.5\nentropy = 0.874\nsamples = 994\nvalue = [702, 292]"] ;
82 -> 83 ;
84 [label="X[2087] <= 0.5\nentropy = 0.872\nsamples = 992\nvalue = [702, 290]"] ;
83 -> 84 ;
85 [label="X[190] <= 0.5\nentropy = 0.87\nsamples = 990\nvalue = [702, 288]"] ;
84 -> 85 ;
86 [label="X[431] <= 0.5\nentropy = 0.862\nsamples = 976\nvalue = [698, 278]"] ;
85 -> 86 ;
87 [label="X[3177] <= 0.5\nentropy = 0.859\nsamples = 972\nvalue = [697, 275]"] ;
86 -> 87 ;
88 [label="X[666] <= 0.5\nentropy = 0.858\nsamples = 971\nvalue = [697, 274]"] ;
87 -> 88 ;
89 [label="X[3528] <= 0.5\nentropy = 0.856\nsamples = 969\nvalue = [697, 272]"] ;
88 -> 89 ;
90 [label="X[1144] <= 0.5\nentropy = 0.855\nsamples = 968\nvalue = [697, 271]"] ;
89 -> 90 ;
91 [label="X[2588] <= 0.5\nentropy = 0.857\nsamples = 964\nvalue = [693, 271]"] ;
90 -> 91 ;
92 [label="X[1137] <= 0.5\nentropy = 0.856\nsamples = 963\nvalue = [693, 270]"] ;
91 -> 92 ;
93 [label="X[235] <= 0.5\nentropy = 0.852\nsamples = 959\nvalue = [693, 266]"] ;
92 -> 93 ;
94 [label="X[8] <= 0.5\nentropy = 0.851\nsamples = 958\nvalue = [693, 265]"] ;
93 -> 94 ;
95 [label="X[156] <= 0.5\nentropy = 0.832\nsamples = 847\nvalue = [624, 223]"] ;
94 -> 95 ;
96 [label="X[1764] <= 0.5\nentropy = 0.829\nsamples = 845\nvalue = [624, 221]"] ;
95 -> 96 ;
97 [label="X[266] <= 0.5\nentropy = 0.828\nsamples = 844\nvalue = [624, 220]"] ;
96 -> 97 ;
98 [label="X[2651] <= 0.5\nentropy = 0.831\nsamples = 838\nvalue = [618, 220]"] ;
97 -> 98 ;
99 [label="X[2101] <= 0.5\nentropy = 0.829\nsamples = 837\nvalue = [618, 219]"] ;
98 -> 99 ;
100 [label="X[575] <= 0.5\nentropy = 0.828\nsamples = 836\nvalue = [618, 218]"] ;
99 -> 100 ;
101 [label="X[51] <= 0.5\nentropy = 0.827\nsamples = 835\nvalue = [618, 217]"] ;
100 -> 101 ;
102 [label="X[5817] <= 0.5\nentropy = 0.821\nsamples = 831\nvalue = [618, 213]"] ;
101 -> 102 ;
103 [label="X[2855] <= 0.5\nentropy = 0.822\nsamples = 830\nvalue = [617, 213]"] ;
102 -> 103 ;
104 [label="X[121] <= 0.5\nentropy = 0.82\nsamples = 829\nvalue = [617, 212]"] ;
103 -> 104 ;
105 [label="X[1082] <= 0.5\nentropy = 0.792\nsamples = 780\nvalue = [594, 186]"] ;
104 -> 105 ;
106 [label="X[3418] <= 0.5\nentropy = 0.791\nsamples = 779\nvalue = [594, 185]"] ;
105 -> 106 ;
107 [label="X[680] <= 0.5\nentropy = 0.789\nsamples = 778\nvalue = [594, 184]"] ;
106 -> 107 ;
108 [label="X[1744] <= 0.5\nentropy = 0.793\nsamples = 770\nvalue = [586, 184]"] ;
107 -> 108 ;
109 [label="X[1113] <= 0.5\nentropy = 0.792\nsamples = 769\nvalue = [586, 183]"] ;
108 -> 109 ;
110 [label="X[2325] <= 0.5\nentropy = 0.788\nsamples = 767\nvalue = [586, 181]"] ;
109 -> 110 ;
111 [label="X[984] <= 0.5\nentropy = 0.791\nsamples = 762\nvalue = [581, 181]"] ;
110 -> 111 ;
112 [label="X[1376] <= 0.5\nentropy = 0.794\nsamples = 757\nvalue = [576, 181]"] ;
111 -> 112 ;
113 [label="X[2239] <= 0.5\nentropy = 0.792\nsamples = 756\nvalue = [576, 180]"] ;
112 -> 113 ;
114 [label="X[895] <= 0.5\nentropy = 0.788\nsamples = 754\nvalue = [576, 178]"] ;
113 -> 114 ;
115 [label="X[495] <= 0.5\nentropy = 0.79\nsamples = 752\nvalue = [574, 178]"] ;
114 -> 115 ;
116 [label="X[1238] <= 0.5\nentropy = 0.787\nsamples = 749\nvalue = [573, 176]"] ;
115 -> 116 ;
117 [label="X[1660] <= 0.5\nentropy = 0.79\nsamples = 743\nvalue = [567, 176]"] ;
116 -> 117 ;
118 [label="X[2261] <= 0.5\nentropy = 0.788\nsamples = 742\nvalue = [567, 175]"] ;
117 -> 118 ;
119 [label="X[3462] <= 0.5\nentropy = 0.786\nsamples = 741\nvalue = [567, 174]"] ;
118 -> 119 ;
120 [label="X[1406] <= 0.5\nentropy = 0.785\nsamples = 740\nvalue = [567, 173]"] ;
119 -> 120 ;
121 [label="X[1546] <= 0.5\nentropy = 0.783\nsamples = 739\nvalue = [567, 172]"] ;
120 -> 121 ;
122 [label="X[1550] <= 0.5\nentropy = 0.781\nsamples = 738\nvalue = [567, 171]"] ;
121 -> 122 ;
123 [label="X[2245] <= 0.5\nentropy = 0.779\nsamples = 737\nvalue = [567, 170]"] ;
122 -> 123 ;
124 [label="X[492] <= 0.5\nentropy = 0.777\nsamples = 736\nvalue = [567, 169]"] ;
123 -> 124 ;
125 [label="X[1189] <= 0.5\nentropy = 0.776\nsamples = 735\nvalue = [567, 168]"] ;
124 -> 125 ;
126 [label="X[22] <= 0.5\nentropy = 0.774\nsamples = 734\nvalue = [567, 167]"] ;
125 -> 126 ;
127 [label="X[2190] <= 0.5\nentropy = 0.768\nsamples = 731\nvalue = [567, 164]"] ;
126 -> 127 ;
128 [label="X[3368] <= 0.5\nentropy = 0.766\nsamples = 730\nvalue = [567, 163]"] ;
127 -> 128 ;
129 [label="X[1339] <= 0.5\nentropy = 0.764\nsamples = 729\nvalue = [567, 162]"] ;
128 -> 129 ;
130 [label="X[2559] <= 0.5\nentropy = 0.762\nsamples = 728\nvalue = [567, 161]"] ;
129 -> 130 ;
131 [label="X[364] <= 0.5\nentropy = 0.76\nsamples = 727\nvalue = [567, 160]"] ;
130 -> 131 ;
132 [label="X[775] <= 0.5\nentropy = 0.756\nsamples = 721\nvalue = [564, 157]"] ;
131 -> 132 ;
133 [label="X[1530] <= 0.5\nentropy = 0.762\nsamples = 710\nvalue = [553, 157]"] ;
132 -> 133 ;
134 [label="X[366] <= 0.5\nentropy = 0.763\nsamples = 708\nvalue = [551, 157]"] ;
133 -> 134 ;
135 [label="X[461] <= 0.5\nentropy = 0.76\nsamples = 705\nvalue = [550, 155]"] ;
134 -> 135 ;
136 [label="X[3674] <= 0.5\nentropy = 0.756\nsamples = 703\nvalue = [550, 153]"] ;
135 -> 136 ;
137 [label="X[5008] <= 0.5\nentropy = 0.754\nsamples = 702\nvalue = [550, 152]"] ;
136 -> 137 ;
138 [label="X[1527] <= 0.5\nentropy = 0.755\nsamples = 700\nvalue = [548, 152]"] ;
137 -> 138 ;
139 [label="X[957] <= 0.5\nentropy = 0.753\nsamples = 699\nvalue = [548, 151]"] ;
138 -> 139 ;
140 [label="X[3490] <= 0.5\nentropy = 0.751\nsamples = 698\nvalue = [548, 150]"] ;
139 -> 140 ;
141 [label="X[372] <= 0.5\nentropy = 0.749\nsamples = 697\nvalue = [548, 149]"] ;
140 -> 141 ;
142 [label="X[3546] <= 0.5\nentropy = 0.75\nsamples = 695\nvalue = [546, 149]"] ;
141 -> 142 ;
143 [label="X[1595] <= 0.5\nentropy = 0.752\nsamples = 691\nvalue = [542, 149]"] ;
142 -> 143 ;
144 [label="X[3753] <= 0.5\nentropy = 0.753\nsamples = 689\nvalue = [540, 149]"] ;
143 -> 144 ;
145 [label="X[26] <= 0.5\nentropy = 0.759\nsamples = 680\nvalue = [531, 149]"] ;
144 -> 145 ;
146 [label="X[203] <= 0.5\nentropy = 0.718\nsamples = 546\nvalue = [438, 108]"] ;
145 -> 146 ;
147 [label="X[914] <= 0.5\nentropy = 0.706\nsamples = 541\nvalue = [437, 104]"] ;
146 -> 147 ;
148 [label="X[96] <= 0.5\nentropy = 0.708\nsamples = 539\nvalue = [435, 104]"] ;
147 -> 148 ;
149 [label="X[2173] <= 0.5\nentropy = 0.7\nsamples = 534\nvalue = [433, 101]"] ;
148 -> 149 ;
150 [label="X[20] <= 0.5\nentropy = 0.696\nsamples = 533\nvalue = [433, 100]"] ;
149 -> 150 ;
151 [label="X[757] <= 0.5\nentropy = 0.657\nsamples = 477\nvalue = [396, 81]"] ;
150 -> 151 ;
152 [label="X[1574] <= 0.5\nentropy = 0.653\nsamples = 476\nvalue = [396, 80]"] ;
151 -> 152 ;
153 [label="X[1623] <= 0.5\nentropy = 0.642\nsamples = 472\nvalue = [395, 77]"] ;
152 -> 153 ;
154 [label="X[1320] <= 0.5\nentropy = 0.634\nsamples = 469\nvalue = [394, 75]"] ;
153 -> 154 ;
155 [label="X[109] <= 0.5\nentropy = 0.63\nsamples = 468\nvalue = [394, 74]"] ;
154 -> 155 ;
156 [label="X[738] <= 0.5\nentropy = 0.62\nsamples = 461\nvalue = [390, 71]"] ;
155 -> 156 ;
157 [label="X[5524] <= 0.5\nentropy = 0.621\nsamples = 459\nvalue = [388, 71]"] ;
156 -> 157 ;
158 [label="X[2821] <= 0.5\nentropy = 0.622\nsamples = 458\nvalue = [387, 71]"] ;
157 -> 158 ;
159 [label="X[1415] <= 0.5\nentropy = 0.623\nsamples = 457\nvalue = [386, 71]"] ;
158 -> 159 ;
160 [label="X[752] <= 0.5\nentropy = 0.629\nsamples = 450\nvalue = [379, 71]"] ;
159 -> 160 ;
161 [label="X[3335] <= 0.5\nentropy = 0.624\nsamples = 449\nvalue = [379, 70]"] ;
160 -> 161 ;
162 [label="X[1209] <= 0.5\nentropy = 0.62\nsamples = 448\nvalue = [379, 69]"] ;
161 -> 162 ;
163 [label="X[4321] <= 0.5\nentropy = 0.615\nsamples = 447\nvalue = [379, 68]"] ;
162 -> 163 ;
164 [label="X[1795] <= 0.5\nentropy = 0.617\nsamples = 445\nvalue = [377, 68]"] ;
163 -> 164 ;
165 [label="X[1701] <= 0.5\nentropy = 0.618\nsamples = 444\nvalue = [376, 68]"] ;
164 -> 165 ;
166 [label="X[4181] <= 0.5\nentropy = 0.613\nsamples = 443\nvalue = [376, 67]"] ;
165 -> 166 ;
167 [label="X[1510] <= 0.5\nentropy = 0.614\nsamples = 442\nvalue = [375, 67]"] ;
166 -> 167 ;
168 [label="X[636] <= 0.5\nentropy = 0.609\nsamples = 441\nvalue = [375, 66]"] ;
167 -> 168 ;
169 [label="X[3882] <= 0.5\nentropy = 0.604\nsamples = 440\nvalue = [375, 65]"] ;
168 -> 169 ;
170 [label="X[327] <= 0.5\nentropy = 0.606\nsamples = 438\nvalue = [373, 65]"] ;
169 -> 170 ;
171 [label="X[3898] <= 0.5\nentropy = 0.598\nsamples = 433\nvalue = [370, 63]"] ;
170 -> 171 ;
172 [label="X[520] <= 0.5\nentropy = 0.6\nsamples = 431\nvalue = [368, 63]"] ;
171 -> 172 ;
173 [label="X[2966] <= 0.5\nentropy = 0.596\nsamples = 429\nvalue = [367, 62]"] ;
172 -> 173 ;
174 [label="X[1013] <= 0.5\nentropy = 0.591\nsamples = 428\nvalue = [367, 61]"] ;
173 -> 174 ;
175 [label="X[2569] <= 0.5\nentropy = 0.593\nsamples = 426\nvalue = [365, 61]"] ;
174 -> 175 ;
176 [label="X[1141] <= 0.5\nentropy = 0.587\nsamples = 425\nvalue = [365, 60]"] ;
175 -> 176 ;
177 [label="X[1813] <= 0.5\nentropy = 0.588\nsamples = 424\nvalue = [364, 60]"] ;
176 -> 177 ;
178 [label="X[483] <= 0.5\nentropy = 0.589\nsamples = 423\nvalue = [363, 60]"] ;
177 -> 178 ;
179 [label="X[548] <= 0.5\nentropy = 0.585\nsamples = 421\nvalue = [362, 59]"] ;
178 -> 179 ;
180 [label="X[721] <= 0.5\nentropy = 0.579\nsamples = 420\nvalue = [362, 58]"] ;
179 -> 180 ;
181 [label="X[295] <= 0.5\nentropy = 0.583\nsamples = 416\nvalue = [358, 58]"] ;
180 -> 181 ;
182 [label="X[3800] <= 0.5\nentropy = 0.584\nsamples = 414\nvalue = [356, 58]"] ;
181 -> 182 ;
183 [label="X[1893] <= 0.5\nentropy = 0.585\nsamples = 413\nvalue = [355, 58]"] ;
182 -> 183 ;
184 [label="X[3589] <= 0.5\nentropy = 0.59\nsamples = 408\nvalue = [350, 58]"] ;
183 -> 184 ;
185 [label="X[1436] <= 0.5\nentropy = 0.584\nsamples = 407\nvalue = [350, 57]"] ;
184 -> 185 ;
186 [label="X[5371] <= 0.5\nentropy = 0.588\nsamples = 403\nvalue = [346, 57]"] ;
185 -> 186 ;
187 [label="X[4637] <= 0.5\nentropy = 0.589\nsamples = 402\nvalue = [345, 57]"] ;
186 -> 187 ;
188 [label="X[269] <= 0.5\nentropy = 0.59\nsamples = 401\nvalue = [344, 57]"] ;
187 -> 188 ;
189 [label="X[5225] <= 0.5\nentropy = 0.579\nsamples = 398\nvalue = [343, 55]"] ;
188 -> 189 ;
190 [label="X[1143] <= 0.5\nentropy = 0.581\nsamples = 396\nvalue = [341, 55]"] ;
189 -> 190 ;
191 [label="X[2119] <= 0.5\nentropy = 0.584\nsamples = 393\nvalue = [338, 55]"] ;
190 -> 191 ;
192 [label="X[475] <= 0.5\nentropy = 0.578\nsamples = 392\nvalue = [338, 54]"] ;
191 -> 192 ;
193 [label="X[3747] <= 0.5\nentropy = 0.572\nsamples = 391\nvalue = [338, 53]"] ;
192 -> 193 ;
194 [label="X[2378] <= 0.5\nentropy = 0.576\nsamples = 387\nvalue = [334, 53]"] ;
193 -> 194 ;
195 [label="X[335] <= 0.5\nentropy = 0.57\nsamples = 386\nvalue = [334, 52]"] ;
194 -> 195 ;
196 [label="X[522] <= 0.5\nentropy = 0.571\nsamples = 385\nvalue = [333, 52]"] ;
195 -> 196 ;
197 [label="X[2447] <= 0.5\nentropy = 0.565\nsamples = 384\nvalue = [333, 51]"] ;
196 -> 197 ;
198 [label="X[5236] <= 0.5\nentropy = 0.559\nsamples = 383\nvalue = [333, 50]"] ;
197 -> 198 ;
199 [label="X[3243] <= 0.5\nentropy = 0.56\nsamples = 382\nvalue = [332, 50]"] ;
198 -> 199 ;
200 [label="X[4807] <= 0.5\nentropy = 0.561\nsamples = 381\nvalue = [331, 50]"] ;
199 -> 200 ;
201 [label="X[837] <= 0.5\nentropy = 0.562\nsamples = 380\nvalue = [330, 50]"] ;
200 -> 201 ;
202 [label="X[5167] <= 0.5\nentropy = 0.555\nsamples = 379\nvalue = [330, 49]"] ;
201 -> 202 ;
203 [label="X[537] <= 0.5\nentropy = 0.556\nsamples = 378\nvalue = [329, 49]"] ;
202 -> 203 ;
204 [label="X[5103] <= 0.5\nentropy = 0.559\nsamples = 375\nvalue = [326, 49]"] ;
203 -> 204 ;
205 [label="X[1690] <= 0.5\nentropy = 0.56\nsamples = 374\nvalue = [325, 49]"] ;
204 -> 205 ;
206 [label="X[5597] <= 0.5\nentropy = 0.554\nsamples = 373\nvalue = [325, 48]"] ;
205 -> 206 ;
207 [label="X[1977] <= 0.5\nentropy = 0.555\nsamples = 372\nvalue = [324, 48]"] ;
206 -> 207 ;
208 [label="X[1898] <= 0.5\nentropy = 0.556\nsamples = 371\nvalue = [323, 48]"] ;
207 -> 208 ;
209 [label="X[40] <= 0.5\nentropy = 0.549\nsamples = 370\nvalue = [323, 47]"] ;
208 -> 209 ;
210 [label="X[1158] <= 0.5\nentropy = 0.521\nsamples = 359\nvalue = [317, 42]"] ;
209 -> 210 ;
211 [label="X[3597] <= 0.5\nentropy = 0.523\nsamples = 357\nvalue = [315, 42]"] ;
210 -> 211 ;
212 [label="X[264] <= 0.5\nentropy = 0.515\nsamples = 356\nvalue = [315, 41]"] ;
211 -> 212 ;
213 [label="X[2692] <= 0.5\nentropy = 0.516\nsamples = 355\nvalue = [314, 41]"] ;
212 -> 213 ;
214 [label="X[2678] <= 0.5\nentropy = 0.509\nsamples = 354\nvalue = [314, 40]"] ;
213 -> 214 ;
215 [label="X[148] <= 0.5\nentropy = 0.51\nsamples = 353\nvalue = [313, 40]"] ;
214 -> 215 ;
216 [label="X[1912] <= 0.5\nentropy = 0.502\nsamples = 352\nvalue = [313, 39]"] ;
215 -> 216 ;
217 [label="X[778] <= 0.5\nentropy = 0.495\nsamples = 351\nvalue = [313, 38]"] ;
216 -> 217 ;
218 [label="X[3119] <= 0.5\nentropy = 0.496\nsamples = 350\nvalue = [312, 38]"] ;
217 -> 218 ;
219 [label="X[145] <= 0.5\nentropy = 0.488\nsamples = 349\nvalue = [312, 37]"] ;
218 -> 219 ;
220 [label="X[61] <= 0.5\nentropy = 0.497\nsamples = 339\nvalue = [302, 37]"] ;
219 -> 220 ;
221 [label="X[1867] <= 0.5\nentropy = 0.498\nsamples = 338\nvalue = [301, 37]"] ;
220 -> 221 ;
222 [label="X[598] <= 0.5\nentropy = 0.5\nsamples = 336\nvalue = [299, 37]"] ;
221 -> 222 ;
223 [label="X[2346] <= 0.5\nentropy = 0.501\nsamples = 335\nvalue = [298, 37]"] ;
222 -> 223 ;
224 [label="X[769] <= 0.5\nentropy = 0.494\nsamples = 333\nvalue = [297, 36]"] ;
223 -> 224 ;
225 [label="X[1610] <= 0.5\nentropy = 0.496\nsamples = 331\nvalue = [295, 36]"] ;
224 -> 225 ;
226 [label="X[4104] <= 0.5\nentropy = 0.498\nsamples = 329\nvalue = [293, 36]"] ;
225 -> 226 ;
227 [label="X[4238] <= 0.5\nentropy = 0.499\nsamples = 328\nvalue = [292, 36]"] ;
226 -> 227 ;
228 [label="X[4160] <= 0.5\nentropy = 0.5\nsamples = 327\nvalue = [291, 36]"] ;
227 -> 228 ;
229 [label="X[1254] <= 0.5\nentropy = 0.502\nsamples = 325\nvalue = [289, 36]"] ;
228 -> 229 ;
230 [label="X[414] <= 0.5\nentropy = 0.506\nsamples = 321\nvalue = [285, 36]"] ;
229 -> 230 ;
231 [label="X[1350] <= 0.5\nentropy = 0.516\nsamples = 312\nvalue = [276, 36]"] ;
230 -> 231 ;
232 [label="X[698] <= 0.5\nentropy = 0.501\nsamples = 308\nvalue = [274, 34]"] ;
231 -> 232 ;
233 [label="X[286] <= 0.5\nentropy = 0.503\nsamples = 306\nvalue = [272, 34]"] ;
232 -> 233 ;
234 [label="X[5174] <= 0.5\nentropy = 0.51\nsamples = 300\nvalue = [266, 34]"] ;
233 -> 234 ;
235 [label="X[2331] <= 0.5\nentropy = 0.512\nsamples = 298\nvalue = [264, 34]"] ;
234 -> 235 ;
236 [label="X[925] <= 0.5\nentropy = 0.513\nsamples = 297\nvalue = [263, 34]"] ;
235 -> 236 ;
237 [label="X[4268] <= 0.5\nentropy = 0.504\nsamples = 296\nvalue = [263, 33]"] ;
236 -> 237 ;
238 [label="X[5702] <= 0.5\nentropy = 0.506\nsamples = 295\nvalue = [262, 33]"] ;
237 -> 238 ;
239 [label="X[3018] <= 0.5\nentropy = 0.507\nsamples = 294\nvalue = [261, 33]"] ;
238 -> 239 ;
240 [label="X[2201] <= 0.5\nentropy = 0.498\nsamples = 293\nvalue = [261, 32]"] ;
239 -> 240 ;
241 [label="X[4619] <= 0.5\nentropy = 0.488\nsamples = 292\nvalue = [261, 31]"] ;
240 -> 241 ;
242 [label="X[2104] <= 0.5\nentropy = 0.489\nsamples = 291\nvalue = [260, 31]"] ;
241 -> 242 ;
243 [label="X[289] <= 0.5\nentropy = 0.49\nsamples = 290\nvalue = [259, 31]"] ;
242 -> 243 ;
244 [label="X[4116] <= 0.5\nentropy = 0.494\nsamples = 287\nvalue = [256, 31]"] ;
243 -> 244 ;
245 [label="X[4789] <= 0.5\nentropy = 0.495\nsamples = 286\nvalue = [255, 31]"] ;
244 -> 245 ;
246 [label="X[4630] <= 0.5\nentropy = 0.496\nsamples = 285\nvalue = [254, 31]"] ;
245 -> 246 ;
247 [label="X[2759] <= 0.5\nentropy = 0.499\nsamples = 283\nvalue = [252, 31]"] ;
246 -> 247 ;
248 [label="X[472] <= 0.5\nentropy = 0.49\nsamples = 281\nvalue = [251, 30]"] ;
247 -> 248 ;
249 [label="X[183] <= 0.5\nentropy = 0.48\nsamples = 280\nvalue = [251, 29]"] ;
248 -> 249 ;
250 [label="X[2069] <= 0.5\nentropy = 0.483\nsamples = 278\nvalue = [249, 29]"] ;
249 -> 250 ;
251 [label="X[4112] <= 0.5\nentropy = 0.484\nsamples = 277\nvalue = [248, 29]"] ;
250 -> 251 ;
252 [label="X[1423] <= 0.5\nentropy = 0.485\nsamples = 276\nvalue = [247, 29]"] ;
251 -> 252 ;
253 [label="X[2305] <= 0.5\nentropy = 0.49\nsamples = 272\nvalue = [243, 29]"] ;
252 -> 253 ;
254 [label="X[1890] <= 0.5\nentropy = 0.479\nsamples = 271\nvalue = [243, 28]"] ;
253 -> 254 ;
255 [label="X[1208] <= 0.5\nentropy = 0.481\nsamples = 270\nvalue = [242, 28]"] ;
254 -> 255 ;
256 [label="X[1366] <= 0.5\nentropy = 0.47\nsamples = 269\nvalue = [242, 27]"] ;
255 -> 256 ;
257 [label="X[4020] <= 0.5\nentropy = 0.459\nsamples = 268\nvalue = [242, 26]"] ;
256 -> 257 ;
258 [label="X[3916] <= 0.5\nentropy = 0.463\nsamples = 265\nvalue = [239, 26]"] ;
257 -> 258 ;
259 [label="X[1771] <= 0.5\nentropy = 0.464\nsamples = 264\nvalue = [238, 26]"] ;
258 -> 259 ;
260 [label="X[4187] <= 0.5\nentropy = 0.465\nsamples = 263\nvalue = [237, 26]"] ;
259 -> 260 ;
261 [label="X[981] <= 0.5\nentropy = 0.467\nsamples = 262\nvalue = [236, 26]"] ;
260 -> 261 ;
262 [label="X[5477] <= 0.5\nentropy = 0.471\nsamples = 258\nvalue = [232, 26]"] ;
261 -> 262 ;
263 [label="X[4417] <= 0.5\nentropy = 0.473\nsamples = 257\nvalue = [231, 26]"] ;
262 -> 263 ;
264 [label="X[346] <= 0.5\nentropy = 0.474\nsamples = 256\nvalue = [230, 26]"] ;
263 -> 264 ;
265 [label="X[4960] <= 0.5\nentropy = 0.475\nsamples = 255\nvalue = [229, 26]"] ;
264 -> 265 ;
266 [label="X[3808] <= 0.5\nentropy = 0.476\nsamples = 254\nvalue = [228, 26]"] ;
265 -> 266 ;
267 [label="X[2860] <= 0.5\nentropy = 0.478\nsamples = 253\nvalue = [227, 26]"] ;
266 -> 267 ;
268 [label="X[1446] <= 0.5\nentropy = 0.466\nsamples = 252\nvalue = [227, 25]"] ;
267 -> 268 ;
269 [label="X[1] <= 0.5\nentropy = 0.455\nsamples = 251\nvalue = [227, 24]"] ;
268 -> 269 ;
270 [label="X[4370] <= 0.5\nentropy = 0.169\nsamples = 40\nvalue = [39, 1]"] ;
269 -> 270 ;
271 [label="X[822] <= 0.5\nentropy = 0.172\nsamples = 39\nvalue = [38, 1]"] ;
270 -> 271 ;
272 [label="X[5493] <= 0.5\nentropy = 0.176\nsamples = 38\nvalue = [37, 1]"] ;
271 -> 272 ;
273 [label="X[1505] <= 0.5\nentropy = 0.179\nsamples = 37\nvalue = [36, 1]"] ;
272 -> 273 ;
274 [label="X[2236] <= 0.5\nentropy = 0.183\nsamples = 36\nvalue = [35, 1]"] ;
273 -> 274 ;
275 [label="entropy = 0.0\nsamples = 35\nvalue = [35, 0]"] ;
274 -> 275 ;
276 [label="entropy = 0.0\nsamples = 1\nvalue = [0, 1]"] ;
274 -> 276 ;
277 [label="entropy = 0.0\nsamples = 1\nvalue = [1, 0]"] ;
273 -> 277 ;
278 [label="entropy = 0.0\nsamples = 1\nvalue = [1, 0]"] ;
272 -> 278 ;
279 [label="entropy = 0.0\nsamples = 1\nvalue = [1, 0]"] ;
271 -> 279 ;
280 [label="entropy = 0.0\nsamples = 1\nvalue = [1, 0]"] ;
270 -> 280 ;
281 [label="X[4642] <= 0.5\nentropy = 0.497\nsamples = 211\nvalue = [188, 23]"] ;
269 -> 281 ;
282 [label="X[5144] <= 0.5\nentropy = 0.498\nsamples = 210\nvalue = [187, 23]"] ;
281 -> 282 ;
283 [label="X[1316] <= 0.5\nentropy = 0.5\nsamples = 209\nvalue = [186, 23]"] ;
282 -> 283 ;
284 [label="X[1983] <= 0.5\nentropy = 0.51\nsamples = 203\nvalue = [180, 23]"] ;
283 -> 284 ;
285 [label="X[4390] <= 0.5\nentropy = 0.497\nsamples = 202\nvalue = [180, 22]"] ;
284 -> 285 ;
286 [label="X[110] <= 0.5\nentropy = 0.498\nsamples = 201\nvalue = [179, 22]"] ;
285 -> 286 ;
287 [label="X[115] <= 0.5\nentropy = 0.485\nsamples = 200\nvalue = [179, 21]"] ;
286 -> 287 ;
288 [label="X[4001] <= 0.5\nentropy = 0.486\nsamples = 199\nvalue = [178, 21]"] ;
287 -> 288 ;
289 [label="X[2848] <= 0.5\nentropy = 0.488\nsamples = 198\nvalue = [177, 21]"] ;
288 -> 289 ;
290 [label="X[4136] <= 0.5\nentropy = 0.49\nsamples = 197\nvalue = [176, 21]"] ;
289 -> 290 ;
291 [label="X[1361] <= 0.5\nentropy = 0.493\nsamples = 195\nvalue = [174, 21]"] ;
290 -> 291 ;
292 [label="X[3504] <= 0.5\nentropy = 0.479\nsamples = 194\nvalue = [174, 20]"] ;
291 -> 292 ;
293 [label="X[5583] <= 0.5\nentropy = 0.48\nsamples = 193\nvalue = [173, 20]"] ;
292 -> 293 ;
294 [label="X[2936] <= 0.5\nentropy = 0.482\nsamples = 192\nvalue = [172, 20]"] ;
293 -> 294 ;
295 [label="X[4037] <= 0.5\nentropy = 0.484\nsamples = 191\nvalue = [171, 20]"] ;
294 -> 295 ;
296 [label="X[4522] <= 0.5\nentropy = 0.485\nsamples = 190\nvalue = [170, 20]"] ;
295 -> 296 ;
297 [label="X[4599] <= 0.5\nentropy = 0.487\nsamples = 189\nvalue = [169, 20]"] ;
296 -> 297 ;
298 [label="X[1421] <= 0.5\nentropy = 0.489\nsamples = 188\nvalue = [168, 20]"] ;
297 -> 298 ;
299 [label="X[93] <= 0.5\nentropy = 0.492\nsamples = 186\nvalue = [166, 20]"] ;
298 -> 299 ;
300 [label="X[1380] <= 0.5\nentropy = 0.494\nsamples = 185\nvalue = [165, 20]"] ;
299 -> 300 ;
301 [label="X[355] <= 0.5\nentropy = 0.498\nsamples = 183\nvalue = [163, 20]"] ;
300 -> 301 ;
302 [label="X[1534] <= 0.5\nentropy = 0.501\nsamples = 181\nvalue = [161, 20]"] ;
301 -> 302 ;
303 [label="X[2645] <= 0.5\nentropy = 0.486\nsamples = 180\nvalue = [161, 19]"] ;
302 -> 303 ;
304 [label="X[3750] <= 0.5\nentropy = 0.488\nsamples = 179\nvalue = [160, 19]"] ;
303 -> 304 ;
305 [label="X[2883] <= 0.5\nentropy = 0.49\nsamples = 178\nvalue = [159, 19]"] ;
304 -> 305 ;
306 [label="X[4396] <= 0.5\nentropy = 0.474\nsamples = 177\nvalue = [159, 18]"] ;
305 -> 306 ;
307 [label="X[1359] <= 0.5\nentropy = 0.476\nsamples = 176\nvalue = [158, 18]"] ;
306 -> 307 ;
308 [label="X[481] <= 0.5\nentropy = 0.48\nsamples = 174\nvalue = [156, 18]"] ;
307 -> 308 ;
309 [label="X[4217] <= 0.5\nentropy = 0.482\nsamples = 173\nvalue = [155, 18]"] ;
308 -> 309 ;
310 [label="X[1869] <= 0.5\nentropy = 0.484\nsamples = 172\nvalue = [154, 18]"] ;
309 -> 310 ;
311 [label="X[3944] <= 0.5\nentropy = 0.485\nsamples = 171\nvalue = [153, 18]"] ;
310 -> 311 ;
312 [label="X[367] <= 0.5\nentropy = 0.487\nsamples = 170\nvalue = [152, 18]"] ;
311 -> 312 ;
313 [label="X[624] <= 0.5\nentropy = 0.479\nsamples = 165\nvalue = [148, 17]"] ;
312 -> 313 ;
314 [label="X[3446] <= 0.5\nentropy = 0.463\nsamples = 163\nvalue = [147, 16]"] ;
313 -> 314 ;
315 [label="X[1578] <= 0.5\nentropy = 0.465\nsamples = 162\nvalue = [146, 16]"] ;
314 -> 315 ;
316 [label="X[1306] <= 0.5\nentropy = 0.467\nsamples = 161\nvalue = [145, 16]"] ;
315 -> 316 ;
317 [label="X[2155] <= 0.5\nentropy = 0.469\nsamples = 160\nvalue = [144, 16]"] ;
316 -> 317 ;
318 [label="X[3794] <= 0.5\nentropy = 0.471\nsamples = 159\nvalue = [143, 16]"] ;
317 -> 318 ;
319 [label="X[4623] <= 0.5\nentropy = 0.473\nsamples = 158\nvalue = [142, 16]"] ;
318 -> 319 ;
320 [label="X[2566] <= 0.5\nentropy = 0.475\nsamples = 157\nvalue = [141, 16]"] ;
319 -> 320 ;
321 [label="X[375] <= 0.5\nentropy = 0.457\nsamples = 156\nvalue = [141, 15]"] ;
320 -> 321 ;
322 [label="X[2118] <= 0.5\nentropy = 0.461\nsamples = 154\nvalue = [139, 15]"] ;
321 -> 322 ;
323 [label="X[1204] <= 0.5\nentropy = 0.465\nsamples = 152\nvalue = [137, 15]"] ;
322 -> 323 ;
324 [label="X[3777] <= 0.5\nentropy = 0.469\nsamples = 150\nvalue = [135, 15]"] ;
323 -> 324 ;
325 [label="X[3817] <= 0.5\nentropy = 0.471\nsamples = 149\nvalue = [134, 15]"] ;
324 -> 325 ;
326 [label="X[1880] <= 0.5\nentropy = 0.473\nsamples = 148\nvalue = [133, 15]"] ;
325 -> 326 ;
327 [label="X[4318] <= 0.5\nentropy = 0.482\nsamples = 144\nvalue = [129, 15]"] ;
326 -> 327 ;
328 [label="X[1642] <= 0.5\nentropy = 0.484\nsamples = 143\nvalue = [128, 15]"] ;
327 -> 328 ;
329 [label="X[4] <= 0.5\nentropy = 0.487\nsamples = 142\nvalue = [127, 15]"] ;
328 -> 329 ;
330 [label="X[5661] <= 0.5\nentropy = 0.469\nsamples = 140\nvalue = [126, 14]"] ;
329 -> 330 ;
331 [label="X[5644] <= 0.5\nentropy = 0.471\nsamples = 139\nvalue = [125, 14]"] ;
330 -> 331 ;
332 [label="X[4782] <= 0.5\nentropy = 0.474\nsamples = 138\nvalue = [124, 14]"] ;
331 -> 332 ;
333 [label="X[1622] <= 0.5\nentropy = 0.476\nsamples = 137\nvalue = [123, 14]"] ;
332 -> 333 ;
334 [label="X[4233] <= 0.5\nentropy = 0.478\nsamples = 136\nvalue = [122, 14]"] ;
333 -> 334 ;
335 [label="X[5296] <= 0.5\nentropy = 0.481\nsamples = 135\nvalue = [121, 14]"] ;
334 -> 335 ;
336 [label="X[1077] <= 0.5\nentropy = 0.483\nsamples = 134\nvalue = [120, 14]"] ;
335 -> 336 ;
337 [label="X[2977] <= 0.5\nentropy = 0.49\nsamples = 131\nvalue = [117, 14]"] ;
336 -> 337 ;
338 [label="X[1829] <= 0.5\nentropy = 0.495\nsamples = 129\nvalue = [115, 14]"] ;
337 -> 338 ;
339 [label="X[3845] <= 0.5\nentropy = 0.498\nsamples = 128\nvalue = [114, 14]"] ;
338 -> 339 ;
340 [label="X[2878] <= 0.5\nentropy = 0.501\nsamples = 127\nvalue = [113, 14]"] ;
339 -> 340 ;
341 [label="X[5423] <= 0.5\nentropy = 0.479\nsamples = 126\nvalue = [113, 13]"] ;
340 -> 341 ;
342 [label="X[4677] <= 0.5\nentropy = 0.482\nsamples = 125\nvalue = [112, 13]"] ;
341 -> 342 ;
343 [label="X[1277] <= 0.5\nentropy = 0.484\nsamples = 124\nvalue = [111, 13]"] ;
342 -> 343 ;
344 [label="X[1166] <= 0.5\nentropy = 0.487\nsamples = 123\nvalue = [110, 13]"] ;
343 -> 344 ;
345 [label="X[1239] <= 0.5\nentropy = 0.489\nsamples = 122\nvalue = [109, 13]"] ;
344 -> 345 ;
346 [label="X[1220] <= 0.5\nentropy = 0.495\nsamples = 120\nvalue = [107, 13]"] ;
345 -> 346 ;
347 [label="X[1629] <= 0.5\nentropy = 0.498\nsamples = 119\nvalue = [106, 13]"] ;
346 -> 347 ;
348 [label="X[5741] <= 0.5\nentropy = 0.5\nsamples = 118\nvalue = [105, 13]"] ;
347 -> 348 ;
349 [label="X[464] <= 0.5\nentropy = 0.503\nsamples = 117\nvalue = [104, 13]"] ;
348 -> 349 ;
350 [label="X[467] <= 0.5\nentropy = 0.506\nsamples = 116\nvalue = [103, 13]"] ;
349 -> 350 ;
351 [label="X[1343] <= 0.5\nentropy = 0.509\nsamples = 115\nvalue = [102, 13]"] ;
350 -> 351 ;
352 [label="X[556] <= 0.5\nentropy = 0.485\nsamples = 114\nvalue = [102, 12]"] ;
351 -> 352 ;
353 [label="X[3819] <= 0.5\nentropy = 0.488\nsamples = 113\nvalue = [101, 12]"] ;
352 -> 353 ;
354 [label="X[334] <= 0.5\nentropy = 0.491\nsamples = 112\nvalue = [100, 12]"] ;
353 -> 354 ;
355 [label="X[4729] <= 0.5\nentropy = 0.494\nsamples = 111\nvalue = [99, 12]"] ;
354 -> 355 ;
356 [label="X[353] <= 0.5\nentropy = 0.497\nsamples = 110\nvalue = [98, 12]"] ;
355 -> 356 ;
357 [label="X[2567] <= 0.5\nentropy = 0.475\nsamples = 108\nvalue = [97, 11]"] ;
356 -> 357 ;
358 [label="X[4045] <= 0.5\nentropy = 0.478\nsamples = 107\nvalue = [96, 11]"] ;
357 -> 358 ;
359 [label="X[5134] <= 0.5\nentropy = 0.481\nsamples = 106\nvalue = [95, 11]"] ;
358 -> 359 ;
360 [label="X[675] <= 0.5\nentropy = 0.484\nsamples = 105\nvalue = [94, 11]"] ;
359 -> 360 ;
361 [label="X[3829] <= 0.5\nentropy = 0.487\nsamples = 104\nvalue = [93, 11]"] ;
360 -> 361 ;
362 [label="X[4918] <= 0.5\nentropy = 0.49\nsamples = 103\nvalue = [92, 11]"] ;
361 -> 362 ;
363 [label="X[1760] <= 0.5\nentropy = 0.493\nsamples = 102\nvalue = [91, 11]"] ;
362 -> 363 ;
364 [label="X[439] <= 0.5\nentropy = 0.497\nsamples = 101\nvalue = [90, 11]"] ;
363 -> 364 ;
365 [label="X[247] <= 0.5\nentropy = 0.5\nsamples = 100\nvalue = [89, 11]"] ;
364 -> 365 ;
366 [label="X[1762] <= 0.5\nentropy = 0.503\nsamples = 99\nvalue = [88, 11]"] ;
365 -> 366 ;
367 [label="X[2358] <= 0.5\nentropy = 0.475\nsamples = 98\nvalue = [88, 10]"] ;
366 -> 367 ;
368 [label="X[104] <= 0.5\nentropy = 0.479\nsamples = 97\nvalue = [87, 10]"] ;
367 -> 368 ;
369 [label="X[301] <= 0.5\nentropy = 0.482\nsamples = 96\nvalue = [86, 10]"] ;
368 -> 369 ;
370 [label="X[2081] <= 0.5\nentropy = 0.485\nsamples = 95\nvalue = [85, 10]"] ;
369 -> 370 ;
371 [label="X[4756] <= 0.5\nentropy = 0.489\nsamples = 94\nvalue = [84, 10]"] ;
370 -> 371 ;
372 [label="X[144] <= 0.5\nentropy = 0.492\nsamples = 93\nvalue = [83, 10]"] ;
371 -> 372 ;
373 [label="X[3812] <= 0.5\nentropy = 0.466\nsamples = 91\nvalue = [82, 9]"] ;
372 -> 373 ;
374 [label="X[5095] <= 0.5\nentropy = 0.469\nsamples = 90\nvalue = [81, 9]"] ;
373 -> 374 ;
375 [label="X[299] <= 0.5\nentropy = 0.473\nsamples = 89\nvalue = [80, 9]"] ;
374 -> 375 ;
376 [label="X[1183] <= 0.5\nentropy = 0.476\nsamples = 88\nvalue = [79, 9]"] ;
375 -> 376 ;
377 [label="X[113] <= 0.5\nentropy = 0.48\nsamples = 87\nvalue = [78, 9]"] ;
376 -> 377 ;
378 [label="X[3012] <= 0.5\nentropy = 0.454\nsamples = 84\nvalue = [76, 8]"] ;
377 -> 378 ;
379 [label="X[3734] <= 0.5\nentropy = 0.469\nsamples = 80\nvalue = [72, 8]"] ;
378 -> 379 ;
380 [label="X[227] <= 0.5\nentropy = 0.473\nsamples = 79\nvalue = [71, 8]"] ;
379 -> 380 ;
381 [label="X[1120] <= 0.5\nentropy = 0.481\nsamples = 77\nvalue = [69, 8]"] ;
380 -> 381 ;
382 [label="X[5506] <= 0.5\nentropy = 0.485\nsamples = 76\nvalue = [68, 8]"] ;
381 -> 382 ;
383 [label="X[1332] <= 0.5\nentropy = 0.49\nsamples = 75\nvalue = [67, 8]"] ;
382 -> 383 ;
384 [label="X[4236] <= 0.5\nentropy = 0.494\nsamples = 74\nvalue = [66, 8]"] ;
383 -> 384 ;
385 [label="X[3453] <= 0.5\nentropy = 0.499\nsamples = 73\nvalue = [65, 8]"] ;
384 -> 385 ;
386 [label="X[2763] <= 0.5\nentropy = 0.503\nsamples = 72\nvalue = [64, 8]"] ;
385 -> 386 ;
387 [label="X[678] <= 0.5\nentropy = 0.465\nsamples = 71\nvalue = [64, 7]"] ;
386 -> 387 ;
388 [label="X[3532] <= 0.5\nentropy = 0.474\nsamples = 69\nvalue = [62, 7]"] ;
387 -> 388 ;
389 [label="X[4180] <= 0.5\nentropy = 0.478\nsamples = 68\nvalue = [61, 7]"] ;
388 -> 389 ;
390 [label="X[4047] <= 0.5\nentropy = 0.483\nsamples = 67\nvalue = [60, 7]"] ;
389 -> 390 ;
391 [label="X[31] <= 0.5\nentropy = 0.493\nsamples = 65\nvalue = [58, 7]"] ;
390 -> 391 ;
392 [label="X[4355] <= 0.5\nentropy = 0.498\nsamples = 64\nvalue = [57, 7]"] ;
391 -> 392 ;
393 [label="X[1398] <= 0.5\nentropy = 0.503\nsamples = 63\nvalue = [56, 7]"] ;
392 -> 393 ;
394 [label="X[448] <= 0.5\nentropy = 0.459\nsamples = 62\nvalue = [56, 6]"] ;
393 -> 394 ;
395 [label="X[5289] <= 0.5\nentropy = 0.464\nsamples = 61\nvalue = [55, 6]"] ;
394 -> 395 ;
396 [label="X[3743] <= 0.5\nentropy = 0.469\nsamples = 60\nvalue = [54, 6]"] ;
395 -> 396 ;
397 [label="X[4308] <= 0.5\nentropy = 0.474\nsamples = 59\nvalue = [53, 6]"] ;
396 -> 397 ;
398 [label="X[465] <= 0.5\nentropy = 0.48\nsamples = 58\nvalue = [52, 6]"] ;
397 -> 398 ;
399 [label="X[30] <= 0.5\nentropy = 0.485\nsamples = 57\nvalue = [51, 6]"] ;
398 -> 399 ;
400 [label="X[384] <= 0.5\nentropy = 0.491\nsamples = 56\nvalue = [50, 6]"] ;
399 -> 400 ;
401 [label="X[5087] <= 0.5\nentropy = 0.497\nsamples = 55\nvalue = [49, 6]"] ;
400 -> 401 ;
402 [label="X[332] <= 0.5\nentropy = 0.503\nsamples = 54\nvalue = [48, 6]"] ;
401 -> 402 ;
403 [label="X[488] <= 0.5\nentropy = 0.516\nsamples = 52\nvalue = [46, 6]"] ;
402 -> 403 ;
404 [label="X[4174] <= 0.5\nentropy = 0.523\nsamples = 51\nvalue = [45, 6]"] ;
403 -> 404 ;
405 [label="X[4385] <= 0.5\nentropy = 0.529\nsamples = 50\nvalue = [44, 6]"] ;
404 -> 405 ;
406 [label="X[5079] <= 0.5\nentropy = 0.544\nsamples = 48\nvalue = [42, 6]"] ;
405 -> 406 ;
407 [label="X[125] <= 0.5\nentropy = 0.551\nsamples = 47\nvalue = [41, 6]"] ;
406 -> 407 ;
408 [label="X[5605] <= 0.5\nentropy = 0.496\nsamples = 46\nvalue = [41, 5]"] ;
407 -> 408 ;
409 [label="X[4350] <= 0.5\nentropy = 0.503\nsamples = 45\nvalue = [40, 5]"] ;
408 -> 409 ;
410 [label="X[181] <= 0.5\nentropy = 0.511\nsamples = 44\nvalue = [39, 5]"] ;
409 -> 410 ;
411 [label="X[1375] <= 0.5\nentropy = 0.544\nsamples = 40\nvalue = [35, 5]"] ;
410 -> 411 ;
412 [label="X[101] <= 0.5\nentropy = 0.552\nsamples = 39\nvalue = [34, 5]"] ;
411 -> 412 ;
413 [label="X[25] <= 0.5\nentropy = 0.562\nsamples = 38\nvalue = [33, 5]"] ;
412 -> 413 ;
414 [label="X[681] <= 0.5\nentropy = 0.571\nsamples = 37\nvalue = [32, 5]"] ;
413 -> 414 ;
415 [label="X[4841] <= 0.5\nentropy = 0.581\nsamples = 36\nvalue = [31, 5]"] ;
414 -> 415 ;
416 [label="X[3767] <= 0.5\nentropy = 0.592\nsamples = 35\nvalue = [30, 5]"] ;
415 -> 416 ;
417 [label="X[4909] <= 0.5\nentropy = 0.602\nsamples = 34\nvalue = [29, 5]"] ;
416 -> 417 ;
418 [label="X[3289] <= 0.5\nentropy = 0.614\nsamples = 33\nvalue = [28, 5]"] ;
417 -> 418 ;
419 [label="X[908] <= 0.5\nentropy = 0.625\nsamples = 32\nvalue = [27, 5]"] ;
418 -> 419 ;
420 [label="X[593] <= 0.5\nentropy = 0.637\nsamples = 31\nvalue = [26, 5]"] ;
419 -> 420 ;
421 [label="X[4939] <= 0.5\nentropy = 0.663\nsamples = 29\nvalue = [24, 5]"] ;
420 -> 421 ;
422 [label="X[810] <= 0.5\nentropy = 0.677\nsamples = 28\nvalue = [23, 5]"] ;
421 -> 422 ;
423 [label="X[4333] <= 0.5\nentropy = 0.691\nsamples = 27\nvalue = [22, 5]"] ;
422 -> 423 ;
424 [label="X[2845] <= 0.5\nentropy = 0.706\nsamples = 26\nvalue = [21, 5]"] ;
423 -> 424 ;
425 [label="X[1885] <= 0.5\nentropy = 0.722\nsamples = 25\nvalue = [20, 5]"] ;
424 -> 425 ;
426 [label="X[2185] <= 0.5\nentropy = 0.738\nsamples = 24\nvalue = [19, 5]"] ;
425 -> 426 ;
427 [label="X[3267] <= 0.5\nentropy = 0.667\nsamples = 23\nvalue = [19, 4]"] ;
426 -> 427 ;
428 [label="X[4344] <= 0.5\nentropy = 0.684\nsamples = 22\nvalue = [18, 4]"] ;
427 -> 428 ;
429 [label="X[3658] <= 0.5\nentropy = 0.702\nsamples = 21\nvalue = [17, 4]"] ;
428 -> 429 ;
430 [label="X[3330] <= 0.5\nentropy = 0.61\nsamples = 20\nvalue = [17, 3]"] ;
429 -> 430 ;
431 [label="X[4531] <= 0.5\nentropy = 0.629\nsamples = 19\nvalue = [16, 3]"] ;
430 -> 431 ;
432 [label="X[2571] <= 0.5\nentropy = 0.65\nsamples = 18\nvalue = [15, 3]"] ;
431 -> 432 ;
433 [label="X[77] <= 0.5\nentropy = 0.672\nsamples = 17\nvalue = [14, 3]"] ;
432 -> 433 ;
434 [label="X[4542] <= 0.5\nentropy = 0.696\nsamples = 16\nvalue = [13, 3]"] ;
433 -> 434 ;
435 [label="X[449] <= 0.5\nentropy = 0.722\nsamples = 15\nvalue = [12, 3]"] ;
434 -> 435 ;
436 [label="X[4986] <= 0.5\nentropy = 0.75\nsamples = 14\nvalue = [11, 3]"] ;
435 -> 436 ;
437 [label="X[2224] <= 0.5\nentropy = 0.779\nsamples = 13\nvalue = [10, 3]"] ;
436 -> 437 ;
438 [label="X[29] <= 0.5\nentropy = 0.811\nsamples = 12\nvalue = [9, 3]"] ;
437 -> 438 ;
439 [label="X[149] <= 0.5\nentropy = 0.811\nsamples = 8\nvalue = [6, 2]"] ;
438 -> 439 ;
440 [label="X[1698] <= 0.5\nentropy = 0.863\nsamples = 7\nvalue = [5, 2]"] ;
439 -> 440 ;
441 [label="X[965] <= 0.5\nentropy = 0.65\nsamples = 6\nvalue = [5, 1]"] ;
440 -> 441 ;
442 [label="entropy = 0.0\nsamples = 5\nvalue = [5, 0]"] ;
441 -> 442 ;
443 [label="entropy = 0.0\nsamples = 1\nvalue = [0, 1]"] ;
441 -> 443 ;
444 [label="entropy = 0.0\nsamples = 1\nvalue = [0, 1]"] ;
440 -> 444 ;
445 [label="entropy = 0.0\nsamples = 1\nvalue = [1, 0]"] ;
439 -> 445 ;
446 [label="X[285] <= 0.5\nentropy = 0.811\nsamples = 4\nvalue = [3, 1]"] ;
438 -> 446 ;
447 [label="X[1672] <= 0.5\nentropy = 0.918\nsamples = 3\nvalue = [2, 1]"] ;
446 -> 447 ;
448 [label="X[1735] <= 0.5\nentropy = 1.0\nsamples = 2\nvalue = [1, 1]"] ;
447 -> 448 ;
449 [label="entropy = 0.0\nsamples = 1\nvalue = [1, 0]"] ;
448 -> 449 ;
450 [label="entropy = 0.0\nsamples = 1\nvalue = [0, 1]"] ;
448 -> 450 ;
451 [label="entropy = 0.0\nsamples = 1\nvalue = [1, 0]"] ;
447 -> 451 ;
452 [label="entropy = 0.0\nsamples = 1\nvalue = [1, 0]"] ;
446 -> 452 ;
453 [label="entropy = 0.0\nsamples = 1\nvalue = [1, 0]"] ;
437 -> 453 ;
454 [label="entropy = 0.0\nsamples = 1\nvalue = [1, 0]"] ;
436 -> 454 ;
455 [label="entropy = 0.0\nsamples = 1\nvalue = [1, 0]"] ;
435 -> 455 ;
456 [label="entropy = 0.0\nsamples = 1\nvalue = [1, 0]"] ;
434 -> 456 ;
457 [label="entropy = 0.0\nsamples = 1\nvalue = [1, 0]"] ;
433 -> 457 ;
458 [label="entropy = 0.0\nsamples = 1\nvalue = [1, 0]"] ;
432 -> 458 ;
459 [label="entropy = 0.0\nsamples = 1\nvalue = [1, 0]"] ;
431 -> 459 ;
460 [label="entropy = 0.0\nsamples = 1\nvalue = [1, 0]"] ;
430 -> 460 ;
461 [label="entropy = 0.0\nsamples = 1\nvalue = [0, 1]"] ;
429 -> 461 ;
462 [label="entropy = 0.0\nsamples = 1\nvalue = [1, 0]"] ;
428 -> 462 ;
463 [label="entropy = 0.0\nsamples = 1\nvalue = [1, 0]"] ;
427 -> 463 ;
464 [label="entropy = 0.0\nsamples = 1\nvalue = [0, 1]"] ;
426 -> 464 ;
465 [label="entropy = 0.0\nsamples = 1\nvalue = [1, 0]"] ;
425 -> 465 ;
466 [label="entropy = 0.0\nsamples = 1\nvalue = [1, 0]"] ;
424 -> 466 ;
467 [label="entropy = 0.0\nsamples = 1\nvalue = [1, 0]"] ;
423 -> 467 ;
468 [label="entropy = 0.0\nsamples = 1\nvalue = [1, 0]"] ;
422 -> 468 ;
469 [label="entropy = 0.0\nsamples = 1\nvalue = [1, 0]"] ;
421 -> 469 ;
470 [label="entropy = 0.0\nsamples = 2\nvalue = [2, 0]"] ;
420 -> 470 ;
471 [label="entropy = 0.0\nsamples = 1\nvalue = [1, 0]"] ;
419 -> 471 ;
472 [label="entropy = 0.0\nsamples = 1\nvalue = [1, 0]"] ;
418 -> 472 ;
473 [label="entropy = 0.0\nsamples = 1\nvalue = [1, 0]"] ;
417 -> 473 ;
474 [label="entropy = 0.0\nsamples = 1\nvalue = [1, 0]"] ;
416 -> 474 ;
475 [label="entropy = 0.0\nsamples = 1\nvalue = [1, 0]"] ;
415 -> 475 ;
476 [label="entropy = 0.0\nsamples = 1\nvalue = [1, 0]"] ;
414 -> 476 ;
477 [label="entropy = 0.0\nsamples = 1\nvalue = [1, 0]"] ;
413 -> 477 ;
478 [label="entropy = 0.0\nsamples = 1\nvalue = [1, 0]"] ;
412 -> 478 ;
479 [label="entropy = 0.0\nsamples = 1\nvalue = [1, 0]"] ;
411 -> 479 ;
480 [label="entropy = 0.0\nsamples = 4\nvalue = [4, 0]"] ;
410 -> 480 ;
481 [label="entropy = 0.0\nsamples = 1\nvalue = [1, 0]"] ;
409 -> 481 ;
482 [label="entropy = 0.0\nsamples = 1\nvalue = [1, 0]"] ;
408 -> 482 ;
483 [label="entropy = 0.0\nsamples = 1\nvalue = [0, 1]"] ;
407 -> 483 ;
484 [label="entropy = 0.0\nsamples = 1\nvalue = [1, 0]"] ;
406 -> 484 ;
485 [label="entropy = 0.0\nsamples = 2\nvalue = [2, 0]"] ;
405 -> 485 ;
486 [label="entropy = 0.0\nsamples = 1\nvalue = [1, 0]"] ;
404 -> 486 ;
487 [label="entropy = 0.0\nsamples = 1\nvalue = [1, 0]"] ;
403 -> 487 ;
488 [label="entropy = 0.0\nsamples = 2\nvalue = [2, 0]"] ;
402 -> 488 ;
489 [label="entropy = 0.0\nsamples = 1\nvalue = [1, 0]"] ;
401 -> 489 ;
490 [label="entropy = 0.0\nsamples = 1\nvalue = [1, 0]"] ;
400 -> 490 ;
491 [label="entropy = 0.0\nsamples = 1\nvalue = [1, 0]"] ;
399 -> 491 ;
492 [label="entropy = 0.0\nsamples = 1\nvalue = [1, 0]"] ;
398 -> 492 ;
493 [label="entropy = 0.0\nsamples = 1\nvalue = [1, 0]"] ;
397 -> 493 ;
494 [label="entropy = 0.0\nsamples = 1\nvalue = [1, 0]"] ;
396 -> 494 ;
495 [label="entropy = 0.0\nsamples = 1\nvalue = [1, 0]"] ;
395 -> 495 ;
496 [label="entropy = 0.0\nsamples = 1\nvalue = [1, 0]"] ;
394 -> 496 ;
497 [label="entropy = 0.0\nsamples = 1\nvalue = [0, 1]"] ;
393 -> 497 ;
498 [label="entropy = 0.0\nsamples = 1\nvalue = [1, 0]"] ;
392 -> 498 ;
499 [label="entropy = 0.0\nsamples = 1\nvalue = [1, 0]"] ;
391 -> 499 ;
500 [label="entropy = 0.0\nsamples = 2\nvalue = [2, 0]"] ;
390 -> 500 ;
501 [label="entropy = 0.0\nsamples = 1\nvalue = [1, 0]"] ;
389 -> 501 ;
502 [label="entropy = 0.0\nsamples = 1\nvalue = [1, 0]"] ;
388 -> 502 ;
503 [label="entropy = 0.0\nsamples = 2\nvalue = [2, 0]"] ;
387 -> 503 ;
504 [label="entropy = 0.0\nsamples = 1\nvalue = [0, 1]"] ;
386 -> 504 ;
505 [label="entropy = 0.0\nsamples = 1\nvalue = [1, 0]"] ;
385 -> 505 ;
506 [label="entropy = 0.0\nsamples = 1\nvalue = [1, 0]"] ;
384 -> 506 ;
507 [label="entropy = 0.0\nsamples = 1\nvalue = [1, 0]"] ;
383 -> 507 ;
508 [label="entropy = 0.0\nsamples = 1\nvalue = [1, 0]"] ;
382 -> 508 ;
509 [label="entropy = 0.0\nsamples = 1\nvalue = [1, 0]"] ;
381 -> 509 ;
510 [label="entropy = 0.0\nsamples = 2\nvalue = [2, 0]"] ;
380 -> 510 ;
511 [label="entropy = 0.0\nsamples = 1\nvalue = [1, 0]"] ;
379 -> 511 ;
512 [label="entropy = 0.0\nsamples = 4\nvalue = [4, 0]"] ;
378 -> 512 ;
513 [label="X[2236] <= 0.5\nentropy = 0.918\nsamples = 3\nvalue = [2, 1]"] ;
377 -> 513 ;
514 [label="X[3472] <= 0.5\nentropy = 1.0\nsamples = 2\nvalue = [1, 1]"] ;
513 -> 514 ;
515 [label="entropy = 0.0\nsamples = 1\nvalue = [1, 0]"] ;
514 -> 515 ;
516 [label="entropy = 0.0\nsamples = 1\nvalue = [0, 1]"] ;
514 -> 516 ;
517 [label="entropy = 0.0\nsamples = 1\nvalue = [1, 0]"] ;
513 -> 517 ;
518 [label="entropy = 0.0\nsamples = 1\nvalue = [1, 0]"] ;
376 -> 518 ;
519 [label="entropy = 0.0\nsamples = 1\nvalue = [1, 0]"] ;
375 -> 519 ;
520 [label="entropy = 0.0\nsamples = 1\nvalue = [1, 0]"] ;
374 -> 520 ;
521 [label="entropy = 0.0\nsamples = 1\nvalue = [1, 0]"] ;
373 -> 521 ;
522 [label="X[714] <= 0.5\nentropy = 1.0\nsamples = 2\nvalue = [1, 1]"] ;
372 -> 522 ;
523 [label="entropy = 0.0\nsamples = 1\nvalue = [0, 1]"] ;
522 -> 523 ;
524 [label="entropy = 0.0\nsamples = 1\nvalue = [1, 0]"] ;
522 -> 524 ;
525 [label="entropy = 0.0\nsamples = 1\nvalue = [1, 0]"] ;
371 -> 525 ;
526 [label="entropy = 0.0\nsamples = 1\nvalue = [1, 0]"] ;
370 -> 526 ;
527 [label="entropy = 0.0\nsamples = 1\nvalue = [1, 0]"] ;
369 -> 527 ;
528 [label="entropy = 0.0\nsamples = 1\nvalue = [1, 0]"] ;
368 -> 528 ;
529 [label="entropy = 0.0\nsamples = 1\nvalue = [1, 0]"] ;
367 -> 529 ;
530 [label="entropy = 0.0\nsamples = 1\nvalue = [0, 1]"] ;
366 -> 530 ;
531 [label="entropy = 0.0\nsamples = 1\nvalue = [1, 0]"] ;
365 -> 531 ;
532 [label="entropy = 0.0\nsamples = 1\nvalue = [1, 0]"] ;
364 -> 532 ;
533 [label="entropy = 0.0\nsamples = 1\nvalue = [1, 0]"] ;
363 -> 533 ;
534 [label="entropy = 0.0\nsamples = 1\nvalue = [1, 0]"] ;
362 -> 534 ;
535 [label="entropy = 0.0\nsamples = 1\nvalue = [1, 0]"] ;
361 -> 535 ;
536 [label="entropy = 0.0\nsamples = 1\nvalue = [1, 0]"] ;
360 -> 536 ;
537 [label="entropy = 0.0\nsamples = 1\nvalue = [1, 0]"] ;
359 -> 537 ;
538 [label="entropy = 0.0\nsamples = 1\nvalue = [1, 0]"] ;
358 -> 538 ;
539 [label="entropy = 0.0\nsamples = 1\nvalue = [1, 0]"] ;
357 -> 539 ;
540 [label="X[1878] <= 0.5\nentropy = 1.0\nsamples = 2\nvalue = [1, 1]"] ;
356 -> 540 ;
541 [label="entropy = 0.0\nsamples = 1\nvalue = [1, 0]"] ;
540 -> 541 ;
542 [label="entropy = 0.0\nsamples = 1\nvalue = [0, 1]"] ;
540 -> 542 ;
543 [label="entropy = 0.0\nsamples = 1\nvalue = [1, 0]"] ;
355 -> 543 ;
544 [label="entropy = 0.0\nsamples = 1\nvalue = [1, 0]"] ;
354 -> 544 ;
545 [label="entropy = 0.0\nsamples = 1\nvalue = [1, 0]"] ;
353 -> 545 ;
546 [label="entropy = 0.0\nsamples = 1\nvalue = [1, 0]"] ;
352 -> 546 ;
547 [label="entropy = 0.0\nsamples = 1\nvalue = [0, 1]"] ;
351 -> 547 ;
548 [label="entropy = 0.0\nsamples = 1\nvalue = [1, 0]"] ;
350 -> 548 ;
549 [label="entropy = 0.0\nsamples = 1\nvalue = [1, 0]"] ;
349 -> 549 ;
550 [label="entropy = 0.0\nsamples = 1\nvalue = [1, 0]"] ;
348 -> 550 ;
551 [label="entropy = 0.0\nsamples = 1\nvalue = [1, 0]"] ;
347 -> 551 ;
552 [label="entropy = 0.0\nsamples = 1\nvalue = [1, 0]"] ;
346 -> 552 ;
553 [label="entropy = 0.0\nsamples = 2\nvalue = [2, 0]"] ;
345 -> 553 ;
554 [label="entropy = 0.0\nsamples = 1\nvalue = [1, 0]"] ;
344 -> 554 ;
555 [label="entropy = 0.0\nsamples = 1\nvalue = [1, 0]"] ;
343 -> 555 ;
556 [label="entropy = 0.0\nsamples = 1\nvalue = [1, 0]"] ;
342 -> 556 ;
557 [label="entropy = 0.0\nsamples = 1\nvalue = [1, 0]"] ;
341 -> 557 ;
558 [label="entropy = 0.0\nsamples = 1\nvalue = [0, 1]"] ;
340 -> 558 ;
559 [label="entropy = 0.0\nsamples = 1\nvalue = [1, 0]"] ;
339 -> 559 ;
560 [label="entropy = 0.0\nsamples = 1\nvalue = [1, 0]"] ;
338 -> 560 ;
561 [label="entropy = 0.0\nsamples = 2\nvalue = [2, 0]"] ;
337 -> 561 ;
562 [label="entropy = 0.0\nsamples = 3\nvalue = [3, 0]"] ;
336 -> 562 ;
563 [label="entropy = 0.0\nsamples = 1\nvalue = [1, 0]"] ;
335 -> 563 ;
564 [label="entropy = 0.0\nsamples = 1\nvalue = [1, 0]"] ;
334 -> 564 ;
565 [label="entropy = 0.0\nsamples = 1\nvalue = [1, 0]"] ;
333 -> 565 ;
566 [label="entropy = 0.0\nsamples = 1\nvalue = [1, 0]"] ;
332 -> 566 ;
567 [label="entropy = 0.0\nsamples = 1\nvalue = [1, 0]"] ;
331 -> 567 ;
568 [label="entropy = 0.0\nsamples = 1\nvalue = [1, 0]"] ;
330 -> 568 ;
569 [label="X[1736] <= 0.5\nentropy = 1.0\nsamples = 2\nvalue = [1, 1]"] ;
329 -> 569 ;
570 [label="entropy = 0.0\nsamples = 1\nvalue = [0, 1]"] ;
569 -> 570 ;
571 [label="entropy = 0.0\nsamples = 1\nvalue = [1, 0]"] ;
569 -> 571 ;
572 [label="entropy = 0.0\nsamples = 1\nvalue = [1, 0]"] ;
328 -> 572 ;
573 [label="entropy = 0.0\nsamples = 1\nvalue = [1, 0]"] ;
327 -> 573 ;
574 [label="entropy = 0.0\nsamples = 4\nvalue = [4, 0]"] ;
326 -> 574 ;
575 [label="entropy = 0.0\nsamples = 1\nvalue = [1, 0]"] ;
325 -> 575 ;
576 [label="entropy = 0.0\nsamples = 1\nvalue = [1, 0]"] ;
324 -> 576 ;
577 [label="entropy = 0.0\nsamples = 2\nvalue = [2, 0]"] ;
323 -> 577 ;
578 [label="entropy = 0.0\nsamples = 2\nvalue = [2, 0]"] ;
322 -> 578 ;
579 [label="entropy = 0.0\nsamples = 2\nvalue = [2, 0]"] ;
321 -> 579 ;
580 [label="entropy = 0.0\nsamples = 1\nvalue = [0, 1]"] ;
320 -> 580 ;
581 [label="entropy = 0.0\nsamples = 1\nvalue = [1, 0]"] ;
319 -> 581 ;
582 [label="entropy = 0.0\nsamples = 1\nvalue = [1, 0]"] ;
318 -> 582 ;
583 [label="entropy = 0.0\nsamples = 1\nvalue = [1, 0]"] ;
317 -> 583 ;
584 [label="entropy = 0.0\nsamples = 1\nvalue = [1, 0]"] ;
316 -> 584 ;
585 [label="entropy = 0.0\nsamples = 1\nvalue = [1, 0]"] ;
315 -> 585 ;
586 [label="entropy = 0.0\nsamples = 1\nvalue = [1, 0]"] ;
314 -> 586 ;
587 [label="X[375] <= 0.5\nentropy = 1.0\nsamples = 2\nvalue = [1, 1]"] ;
313 -> 587 ;
588 [label="entropy = 0.0\nsamples = 1\nvalue = [0, 1]"] ;
587 -> 588 ;
589 [label="entropy = 0.0\nsamples = 1\nvalue = [1, 0]"] ;
587 -> 589 ;
590 [label="X[1024] <= 0.5\nentropy = 0.722\nsamples = 5\nvalue = [4, 1]"] ;
312 -> 590 ;
591 [label="X[322] <= 0.5\nentropy = 0.811\nsamples = 4\nvalue = [3, 1]"] ;
590 -> 591 ;
592 [label="entropy = 0.0\nsamples = 3\nvalue = [3, 0]"] ;
591 -> 592 ;
593 [label="entropy = 0.0\nsamples = 1\nvalue = [0, 1]"] ;
591 -> 593 ;
594 [label="entropy = 0.0\nsamples = 1\nvalue = [1, 0]"] ;
590 -> 594 ;
595 [label="entropy = 0.0\nsamples = 1\nvalue = [1, 0]"] ;
311 -> 595 ;
596 [label="entropy = 0.0\nsamples = 1\nvalue = [1, 0]"] ;
310 -> 596 ;
597 [label="entropy = 0.0\nsamples = 1\nvalue = [1, 0]"] ;
309 -> 597 ;
598 [label="entropy = 0.0\nsamples = 1\nvalue = [1, 0]"] ;
308 -> 598 ;
599 [label="entropy = 0.0\nsamples = 2\nvalue = [2, 0]"] ;
307 -> 599 ;
600 [label="entropy = 0.0\nsamples = 1\nvalue = [1, 0]"] ;
306 -> 600 ;
601 [label="entropy = 0.0\nsamples = 1\nvalue = [0, 1]"] ;
305 -> 601 ;
602 [label="entropy = 0.0\nsamples = 1\nvalue = [1, 0]"] ;
304 -> 602 ;
603 [label="entropy = 0.0\nsamples = 1\nvalue = [1, 0]"] ;
303 -> 603 ;
604 [label="entropy = 0.0\nsamples = 1\nvalue = [0, 1]"] ;
302 -> 604 ;
605 [label="entropy = 0.0\nsamples = 2\nvalue = [2, 0]"] ;
301 -> 605 ;
606 [label="entropy = 0.0\nsamples = 2\nvalue = [2, 0]"] ;
300 -> 606 ;
607 [label="entropy = 0.0\nsamples = 1\nvalue = [1, 0]"] ;
299 -> 607 ;
608 [label="entropy = 0.0\nsamples = 2\nvalue = [2, 0]"] ;
298 -> 608 ;
609 [label="entropy = 0.0\nsamples = 1\nvalue = [1, 0]"] ;
297 -> 609 ;
610 [label="entropy = 0.0\nsamples = 1\nvalue = [1, 0]"] ;
296 -> 610 ;
611 [label="entropy = 0.0\nsamples = 1\nvalue = [1, 0]"] ;
295 -> 611 ;
612 [label="entropy = 0.0\nsamples = 1\nvalue = [1, 0]"] ;
294 -> 612 ;
613 [label="entropy = 0.0\nsamples = 1\nvalue = [1, 0]"] ;
293 -> 613 ;
614 [label="entropy = 0.0\nsamples = 1\nvalue = [1, 0]"] ;
292 -> 614 ;
615 [label="entropy = 0.0\nsamples = 1\nvalue = [0, 1]"] ;
291 -> 615 ;
616 [label="entropy = 0.0\nsamples = 2\nvalue = [2, 0]"] ;
290 -> 616 ;
617 [label="entropy = 0.0\nsamples = 1\nvalue = [1, 0]"] ;
289 -> 617 ;
618 [label="entropy = 0.0\nsamples = 1\nvalue = [1, 0]"] ;
288 -> 618 ;
619 [label="entropy = 0.0\nsamples = 1\nvalue = [1, 0]"] ;
287 -> 619 ;
620 [label="entropy = 0.0\nsamples = 1\nvalue = [0, 1]"] ;
286 -> 620 ;
621 [label="entropy = 0.0\nsamples = 1\nvalue = [1, 0]"] ;
285 -> 621 ;
622 [label="entropy = 0.0\nsamples = 1\nvalue = [0, 1]"] ;
284 -> 622 ;
623 [label="entropy = 0.0\nsamples = 6\nvalue = [6, 0]"] ;
283 -> 623 ;
624 [label="entropy = 0.0\nsamples = 1\nvalue = [1, 0]"] ;
282 -> 624 ;
625 [label="entropy = 0.0\nsamples = 1\nvalue = [1, 0]"] ;
281 -> 625 ;
626 [label="entropy = 0.0\nsamples = 1\nvalue = [0, 1]"] ;
268 -> 626 ;
627 [label="entropy = 0.0\nsamples = 1\nvalue = [0, 1]"] ;
267 -> 627 ;
628 [label="entropy = 0.0\nsamples = 1\nvalue = [1, 0]"] ;
266 -> 628 ;
629 [label="entropy = 0.0\nsamples = 1\nvalue = [1, 0]"] ;
265 -> 629 ;
630 [label="entropy = 0.0\nsamples = 1\nvalue = [1, 0]"] ;
264 -> 630 ;
631 [label="entropy = 0.0\nsamples = 1\nvalue = [1, 0]"] ;
263 -> 631 ;
632 [label="entropy = 0.0\nsamples = 1\nvalue = [1, 0]"] ;
262 -> 632 ;
633 [label="entropy = 0.0\nsamples = 4\nvalue = [4, 0]"] ;
261 -> 633 ;
634 [label="entropy = 0.0\nsamples = 1\nvalue = [1, 0]"] ;
260 -> 634 ;
635 [label="entropy = 0.0\nsamples = 1\nvalue = [1, 0]"] ;
259 -> 635 ;
636 [label="entropy = 0.0\nsamples = 1\nvalue = [1, 0]"] ;
258 -> 636 ;
637 [label="entropy = 0.0\nsamples = 3\nvalue = [3, 0]"] ;
257 -> 637 ;
638 [label="entropy = 0.0\nsamples = 1\nvalue = [0, 1]"] ;
256 -> 638 ;
639 [label="entropy = 0.0\nsamples = 1\nvalue = [0, 1]"] ;
255 -> 639 ;
640 [label="entropy = 0.0\nsamples = 1\nvalue = [1, 0]"] ;
254 -> 640 ;
641 [label="entropy = 0.0\nsamples = 1\nvalue = [0, 1]"] ;
253 -> 641 ;
642 [label="entropy = 0.0\nsamples = 4\nvalue = [4, 0]"] ;
252 -> 642 ;
643 [label="entropy = 0.0\nsamples = 1\nvalue = [1, 0]"] ;
251 -> 643 ;
644 [label="entropy = 0.0\nsamples = 1\nvalue = [1, 0]"] ;
250 -> 644 ;
645 [label="entropy = 0.0\nsamples = 2\nvalue = [2, 0]"] ;
249 -> 645 ;
646 [label="entropy = 0.0\nsamples = 1\nvalue = [0, 1]"] ;
248 -> 646 ;
647 [label="X[988] <= 0.5\nentropy = 1.0\nsamples = 2\nvalue = [1, 1]"] ;
247 -> 647 ;
648 [label="entropy = 0.0\nsamples = 1\nvalue = [0, 1]"] ;
647 -> 648 ;
649 [label="entropy = 0.0\nsamples = 1\nvalue = [1, 0]"] ;
647 -> 649 ;
650 [label="entropy = 0.0\nsamples = 2\nvalue = [2, 0]"] ;
246 -> 650 ;
651 [label="entropy = 0.0\nsamples = 1\nvalue = [1, 0]"] ;
245 -> 651 ;
652 [label="entropy = 0.0\nsamples = 1\nvalue = [1, 0]"] ;
244 -> 652 ;
653 [label="entropy = 0.0\nsamples = 3\nvalue = [3, 0]"] ;
243 -> 653 ;
654 [label="entropy = 0.0\nsamples = 1\nvalue = [1, 0]"] ;
242 -> 654 ;
655 [label="entropy = 0.0\nsamples = 1\nvalue = [1, 0]"] ;
241 -> 655 ;
656 [label="entropy = 0.0\nsamples = 1\nvalue = [0, 1]"] ;
240 -> 656 ;
657 [label="entropy = 0.0\nsamples = 1\nvalue = [0, 1]"] ;
239 -> 657 ;
658 [label="entropy = 0.0\nsamples = 1\nvalue = [1, 0]"] ;
238 -> 658 ;
659 [label="entropy = 0.0\nsamples = 1\nvalue = [1, 0]"] ;
237 -> 659 ;
660 [label="entropy = 0.0\nsamples = 1\nvalue = [0, 1]"] ;
236 -> 660 ;
661 [label="entropy = 0.0\nsamples = 1\nvalue = [1, 0]"] ;
235 -> 661 ;
662 [label="entropy = 0.0\nsamples = 2\nvalue = [2, 0]"] ;
234 -> 662 ;
663 [label="entropy = 0.0\nsamples = 6\nvalue = [6, 0]"] ;
233 -> 663 ;
664 [label="entropy = 0.0\nsamples = 2\nvalue = [2, 0]"] ;
232 -> 664 ;
665 [label="X[2658] <= 0.5\nentropy = 1.0\nsamples = 4\nvalue = [2, 2]"] ;
231 -> 665 ;
666 [label="X[1090] <= 0.5\nentropy = 0.918\nsamples = 3\nvalue = [2, 1]"] ;
665 -> 666 ;
667 [label="X[4048] <= 0.5\nentropy = 1.0\nsamples = 2\nvalue = [1, 1]"] ;
666 -> 667 ;
668 [label="entropy = 0.0\nsamples = 1\nvalue = [0, 1]"] ;
667 -> 668 ;
669 [label="entropy = 0.0\nsamples = 1\nvalue = [1, 0]"] ;
667 -> 669 ;
670 [label="entropy = 0.0\nsamples = 1\nvalue = [1, 0]"] ;
666 -> 670 ;
671 [label="entropy = 0.0\nsamples = 1\nvalue = [0, 1]"] ;
665 -> 671 ;
672 [label="entropy = 0.0\nsamples = 9\nvalue = [9, 0]"] ;
230 -> 672 ;
673 [label="entropy = 0.0\nsamples = 4\nvalue = [4, 0]"] ;
229 -> 673 ;
674 [label="entropy = 0.0\nsamples = 2\nvalue = [2, 0]"] ;
228 -> 674 ;
675 [label="entropy = 0.0\nsamples = 1\nvalue = [1, 0]"] ;
227 -> 675 ;
676 [label="entropy = 0.0\nsamples = 1\nvalue = [1, 0]"] ;
226 -> 676 ;
677 [label="entropy = 0.0\nsamples = 2\nvalue = [2, 0]"] ;
225 -> 677 ;
678 [label="entropy = 0.0\nsamples = 2\nvalue = [2, 0]"] ;
224 -> 678 ;
679 [label="X[3763] <= 0.5\nentropy = 1.0\nsamples = 2\nvalue = [1, 1]"] ;
223 -> 679 ;
680 [label="entropy = 0.0\nsamples = 1\nvalue = [0, 1]"] ;
679 -> 680 ;
681 [label="entropy = 0.0\nsamples = 1\nvalue = [1, 0]"] ;
679 -> 681 ;
682 [label="entropy = 0.0\nsamples = 1\nvalue = [1, 0]"] ;
222 -> 682 ;
683 [label="entropy = 0.0\nsamples = 2\nvalue = [2, 0]"] ;
221 -> 683 ;
684 [label="entropy = 0.0\nsamples = 1\nvalue = [1, 0]"] ;
220 -> 684 ;
685 [label="entropy = 0.0\nsamples = 10\nvalue = [10, 0]"] ;
219 -> 685 ;
686 [label="entropy = 0.0\nsamples = 1\nvalue = [0, 1]"] ;
218 -> 686 ;
687 [label="entropy = 0.0\nsamples = 1\nvalue = [1, 0]"] ;
217 -> 687 ;
688 [label="entropy = 0.0\nsamples = 1\nvalue = [0, 1]"] ;
216 -> 688 ;
689 [label="entropy = 0.0\nsamples = 1\nvalue = [0, 1]"] ;
215 -> 689 ;
690 [label="entropy = 0.0\nsamples = 1\nvalue = [1, 0]"] ;
214 -> 690 ;
691 [label="entropy = 0.0\nsamples = 1\nvalue = [0, 1]"] ;
213 -> 691 ;
692 [label="entropy = 0.0\nsamples = 1\nvalue = [1, 0]"] ;
212 -> 692 ;
693 [label="entropy = 0.0\nsamples = 1\nvalue = [0, 1]"] ;
211 -> 693 ;
694 [label="entropy = 0.0\nsamples = 2\nvalue = [2, 0]"] ;
210 -> 694 ;
695 [label="X[2765] <= 0.5\nentropy = 0.994\nsamples = 11\nvalue = [6, 5]"] ;
209 -> 695 ;
696 [label="X[285] <= 0.5\nentropy = 0.971\nsamples = 10\nvalue = [6, 4]"] ;
695 -> 696 ;
697 [label="X[375] <= 0.5\nentropy = 0.918\nsamples = 9\nvalue = [6, 3]"] ;
696 -> 697 ;
698 [label="X[0] <= 0.5\nentropy = 0.985\nsamples = 7\nvalue = [4, 3]"] ;
697 -> 698 ;
699 [label="entropy = 0.0\nsamples = 1\nvalue = [0, 1]"] ;
698 -> 699 ;
700 [label="X[91] <= 0.5\nentropy = 0.918\nsamples = 6\nvalue = [4, 2]"] ;
698 -> 700 ;
701 [label="X[3777] <= 0.5\nentropy = 0.722\nsamples = 5\nvalue = [4, 1]"] ;
700 -> 701 ;
702 [label="X[29] <= 0.5\nentropy = 0.811\nsamples = 4\nvalue = [3, 1]"] ;
701 -> 702 ;
703 [label="X[355] <= 0.5\nentropy = 1.0\nsamples = 2\nvalue = [1, 1]"] ;
702 -> 703 ;
704 [label="entropy = 0.0\nsamples = 1\nvalue = [1, 0]"] ;
703 -> 704 ;
705 [label="entropy = 0.0\nsamples = 1\nvalue = [0, 1]"] ;
703 -> 705 ;
706 [label="entropy = 0.0\nsamples = 2\nvalue = [2, 0]"] ;
702 -> 706 ;
707 [label="entropy = 0.0\nsamples = 1\nvalue = [1, 0]"] ;
701 -> 707 ;
708 [label="entropy = 0.0\nsamples = 1\nvalue = [0, 1]"] ;
700 -> 708 ;
709 [label="entropy = 0.0\nsamples = 2\nvalue = [2, 0]"] ;
697 -> 709 ;
710 [label="entropy = 0.0\nsamples = 1\nvalue = [0, 1]"] ;
696 -> 710 ;
711 [label="entropy = 0.0\nsamples = 1\nvalue = [0, 1]"] ;
695 -> 711 ;
712 [label="entropy = 0.0\nsamples = 1\nvalue = [0, 1]"] ;
208 -> 712 ;
713 [label="entropy = 0.0\nsamples = 1\nvalue = [1, 0]"] ;
207 -> 713 ;
714 [label="entropy = 0.0\nsamples = 1\nvalue = [1, 0]"] ;
206 -> 714 ;
715 [label="entropy = 0.0\nsamples = 1\nvalue = [0, 1]"] ;
205 -> 715 ;
716 [label="entropy = 0.0\nsamples = 1\nvalue = [1, 0]"] ;
204 -> 716 ;
717 [label="entropy = 0.0\nsamples = 3\nvalue = [3, 0]"] ;
203 -> 717 ;
718 [label="entropy = 0.0\nsamples = 1\nvalue = [1, 0]"] ;
202 -> 718 ;
719 [label="entropy = 0.0\nsamples = 1\nvalue = [0, 1]"] ;
201 -> 719 ;
720 [label="entropy = 0.0\nsamples = 1\nvalue = [1, 0]"] ;
200 -> 720 ;
721 [label="entropy = 0.0\nsamples = 1\nvalue = [1, 0]"] ;
199 -> 721 ;
722 [label="entropy = 0.0\nsamples = 1\nvalue = [1, 0]"] ;
198 -> 722 ;
723 [label="entropy = 0.0\nsamples = 1\nvalue = [0, 1]"] ;
197 -> 723 ;
724 [label="entropy = 0.0\nsamples = 1\nvalue = [0, 1]"] ;
196 -> 724 ;
725 [label="entropy = 0.0\nsamples = 1\nvalue = [1, 0]"] ;
195 -> 725 ;
726 [label="entropy = 0.0\nsamples = 1\nvalue = [0, 1]"] ;
194 -> 726 ;
727 [label="entropy = 0.0\nsamples = 4\nvalue = [4, 0]"] ;
193 -> 727 ;
728 [label="entropy = 0.0\nsamples = 1\nvalue = [0, 1]"] ;
192 -> 728 ;
729 [label="entropy = 0.0\nsamples = 1\nvalue = [0, 1]"] ;
191 -> 729 ;
730 [label="entropy = 0.0\nsamples = 3\nvalue = [3, 0]"] ;
190 -> 730 ;
731 [label="entropy = 0.0\nsamples = 2\nvalue = [2, 0]"] ;
189 -> 731 ;
732 [label="X[236] <= 0.5\nentropy = 0.918\nsamples = 3\nvalue = [1, 2]"] ;
188 -> 732 ;
733 [label="entropy = 0.0\nsamples = 2\nvalue = [0, 2]"] ;
732 -> 733 ;
734 [label="entropy = 0.0\nsamples = 1\nvalue = [1, 0]"] ;
732 -> 734 ;
735 [label="entropy = 0.0\nsamples = 1\nvalue = [1, 0]"] ;
187 -> 735 ;
736 [label="entropy = 0.0\nsamples = 1\nvalue = [1, 0]"] ;
186 -> 736 ;
737 [label="entropy = 0.0\nsamples = 4\nvalue = [4, 0]"] ;
185 -> 737 ;
738 [label="entropy = 0.0\nsamples = 1\nvalue = [0, 1]"] ;
184 -> 738 ;
739 [label="entropy = 0.0\nsamples = 5\nvalue = [5, 0]"] ;
183 -> 739 ;
740 [label="entropy = 0.0\nsamples = 1\nvalue = [1, 0]"] ;
182 -> 740 ;
741 [label="entropy = 0.0\nsamples = 2\nvalue = [2, 0]"] ;
181 -> 741 ;
742 [label="entropy = 0.0\nsamples = 4\nvalue = [4, 0]"] ;
180 -> 742 ;
743 [label="entropy = 0.0\nsamples = 1\nvalue = [0, 1]"] ;
179 -> 743 ;
744 [label="X[484] <= 0.5\nentropy = 1.0\nsamples = 2\nvalue = [1, 1]"] ;
178 -> 744 ;
745 [label="entropy = 0.0\nsamples = 1\nvalue = [1, 0]"] ;
744 -> 745 ;
746 [label="entropy = 0.0\nsamples = 1\nvalue = [0, 1]"] ;
744 -> 746 ;
747 [label="entropy = 0.0\nsamples = 1\nvalue = [1, 0]"] ;
177 -> 747 ;
748 [label="entropy = 0.0\nsamples = 1\nvalue = [1, 0]"] ;
176 -> 748 ;
749 [label="entropy = 0.0\nsamples = 1\nvalue = [0, 1]"] ;
175 -> 749 ;
750 [label="entropy = 0.0\nsamples = 2\nvalue = [2, 0]"] ;
174 -> 750 ;
751 [label="entropy = 0.0\nsamples = 1\nvalue = [0, 1]"] ;
173 -> 751 ;
752 [label="X[234] <= 0.5\nentropy = 1.0\nsamples = 2\nvalue = [1, 1]"] ;
172 -> 752 ;
753 [label="entropy = 0.0\nsamples = 1\nvalue = [1, 0]"] ;
752 -> 753 ;
754 [label="entropy = 0.0\nsamples = 1\nvalue = [0, 1]"] ;
752 -> 754 ;
755 [label="entropy = 0.0\nsamples = 2\nvalue = [2, 0]"] ;
171 -> 755 ;
756 [label="X[3473] <= 0.5\nentropy = 0.971\nsamples = 5\nvalue = [3, 2]"] ;
170 -> 756 ;
757 [label="X[2370] <= 0.5\nentropy = 1.0\nsamples = 4\nvalue = [2, 2]"] ;
756 -> 757 ;
758 [label="X[532] <= 0.5\nentropy = 0.918\nsamples = 3\nvalue = [2, 1]"] ;
757 -> 758 ;
759 [label="X[3731] <= 0.5\nentropy = 1.0\nsamples = 2\nvalue = [1, 1]"] ;
758 -> 759 ;
760 [label="entropy = 0.0\nsamples = 1\nvalue = [0, 1]"] ;
759 -> 760 ;
761 [label="entropy = 0.0\nsamples = 1\nvalue = [1, 0]"] ;
759 -> 761 ;
762 [label="entropy = 0.0\nsamples = 1\nvalue = [1, 0]"] ;
758 -> 762 ;
763 [label="entropy = 0.0\nsamples = 1\nvalue = [0, 1]"] ;
757 -> 763 ;
764 [label="entropy = 0.0\nsamples = 1\nvalue = [1, 0]"] ;
756 -> 764 ;
765 [label="entropy = 0.0\nsamples = 2\nvalue = [2, 0]"] ;
169 -> 765 ;
766 [label="entropy = 0.0\nsamples = 1\nvalue = [0, 1]"] ;
168 -> 766 ;
767 [label="entropy = 0.0\nsamples = 1\nvalue = [0, 1]"] ;
167 -> 767 ;
768 [label="entropy = 0.0\nsamples = 1\nvalue = [1, 0]"] ;
166 -> 768 ;
769 [label="entropy = 0.0\nsamples = 1\nvalue = [0, 1]"] ;
165 -> 769 ;
770 [label="entropy = 0.0\nsamples = 1\nvalue = [1, 0]"] ;
164 -> 770 ;
771 [label="entropy = 0.0\nsamples = 2\nvalue = [2, 0]"] ;
163 -> 771 ;
772 [label="entropy = 0.0\nsamples = 1\nvalue = [0, 1]"] ;
162 -> 772 ;
773 [label="entropy = 0.0\nsamples = 1\nvalue = [0, 1]"] ;
161 -> 773 ;
774 [label="entropy = 0.0\nsamples = 1\nvalue = [0, 1]"] ;
160 -> 774 ;
775 [label="entropy = 0.0\nsamples = 7\nvalue = [7, 0]"] ;
159 -> 775 ;
776 [label="entropy = 0.0\nsamples = 1\nvalue = [1, 0]"] ;
158 -> 776 ;
777 [label="entropy = 0.0\nsamples = 1\nvalue = [1, 0]"] ;
157 -> 777 ;
778 [label="entropy = 0.0\nsamples = 2\nvalue = [2, 0]"] ;
156 -> 778 ;
779 [label="X[393] <= 0.5\nentropy = 0.985\nsamples = 7\nvalue = [4, 3]"] ;
155 -> 779 ;
780 [label="X[1991] <= 0.5\nentropy = 0.918\nsamples = 6\nvalue = [4, 2]"] ;
779 -> 780 ;
781 [label="X[76] <= 0.5\nentropy = 1.0\nsamples = 4\nvalue = [2, 2]"] ;
780 -> 781 ;
782 [label="entropy = 0.0\nsamples = 2\nvalue = [2, 0]"] ;
781 -> 782 ;
783 [label="entropy = 0.0\nsamples = 2\nvalue = [0, 2]"] ;
781 -> 783 ;
784 [label="entropy = 0.0\nsamples = 2\nvalue = [2, 0]"] ;
780 -> 784 ;
785 [label="entropy = 0.0\nsamples = 1\nvalue = [0, 1]"] ;
779 -> 785 ;
786 [label="entropy = 0.0\nsamples = 1\nvalue = [0, 1]"] ;
154 -> 786 ;
787 [label="X[2637] <= 0.5\nentropy = 0.918\nsamples = 3\nvalue = [1, 2]"] ;
153 -> 787 ;
788 [label="X[87] <= 0.5\nentropy = 1.0\nsamples = 2\nvalue = [1, 1]"] ;
787 -> 788 ;
789 [label="entropy = 0.0\nsamples = 1\nvalue = [1, 0]"] ;
788 -> 789 ;
790 [label="entropy = 0.0\nsamples = 1\nvalue = [0, 1]"] ;
788 -> 790 ;
791 [label="entropy = 0.0\nsamples = 1\nvalue = [0, 1]"] ;
787 -> 791 ;
792 [label="X[3063] <= 0.5\nentropy = 0.811\nsamples = 4\nvalue = [1, 3]"] ;
152 -> 792 ;
793 [label="X[1956] <= 0.5\nentropy = 0.918\nsamples = 3\nvalue = [1, 2]"] ;
792 -> 793 ;
794 [label="entropy = 0.0\nsamples = 2\nvalue = [0, 2]"] ;
793 -> 794 ;
795 [label="entropy = 0.0\nsamples = 1\nvalue = [1, 0]"] ;
793 -> 795 ;
796 [label="entropy = 0.0\nsamples = 1\nvalue = [0, 1]"] ;
792 -> 796 ;
797 [label="entropy = 0.0\nsamples = 1\nvalue = [0, 1]"] ;
151 -> 797 ;
798 [label="X[4921] <= 0.5\nentropy = 0.924\nsamples = 56\nvalue = [37, 19]"] ;
150 -> 798 ;
799 [label="X[821] <= 0.5\nentropy = 0.93\nsamples = 55\nvalue = [36, 19]"] ;
798 -> 799 ;
800 [label="X[1766] <= 0.5\nentropy = 0.936\nsamples = 54\nvalue = [35, 19]"] ;
799 -> 800 ;
801 [label="X[965] <= 0.5\nentropy = 0.941\nsamples = 53\nvalue = [34, 19]"] ;
800 -> 801 ;
802 [label="X[0] <= 0.5\nentropy = 0.931\nsamples = 52\nvalue = [34, 18]"] ;
801 -> 802 ;
803 [label="X[188] <= 0.5\nentropy = 0.943\nsamples = 50\nvalue = [32, 18]"] ;
802 -> 803 ;
804 [label="X[1857] <= 0.5\nentropy = 0.949\nsamples = 49\nvalue = [31, 18]"] ;
803 -> 804 ;
805 [label="X[5229] <= 0.5\nentropy = 0.938\nsamples = 48\nvalue = [31, 17]"] ;
804 -> 805 ;
806 [label="X[3574] <= 0.5\nentropy = 0.944\nsamples = 47\nvalue = [30, 17]"] ;
805 -> 806 ;
807 [label="X[328] <= 0.5\nentropy = 0.95\nsamples = 46\nvalue = [29, 17]"] ;
806 -> 807 ;
808 [label="X[1121] <= 0.5\nentropy = 0.939\nsamples = 45\nvalue = [29, 16]"] ;
807 -> 808 ;
809 [label="X[2736] <= 0.5\nentropy = 0.926\nsamples = 44\nvalue = [29, 15]"] ;
808 -> 809 ;
810 [label="X[2343] <= 0.5\nentropy = 0.933\nsamples = 43\nvalue = [28, 15]"] ;
809 -> 810 ;
811 [label="X[5039] <= 0.5\nentropy = 0.918\nsamples = 42\nvalue = [28, 14]"] ;
810 -> 811 ;
812 [label="X[1894] <= 0.5\nentropy = 0.926\nsamples = 41\nvalue = [27, 14]"] ;
811 -> 812 ;
813 [label="X[3535] <= 0.5\nentropy = 0.942\nsamples = 39\nvalue = [25, 14]"] ;
812 -> 813 ;
814 [label="X[37] <= 0.5\nentropy = 0.927\nsamples = 38\nvalue = [25, 13]"] ;
813 -> 814 ;
815 [label="X[2313] <= 0.5\nentropy = 0.888\nsamples = 36\nvalue = [25, 11]"] ;
814 -> 815 ;
816 [label="X[5072] <= 0.5\nentropy = 0.863\nsamples = 35\nvalue = [25, 10]"] ;
815 -> 816 ;
817 [label="X[5415] <= 0.5\nentropy = 0.874\nsamples = 34\nvalue = [24, 10]"] ;
816 -> 817 ;
818 [label="X[1816] <= 0.5\nentropy = 0.885\nsamples = 33\nvalue = [23, 10]"] ;
817 -> 818 ;
819 [label="X[715] <= 0.5\nentropy = 0.857\nsamples = 32\nvalue = [23, 9]"] ;
818 -> 819 ;
820 [label="X[232] <= 0.5\nentropy = 0.824\nsamples = 31\nvalue = [23, 8]"] ;
819 -> 820 ;
821 [label="X[109] <= 0.5\nentropy = 0.784\nsamples = 30\nvalue = [23, 7]"] ;
820 -> 821 ;
822 [label="X[293] <= 0.5\nentropy = 0.797\nsamples = 29\nvalue = [22, 7]"] ;
821 -> 822 ;
823 [label="X[2152] <= 0.5\nentropy = 0.811\nsamples = 28\nvalue = [21, 7]"] ;
822 -> 823 ;
824 [label="X[623] <= 0.5\nentropy = 0.826\nsamples = 27\nvalue = [20, 7]"] ;
823 -> 824 ;
825 [label="X[981] <= 0.5\nentropy = 0.779\nsamples = 26\nvalue = [20, 6]"] ;
824 -> 825 ;
826 [label="X[3654] <= 0.5\nentropy = 0.795\nsamples = 25\nvalue = [19, 6]"] ;
825 -> 826 ;
827 [label="X[236] <= 0.5\nentropy = 0.738\nsamples = 24\nvalue = [19, 5]"] ;
826 -> 827 ;
828 [label="X[2977] <= 0.5\nentropy = 0.755\nsamples = 23\nvalue = [18, 5]"] ;
827 -> 828 ;
829 [label="X[4923] <= 0.5\nentropy = 0.684\nsamples = 22\nvalue = [18, 4]"] ;
828 -> 829 ;
830 [label="X[1662] <= 0.5\nentropy = 0.702\nsamples = 21\nvalue = [17, 4]"] ;
829 -> 830 ;
831 [label="X[2252] <= 0.5\nentropy = 0.722\nsamples = 20\nvalue = [16, 4]"] ;
830 -> 831 ;
832 [label="X[4077] <= 0.5\nentropy = 0.764\nsamples = 18\nvalue = [14, 4]"] ;
831 -> 832 ;
833 [label="X[1329] <= 0.5\nentropy = 0.787\nsamples = 17\nvalue = [13, 4]"] ;
832 -> 833 ;
834 [label="X[2278] <= 0.5\nentropy = 0.811\nsamples = 16\nvalue = [12, 4]"] ;
833 -> 834 ;
835 [label="X[113] <= 0.5\nentropy = 0.722\nsamples = 15\nvalue = [12, 3]"] ;
834 -> 835 ;
836 [label="X[1] <= 0.5\nentropy = 0.75\nsamples = 14\nvalue = [11, 3]"] ;
835 -> 836 ;
837 [label="entropy = 0.0\nsamples = 1\nvalue = [1, 0]"] ;
836 -> 837 ;
838 [label="X[3019] <= 0.5\nentropy = 0.779\nsamples = 13\nvalue = [10, 3]"] ;
836 -> 838 ;
839 [label="X[1578] <= 0.5\nentropy = 0.811\nsamples = 12\nvalue = [9, 3]"] ;
838 -> 839 ;
840 [label="X[5667] <= 0.5\nentropy = 0.845\nsamples = 11\nvalue = [8, 3]"] ;
839 -> 840 ;
841 [label="X[100] <= 0.5\nentropy = 0.881\nsamples = 10\nvalue = [7, 3]"] ;
840 -> 841 ;
842 [label="X[29] <= 0.5\nentropy = 0.918\nsamples = 9\nvalue = [6, 3]"] ;
841 -> 842 ;
843 [label="X[4133] <= 0.5\nentropy = 1.0\nsamples = 6\nvalue = [3, 3]"] ;
842 -> 843 ;
844 [label="X[556] <= 0.5\nentropy = 0.971\nsamples = 5\nvalue = [2, 3]"] ;
843 -> 844 ;
845 [label="X[958] <= 0.5\nentropy = 1.0\nsamples = 4\nvalue = [2, 2]"] ;
844 -> 845 ;
846 [label="X[653] <= 0.5\nentropy = 0.918\nsamples = 3\nvalue = [2, 1]"] ;
845 -> 846 ;
847 [label="X[1264] <= 0.5\nentropy = 1.0\nsamples = 2\nvalue = [1, 1]"] ;
846 -> 847 ;
848 [label="entropy = 0.0\nsamples = 1\nvalue = [0, 1]"] ;
847 -> 848 ;
849 [label="entropy = 0.0\nsamples = 1\nvalue = [1, 0]"] ;
847 -> 849 ;
850 [label="entropy = 0.0\nsamples = 1\nvalue = [1, 0]"] ;
846 -> 850 ;
851 [label="entropy = 0.0\nsamples = 1\nvalue = [0, 1]"] ;
845 -> 851 ;
852 [label="entropy = 0.0\nsamples = 1\nvalue = [0, 1]"] ;
844 -> 852 ;
853 [label="entropy = 0.0\nsamples = 1\nvalue = [1, 0]"] ;
843 -> 853 ;
854 [label="entropy = 0.0\nsamples = 3\nvalue = [3, 0]"] ;
842 -> 854 ;
855 [label="entropy = 0.0\nsamples = 1\nvalue = [1, 0]"] ;
841 -> 855 ;
856 [label="entropy = 0.0\nsamples = 1\nvalue = [1, 0]"] ;
840 -> 856 ;
857 [label="entropy = 0.0\nsamples = 1\nvalue = [1, 0]"] ;
839 -> 857 ;
858 [label="entropy = 0.0\nsamples = 1\nvalue = [1, 0]"] ;
838 -> 858 ;
859 [label="entropy = 0.0\nsamples = 1\nvalue = [1, 0]"] ;
835 -> 859 ;
860 [label="entropy = 0.0\nsamples = 1\nvalue = [0, 1]"] ;
834 -> 860 ;
861 [label="entropy = 0.0\nsamples = 1\nvalue = [1, 0]"] ;
833 -> 861 ;
862 [label="entropy = 0.0\nsamples = 1\nvalue = [1, 0]"] ;
832 -> 862 ;
863 [label="entropy = 0.0\nsamples = 2\nvalue = [2, 0]"] ;
831 -> 863 ;
864 [label="entropy = 0.0\nsamples = 1\nvalue = [1, 0]"] ;
830 -> 864 ;
865 [label="entropy = 0.0\nsamples = 1\nvalue = [1, 0]"] ;
829 -> 865 ;
866 [label="entropy = 0.0\nsamples = 1\nvalue = [0, 1]"] ;
828 -> 866 ;
867 [label="entropy = 0.0\nsamples = 1\nvalue = [1, 0]"] ;
827 -> 867 ;
868 [label="entropy = 0.0\nsamples = 1\nvalue = [0, 1]"] ;
826 -> 868 ;
869 [label="entropy = 0.0\nsamples = 1\nvalue = [1, 0]"] ;
825 -> 869 ;
870 [label="entropy = 0.0\nsamples = 1\nvalue = [0, 1]"] ;
824 -> 870 ;
871 [label="entropy = 0.0\nsamples = 1\nvalue = [1, 0]"] ;
823 -> 871 ;
872 [label="entropy = 0.0\nsamples = 1\nvalue = [1, 0]"] ;
822 -> 872 ;
873 [label="entropy = 0.0\nsamples = 1\nvalue = [1, 0]"] ;
821 -> 873 ;
874 [label="entropy = 0.0\nsamples = 1\nvalue = [0, 1]"] ;
820 -> 874 ;
875 [label="entropy = 0.0\nsamples = 1\nvalue = [0, 1]"] ;
819 -> 875 ;
876 [label="entropy = 0.0\nsamples = 1\nvalue = [0, 1]"] ;
818 -> 876 ;
877 [label="entropy = 0.0\nsamples = 1\nvalue = [1, 0]"] ;
817 -> 877 ;
878 [label="entropy = 0.0\nsamples = 1\nvalue = [1, 0]"] ;
816 -> 878 ;
879 [label="entropy = 0.0\nsamples = 1\nvalue = [0, 1]"] ;
815 -> 879 ;
880 [label="entropy = 0.0\nsamples = 2\nvalue = [0, 2]"] ;
814 -> 880 ;
881 [label="entropy = 0.0\nsamples = 1\nvalue = [0, 1]"] ;
813 -> 881 ;
882 [label="entropy = 0.0\nsamples = 2\nvalue = [2, 0]"] ;
812 -> 882 ;
883 [label="entropy = 0.0\nsamples = 1\nvalue = [1, 0]"] ;
811 -> 883 ;
884 [label="entropy = 0.0\nsamples = 1\nvalue = [0, 1]"] ;
810 -> 884 ;
885 [label="entropy = 0.0\nsamples = 1\nvalue = [1, 0]"] ;
809 -> 885 ;
886 [label="entropy = 0.0\nsamples = 1\nvalue = [0, 1]"] ;
808 -> 886 ;
887 [label="entropy = 0.0\nsamples = 1\nvalue = [0, 1]"] ;
807 -> 887 ;
888 [label="entropy = 0.0\nsamples = 1\nvalue = [1, 0]"] ;
806 -> 888 ;
889 [label="entropy = 0.0\nsamples = 1\nvalue = [1, 0]"] ;
805 -> 889 ;
890 [label="entropy = 0.0\nsamples = 1\nvalue = [0, 1]"] ;
804 -> 890 ;
891 [label="entropy = 0.0\nsamples = 1\nvalue = [1, 0]"] ;
803 -> 891 ;
892 [label="entropy = 0.0\nsamples = 2\nvalue = [2, 0]"] ;
802 -> 892 ;
893 [label="entropy = 0.0\nsamples = 1\nvalue = [0, 1]"] ;
801 -> 893 ;
894 [label="entropy = 0.0\nsamples = 1\nvalue = [1, 0]"] ;
800 -> 894 ;
895 [label="entropy = 0.0\nsamples = 1\nvalue = [1, 0]"] ;
799 -> 895 ;
896 [label="entropy = 0.0\nsamples = 1\nvalue = [1, 0]"] ;
798 -> 896 ;
897 [label="entropy = 0.0\nsamples = 1\nvalue = [0, 1]"] ;
149 -> 897 ;
898 [label="X[185] <= 0.5\nentropy = 0.971\nsamples = 5\nvalue = [2, 3]"] ;
148 -> 898 ;
899 [label="X[518] <= 0.5\nentropy = 1.0\nsamples = 4\nvalue = [2, 2]"] ;
898 -> 899 ;
900 [label="X[1742] <= 0.5\nentropy = 0.918\nsamples = 3\nvalue = [2, 1]"] ;
899 -> 900 ;
901 [label="entropy = 0.0\nsamples = 2\nvalue = [2, 0]"] ;
900 -> 901 ;
902 [label="entropy = 0.0\nsamples = 1\nvalue = [0, 1]"] ;
900 -> 902 ;
903 [label="entropy = 0.0\nsamples = 1\nvalue = [0, 1]"] ;
899 -> 903 ;
904 [label="entropy = 0.0\nsamples = 1\nvalue = [0, 1]"] ;
898 -> 904 ;
905 [label="entropy = 0.0\nsamples = 2\nvalue = [2, 0]"] ;
147 -> 905 ;
906 [label="X[1134] <= 0.5\nentropy = 0.722\nsamples = 5\nvalue = [1, 4]"] ;
146 -> 906 ;
907 [label="X[3296] <= 0.5\nentropy = 0.811\nsamples = 4\nvalue = [1, 3]"] ;
906 -> 907 ;
908 [label="X[681] <= 0.5\nentropy = 0.918\nsamples = 3\nvalue = [1, 2]"] ;
907 -> 908 ;
909 [label="X[5635] <= 0.5\nentropy = 1.0\nsamples = 2\nvalue = [1, 1]"] ;
908 -> 909 ;
910 [label="entropy = 0.0\nsamples = 1\nvalue = [0, 1]"] ;
909 -> 910 ;
911 [label="entropy = 0.0\nsamples = 1\nvalue = [1, 0]"] ;
909 -> 911 ;
912 [label="entropy = 0.0\nsamples = 1\nvalue = [0, 1]"] ;
908 -> 912 ;
913 [label="entropy = 0.0\nsamples = 1\nvalue = [0, 1]"] ;
907 -> 913 ;
914 [label="entropy = 0.0\nsamples = 1\nvalue = [0, 1]"] ;
906 -> 914 ;
915 [label="X[357] <= 0.5\nentropy = 0.888\nsamples = 134\nvalue = [93, 41]"] ;
145 -> 915 ;
916 [label="X[3] <= 0.5\nentropy = 0.885\nsamples = 132\nvalue = [92, 40]"] ;
915 -> 916 ;
917 [label="X[464] <= 0.5\nentropy = 0.893\nsamples = 129\nvalue = [89, 40]"] ;
916 -> 917 ;
918 [label="X[30] <= 0.5\nentropy = 0.896\nsamples = 128\nvalue = [88, 40]"] ;
917 -> 918 ;
919 [label="X[687] <= 0.5\nentropy = 0.9\nsamples = 117\nvalue = [80, 37]"] ;
918 -> 919 ;
920 [label="X[4542] <= 0.5\nentropy = 0.903\nsamples = 116\nvalue = [79, 37]"] ;
919 -> 920 ;
921 [label="X[1325] <= 0.5\nentropy = 0.906\nsamples = 115\nvalue = [78, 37]"] ;
920 -> 921 ;
922 [label="X[3499] <= 0.5\nentropy = 0.9\nsamples = 114\nvalue = [78, 36]"] ;
921 -> 922 ;
923 [label="X[525] <= 0.5\nentropy = 0.893\nsamples = 113\nvalue = [78, 35]"] ;
922 -> 923 ;
924 [label="X[203] <= 0.5\nentropy = 0.886\nsamples = 112\nvalue = [78, 34]"] ;
923 -> 924 ;
925 [label="X[686] <= 0.5\nentropy = 0.889\nsamples = 111\nvalue = [77, 34]"] ;
924 -> 925 ;
926 [label="X[1165] <= 0.5\nentropy = 0.892\nsamples = 110\nvalue = [76, 34]"] ;
925 -> 926 ;
927 [label="X[2152] <= 0.5\nentropy = 0.885\nsamples = 109\nvalue = [76, 33]"] ;
926 -> 927 ;
928 [label="X[433] <= 0.5\nentropy = 0.877\nsamples = 108\nvalue = [76, 32]"] ;
927 -> 928 ;
929 [label="X[4778] <= 0.5\nentropy = 0.88\nsamples = 107\nvalue = [75, 32]"] ;
928 -> 929 ;
930 [label="X[3957] <= 0.5\nentropy = 0.884\nsamples = 106\nvalue = [74, 32]"] ;
929 -> 930 ;
931 [label="X[403] <= 0.5\nentropy = 0.887\nsamples = 105\nvalue = [73, 32]"] ;
930 -> 931 ;
932 [label="X[548] <= 0.5\nentropy = 0.894\nsamples = 103\nvalue = [71, 32]"] ;
931 -> 932 ;
933 [label="X[1618] <= 0.5\nentropy = 0.897\nsamples = 102\nvalue = [70, 32]"] ;
932 -> 933 ;
934 [label="X[1319] <= 0.5\nentropy = 0.901\nsamples = 101\nvalue = [69, 32]"] ;
933 -> 934 ;
935 [label="X[251] <= 0.5\nentropy = 0.893\nsamples = 100\nvalue = [69, 31]"] ;
934 -> 935 ;
936 [label="X[3136] <= 0.5\nentropy = 0.885\nsamples = 99\nvalue = [69, 30]"] ;
935 -> 936 ;
937 [label="X[4396] <= 0.5\nentropy = 0.876\nsamples = 98\nvalue = [69, 29]"] ;
936 -> 937 ;
938 [label="X[4114] <= 0.5\nentropy = 0.88\nsamples = 97\nvalue = [68, 29]"] ;
937 -> 938 ;
939 [label="X[5813] <= 0.5\nentropy = 0.884\nsamples = 96\nvalue = [67, 29]"] ;
938 -> 939 ;
940 [label="X[3606] <= 0.5\nentropy = 0.888\nsamples = 95\nvalue = [66, 29]"] ;
939 -> 940 ;
941 [label="X[3703] <= 0.5\nentropy = 0.879\nsamples = 94\nvalue = [66, 28]"] ;
940 -> 941 ;
942 [label="X[2994] <= 0.5\nentropy = 0.883\nsamples = 93\nvalue = [65, 28]"] ;
941 -> 942 ;
943 [label="X[5104] <= 0.5\nentropy = 0.887\nsamples = 92\nvalue = [64, 28]"] ;
942 -> 943 ;
944 [label="X[2139] <= 0.5\nentropy = 0.89\nsamples = 91\nvalue = [63, 28]"] ;
943 -> 944 ;
945 [label="X[4617] <= 0.5\nentropy = 0.894\nsamples = 90\nvalue = [62, 28]"] ;
944 -> 945 ;
946 [label="X[428] <= 0.5\nentropy = 0.898\nsamples = 89\nvalue = [61, 28]"] ;
945 -> 946 ;
947 [label="X[3730] <= 0.5\nentropy = 0.88\nsamples = 87\nvalue = [61, 26]"] ;
946 -> 947 ;
948 [label="X[3051] <= 0.5\nentropy = 0.893\nsamples = 84\nvalue = [58, 26]"] ;
947 -> 948 ;
949 [label="X[1061] <= 0.5\nentropy = 0.883\nsamples = 83\nvalue = [58, 25]"] ;
948 -> 949 ;
950 [label="X[3532] <= 0.5\nentropy = 0.872\nsamples = 82\nvalue = [58, 24]"] ;
949 -> 950 ;
951 [label="X[5163] <= 0.5\nentropy = 0.877\nsamples = 81\nvalue = [57, 24]"] ;
950 -> 951 ;
952 [label="X[4428] <= 0.5\nentropy = 0.881\nsamples = 80\nvalue = [56, 24]"] ;
951 -> 952 ;
953 [label="X[449] <= 0.5\nentropy = 0.886\nsamples = 79\nvalue = [55, 24]"] ;
952 -> 953 ;
954 [label="X[532] <= 0.5\nentropy = 0.89\nsamples = 78\nvalue = [54, 24]"] ;
953 -> 954 ;
955 [label="X[1539] <= 0.5\nentropy = 0.9\nsamples = 76\nvalue = [52, 24]"] ;
954 -> 955 ;
956 [label="X[5269] <= 0.5\nentropy = 0.904\nsamples = 75\nvalue = [51, 24]"] ;
955 -> 956 ;
957 [label="X[339] <= 0.5\nentropy = 0.909\nsamples = 74\nvalue = [50, 24]"] ;
956 -> 957 ;
958 [label="X[865] <= 0.5\nentropy = 0.914\nsamples = 73\nvalue = [49, 24]"] ;
957 -> 958 ;
959 [label="X[459] <= 0.5\nentropy = 0.918\nsamples = 72\nvalue = [48, 24]"] ;
958 -> 959 ;
960 [label="X[1200] <= 0.5\nentropy = 0.909\nsamples = 71\nvalue = [48, 23]"] ;
959 -> 960 ;
961 [label="X[29] <= 0.5\nentropy = 0.898\nsamples = 70\nvalue = [48, 22]"] ;
960 -> 961 ;
962 [label="X[163] <= 0.5\nentropy = 0.974\nsamples = 42\nvalue = [25, 17]"] ;
961 -> 962 ;
963 [label="X[1602] <= 0.5\nentropy = 0.965\nsamples = 41\nvalue = [25, 16]"] ;
962 -> 963 ;
964 [label="X[1437] <= 0.5\nentropy = 0.954\nsamples = 40\nvalue = [25, 15]"] ;
963 -> 964 ;
965 [label="X[1422] <= 0.5\nentropy = 0.942\nsamples = 39\nvalue = [25, 14]"] ;
964 -> 965 ;
966 [label="X[54] <= 0.5\nentropy = 0.927\nsamples = 38\nvalue = [25, 13]"] ;
965 -> 966 ;
967 [label="X[5181] <= 0.5\nentropy = 0.935\nsamples = 37\nvalue = [24, 13]"] ;
966 -> 967 ;
968 [label="X[452] <= 0.5\nentropy = 0.944\nsamples = 36\nvalue = [23, 13]"] ;
967 -> 968 ;
969 [label="X[3719] <= 0.5\nentropy = 0.928\nsamples = 35\nvalue = [23, 12]"] ;
968 -> 969 ;
970 [label="X[5603] <= 0.5\nentropy = 0.937\nsamples = 34\nvalue = [22, 12]"] ;
969 -> 970 ;
971 [label="X[940] <= 0.5\nentropy = 0.946\nsamples = 33\nvalue = [21, 12]"] ;
970 -> 971 ;
972 [label="X[219] <= 0.5\nentropy = 0.928\nsamples = 32\nvalue = [21, 11]"] ;
971 -> 972 ;
973 [label="X[4769] <= 0.5\nentropy = 0.938\nsamples = 31\nvalue = [20, 11]"] ;
972 -> 973 ;
974 [label="X[108] <= 0.5\nentropy = 0.948\nsamples = 30\nvalue = [19, 11]"] ;
973 -> 974 ;
975 [label="X[2790] <= 0.5\nentropy = 0.929\nsamples = 29\nvalue = [19, 10]"] ;
974 -> 975 ;
976 [label="X[2664] <= 0.5\nentropy = 0.94\nsamples = 28\nvalue = [18, 10]"] ;
975 -> 976 ;
977 [label="X[1977] <= 0.5\nentropy = 0.918\nsamples = 27\nvalue = [18, 9]"] ;
976 -> 977 ;
978 [label="X[367] <= 0.5\nentropy = 0.89\nsamples = 26\nvalue = [18, 8]"] ;
977 -> 978 ;
979 [label="X[5122] <= 0.5\nentropy = 0.918\nsamples = 24\nvalue = [16, 8]"] ;
978 -> 979 ;
980 [label="X[1130] <= 0.5\nentropy = 0.932\nsamples = 23\nvalue = [15, 8]"] ;
979 -> 980 ;
981 [label="X[280] <= 0.5\nentropy = 0.902\nsamples = 22\nvalue = [15, 7]"] ;
980 -> 981 ;
982 [label="X[4499] <= 0.5\nentropy = 0.863\nsamples = 21\nvalue = [15, 6]"] ;
981 -> 982 ;
983 [label="X[4296] <= 0.5\nentropy = 0.9\nsamples = 19\nvalue = [13, 6]"] ;
982 -> 983 ;
984 [label="X[296] <= 0.5\nentropy = 0.918\nsamples = 18\nvalue = [12, 6]"] ;
983 -> 984 ;
985 [label="X[1421] <= 0.5\nentropy = 0.874\nsamples = 17\nvalue = [12, 5]"] ;
984 -> 985 ;
986 [label="X[1662] <= 0.5\nentropy = 0.896\nsamples = 16\nvalue = [11, 5]"] ;
985 -> 986 ;
987 [label="X[502] <= 0.5\nentropy = 0.837\nsamples = 15\nvalue = [11, 4]"] ;
986 -> 987 ;
988 [label="X[822] <= 0.5\nentropy = 0.75\nsamples = 14\nvalue = [11, 3]"] ;
987 -> 988 ;
989 [label="X[394] <= 0.5\nentropy = 0.619\nsamples = 13\nvalue = [11, 2]"] ;
988 -> 989 ;
990 [label="X[193] <= 0.5\nentropy = 0.65\nsamples = 12\nvalue = [10, 2]"] ;
989 -> 990 ;
991 [label="X[5136] <= 0.5\nentropy = 0.684\nsamples = 11\nvalue = [9, 2]"] ;
990 -> 991 ;
992 [label="X[2323] <= 0.5\nentropy = 0.722\nsamples = 10\nvalue = [8, 2]"] ;
991 -> 992 ;
993 [label="X[626] <= 0.5\nentropy = 0.764\nsamples = 9\nvalue = [7, 2]"] ;
992 -> 993 ;
994 [label="X[3764] <= 0.5\nentropy = 0.811\nsamples = 8\nvalue = [6, 2]"] ;
993 -> 994 ;
995 [label="X[1645] <= 0.5\nentropy = 0.863\nsamples = 7\nvalue = [5, 2]"] ;
994 -> 995 ;
996 [label="X[1208] <= 0.5\nentropy = 0.971\nsamples = 5\nvalue = [3, 2]"] ;
995 -> 996 ;
997 [label="X[3891] <= 0.5\nentropy = 0.811\nsamples = 4\nvalue = [3, 1]"] ;
996 -> 997 ;
998 [label="X[4060] <= 0.5\nentropy = 0.918\nsamples = 3\nvalue = [2, 1]"] ;
997 -> 998 ;
999 [label="X[202] <= 0.5\nentropy = 1.0\nsamples = 2\nvalue = [1, 1]"] ;
998 -> 999 ;
1000 [label="entropy = 0.0\nsamples = 1\nvalue = [0, 1]"] ;
999 -> 1000 ;
1001 [label="entropy = 0.0\nsamples = 1\nvalue = [1, 0]"] ;
999 -> 1001 ;
1002 [label="entropy = 0.0\nsamples = 1\nvalue = [1, 0]"] ;
998 -> 1002 ;
1003 [label="entropy = 0.0\nsamples = 1\nvalue = [1, 0]"] ;
997 -> 1003 ;
1004 [label="entropy = 0.0\nsamples = 1\nvalue = [0, 1]"] ;
996 -> 1004 ;
1005 [label="entropy = 0.0\nsamples = 2\nvalue = [2, 0]"] ;
995 -> 1005 ;
1006 [label="entropy = 0.0\nsamples = 1\nvalue = [1, 0]"] ;
994 -> 1006 ;
1007 [label="entropy = 0.0\nsamples = 1\nvalue = [1, 0]"] ;
993 -> 1007 ;
1008 [label="entropy = 0.0\nsamples = 1\nvalue = [1, 0]"] ;
992 -> 1008 ;
1009 [label="entropy = 0.0\nsamples = 1\nvalue = [1, 0]"] ;
991 -> 1009 ;
1010 [label="entropy = 0.0\nsamples = 1\nvalue = [1, 0]"] ;
990 -> 1010 ;
1011 [label="entropy = 0.0\nsamples = 1\nvalue = [1, 0]"] ;
989 -> 1011 ;
1012 [label="entropy = 0.0\nsamples = 1\nvalue = [0, 1]"] ;
988 -> 1012 ;
1013 [label="entropy = 0.0\nsamples = 1\nvalue = [0, 1]"] ;
987 -> 1013 ;
1014 [label="entropy = 0.0\nsamples = 1\nvalue = [0, 1]"] ;
986 -> 1014 ;
1015 [label="entropy = 0.0\nsamples = 1\nvalue = [1, 0]"] ;
985 -> 1015 ;
1016 [label="entropy = 0.0\nsamples = 1\nvalue = [0, 1]"] ;
984 -> 1016 ;
1017 [label="entropy = 0.0\nsamples = 1\nvalue = [1, 0]"] ;
983 -> 1017 ;
1018 [label="entropy = 0.0\nsamples = 2\nvalue = [2, 0]"] ;
982 -> 1018 ;
1019 [label="entropy = 0.0\nsamples = 1\nvalue = [0, 1]"] ;
981 -> 1019 ;
1020 [label="entropy = 0.0\nsamples = 1\nvalue = [0, 1]"] ;
980 -> 1020 ;
1021 [label="entropy = 0.0\nsamples = 1\nvalue = [1, 0]"] ;
979 -> 1021 ;
1022 [label="entropy = 0.0\nsamples = 2\nvalue = [2, 0]"] ;
978 -> 1022 ;
1023 [label="entropy = 0.0\nsamples = 1\nvalue = [0, 1]"] ;
977 -> 1023 ;
1024 [label="entropy = 0.0\nsamples = 1\nvalue = [0, 1]"] ;
976 -> 1024 ;
1025 [label="entropy = 0.0\nsamples = 1\nvalue = [1, 0]"] ;
975 -> 1025 ;
1026 [label="entropy = 0.0\nsamples = 1\nvalue = [0, 1]"] ;
974 -> 1026 ;
1027 [label="entropy = 0.0\nsamples = 1\nvalue = [1, 0]"] ;
973 -> 1027 ;
1028 [label="entropy = 0.0\nsamples = 1\nvalue = [1, 0]"] ;
972 -> 1028 ;
1029 [label="entropy = 0.0\nsamples = 1\nvalue = [0, 1]"] ;
971 -> 1029 ;
1030 [label="entropy = 0.0\nsamples = 1\nvalue = [1, 0]"] ;
970 -> 1030 ;
1031 [label="entropy = 0.0\nsamples = 1\nvalue = [1, 0]"] ;
969 -> 1031 ;
1032 [label="entropy = 0.0\nsamples = 1\nvalue = [0, 1]"] ;
968 -> 1032 ;
1033 [label="entropy = 0.0\nsamples = 1\nvalue = [1, 0]"] ;
967 -> 1033 ;
1034 [label="entropy = 0.0\nsamples = 1\nvalue = [1, 0]"] ;
966 -> 1034 ;
1035 [label="entropy = 0.0\nsamples = 1\nvalue = [0, 1]"] ;
965 -> 1035 ;
1036 [label="entropy = 0.0\nsamples = 1\nvalue = [0, 1]"] ;
964 -> 1036 ;
1037 [label="entropy = 0.0\nsamples = 1\nvalue = [0, 1]"] ;
963 -> 1037 ;
1038 [label="entropy = 0.0\nsamples = 1\nvalue = [0, 1]"] ;
962 -> 1038 ;
1039 [label="X[322] <= 0.5\nentropy = 0.677\nsamples = 28\nvalue = [23, 5]"] ;
961 -> 1039 ;
1040 [label="X[1806] <= 0.5\nentropy = 0.605\nsamples = 27\nvalue = [23, 4]"] ;
1039 -> 1040 ;
1041 [label="X[5806] <= 0.5\nentropy = 0.619\nsamples = 26\nvalue = [22, 4]"] ;
1040 -> 1041 ;
1042 [label="X[361] <= 0.5\nentropy = 0.634\nsamples = 25\nvalue = [21, 4]"] ;
1041 -> 1042 ;
1043 [label="X[181] <= 0.5\nentropy = 0.544\nsamples = 24\nvalue = [21, 3]"] ;
1042 -> 1043 ;
1044 [label="X[1785] <= 0.5\nentropy = 0.559\nsamples = 23\nvalue = [20, 3]"] ;
1043 -> 1044 ;
1045 [label="X[38] <= 0.5\nentropy = 0.439\nsamples = 22\nvalue = [20, 2]"] ;
1044 -> 1045 ;
1046 [label="X[20] <= 0.5\nentropy = 0.454\nsamples = 21\nvalue = [19, 2]"] ;
1045 -> 1046 ;
1047 [label="X[4584] <= 0.5\nentropy = 0.485\nsamples = 19\nvalue = [17, 2]"] ;
1046 -> 1047 ;
1048 [label="X[4137] <= 0.5\nentropy = 0.503\nsamples = 18\nvalue = [16, 2]"] ;
1047 -> 1048 ;
1049 [label="X[256] <= 0.5\nentropy = 0.523\nsamples = 17\nvalue = [15, 2]"] ;
1048 -> 1049 ;
1050 [label="X[1518] <= 0.5\nentropy = 0.544\nsamples = 16\nvalue = [14, 2]"] ;
1049 -> 1050 ;
1051 [label="X[265] <= 0.5\nentropy = 0.567\nsamples = 15\nvalue = [13, 2]"] ;
1050 -> 1051 ;
1052 [label="X[1067] <= 0.5\nentropy = 0.592\nsamples = 14\nvalue = [12, 2]"] ;
1051 -> 1052 ;
1053 [label="X[788] <= 0.5\nentropy = 0.619\nsamples = 13\nvalue = [11, 2]"] ;
1052 -> 1053 ;
1054 [label="X[3971] <= 0.5\nentropy = 0.65\nsamples = 12\nvalue = [10, 2]"] ;
1053 -> 1054 ;
1055 [label="X[4653] <= 0.5\nentropy = 0.684\nsamples = 11\nvalue = [9, 2]"] ;
1054 -> 1055 ;
1056 [label="X[1706] <= 0.5\nentropy = 0.722\nsamples = 10\nvalue = [8, 2]"] ;
1055 -> 1056 ;
1057 [label="X[19] <= 0.5\nentropy = 0.503\nsamples = 9\nvalue = [8, 1]"] ;
1056 -> 1057 ;
1058 [label="X[1950] <= 0.5\nentropy = 0.544\nsamples = 8\nvalue = [7, 1]"] ;
1057 -> 1058 ;
1059 [label="X[224] <= 0.5\nentropy = 0.592\nsamples = 7\nvalue = [6, 1]"] ;
1058 -> 1059 ;
1060 [label="X[2287] <= 0.5\nentropy = 0.722\nsamples = 5\nvalue = [4, 1]"] ;
1059 -> 1060 ;
1061 [label="entropy = 0.0\nsamples = 4\nvalue = [4, 0]"] ;
1060 -> 1061 ;
1062 [label="entropy = 0.0\nsamples = 1\nvalue = [0, 1]"] ;
1060 -> 1062 ;
1063 [label="entropy = 0.0\nsamples = 2\nvalue = [2, 0]"] ;
1059 -> 1063 ;
1064 [label="entropy = 0.0\nsamples = 1\nvalue = [1, 0]"] ;
1058 -> 1064 ;
1065 [label="entropy = 0.0\nsamples = 1\nvalue = [1, 0]"] ;
1057 -> 1065 ;
1066 [label="entropy = 0.0\nsamples = 1\nvalue = [0, 1]"] ;
1056 -> 1066 ;
1067 [label="entropy = 0.0\nsamples = 1\nvalue = [1, 0]"] ;
1055 -> 1067 ;
1068 [label="entropy = 0.0\nsamples = 1\nvalue = [1, 0]"] ;
1054 -> 1068 ;
1069 [label="entropy = 0.0\nsamples = 1\nvalue = [1, 0]"] ;
1053 -> 1069 ;
1070 [label="entropy = 0.0\nsamples = 1\nvalue = [1, 0]"] ;
1052 -> 1070 ;
1071 [label="entropy = 0.0\nsamples = 1\nvalue = [1, 0]"] ;
1051 -> 1071 ;
1072 [label="entropy = 0.0\nsamples = 1\nvalue = [1, 0]"] ;
1050 -> 1072 ;
1073 [label="entropy = 0.0\nsamples = 1\nvalue = [1, 0]"] ;
1049 -> 1073 ;
1074 [label="entropy = 0.0\nsamples = 1\nvalue = [1, 0]"] ;
1048 -> 1074 ;
1075 [label="entropy = 0.0\nsamples = 1\nvalue = [1, 0]"] ;
1047 -> 1075 ;
1076 [label="entropy = 0.0\nsamples = 2\nvalue = [2, 0]"] ;
1046 -> 1076 ;
1077 [label="entropy = 0.0\nsamples = 1\nvalue = [1, 0]"] ;
1045 -> 1077 ;
1078 [label="entropy = 0.0\nsamples = 1\nvalue = [0, 1]"] ;
1044 -> 1078 ;
1079 [label="entropy = 0.0\nsamples = 1\nvalue = [1, 0]"] ;
1043 -> 1079 ;
1080 [label="entropy = 0.0\nsamples = 1\nvalue = [0, 1]"] ;
1042 -> 1080 ;
1081 [label="entropy = 0.0\nsamples = 1\nvalue = [1, 0]"] ;
1041 -> 1081 ;
1082 [label="entropy = 0.0\nsamples = 1\nvalue = [1, 0]"] ;
1040 -> 1082 ;
1083 [label="entropy = 0.0\nsamples = 1\nvalue = [0, 1]"] ;
1039 -> 1083 ;
1084 [label="entropy = 0.0\nsamples = 1\nvalue = [0, 1]"] ;
960 -> 1084 ;
1085 [label="entropy = 0.0\nsamples = 1\nvalue = [0, 1]"] ;
959 -> 1085 ;
1086 [label="entropy = 0.0\nsamples = 1\nvalue = [1, 0]"] ;
958 -> 1086 ;
1087 [label="entropy = 0.0\nsamples = 1\nvalue = [1, 0]"] ;
957 -> 1087 ;
1088 [label="entropy = 0.0\nsamples = 1\nvalue = [1, 0]"] ;
956 -> 1088 ;
1089 [label="entropy = 0.0\nsamples = 1\nvalue = [1, 0]"] ;
955 -> 1089 ;
1090 [label="entropy = 0.0\nsamples = 2\nvalue = [2, 0]"] ;
954 -> 1090 ;
1091 [label="entropy = 0.0\nsamples = 1\nvalue = [1, 0]"] ;
953 -> 1091 ;
1092 [label="entropy = 0.0\nsamples = 1\nvalue = [1, 0]"] ;
952 -> 1092 ;
1093 [label="entropy = 0.0\nsamples = 1\nvalue = [1, 0]"] ;
951 -> 1093 ;
1094 [label="entropy = 0.0\nsamples = 1\nvalue = [1, 0]"] ;
950 -> 1094 ;
1095 [label="entropy = 0.0\nsamples = 1\nvalue = [0, 1]"] ;
949 -> 1095 ;
1096 [label="entropy = 0.0\nsamples = 1\nvalue = [0, 1]"] ;
948 -> 1096 ;
1097 [label="entropy = 0.0\nsamples = 3\nvalue = [3, 0]"] ;
947 -> 1097 ;
1098 [label="entropy = 0.0\nsamples = 2\nvalue = [0, 2]"] ;
946 -> 1098 ;
1099 [label="entropy = 0.0\nsamples = 1\nvalue = [1, 0]"] ;
945 -> 1099 ;
1100 [label="entropy = 0.0\nsamples = 1\nvalue = [1, 0]"] ;
944 -> 1100 ;
1101 [label="entropy = 0.0\nsamples = 1\nvalue = [1, 0]"] ;
943 -> 1101 ;
1102 [label="entropy = 0.0\nsamples = 1\nvalue = [1, 0]"] ;
942 -> 1102 ;
1103 [label="entropy = 0.0\nsamples = 1\nvalue = [1, 0]"] ;
941 -> 1103 ;
1104 [label="entropy = 0.0\nsamples = 1\nvalue = [0, 1]"] ;
940 -> 1104 ;
1105 [label="entropy = 0.0\nsamples = 1\nvalue = [1, 0]"] ;
939 -> 1105 ;
1106 [label="entropy = 0.0\nsamples = 1\nvalue = [1, 0]"] ;
938 -> 1106 ;
1107 [label="entropy = 0.0\nsamples = 1\nvalue = [1, 0]"] ;
937 -> 1107 ;
1108 [label="entropy = 0.0\nsamples = 1\nvalue = [0, 1]"] ;
936 -> 1108 ;
1109 [label="entropy = 0.0\nsamples = 1\nvalue = [0, 1]"] ;
935 -> 1109 ;
1110 [label="entropy = 0.0\nsamples = 1\nvalue = [0, 1]"] ;
934 -> 1110 ;
1111 [label="entropy = 0.0\nsamples = 1\nvalue = [1, 0]"] ;
933 -> 1111 ;
1112 [label="entropy = 0.0\nsamples = 1\nvalue = [1, 0]"] ;
932 -> 1112 ;
1113 [label="entropy = 0.0\nsamples = 2\nvalue = [2, 0]"] ;
931 -> 1113 ;
1114 [label="entropy = 0.0\nsamples = 1\nvalue = [1, 0]"] ;
930 -> 1114 ;
1115 [label="entropy = 0.0\nsamples = 1\nvalue = [1, 0]"] ;
929 -> 1115 ;
1116 [label="entropy = 0.0\nsamples = 1\nvalue = [1, 0]"] ;
928 -> 1116 ;
1117 [label="entropy = 0.0\nsamples = 1\nvalue = [0, 1]"] ;
927 -> 1117 ;
1118 [label="entropy = 0.0\nsamples = 1\nvalue = [0, 1]"] ;
926 -> 1118 ;
1119 [label="entropy = 0.0\nsamples = 1\nvalue = [1, 0]"] ;
925 -> 1119 ;
1120 [label="entropy = 0.0\nsamples = 1\nvalue = [1, 0]"] ;
924 -> 1120 ;
1121 [label="entropy = 0.0\nsamples = 1\nvalue = [0, 1]"] ;
923 -> 1121 ;
1122 [label="entropy = 0.0\nsamples = 1\nvalue = [0, 1]"] ;
922 -> 1122 ;
1123 [label="entropy = 0.0\nsamples = 1\nvalue = [0, 1]"] ;
921 -> 1123 ;
1124 [label="entropy = 0.0\nsamples = 1\nvalue = [1, 0]"] ;
920 -> 1124 ;
1125 [label="entropy = 0.0\nsamples = 1\nvalue = [1, 0]"] ;
919 -> 1125 ;
1126 [label="X[5552] <= 0.5\nentropy = 0.845\nsamples = 11\nvalue = [8, 3]"] ;
918 -> 1126 ;
1127 [label="X[265] <= 0.5\nentropy = 0.881\nsamples = 10\nvalue = [7, 3]"] ;
1126 -> 1127 ;
1128 [label="X[53] <= 0.5\nentropy = 0.918\nsamples = 9\nvalue = [6, 3]"] ;
1127 -> 1128 ;
1129 [label="X[5808] <= 0.5\nentropy = 0.811\nsamples = 8\nvalue = [6, 2]"] ;
1128 -> 1129 ;
1130 [label="X[2365] <= 0.5\nentropy = 0.863\nsamples = 7\nvalue = [5, 2]"] ;
1129 -> 1130 ;
1131 [label="X[422] <= 0.5\nentropy = 0.65\nsamples = 6\nvalue = [5, 1]"] ;
1130 -> 1131 ;
1132 [label="X[623] <= 0.5\nentropy = 0.722\nsamples = 5\nvalue = [4, 1]"] ;
1131 -> 1132 ;
1133 [label="entropy = 0.0\nsamples = 4\nvalue = [4, 0]"] ;
1132 -> 1133 ;
1134 [label="entropy = 0.0\nsamples = 1\nvalue = [0, 1]"] ;
1132 -> 1134 ;
1135 [label="entropy = 0.0\nsamples = 1\nvalue = [1, 0]"] ;
1131 -> 1135 ;
1136 [label="entropy = 0.0\nsamples = 1\nvalue = [0, 1]"] ;
1130 -> 1136 ;
1137 [label="entropy = 0.0\nsamples = 1\nvalue = [1, 0]"] ;
1129 -> 1137 ;
1138 [label="entropy = 0.0\nsamples = 1\nvalue = [0, 1]"] ;
1128 -> 1138 ;
1139 [label="entropy = 0.0\nsamples = 1\nvalue = [1, 0]"] ;
1127 -> 1139 ;
1140 [label="entropy = 0.0\nsamples = 1\nvalue = [1, 0]"] ;
1126 -> 1140 ;
1141 [label="entropy = 0.0\nsamples = 1\nvalue = [1, 0]"] ;
917 -> 1141 ;
1142 [label="entropy = 0.0\nsamples = 3\nvalue = [3, 0]"] ;
916 -> 1142 ;
1143 [label="X[2535] <= 0.5\nentropy = 1.0\nsamples = 2\nvalue = [1, 1]"] ;
915 -> 1143 ;
1144 [label="entropy = 0.0\nsamples = 1\nvalue = [1, 0]"] ;
1143 -> 1144 ;
1145 [label="entropy = 0.0\nsamples = 1\nvalue = [0, 1]"] ;
1143 -> 1145 ;
1146 [label="entropy = 0.0\nsamples = 9\nvalue = [9, 0]"] ;
144 -> 1146 ;
1147 [label="entropy = 0.0\nsamples = 2\nvalue = [2, 0]"] ;
143 -> 1147 ;
1148 [label="entropy = 0.0\nsamples = 4\nvalue = [4, 0]"] ;
142 -> 1148 ;
1149 [label="entropy = 0.0\nsamples = 2\nvalue = [2, 0]"] ;
141 -> 1149 ;
1150 [label="entropy = 0.0\nsamples = 1\nvalue = [0, 1]"] ;
140 -> 1150 ;
1151 [label="entropy = 0.0\nsamples = 1\nvalue = [0, 1]"] ;
139 -> 1151 ;
1152 [label="entropy = 0.0\nsamples = 1\nvalue = [0, 1]"] ;
138 -> 1152 ;
1153 [label="entropy = 0.0\nsamples = 2\nvalue = [2, 0]"] ;
137 -> 1153 ;
1154 [label="entropy = 0.0\nsamples = 1\nvalue = [0, 1]"] ;
136 -> 1154 ;
1155 [label="entropy = 0.0\nsamples = 2\nvalue = [0, 2]"] ;
135 -> 1155 ;
1156 [label="X[840] <= 0.5\nentropy = 0.918\nsamples = 3\nvalue = [1, 2]"] ;
134 -> 1156 ;
1157 [label="X[242] <= 0.5\nentropy = 1.0\nsamples = 2\nvalue = [1, 1]"] ;
1156 -> 1157 ;
1158 [label="entropy = 0.0\nsamples = 1\nvalue = [1, 0]"] ;
1157 -> 1158 ;
1159 [label="entropy = 0.0\nsamples = 1\nvalue = [0, 1]"] ;
1157 -> 1159 ;
1160 [label="entropy = 0.0\nsamples = 1\nvalue = [0, 1]"] ;
1156 -> 1160 ;
1161 [label="entropy = 0.0\nsamples = 2\nvalue = [2, 0]"] ;
133 -> 1161 ;
1162 [label="entropy = 0.0\nsamples = 11\nvalue = [11, 0]"] ;
132 -> 1162 ;
1163 [label="X[4256] <= 0.5\nentropy = 1.0\nsamples = 6\nvalue = [3, 3]"] ;
131 -> 1163 ;
1164 [label="X[368] <= 0.5\nentropy = 0.971\nsamples = 5\nvalue = [2, 3]"] ;
1163 -> 1164 ;
1165 [label="X[4459] <= 0.5\nentropy = 1.0\nsamples = 4\nvalue = [2, 2]"] ;
1164 -> 1165 ;
1166 [label="X[206] <= 0.5\nentropy = 0.918\nsamples = 3\nvalue = [1, 2]"] ;
1165 -> 1166 ;
1167 [label="entropy = 0.0\nsamples = 2\nvalue = [0, 2]"] ;
1166 -> 1167 ;
1168 [label="entropy = 0.0\nsamples = 1\nvalue = [1, 0]"] ;
1166 -> 1168 ;
1169 [label="entropy = 0.0\nsamples = 1\nvalue = [1, 0]"] ;
1165 -> 1169 ;
1170 [label="entropy = 0.0\nsamples = 1\nvalue = [0, 1]"] ;
1164 -> 1170 ;
1171 [label="entropy = 0.0\nsamples = 1\nvalue = [1, 0]"] ;
1163 -> 1171 ;
1172 [label="entropy = 0.0\nsamples = 1\nvalue = [0, 1]"] ;
130 -> 1172 ;
1173 [label="entropy = 0.0\nsamples = 1\nvalue = [0, 1]"] ;
129 -> 1173 ;
1174 [label="entropy = 0.0\nsamples = 1\nvalue = [0, 1]"] ;
128 -> 1174 ;
1175 [label="entropy = 0.0\nsamples = 1\nvalue = [0, 1]"] ;
127 -> 1175 ;
1176 [label="entropy = 0.0\nsamples = 3\nvalue = [0, 3]"] ;
126 -> 1176 ;
1177 [label="entropy = 0.0\nsamples = 1\nvalue = [0, 1]"] ;
125 -> 1177 ;
1178 [label="entropy = 0.0\nsamples = 1\nvalue = [0, 1]"] ;
124 -> 1178 ;
1179 [label="entropy = 0.0\nsamples = 1\nvalue = [0, 1]"] ;
123 -> 1179 ;
1180 [label="entropy = 0.0\nsamples = 1\nvalue = [0, 1]"] ;
122 -> 1180 ;
1181 [label="entropy = 0.0\nsamples = 1\nvalue = [0, 1]"] ;
121 -> 1181 ;
1182 [label="entropy = 0.0\nsamples = 1\nvalue = [0, 1]"] ;
120 -> 1182 ;
1183 [label="entropy = 0.0\nsamples = 1\nvalue = [0, 1]"] ;
119 -> 1183 ;
1184 [label="entropy = 0.0\nsamples = 1\nvalue = [0, 1]"] ;
118 -> 1184 ;
1185 [label="entropy = 0.0\nsamples = 1\nvalue = [0, 1]"] ;
117 -> 1185 ;
1186 [label="entropy = 0.0\nsamples = 6\nvalue = [6, 0]"] ;
116 -> 1186 ;
1187 [label="X[33] <= 0.5\nentropy = 0.918\nsamples = 3\nvalue = [1, 2]"] ;
115 -> 1187 ;
1188 [label="X[4144] <= 0.5\nentropy = 1.0\nsamples = 2\nvalue = [1, 1]"] ;
1187 -> 1188 ;
1189 [label="entropy = 0.0\nsamples = 1\nvalue = [0, 1]"] ;
1188 -> 1189 ;
1190 [label="entropy = 0.0\nsamples = 1\nvalue = [1, 0]"] ;
1188 -> 1190 ;
1191 [label="entropy = 0.0\nsamples = 1\nvalue = [0, 1]"] ;
1187 -> 1191 ;
