digraph Tree {
node [shape=box] ;
0 [label="X[23] <= 0.5\nentropy = 0.969\nsamples = 2287\nvalue = [1378, 909]"] ;
1 [label="X[1464] <= 0.5\nentropy = 1.0\nsamples = 1557\nvalue = [794, 763]"] ;
0 -> 1 [labeldistance=2.5, labelangle=45, headlabel="True"] ;
2 [label="X[32] <= 0.5\nentropy = 0.999\nsamples = 1462\nvalue = [699, 763]"] ;
1 -> 2 ;
3 [label="X[184] <= 0.5\nentropy = 1.0\nsamples = 1370\nvalue = [696, 674]"] ;
2 -> 3 ;
4 [label="X[3512] <= 0.5\nentropy = 0.998\nsamples = 1329\nvalue = [695, 634]"] ;
3 -> 4 ;
5 [label="X[349] <= 0.5\nentropy = 0.999\nsamples = 1303\nvalue = [669, 634]"] ;
4 -> 5 ;
6 [label="X[326] <= 0.5\nentropy = 0.999\nsamples = 1284\nvalue = [669, 615]"] ;
5 -> 6 ;
7 [label="X[3523] <= 0.5\nentropy = 0.998\nsamples = 1266\nvalue = [669, 597]"] ;
6 -> 7 ;
8 [label="X[267] <= 0.5\nentropy = 0.999\nsamples = 1246\nvalue = [649, 597]"] ;
7 -> 8 ;
9 [label="X[45] <= 0.5\nentropy = 0.997\nsamples = 1221\nvalue = [647, 574]"] ;
8 -> 9 ;
10 [label="X[88] <= 0.5\nentropy = 0.996\nsamples = 1208\nvalue = [647, 561]"] ;
9 -> 10 ;
11 [label="X[387] <= 0.5\nentropy = 0.995\nsamples = 1196\nvalue = [647, 549]"] ;
10 -> 11 ;
12 [label="X[16] <= 0.5\nentropy = 0.994\nsamples = 1184\nvalue = [647, 537]"] ;
11 -> 12 ;
13 [label="X[134] <= 0.5\nentropy = 0.995\nsamples = 1170\nvalue = [633, 537]"] ;
12 -> 13 ;
14 [label="X[478] <= 0.5\nentropy = 0.992\nsamples = 1126\nvalue = [622, 504]"] ;
13 -> 14 ;
15 [label="X[107] <= 0.5\nentropy = 0.989\nsamples = 1092\nvalue = [614, 478]"] ;
14 -> 15 ;
16 [label="X[540] <= 0.5\nentropy = 0.986\nsamples = 1076\nvalue = [612, 464]"] ;
15 -> 16 ;
17 [label="X[9] <= 0.5\nentropy = 0.985\nsamples = 1068\nvalue = [612, 456]"] ;
16 -> 17 ;
18 [label="X[3570] <= 0.5\nentropy = 0.99\nsamples = 984\nvalue = [549, 435]"] ;
17 -> 18 ;
19 [label="X[1279] <= 0.5\nentropy = 0.992\nsamples = 973\nvalue = [538, 435]"] ;
18 -> 19 ;
20 [label="X[1239] <= 0.5\nentropy = 0.994\nsamples = 957\nvalue = [523, 434]"] ;
19 -> 20 ;
21 [label="X[529] <= 0.5\nentropy = 0.995\nsamples = 947\nvalue = [513, 434]"] ;
20 -> 21 ;
22 [label="X[819] <= 0.5\nentropy = 0.994\nsamples = 940\nvalue = [513, 427]"] ;
21 -> 22 ;
23 [label="X[52] <= 0.5\nentropy = 0.993\nsamples = 933\nvalue = [513, 420]"] ;
22 -> 23 ;
24 [label="X[442] <= 0.5\nentropy = 0.991\nsamples = 922\nvalue = [512, 410]"] ;
23 -> 24 ;
25 [label="X[41] <= 0.5\nentropy = 0.99\nsamples = 916\nvalue = [512, 404]"] ;
24 -> 25 ;
26 [label="X[3639] <= 0.5\nentropy = 0.989\nsamples = 910\nvalue = [512, 398]"] ;
25 -> 26 ;
27 [label="X[1134] <= 0.5\nentropy = 0.99\nsamples = 902\nvalue = [504, 398]"] ;
26 -> 27 ;
28 [label="X[1833] <= 0.5\nentropy = 0.989\nsamples = 897\nvalue = [504, 393]"] ;
27 -> 28 ;
29 [label="X[124] <= 0.5\nentropy = 0.991\nsamples = 882\nvalue = [490, 392]"] ;
28 -> 29 ;
30 [label="X[561] <= 0.5\nentropy = 0.99\nsamples = 877\nvalue = [490, 387]"] ;
29 -> 30 ;
31 [label="X[2801] <= 0.5\nentropy = 0.988\nsamples = 868\nvalue = [489, 379]"] ;
30 -> 31 ;
32 [label="X[97] <= 0.5\nentropy = 0.99\nsamples = 861\nvalue = [482, 379]"] ;
31 -> 32 ;
33 [label="X[0] <= 0.5\nentropy = 0.986\nsamples = 832\nvalue = [473, 359]"] ;
32 -> 33 ;
34 [label="X[110] <= 0.5\nentropy = 0.98\nsamples = 768\nvalue = [447, 321]"] ;
33 -> 34 ;
35 [label="X[168] <= 0.5\nentropy = 0.978\nsamples = 761\nvalue = [447, 314]"] ;
34 -> 35 ;
36 [label="X[153] <= 0.5\nentropy = 0.974\nsamples = 746\nvalue = [444, 302]"] ;
35 -> 36 ;
37 [label="X[434] <= 0.5\nentropy = 0.97\nsamples = 735\nvalue = [442, 293]"] ;
36 -> 37 ;
38 [label="X[436] <= 0.5\nentropy = 0.968\nsamples = 731\nvalue = [442, 289]"] ;
37 -> 38 ;
39 [label="X[1179] <= 0.5\nentropy = 0.966\nsamples = 727\nvalue = [442, 285]"] ;
38 -> 39 ;
40 [label="X[1182] <= 0.5\nentropy = 0.964\nsamples = 723\nvalue = [442, 281]"] ;
39 -> 40 ;
41 [label="X[426] <= 0.5\nentropy = 0.967\nsamples = 713\nvalue = [432, 281]"] ;
40 -> 41 ;
42 [label="X[200] <= 0.5\nentropy = 0.965\nsamples = 709\nvalue = [432, 277]"] ;
41 -> 42 ;
43 [label="X[346] <= 0.5\nentropy = 0.963\nsamples = 705\nvalue = [432, 273]"] ;
42 -> 43 ;
44 [label="X[997] <= 0.5\nentropy = 0.96\nsamples = 698\nvalue = [431, 267]"] ;
43 -> 44 ;
45 [label="X[66] <= 0.5\nentropy = 0.956\nsamples = 691\nvalue = [430, 261]"] ;
44 -> 45 ;
46 [label="X[70] <= 0.5\nentropy = 0.953\nsamples = 684\nvalue = [429, 255]"] ;
45 -> 46 ;
47 [label="X[485] <= 0.5\nentropy = 0.947\nsamples = 670\nvalue = [425, 245]"] ;
46 -> 47 ;
48 [label="X[431] <= 0.5\nentropy = 0.945\nsamples = 667\nvalue = [425, 242]"] ;
47 -> 48 ;
49 [label="X[120] <= 0.5\nentropy = 0.943\nsamples = 664\nvalue = [425, 239]"] ;
48 -> 49 ;
50 [label="X[24] <= 0.5\nentropy = 0.94\nsamples = 661\nvalue = [425, 236]"] ;
49 -> 50 ;
51 [label="X[422] <= 0.5\nentropy = 0.938\nsamples = 658\nvalue = [425, 233]"] ;
50 -> 51 ;
52 [label="X[376] <= 0.5\nentropy = 0.935\nsamples = 655\nvalue = [425, 230]"] ;
51 -> 52 ;
53 [label="X[148] <= 0.5\nentropy = 0.932\nsamples = 652\nvalue = [425, 227]"] ;
52 -> 53 ;
54 [label="X[673] <= 0.5\nentropy = 0.93\nsamples = 649\nvalue = [425, 224]"] ;
53 -> 54 ;
55 [label="X[245] <= 0.5\nentropy = 0.927\nsamples = 646\nvalue = [425, 221]"] ;
54 -> 55 ;
56 [label="X[368] <= 0.5\nentropy = 0.922\nsamples = 640\nvalue = [424, 216]"] ;
55 -> 56 ;
57 [label="X[191] <= 0.5\nentropy = 0.918\nsamples = 634\nvalue = [423, 211]"] ;
56 -> 57 ;
58 [label="X[1088] <= 0.5\nentropy = 0.91\nsamples = 615\nvalue = [415, 200]"] ;
57 -> 58 ;
59 [label="X[201] <= 0.5\nentropy = 0.906\nsamples = 610\nvalue = [414, 196]"] ;
58 -> 59 ;
60 [label="X[117] <= 0.5\nentropy = 0.899\nsamples = 597\nvalue = [409, 188]"] ;
59 -> 60 ;
61 [label="X[2445] <= 0.5\nentropy = 0.903\nsamples = 589\nvalue = [401, 188]"] ;
60 -> 61 ;
62 [label="X[2173] <= 0.5\nentropy = 0.907\nsamples = 583\nvalue = [395, 188]"] ;
61 -> 62 ;
63 [label="X[205] <= 0.5\nentropy = 0.905\nsamples = 581\nvalue = [395, 186]"] ;
62 -> 63 ;
64 [label="X[303] <= 0.5\nentropy = 0.899\nsamples = 572\nvalue = [392, 180]"] ;
63 -> 64 ;
65 [label="X[2331] <= 0.5\nentropy = 0.894\nsamples = 569\nvalue = [392, 177]"] ;
64 -> 65 ;
66 [label="X[389] <= 0.5\nentropy = 0.892\nsamples = 567\nvalue = [392, 175]"] ;
65 -> 66 ;
67 [label="X[1350] <= 0.5\nentropy = 0.889\nsamples = 565\nvalue = [392, 173]"] ;
66 -> 67 ;
68 [label="X[252] <= 0.5\nentropy = 0.886\nsamples = 563\nvalue = [392, 171]"] ;
67 -> 68 ;
69 [label="X[309] <= 0.5\nentropy = 0.883\nsamples = 561\nvalue = [392, 169]"] ;
68 -> 69 ;
70 [label="X[648] <= 0.5\nentropy = 0.873\nsamples = 545\nvalue = [385, 160]"] ;
69 -> 70 ;
71 [label="X[799] <= 0.5\nentropy = 0.87\nsamples = 543\nvalue = [385, 158]"] ;
70 -> 71 ;
72 [label="X[1581] <= 0.5\nentropy = 0.876\nsamples = 534\nvalue = [376, 158]"] ;
71 -> 72 ;
73 [label="X[807] <= 0.5\nentropy = 0.873\nsamples = 532\nvalue = [376, 156]"] ;
72 -> 73 ;
74 [label="X[1158] <= 0.5\nentropy = 0.869\nsamples = 530\nvalue = [376, 154]"] ;
73 -> 74 ;
75 [label="X[745] <= 0.5\nentropy = 0.866\nsamples = 528\nvalue = [376, 152]"] ;
74 -> 75 ;
76 [label="X[821] <= 0.5\nentropy = 0.862\nsamples = 526\nvalue = [376, 150]"] ;
75 -> 76 ;
77 [label="X[1550] <= 0.5\nentropy = 0.859\nsamples = 524\nvalue = [376, 148]"] ;
76 -> 77 ;
78 [label="X[196] <= 0.5\nentropy = 0.855\nsamples = 522\nvalue = [376, 146]"] ;
77 -> 78 ;
79 [label="X[1941] <= 0.5\nentropy = 0.851\nsamples = 520\nvalue = [376, 144]"] ;
78 -> 79 ;
80 [label="X[2176] <= 0.5\nentropy = 0.847\nsamples = 518\nvalue = [376, 142]"] ;
79 -> 80 ;
81 [label="X[1057] <= 0.5\nentropy = 0.843\nsamples = 516\nvalue = [376, 140]"] ;
80 -> 81 ;
82 [label="X[455] <= 0.5\nentropy = 0.839\nsamples = 514\nvalue = [376, 138]"] ;
81 -> 82 ;
83 [label="X[241] <= 0.5\nentropy = 0.835\nsamples = 512\nvalue = [376, 136]"] ;
82 -> 83 ;
84 [label="X[2026] <= 0.5\nentropy = 0.831\nsamples = 510\nvalue = [376, 134]"] ;
83 -> 84 ;
85 [label="X[1079] <= 0.5\nentropy = 0.827\nsamples = 508\nvalue = [376, 132]"] ;
84 -> 85 ;
86 [label="X[694] <= 0.5\nentropy = 0.822\nsamples = 506\nvalue = [376, 130]"] ;
85 -> 86 ;
87 [label="X[546] <= 0.5\nentropy = 0.818\nsamples = 504\nvalue = [376, 128]"] ;
86 -> 87 ;
88 [label="X[1012] <= 0.5\nentropy = 0.813\nsamples = 502\nvalue = [376, 126]"] ;
87 -> 88 ;
89 [label="X[682] <= 0.5\nentropy = 0.808\nsamples = 500\nvalue = [376, 124]"] ;
88 -> 89 ;
90 [label="X[1712] <= 0.5\nentropy = 0.803\nsamples = 498\nvalue = [376, 122]"] ;
89 -> 90 ;
91 [label="X[2107] <= 0.5\nentropy = 0.798\nsamples = 496\nvalue = [376, 120]"] ;
90 -> 91 ;
92 [label="X[3147] <= 0.5\nentropy = 0.793\nsamples = 494\nvalue = [376, 118]"] ;
91 -> 92 ;
93 [label="X[577] <= 0.5\nentropy = 0.788\nsamples = 492\nvalue = [376, 116]"] ;
92 -> 93 ;
94 [label="X[99] <= 0.5\nentropy = 0.781\nsamples = 488\nvalue = [375, 113]"] ;
93 -> 94 ;
95 [label="X[420] <= 0.5\nentropy = 0.786\nsamples = 482\nvalue = [369, 113]"] ;
94 -> 95 ;
96 [label="X[2102] <= 0.5\nentropy = 0.779\nsamples = 477\nvalue = [367, 110]"] ;
95 -> 96 ;
97 [label="X[1690] <= 0.5\nentropy = 0.776\nsamples = 476\nvalue = [367, 109]"] ;
96 -> 97 ;
98 [label="X[1928] <= 0.5\nentropy = 0.773\nsamples = 475\nvalue = [367, 108]"] ;
97 -> 98 ;
99 [label="X[30] <= 0.5\nentropy = 0.771\nsamples = 474\nvalue = [367, 107]"] ;
98 -> 99 ;
100 [label="entropy = 0.768\nsamples = 473\nvalue = [367, 106]"] ;
99 -> 100 ;
101 [label="entropy = 0.0\nsamples = 1\nvalue = [0, 1]"] ;
99 -> 101 ;
102 [label="entropy = 0.0\nsamples = 1\nvalue = [0, 1]"] ;
98 -> 102 ;
103 [label="entropy = 0.0\nsamples = 1\nvalue = [0, 1]"] ;
97 -> 103 ;
104 [label="entropy = 0.0\nsamples = 1\nvalue = [0, 1]"] ;
96 -> 104 ;
105 [label="X[2997] <= 0.5\nentropy = 0.971\nsamples = 5\nvalue = [2, 3]"] ;
95 -> 105 ;
106 [label="entropy = 0.0\nsamples = 3\nvalue = [0, 3]"] ;
105 -> 106 ;
107 [label="entropy = 0.0\nsamples = 2\nvalue = [2, 0]"] ;
105 -> 107 ;
108 [label="entropy = 0.0\nsamples = 6\nvalue = [6, 0]"] ;
94 -> 108 ;
109 [label="X[576] <= 0.5\nentropy = 0.811\nsamples = 4\nvalue = [1, 3]"] ;
93 -> 109 ;
110 [label="entropy = 0.0\nsamples = 1\nvalue = [1, 0]"] ;
109 -> 110 ;
111 [label="entropy = 0.0\nsamples = 3\nvalue = [0, 3]"] ;
109 -> 111 ;
112 [label="entropy = 0.0\nsamples = 2\nvalue = [0, 2]"] ;
92 -> 112 ;
113 [label="entropy = 0.0\nsamples = 2\nvalue = [0, 2]"] ;
91 -> 113 ;
114 [label="entropy = 0.0\nsamples = 2\nvalue = [0, 2]"] ;
90 -> 114 ;
115 [label="entropy = 0.0\nsamples = 2\nvalue = [0, 2]"] ;
89 -> 115 ;
116 [label="entropy = 0.0\nsamples = 2\nvalue = [0, 2]"] ;
88 -> 116 ;
117 [label="entropy = 0.0\nsamples = 2\nvalue = [0, 2]"] ;
87 -> 117 ;
118 [label="entropy = 0.0\nsamples = 2\nvalue = [0, 2]"] ;
86 -> 118 ;
119 [label="entropy = 0.0\nsamples = 2\nvalue = [0, 2]"] ;
85 -> 119 ;
120 [label="entropy = 0.0\nsamples = 2\nvalue = [0, 2]"] ;
84 -> 120 ;
121 [label="entropy = 0.0\nsamples = 2\nvalue = [0, 2]"] ;
83 -> 121 ;
122 [label="entropy = 0.0\nsamples = 2\nvalue = [0, 2]"] ;
82 -> 122 ;
123 [label="entropy = 0.0\nsamples = 2\nvalue = [0, 2]"] ;
81 -> 123 ;
124 [label="entropy = 0.0\nsamples = 2\nvalue = [0, 2]"] ;
80 -> 124 ;
125 [label="entropy = 0.0\nsamples = 2\nvalue = [0, 2]"] ;
79 -> 125 ;
126 [label="entropy = 0.0\nsamples = 2\nvalue = [0, 2]"] ;
78 -> 126 ;
127 [label="entropy = 0.0\nsamples = 2\nvalue = [0, 2]"] ;
77 -> 127 ;
128 [label="entropy = 0.0\nsamples = 2\nvalue = [0, 2]"] ;
76 -> 128 ;
129 [label="entropy = 0.0\nsamples = 2\nvalue = [0, 2]"] ;
75 -> 129 ;
130 [label="entropy = 0.0\nsamples = 2\nvalue = [0, 2]"] ;
74 -> 130 ;
131 [label="entropy = 0.0\nsamples = 2\nvalue = [0, 2]"] ;
73 -> 131 ;
132 [label="entropy = 0.0\nsamples = 2\nvalue = [0, 2]"] ;
72 -> 132 ;
133 [label="entropy = 0.0\nsamples = 9\nvalue = [9, 0]"] ;
71 -> 133 ;
134 [label="entropy = 0.0\nsamples = 2\nvalue = [0, 2]"] ;
70 -> 134 ;
135 [label="X[231] <= 0.5\nentropy = 0.989\nsamples = 16\nvalue = [7, 9]"] ;
69 -> 135 ;
136 [label="X[269] <= 0.5\nentropy = 0.89\nsamples = 13\nvalue = [4, 9]"] ;
135 -> 136 ;
137 [label="X[62] <= 0.5\nentropy = 0.811\nsamples = 12\nvalue = [3, 9]"] ;
136 -> 137 ;
138 [label="X[2642] <= 0.5\nentropy = 0.503\nsamples = 9\nvalue = [1, 8]"] ;
137 -> 138 ;
139 [label="entropy = 0.0\nsamples = 8\nvalue = [0, 8]"] ;
138 -> 139 ;
140 [label="entropy = 0.0\nsamples = 1\nvalue = [1, 0]"] ;
138 -> 140 ;
141 [label="X[2906] <= 0.5\nentropy = 0.918\nsamples = 3\nvalue = [2, 1]"] ;
137 -> 141 ;
142 [label="entropy = 0.0\nsamples = 2\nvalue = [2, 0]"] ;
141 -> 142 ;
143 [label="entropy = 0.0\nsamples = 1\nvalue = [0, 1]"] ;
141 -> 143 ;
144 [label="entropy = 0.0\nsamples = 1\nvalue = [1, 0]"] ;
136 -> 144 ;
145 [label="entropy = 0.0\nsamples = 3\nvalue = [3, 0]"] ;
135 -> 145 ;
146 [label="entropy = 0.0\nsamples = 2\nvalue = [0, 2]"] ;
68 -> 146 ;
147 [label="entropy = 0.0\nsamples = 2\nvalue = [0, 2]"] ;
67 -> 147 ;
148 [label="entropy = 0.0\nsamples = 2\nvalue = [0, 2]"] ;
66 -> 148 ;
149 [label="entropy = 0.0\nsamples = 2\nvalue = [0, 2]"] ;
65 -> 149 ;
150 [label="entropy = 0.0\nsamples = 3\nvalue = [0, 3]"] ;
64 -> 150 ;
151 [label="X[998] <= 0.5\nentropy = 0.918\nsamples = 9\nvalue = [3, 6]"] ;
63 -> 151 ;
152 [label="X[544] <= 0.5\nentropy = 0.592\nsamples = 7\nvalue = [1, 6]"] ;
151 -> 152 ;
153 [label="entropy = 0.0\nsamples = 6\nvalue = [0, 6]"] ;
152 -> 153 ;
154 [label="entropy = 0.0\nsamples = 1\nvalue = [1, 0]"] ;
152 -> 154 ;
155 [label="entropy = 0.0\nsamples = 2\nvalue = [2, 0]"] ;
151 -> 155 ;
156 [label="entropy = 0.0\nsamples = 2\nvalue = [0, 2]"] ;
62 -> 156 ;
157 [label="entropy = 0.0\nsamples = 6\nvalue = [6, 0]"] ;
61 -> 157 ;
158 [label="entropy = 0.0\nsamples = 8\nvalue = [8, 0]"] ;
60 -> 158 ;
159 [label="X[931] <= 0.5\nentropy = 0.961\nsamples = 13\nvalue = [5, 8]"] ;
59 -> 159 ;
160 [label="X[5414] <= 0.5\nentropy = 0.918\nsamples = 12\nvalue = [4, 8]"] ;
159 -> 160 ;
161 [label="X[5442] <= 0.5\nentropy = 0.845\nsamples = 11\nvalue = [3, 8]"] ;
160 -> 161 ;
162 [label="X[4132] <= 0.5\nentropy = 0.722\nsamples = 10\nvalue = [2, 8]"] ;
161 -> 162 ;
163 [label="X[3934] <= 0.5\nentropy = 0.503\nsamples = 9\nvalue = [1, 8]"] ;
162 -> 163 ;
164 [label="entropy = 0.0\nsamples = 8\nvalue = [0, 8]"] ;
163 -> 164 ;
165 [label="entropy = 0.0\nsamples = 1\nvalue = [1, 0]"] ;
163 -> 165 ;
166 [label="entropy = 0.0\nsamples = 1\nvalue = [1, 0]"] ;
162 -> 166 ;
167 [label="entropy = 0.0\nsamples = 1\nvalue = [1, 0]"] ;
161 -> 167 ;
168 [label="entropy = 0.0\nsamples = 1\nvalue = [1, 0]"] ;
160 -> 168 ;
169 [label="entropy = 0.0\nsamples = 1\nvalue = [1, 0]"] ;
159 -> 169 ;
170 [label="X[1761] <= 0.5\nentropy = 0.722\nsamples = 5\nvalue = [1, 4]"] ;
58 -> 170 ;
171 [label="entropy = 0.0\nsamples = 4\nvalue = [0, 4]"] ;
170 -> 171 ;
172 [label="entropy = 0.0\nsamples = 1\nvalue = [1, 0]"] ;
170 -> 172 ;
173 [label="X[4213] <= 0.5\nentropy = 0.982\nsamples = 19\nvalue = [8, 11]"] ;
57 -> 173 ;
174 [label="X[795] <= 0.5\nentropy = 0.964\nsamples = 18\nvalue = [7, 11]"] ;
173 -> 174 ;
175 [label="X[174] <= 0.5\nentropy = 0.937\nsamples = 17\nvalue = [6, 11]"] ;
174 -> 175 ;
176 [label="X[5321] <= 0.5\nentropy = 0.896\nsamples = 16\nvalue = [5, 11]"] ;
175 -> 176 ;
177 [label="X[4145] <= 0.5\nentropy = 0.837\nsamples = 15\nvalue = [4, 11]"] ;
176 -> 177 ;
178 [label="X[5475] <= 0.5\nentropy = 0.75\nsamples = 14\nvalue = [3, 11]"] ;
177 -> 178 ;
179 [label="X[1634] <= 0.5\nentropy = 0.619\nsamples = 13\nvalue = [2, 11]"] ;
178 -> 179 ;
180 [label="X[101] <= 0.5\nentropy = 0.414\nsamples = 12\nvalue = [1, 11]"] ;
179 -> 180 ;
181 [label="entropy = 0.0\nsamples = 11\nvalue = [0, 11]"] ;
180 -> 181 ;
182 [label="entropy = 0.0\nsamples = 1\nvalue = [1, 0]"] ;
180 -> 182 ;
183 [label="entropy = 0.0\nsamples = 1\nvalue = [1, 0]"] ;
179 -> 183 ;
184 [label="entropy = 0.0\nsamples = 1\nvalue = [1, 0]"] ;
178 -> 184 ;
185 [label="entropy = 0.0\nsamples = 1\nvalue = [1, 0]"] ;
177 -> 185 ;
186 [label="entropy = 0.0\nsamples = 1\nvalue = [1, 0]"] ;
176 -> 186 ;
187 [label="entropy = 0.0\nsamples = 1\nvalue = [1, 0]"] ;
175 -> 187 ;
188 [label="entropy = 0.0\nsamples = 1\nvalue = [1, 0]"] ;
174 -> 188 ;
189 [label="entropy = 0.0\nsamples = 1\nvalue = [1, 0]"] ;
173 -> 189 ;
190 [label="X[5329] <= 0.5\nentropy = 0.65\nsamples = 6\nvalue = [1, 5]"] ;
56 -> 190 ;
191 [label="entropy = 0.0\nsamples = 5\nvalue = [0, 5]"] ;
190 -> 191 ;
192 [label="entropy = 0.0\nsamples = 1\nvalue = [1, 0]"] ;
190 -> 192 ;
193 [label="X[4683] <= 0.5\nentropy = 0.65\nsamples = 6\nvalue = [1, 5]"] ;
55 -> 193 ;
194 [label="entropy = 0.0\nsamples = 5\nvalue = [0, 5]"] ;
193 -> 194 ;
195 [label="entropy = 0.0\nsamples = 1\nvalue = [1, 0]"] ;
193 -> 195 ;
196 [label="entropy = 0.0\nsamples = 3\nvalue = [0, 3]"] ;
54 -> 196 ;
197 [label="entropy = 0.0\nsamples = 3\nvalue = [0, 3]"] ;
53 -> 197 ;
198 [label="entropy = 0.0\nsamples = 3\nvalue = [0, 3]"] ;
52 -> 198 ;
199 [label="entropy = 0.0\nsamples = 3\nvalue = [0, 3]"] ;
51 -> 199 ;
200 [label="entropy = 0.0\nsamples = 3\nvalue = [0, 3]"] ;
50 -> 200 ;
201 [label="entropy = 0.0\nsamples = 3\nvalue = [0, 3]"] ;
49 -> 201 ;
202 [label="entropy = 0.0\nsamples = 3\nvalue = [0, 3]"] ;
48 -> 202 ;
203 [label="entropy = 0.0\nsamples = 3\nvalue = [0, 3]"] ;
47 -> 203 ;
204 [label="X[2083] <= 0.5\nentropy = 0.863\nsamples = 14\nvalue = [4, 10]"] ;
46 -> 204 ;
205 [label="X[117] <= 0.5\nentropy = 0.65\nsamples = 12\nvalue = [2, 10]"] ;
204 -> 205 ;
206 [label="X[4157] <= 0.5\nentropy = 0.439\nsamples = 11\nvalue = [1, 10]"] ;
205 -> 206 ;
207 [label="entropy = 0.0\nsamples = 10\nvalue = [0, 10]"] ;
206 -> 207 ;
208 [label="entropy = 0.0\nsamples = 1\nvalue = [1, 0]"] ;
206 -> 208 ;
209 [label="entropy = 0.0\nsamples = 1\nvalue = [1, 0]"] ;
205 -> 209 ;
210 [label="entropy = 0.0\nsamples = 2\nvalue = [2, 0]"] ;
204 -> 210 ;
211 [label="X[2215] <= 0.5\nentropy = 0.592\nsamples = 7\nvalue = [1, 6]"] ;
45 -> 211 ;
212 [label="entropy = 0.0\nsamples = 6\nvalue = [0, 6]"] ;
211 -> 212 ;
213 [label="entropy = 0.0\nsamples = 1\nvalue = [1, 0]"] ;
211 -> 213 ;
214 [label="X[4517] <= 0.5\nentropy = 0.592\nsamples = 7\nvalue = [1, 6]"] ;
44 -> 214 ;
215 [label="entropy = 0.0\nsamples = 6\nvalue = [0, 6]"] ;
214 -> 215 ;
216 [label="entropy = 0.0\nsamples = 1\nvalue = [1, 0]"] ;
214 -> 216 ;
217 [label="X[893] <= 0.5\nentropy = 0.592\nsamples = 7\nvalue = [1, 6]"] ;
43 -> 217 ;
218 [label="entropy = 0.0\nsamples = 6\nvalue = [0, 6]"] ;
217 -> 218 ;
219 [label="entropy = 0.0\nsamples = 1\nvalue = [1, 0]"] ;
217 -> 219 ;
220 [label="entropy = 0.0\nsamples = 4\nvalue = [0, 4]"] ;
42 -> 220 ;
221 [label="entropy = 0.0\nsamples = 4\nvalue = [0, 4]"] ;
41 -> 221 ;
222 [label="entropy = 0.0\nsamples = 10\nvalue = [10, 0]"] ;
40 -> 222 ;
223 [label="entropy = 0.0\nsamples = 4\nvalue = [0, 4]"] ;
39 -> 223 ;
224 [label="entropy = 0.0\nsamples = 4\nvalue = [0, 4]"] ;
38 -> 224 ;
225 [label="entropy = 0.0\nsamples = 4\nvalue = [0, 4]"] ;
37 -> 225 ;
226 [label="X[2116] <= 0.5\nentropy = 0.684\nsamples = 11\nvalue = [2, 9]"] ;
36 -> 226 ;
227 [label="X[2312] <= 0.5\nentropy = 0.469\nsamples = 10\nvalue = [1, 9]"] ;
226 -> 227 ;
228 [label="entropy = 0.0\nsamples = 9\nvalue = [0, 9]"] ;
227 -> 228 ;
229 [label="entropy = 0.0\nsamples = 1\nvalue = [1, 0]"] ;
227 -> 229 ;
230 [label="entropy = 0.0\nsamples = 1\nvalue = [1, 0]"] ;
226 -> 230 ;
231 [label="X[1578] <= 0.5\nentropy = 0.722\nsamples = 15\nvalue = [3, 12]"] ;
35 -> 231 ;
232 [label="X[2671] <= 0.5\nentropy = 0.592\nsamples = 14\nvalue = [2, 12]"] ;
231 -> 232 ;
233 [label="X[4320] <= 0.5\nentropy = 0.391\nsamples = 13\nvalue = [1, 12]"] ;
232 -> 233 ;
234 [label="entropy = 0.0\nsamples = 12\nvalue = [0, 12]"] ;
233 -> 234 ;
235 [label="entropy = 0.0\nsamples = 1\nvalue = [1, 0]"] ;
233 -> 235 ;
236 [label="entropy = 0.0\nsamples = 1\nvalue = [1, 0]"] ;
232 -> 236 ;
237 [label="entropy = 0.0\nsamples = 1\nvalue = [1, 0]"] ;
231 -> 237 ;
238 [label="entropy = 0.0\nsamples = 7\nvalue = [0, 7]"] ;
34 -> 238 ;
239 [label="X[218] <= 0.5\nentropy = 0.974\nsamples = 64\nvalue = [26, 38]"] ;
33 -> 239 ;
240 [label="X[228] <= 0.5\nentropy = 0.99\nsamples = 59\nvalue = [26, 33]"] ;
239 -> 240 ;
241 [label="X[231] <= 0.5\nentropy = 0.996\nsamples = 56\nvalue = [26, 30]"] ;
240 -> 241 ;
242 [label="X[1819] <= 0.5\nentropy = 0.962\nsamples = 44\nvalue = [17, 27]"] ;
241 -> 242 ;
243 [label="X[962] <= 0.5\nentropy = 0.94\nsamples = 42\nvalue = [15, 27]"] ;
242 -> 243 ;
244 [label="X[4151] <= 0.5\nentropy = 0.91\nsamples = 40\nvalue = [13, 27]"] ;
243 -> 244 ;
245 [label="X[2819] <= 0.5\nentropy = 0.89\nsamples = 39\nvalue = [12, 27]"] ;
244 -> 245 ;
246 [label="X[358] <= 0.5\nentropy = 0.868\nsamples = 38\nvalue = [11, 27]"] ;
245 -> 246 ;
247 [label="X[4527] <= 0.5\nentropy = 0.842\nsamples = 37\nvalue = [10, 27]"] ;
246 -> 247 ;
248 [label="X[3360] <= 0.5\nentropy = 0.811\nsamples = 36\nvalue = [9, 27]"] ;
247 -> 248 ;
249 [label="X[2083] <= 0.5\nentropy = 0.776\nsamples = 35\nvalue = [8, 27]"] ;
248 -> 249 ;
250 [label="X[1215] <= 0.5\nentropy = 0.734\nsamples = 34\nvalue = [7, 27]"] ;
249 -> 250 ;
251 [label="X[1061] <= 0.5\nentropy = 0.684\nsamples = 33\nvalue = [6, 27]"] ;
250 -> 251 ;
252 [label="X[1958] <= 0.5\nentropy = 0.625\nsamples = 32\nvalue = [5, 27]"] ;
251 -> 252 ;
253 [label="X[2110] <= 0.5\nentropy = 0.555\nsamples = 31\nvalue = [4, 27]"] ;
252 -> 253 ;
254 [label="X[2836] <= 0.5\nentropy = 0.469\nsamples = 30\nvalue = [3, 27]"] ;
253 -> 254 ;
255 [label="X[1556] <= 0.5\nentropy = 0.362\nsamples = 29\nvalue = [2, 27]"] ;
254 -> 255 ;
256 [label="X[4514] <= 0.5\nentropy = 0.222\nsamples = 28\nvalue = [1, 27]"] ;
255 -> 256 ;
257 [label="entropy = 0.0\nsamples = 27\nvalue = [0, 27]"] ;
256 -> 257 ;
258 [label="entropy = 0.0\nsamples = 1\nvalue = [1, 0]"] ;
256 -> 258 ;
259 [label="entropy = 0.0\nsamples = 1\nvalue = [1, 0]"] ;
255 -> 259 ;
260 [label="entropy = 0.0\nsamples = 1\nvalue = [1, 0]"] ;
254 -> 260 ;
261 [label="entropy = 0.0\nsamples = 1\nvalue = [1, 0]"] ;
253 -> 261 ;
262 [label="entropy = 0.0\nsamples = 1\nvalue = [1, 0]"] ;
252 -> 262 ;
263 [label="entropy = 0.0\nsamples = 1\nvalue = [1, 0]"] ;
251 -> 263 ;
264 [label="entropy = 0.0\nsamples = 1\nvalue = [1, 0]"] ;
250 -> 264 ;
265 [label="entropy = 0.0\nsamples = 1\nvalue = [1, 0]"] ;
249 -> 265 ;
266 [label="entropy = 0.0\nsamples = 1\nvalue = [1, 0]"] ;
248 -> 266 ;
267 [label="entropy = 0.0\nsamples = 1\nvalue = [1, 0]"] ;
247 -> 267 ;
268 [label="entropy = 0.0\nsamples = 1\nvalue = [1, 0]"] ;
246 -> 268 ;
269 [label="entropy = 0.0\nsamples = 1\nvalue = [1, 0]"] ;
245 -> 269 ;
270 [label="entropy = 0.0\nsamples = 1\nvalue = [1, 0]"] ;
244 -> 270 ;
271 [label="entropy = 0.0\nsamples = 2\nvalue = [2, 0]"] ;
243 -> 271 ;
272 [label="entropy = 0.0\nsamples = 2\nvalue = [2, 0]"] ;
242 -> 272 ;
273 [label="X[361] <= 0.5\nentropy = 0.811\nsamples = 12\nvalue = [9, 3]"] ;
241 -> 273 ;
274 [label="X[1430] <= 0.5\nentropy = 0.684\nsamples = 11\nvalue = [9, 2]"] ;
273 -> 274 ;
275 [label="X[2] <= 0.5\nentropy = 0.469\nsamples = 10\nvalue = [9, 1]"] ;
274 -> 275 ;
276 [label="entropy = 0.0\nsamples = 9\nvalue = [9, 0]"] ;
275 -> 276 ;
277 [label="entropy = 0.0\nsamples = 1\nvalue = [0, 1]"] ;
275 -> 277 ;
278 [label="entropy = 0.0\nsamples = 1\nvalue = [0, 1]"] ;
274 -> 278 ;
279 [label="entropy = 0.0\nsamples = 1\nvalue = [0, 1]"] ;
273 -> 279 ;
280 [label="entropy = 0.0\nsamples = 3\nvalue = [0, 3]"] ;
240 -> 280 ;
281 [label="entropy = 0.0\nsamples = 5\nvalue = [0, 5]"] ;
239 -> 281 ;
282 [label="X[4117] <= 0.5\nentropy = 0.894\nsamples = 29\nvalue = [9, 20]"] ;
32 -> 282 ;
283 [label="X[441] <= 0.5\nentropy = 0.826\nsamples = 27\nvalue = [7, 20]"] ;
282 -> 283 ;
284 [label="X[2320] <= 0.5\nentropy = 0.779\nsamples = 26\nvalue = [6, 20]"] ;
283 -> 284 ;
285 [label="X[3684] <= 0.5\nentropy = 0.722\nsamples = 25\nvalue = [5, 20]"] ;
284 -> 285 ;
286 [label="X[4855] <= 0.5\nentropy = 0.65\nsamples = 24\nvalue = [4, 20]"] ;
285 -> 286 ;
287 [label="X[216] <= 0.5\nentropy = 0.559\nsamples = 23\nvalue = [3, 20]"] ;
286 -> 287 ;
288 [label="X[2787] <= 0.5\nentropy = 0.439\nsamples = 22\nvalue = [2, 20]"] ;
287 -> 288 ;
289 [label="X[3625] <= 0.5\nentropy = 0.276\nsamples = 21\nvalue = [1, 20]"] ;
288 -> 289 ;
290 [label="entropy = 0.0\nsamples = 20\nvalue = [0, 20]"] ;
289 -> 290 ;
291 [label="entropy = 0.0\nsamples = 1\nvalue = [1, 0]"] ;
289 -> 291 ;
292 [label="entropy = 0.0\nsamples = 1\nvalue = [1, 0]"] ;
288 -> 292 ;
293 [label="entropy = 0.0\nsamples = 1\nvalue = [1, 0]"] ;
287 -> 293 ;
294 [label="entropy = 0.0\nsamples = 1\nvalue = [1, 0]"] ;
286 -> 294 ;
295 [label="entropy = 0.0\nsamples = 1\nvalue = [1, 0]"] ;
285 -> 295 ;
296 [label="entropy = 0.0\nsamples = 1\nvalue = [1, 0]"] ;
284 -> 296 ;
297 [label="entropy = 0.0\nsamples = 1\nvalue = [1, 0]"] ;
283 -> 297 ;
298 [label="entropy = 0.0\nsamples = 2\nvalue = [2, 0]"] ;
282 -> 298 ;
299 [label="entropy = 0.0\nsamples = 7\nvalue = [7, 0]"] ;
31 -> 299 ;
300 [label="X[3911] <= 0.5\nentropy = 0.503\nsamples = 9\nvalue = [1, 8]"] ;
30 -> 300 ;
301 [label="entropy = 0.0\nsamples = 8\nvalue = [0, 8]"] ;
300 -> 301 ;
302 [label="entropy = 0.0\nsamples = 1\nvalue = [1, 0]"] ;
300 -> 302 ;
303 [label="entropy = 0.0\nsamples = 5\nvalue = [0, 5]"] ;
29 -> 303 ;
304 [label="X[983] <= 0.5\nentropy = 0.353\nsamples = 15\nvalue = [14, 1]"] ;
28 -> 304 ;
305 [label="entropy = 0.0\nsamples = 14\nvalue = [14, 0]"] ;
304 -> 305 ;
306 [label="entropy = 0.0\nsamples = 1\nvalue = [0, 1]"] ;
304 -> 306 ;
307 [label="entropy = 0.0\nsamples = 5\nvalue = [0, 5]"] ;
27 -> 307 ;
308 [label="entropy = 0.0\nsamples = 8\nvalue = [8, 0]"] ;
26 -> 308 ;
309 [label="entropy = 0.0\nsamples = 6\nvalue = [0, 6]"] ;
25 -> 309 ;
310 [label="entropy = 0.0\nsamples = 6\nvalue = [0, 6]"] ;
24 -> 310 ;
311 [label="X[4975] <= 0.5\nentropy = 0.439\nsamples = 11\nvalue = [1, 10]"] ;
23 -> 311 ;
312 [label="entropy = 0.0\nsamples = 10\nvalue = [0, 10]"] ;
311 -> 312 ;
313 [label="entropy = 0.0\nsamples = 1\nvalue = [1, 0]"] ;
311 -> 313 ;
314 [label="entropy = 0.0\nsamples = 7\nvalue = [0, 7]"] ;
22 -> 314 ;
315 [label="entropy = 0.0\nsamples = 7\nvalue = [0, 7]"] ;
21 -> 315 ;
316 [label="entropy = 0.0\nsamples = 10\nvalue = [10, 0]"] ;
20 -> 316 ;
317 [label="X[1280] <= 0.5\nentropy = 0.337\nsamples = 16\nvalue = [15, 1]"] ;
19 -> 317 ;
318 [label="entropy = 0.0\nsamples = 15\nvalue = [15, 0]"] ;
317 -> 318 ;
319 [label="entropy = 0.0\nsamples = 1\nvalue = [0, 1]"] ;
317 -> 319 ;
320 [label="entropy = 0.0\nsamples = 11\nvalue = [11, 0]"] ;
18 -> 320 ;
321 [label="X[309] <= 0.5\nentropy = 0.811\nsamples = 84\nvalue = [63, 21]"] ;
17 -> 321 ;
322 [label="X[357] <= 0.5\nentropy = 0.764\nsamples = 81\nvalue = [63, 18]"] ;
321 -> 322 ;
323 [label="X[2250] <= 0.5\nentropy = 0.727\nsamples = 79\nvalue = [63, 16]"] ;
322 -> 323 ;
324 [label="X[191] <= 0.5\nentropy = 0.706\nsamples = 78\nvalue = [63, 15]"] ;
323 -> 324 ;
325 [label="X[70] <= 0.5\nentropy = 0.665\nsamples = 75\nvalue = [62, 13]"] ;
324 -> 325 ;
326 [label="X[156] <= 0.5\nentropy = 0.617\nsamples = 72\nvalue = [61, 11]"] ;
325 -> 326 ;
327 [label="X[411] <= 0.5\nentropy = 0.586\nsamples = 71\nvalue = [61, 10]"] ;
326 -> 327 ;
328 [label="X[1450] <= 0.5\nentropy = 0.554\nsamples = 70\nvalue = [61, 9]"] ;
327 -> 328 ;
329 [label="X[2440] <= 0.5\nentropy = 0.518\nsamples = 69\nvalue = [61, 8]"] ;
328 -> 329 ;
330 [label="X[427] <= 0.5\nentropy = 0.478\nsamples = 68\nvalue = [61, 7]"] ;
329 -> 330 ;
331 [label="X[1878] <= 0.5\nentropy = 0.435\nsamples = 67\nvalue = [61, 6]"] ;
330 -> 331 ;
332 [label="X[1163] <= 0.5\nentropy = 0.387\nsamples = 66\nvalue = [61, 5]"] ;
331 -> 332 ;
333 [label="X[3] <= 0.5\nentropy = 0.334\nsamples = 65\nvalue = [61, 4]"] ;
332 -> 333 ;
334 [label="X[1208] <= 0.5\nentropy = 0.273\nsamples = 64\nvalue = [61, 3]"] ;
333 -> 334 ;
335 [label="X[1291] <= 0.5\nentropy = 0.203\nsamples = 63\nvalue = [61, 2]"] ;
334 -> 335 ;
336 [label="X[644] <= 0.5\nentropy = 0.119\nsamples = 62\nvalue = [61, 1]"] ;
335 -> 336 ;
337 [label="entropy = 0.0\nsamples = 61\nvalue = [61, 0]"] ;
336 -> 337 ;
338 [label="entropy = 0.0\nsamples = 1\nvalue = [0, 1]"] ;
336 -> 338 ;
339 [label="entropy = 0.0\nsamples = 1\nvalue = [0, 1]"] ;
335 -> 339 ;
340 [label="entropy = 0.0\nsamples = 1\nvalue = [0, 1]"] ;
334 -> 340 ;
341 [label="entropy = 0.0\nsamples = 1\nvalue = [0, 1]"] ;
333 -> 341 ;
342 [label="entropy = 0.0\nsamples = 1\nvalue = [0, 1]"] ;
332 -> 342 ;
343 [label="entropy = 0.0\nsamples = 1\nvalue = [0, 1]"] ;
331 -> 343 ;
344 [label="entropy = 0.0\nsamples = 1\nvalue = [0, 1]"] ;
330 -> 344 ;
345 [label="entropy = 0.0\nsamples = 1\nvalue = [0, 1]"] ;
329 -> 345 ;
346 [label="entropy = 0.0\nsamples = 1\nvalue = [0, 1]"] ;
328 -> 346 ;
347 [label="entropy = 0.0\nsamples = 1\nvalue = [0, 1]"] ;
327 -> 347 ;
348 [label="entropy = 0.0\nsamples = 1\nvalue = [0, 1]"] ;
326 -> 348 ;
349 [label="X[823] <= 0.5\nentropy = 0.918\nsamples = 3\nvalue = [1, 2]"] ;
325 -> 349 ;
350 [label="entropy = 0.0\nsamples = 2\nvalue = [0, 2]"] ;
349 -> 350 ;
351 [label="entropy = 0.0\nsamples = 1\nvalue = [1, 0]"] ;
349 -> 351 ;
352 [label="X[3551] <= 0.5\nentropy = 0.918\nsamples = 3\nvalue = [1, 2]"] ;
324 -> 352 ;
353 [label="entropy = 0.0\nsamples = 2\nvalue = [0, 2]"] ;
352 -> 353 ;
354 [label="entropy = 0.0\nsamples = 1\nvalue = [1, 0]"] ;
352 -> 354 ;
355 [label="entropy = 0.0\nsamples = 1\nvalue = [0, 1]"] ;
323 -> 355 ;
356 [label="entropy = 0.0\nsamples = 2\nvalue = [0, 2]"] ;
322 -> 356 ;
357 [label="entropy = 0.0\nsamples = 3\nvalue = [0, 3]"] ;
321 -> 357 ;
358 [label="entropy = 0.0\nsamples = 8\nvalue = [0, 8]"] ;
16 -> 358 ;
359 [label="X[3573] <= 0.5\nentropy = 0.544\nsamples = 16\nvalue = [2, 14]"] ;
15 -> 359 ;
360 [label="X[5454] <= 0.5\nentropy = 0.353\nsamples = 15\nvalue = [1, 14]"] ;
359 -> 360 ;
361 [label="entropy = 0.0\nsamples = 14\nvalue = [0, 14]"] ;
360 -> 361 ;
362 [label="entropy = 0.0\nsamples = 1\nvalue = [1, 0]"] ;
360 -> 362 ;
363 [label="entropy = 0.0\nsamples = 1\nvalue = [1, 0]"] ;
359 -> 363 ;
364 [label="X[555] <= 0.5\nentropy = 0.787\nsamples = 34\nvalue = [8, 26]"] ;
14 -> 364 ;
365 [label="X[3655] <= 0.5\nentropy = 0.619\nsamples = 26\nvalue = [4, 22]"] ;
364 -> 365 ;
366 [label="X[626] <= 0.5\nentropy = 0.529\nsamples = 25\nvalue = [3, 22]"] ;
365 -> 366 ;
367 [label="X[476] <= 0.5\nentropy = 0.414\nsamples = 24\nvalue = [2, 22]"] ;
366 -> 367 ;
368 [label="X[1157] <= 0.5\nentropy = 0.258\nsamples = 23\nvalue = [1, 22]"] ;
367 -> 368 ;
369 [label="entropy = 0.0\nsamples = 22\nvalue = [0, 22]"] ;
368 -> 369 ;
370 [label="entropy = 0.0\nsamples = 1\nvalue = [1, 0]"] ;
368 -> 370 ;
371 [label="entropy = 0.0\nsamples = 1\nvalue = [1, 0]"] ;
367 -> 371 ;
372 [label="entropy = 0.0\nsamples = 1\nvalue = [1, 0]"] ;
366 -> 372 ;
373 [label="entropy = 0.0\nsamples = 1\nvalue = [1, 0]"] ;
365 -> 373 ;
374 [label="X[2318] <= 0.5\nentropy = 1.0\nsamples = 8\nvalue = [4, 4]"] ;
364 -> 374 ;
375 [label="X[148] <= 0.5\nentropy = 0.985\nsamples = 7\nvalue = [4, 3]"] ;
374 -> 375 ;
376 [label="X[1341] <= 0.5\nentropy = 0.918\nsamples = 6\nvalue = [4, 2]"] ;
375 -> 376 ;
377 [label="X[1316] <= 0.5\nentropy = 0.722\nsamples = 5\nvalue = [4, 1]"] ;
376 -> 377 ;
378 [label="X[5054] <= 0.5\nentropy = 0.811\nsamples = 4\nvalue = [3, 1]"] ;
377 -> 378 ;
379 [label="X[5102] <= 0.5\nentropy = 0.918\nsamples = 3\nvalue = [2, 1]"] ;
378 -> 379 ;
380 [label="X[3815] <= 0.5\nentropy = 1.0\nsamples = 2\nvalue = [1, 1]"] ;
379 -> 380 ;
381 [label="entropy = 0.0\nsamples = 1\nvalue = [0, 1]"] ;
380 -> 381 ;
382 [label="entropy = 0.0\nsamples = 1\nvalue = [1, 0]"] ;
380 -> 382 ;
383 [label="entropy = 0.0\nsamples = 1\nvalue = [1, 0]"] ;
379 -> 383 ;
384 [label="entropy = 0.0\nsamples = 1\nvalue = [1, 0]"] ;
378 -> 384 ;
385 [label="entropy = 0.0\nsamples = 1\nvalue = [1, 0]"] ;
377 -> 385 ;
386 [label="entropy = 0.0\nsamples = 1\nvalue = [0, 1]"] ;
376 -> 386 ;
387 [label="entropy = 0.0\nsamples = 1\nvalue = [0, 1]"] ;
375 -> 387 ;
388 [label="entropy = 0.0\nsamples = 1\nvalue = [0, 1]"] ;
374 -> 388 ;
389 [label="X[63] <= 0.5\nentropy = 0.811\nsamples = 44\nvalue = [11, 33]"] ;
13 -> 389 ;
390 [label="X[285] <= 0.5\nentropy = 0.75\nsamples = 42\nvalue = [9, 33]"] ;
389 -> 390 ;
391 [label="X[5288] <= 0.5\nentropy = 0.712\nsamples = 41\nvalue = [8, 33]"] ;
390 -> 391 ;
392 [label="X[4205] <= 0.5\nentropy = 0.669\nsamples = 40\nvalue = [7, 33]"] ;
391 -> 392 ;
393 [label="X[2201] <= 0.5\nentropy = 0.619\nsamples = 39\nvalue = [6, 33]"] ;
392 -> 393 ;
394 [label="X[4124] <= 0.5\nentropy = 0.562\nsamples = 38\nvalue = [5, 33]"] ;
393 -> 394 ;
395 [label="X[2189] <= 0.5\nentropy = 0.494\nsamples = 37\nvalue = [4, 33]"] ;
394 -> 395 ;
396 [label="X[2445] <= 0.5\nentropy = 0.414\nsamples = 36\nvalue = [3, 33]"] ;
395 -> 396 ;
397 [label="X[4134] <= 0.5\nentropy = 0.316\nsamples = 35\nvalue = [2, 33]"] ;
396 -> 397 ;
398 [label="X[3176] <= 0.5\nentropy = 0.191\nsamples = 34\nvalue = [1, 33]"] ;
397 -> 398 ;
399 [label="entropy = 0.0\nsamples = 33\nvalue = [0, 33]"] ;
398 -> 399 ;
400 [label="entropy = 0.0\nsamples = 1\nvalue = [1, 0]"] ;
398 -> 400 ;
401 [label="entropy = 0.0\nsamples = 1\nvalue = [1, 0]"] ;
397 -> 401 ;
402 [label="entropy = 0.0\nsamples = 1\nvalue = [1, 0]"] ;
396 -> 402 ;
403 [label="entropy = 0.0\nsamples = 1\nvalue = [1, 0]"] ;
395 -> 403 ;
404 [label="entropy = 0.0\nsamples = 1\nvalue = [1, 0]"] ;
394 -> 404 ;
405 [label="entropy = 0.0\nsamples = 1\nvalue = [1, 0]"] ;
393 -> 405 ;
406 [label="entropy = 0.0\nsamples = 1\nvalue = [1, 0]"] ;
392 -> 406 ;
407 [label="entropy = 0.0\nsamples = 1\nvalue = [1, 0]"] ;
391 -> 407 ;
408 [label="entropy = 0.0\nsamples = 1\nvalue = [1, 0]"] ;
390 -> 408 ;
409 [label="entropy = 0.0\nsamples = 2\nvalue = [2, 0]"] ;
389 -> 409 ;
410 [label="entropy = 0.0\nsamples = 14\nvalue = [14, 0]"] ;
12 -> 410 ;
411 [label="entropy = 0.0\nsamples = 12\nvalue = [0, 12]"] ;
11 -> 411 ;
412 [label="entropy = 0.0\nsamples = 12\nvalue = [0, 12]"] ;
10 -> 412 ;
413 [label="entropy = 0.0\nsamples = 13\nvalue = [0, 13]"] ;
9 -> 413 ;
414 [label="X[4918] <= 0.5\nentropy = 0.402\nsamples = 25\nvalue = [2, 23]"] ;
8 -> 414 ;
415 [label="X[3354] <= 0.5\nentropy = 0.25\nsamples = 24\nvalue = [1, 23]"] ;
414 -> 415 ;
416 [label="entropy = 0.0\nsamples = 23\nvalue = [0, 23]"] ;
415 -> 416 ;
417 [label="entropy = 0.0\nsamples = 1\nvalue = [1, 0]"] ;
415 -> 417 ;
418 [label="entropy = 0.0\nsamples = 1\nvalue = [1, 0]"] ;
414 -> 418 ;
419 [label="entropy = 0.0\nsamples = 20\nvalue = [20, 0]"] ;
7 -> 419 ;
420 [label="entropy = 0.0\nsamples = 18\nvalue = [0, 18]"] ;
6 -> 420 ;
421 [label="entropy = 0.0\nsamples = 19\nvalue = [0, 19]"] ;
5 -> 421 ;
422 [label="entropy = 0.0\nsamples = 26\nvalue = [26, 0]"] ;
4 -> 422 ;
423 [label="X[387] <= 0.5\nentropy = 0.165\nsamples = 41\nvalue = [1, 40]"] ;
3 -> 423 ;
424 [label="entropy = 0.0\nsamples = 40\nvalue = [0, 40]"] ;
423 -> 424 ;
425 [label="entropy = 0.0\nsamples = 1\nvalue = [1, 0]"] ;
423 -> 425 ;
426 [label="X[799] <= 0.5\nentropy = 0.207\nsamples = 92\nvalue = [3, 89]"] ;
2 -> 426 ;
427 [label="X[5313] <= 0.5\nentropy = 0.152\nsamples = 91\nvalue = [2, 89]"] ;
426 -> 427 ;
428 [label="X[0] <= 0.5\nentropy = 0.088\nsamples = 90\nvalue = [1, 89]"] ;
427 -> 428 ;
429 [label="entropy = 0.0\nsamples = 65\nvalue = [0, 65]"] ;
428 -> 429 ;
430 [label="X[87] <= 0.5\nentropy = 0.242\nsamples = 25\nvalue = [1, 24]"] ;
428 -> 430 ;
431 [label="X[3] <= 0.5\nentropy = 0.267\nsamples = 22\nvalue = [1, 21]"] ;
430 -> 431 ;
432 [label="X[292] <= 0.5\nentropy = 0.297\nsamples = 19\nvalue = [1, 18]"] ;
431 -> 432 ;
433 [label="X[129] <= 0.5\nentropy = 0.323\nsamples = 17\nvalue = [1, 16]"] ;
432 -> 433 ;
434 [label="X[218] <= 0.5\nentropy = 0.353\nsamples = 15\nvalue = [1, 14]"] ;
433 -> 434 ;
435 [label="X[134] <= 0.5\nentropy = 0.391\nsamples = 13\nvalue = [1, 12]"] ;
434 -> 435 ;
436 [label="X[1041] <= 0.5\nentropy = 0.439\nsamples = 11\nvalue = [1, 10]"] ;
435 -> 436 ;
437 [label="X[1308] <= 0.5\nentropy = 0.469\nsamples = 10\nvalue = [1, 9]"] ;
436 -> 437 ;
438 [label="X[561] <= 0.5\nentropy = 0.503\nsamples = 9\nvalue = [1, 8]"] ;
437 -> 438 ;
439 [label="X[1542] <= 0.5\nentropy = 0.544\nsamples = 8\nvalue = [1, 7]"] ;
438 -> 439 ;
440 [label="X[2181] <= 0.5\nentropy = 0.592\nsamples = 7\nvalue = [1, 6]"] ;
439 -> 440 ;
441 [label="X[2575] <= 0.5\nentropy = 0.65\nsamples = 6\nvalue = [1, 5]"] ;
440 -> 441 ;
442 [label="X[73] <= 0.5\nentropy = 0.722\nsamples = 5\nvalue = [1, 4]"] ;
441 -> 442 ;
443 [label="X[352] <= 0.5\nentropy = 0.811\nsamples = 4\nvalue = [1, 3]"] ;
442 -> 443 ;
444 [label="X[3209] <= 0.5\nentropy = 0.918\nsamples = 3\nvalue = [1, 2]"] ;
443 -> 444 ;
445 [label="X[1829] <= 0.5\nentropy = 1.0\nsamples = 2\nvalue = [1, 1]"] ;
444 -> 445 ;
446 [label="entropy = 0.0\nsamples = 1\nvalue = [1, 0]"] ;
445 -> 446 ;
447 [label="entropy = 0.0\nsamples = 1\nvalue = [0, 1]"] ;
445 -> 447 ;
448 [label="entropy = 0.0\nsamples = 1\nvalue = [0, 1]"] ;
444 -> 448 ;
449 [label="entropy = 0.0\nsamples = 1\nvalue = [0, 1]"] ;
443 -> 449 ;
450 [label="entropy = 0.0\nsamples = 1\nvalue = [0, 1]"] ;
442 -> 450 ;
451 [label="entropy = 0.0\nsamples = 1\nvalue = [0, 1]"] ;
441 -> 451 ;
452 [label="entropy = 0.0\nsamples = 1\nvalue = [0, 1]"] ;
440 -> 452 ;
453 [label="entropy = 0.0\nsamples = 1\nvalue = [0, 1]"] ;
439 -> 453 ;
454 [label="entropy = 0.0\nsamples = 1\nvalue = [0, 1]"] ;
438 -> 454 ;
455 [label="entropy = 0.0\nsamples = 1\nvalue = [0, 1]"] ;
437 -> 455 ;
456 [label="entropy = 0.0\nsamples = 1\nvalue = [0, 1]"] ;
436 -> 456 ;
457 [label="entropy = 0.0\nsamples = 2\nvalue = [0, 2]"] ;
435 -> 457 ;
458 [label="entropy = 0.0\nsamples = 2\nvalue = [0, 2]"] ;
434 -> 458 ;
459 [label="entropy = 0.0\nsamples = 2\nvalue = [0, 2]"] ;
433 -> 459 ;
460 [label="entropy = 0.0\nsamples = 2\nvalue = [0, 2]"] ;
432 -> 460 ;
461 [label="entropy = 0.0\nsamples = 3\nvalue = [0, 3]"] ;
431 -> 461 ;
462 [label="entropy = 0.0\nsamples = 3\nvalue = [0, 3]"] ;
430 -> 462 ;
463 [label="entropy = 0.0\nsamples = 1\nvalue = [1, 0]"] ;
427 -> 463 ;
464 [label="entropy = 0.0\nsamples = 1\nvalue = [1, 0]"] ;
426 -> 464 ;
465 [label="entropy = 0.0\nsamples = 95\nvalue = [95, 0]"] ;
1 -> 465 ;
466 [label="X[1] <= 0.5\nentropy = 0.722\nsamples = 730\nvalue = [584, 146]"] ;
0 -> 466 [labeldistance=2.5, labelangle=-45, headlabel="False"] ;
467 [label="entropy = 0.0\nsamples = 65\nvalue = [65, 0]"] ;
466 -> 467 ;
468 [label="X[267] <= 0.5\nentropy = 0.759\nsamples = 665\nvalue = [519, 146]"] ;
466 -> 468 ;
469 [label="X[30] <= 0.5\nentropy = 0.737\nsamples = 650\nvalue = [515, 135]"] ;
468 -> 469 ;
470 [label="X[131] <= 0.5\nentropy = 0.723\nsamples = 644\nvalue = [515, 129]"] ;
469 -> 470 ;
471 [label="X[32] <= 0.5\nentropy = 0.71\nsamples = 639\nvalue = [515, 124]"] ;
470 -> 471 ;
472 [label="X[45] <= 0.5\nentropy = 0.675\nsamples = 608\nvalue = [500, 108]"] ;
471 -> 472 ;
473 [label="X[611] <= 0.5\nentropy = 0.663\nsamples = 604\nvalue = [500, 104]"] ;
472 -> 473 ;
474 [label="X[191] <= 0.5\nentropy = 0.65\nsamples = 600\nvalue = [500, 100]"] ;
473 -> 474 ;
475 [label="X[97] <= 0.5\nentropy = 0.631\nsamples = 592\nvalue = [498, 94]"] ;
474 -> 475 ;
476 [label="X[1634] <= 0.5\nentropy = 0.607\nsamples = 578\nvalue = [492, 86]"] ;
475 -> 476 ;
477 [label="X[1483] <= 0.5\nentropy = 0.596\nsamples = 575\nvalue = [492, 83]"] ;
476 -> 477 ;
478 [label="X[9] <= 0.5\nentropy = 0.581\nsamples = 570\nvalue = [491, 79]"] ;
477 -> 478 ;
479 [label="X[184] <= 0.5\nentropy = 0.608\nsamples = 522\nvalue = [444, 78]"] ;
478 -> 479 ;
480 [label="X[422] <= 0.5\nentropy = 0.593\nsamples = 516\nvalue = [442, 74]"] ;
479 -> 480 ;
481 [label="X[1103] <= 0.5\nentropy = 0.584\nsamples = 514\nvalue = [442, 72]"] ;
480 -> 481 ;
482 [label="X[41] <= 0.5\nentropy = 0.576\nsamples = 512\nvalue = [442, 70]"] ;
481 -> 482 ;
483 [label="X[257] <= 0.5\nentropy = 0.567\nsamples = 510\nvalue = [442, 68]"] ;
482 -> 483 ;
484 [label="X[242] <= 0.5\nentropy = 0.557\nsamples = 508\nvalue = [442, 66]"] ;
483 -> 484 ;
485 [label="X[1336] <= 0.5\nentropy = 0.548\nsamples = 506\nvalue = [442, 64]"] ;
484 -> 485 ;
486 [label="X[792] <= 0.5\nentropy = 0.538\nsamples = 504\nvalue = [442, 62]"] ;
485 -> 486 ;
487 [label="X[398] <= 0.5\nentropy = 0.528\nsamples = 502\nvalue = [442, 60]"] ;
486 -> 487 ;
488 [label="X[620] <= 0.5\nentropy = 0.518\nsamples = 500\nvalue = [442, 58]"] ;
487 -> 488 ;
489 [label="X[606] <= 0.5\nentropy = 0.507\nsamples = 498\nvalue = [442, 56]"] ;
488 -> 489 ;
490 [label="X[368] <= 0.5\nentropy = 0.497\nsamples = 496\nvalue = [442, 54]"] ;
489 -> 490 ;
491 [label="X[450] <= 0.5\nentropy = 0.481\nsamples = 491\nvalue = [440, 51]"] ;
490 -> 491 ;
492 [label="X[18] <= 0.5\nentropy = 0.47\nsamples = 488\nvalue = [439, 49]"] ;
491 -> 492 ;
493 [label="X[190] <= 0.5\nentropy = 0.459\nsamples = 485\nvalue = [438, 47]"] ;
492 -> 493 ;
494 [label="X[110] <= 0.5\nentropy = 0.448\nsamples = 482\nvalue = [437, 45]"] ;
493 -> 494 ;
495 [label="X[3286] <= 0.5\nentropy = 0.436\nsamples = 479\nvalue = [436, 43]"] ;
494 -> 495 ;
496 [label="X[942] <= 0.5\nentropy = 0.429\nsamples = 478\nvalue = [436, 42]"] ;
495 -> 496 ;
497 [label="X[1677] <= 0.5\nentropy = 0.423\nsamples = 477\nvalue = [436, 41]"] ;
496 -> 497 ;
498 [label="X[3482] <= 0.5\nentropy = 0.416\nsamples = 476\nvalue = [436, 40]"] ;
497 -> 498 ;
499 [label="X[544] <= 0.5\nentropy = 0.41\nsamples = 475\nvalue = [436, 39]"] ;
498 -> 499 ;
500 [label="X[553] <= 0.5\nentropy = 0.403\nsamples = 474\nvalue = [436, 38]"] ;
499 -> 500 ;
501 [label="X[149] <= 0.5\nentropy = 0.396\nsamples = 473\nvalue = [436, 37]"] ;
500 -> 501 ;
502 [label="X[213] <= 0.5\nentropy = 0.389\nsamples = 472\nvalue = [436, 36]"] ;
501 -> 502 ;
503 [label="X[379] <= 0.5\nentropy = 0.382\nsamples = 471\nvalue = [436, 35]"] ;
502 -> 503 ;
504 [label="X[2370] <= 0.5\nentropy = 0.363\nsamples = 462\nvalue = [430, 32]"] ;
503 -> 504 ;
505 [label="X[596] <= 0.5\nentropy = 0.356\nsamples = 461\nvalue = [430, 31]"] ;
504 -> 505 ;
506 [label="X[1925] <= 0.5\nentropy = 0.348\nsamples = 460\nvalue = [430, 30]"] ;
505 -> 506 ;
507 [label="X[1769] <= 0.5\nentropy = 0.34\nsamples = 459\nvalue = [430, 29]"] ;
506 -> 507 ;
508 [label="X[1858] <= 0.5\nentropy = 0.332\nsamples = 458\nvalue = [430, 28]"] ;
507 -> 508 ;
509 [label="X[1749] <= 0.5\nentropy = 0.324\nsamples = 457\nvalue = [430, 27]"] ;
508 -> 509 ;
510 [label="X[838] <= 0.5\nentropy = 0.315\nsamples = 456\nvalue = [430, 26]"] ;
509 -> 510 ;
511 [label="X[829] <= 0.5\nentropy = 0.307\nsamples = 455\nvalue = [430, 25]"] ;
510 -> 511 ;
512 [label="X[1237] <= 0.5\nentropy = 0.298\nsamples = 454\nvalue = [430, 24]"] ;
511 -> 512 ;
513 [label="X[533] <= 0.5\nentropy = 0.29\nsamples = 453\nvalue = [430, 23]"] ;
512 -> 513 ;
514 [label="X[2560] <= 0.5\nentropy = 0.281\nsamples = 452\nvalue = [430, 22]"] ;
513 -> 514 ;
515 [label="X[1056] <= 0.5\nentropy = 0.272\nsamples = 451\nvalue = [430, 21]"] ;
514 -> 515 ;
516 [label="X[2853] <= 0.5\nentropy = 0.262\nsamples = 450\nvalue = [430, 20]"] ;
515 -> 516 ;
517 [label="X[1967] <= 0.5\nentropy = 0.253\nsamples = 449\nvalue = [430, 19]"] ;
516 -> 517 ;
518 [label="X[3] <= 0.5\nentropy = 0.243\nsamples = 448\nvalue = [430, 18]"] ;
517 -> 518 ;
519 [label="X[2578] <= 0.5\nentropy = 0.224\nsamples = 443\nvalue = [427, 16]"] ;
518 -> 519 ;
520 [label="X[3342] <= 0.5\nentropy = 0.214\nsamples = 442\nvalue = [427, 15]"] ;
519 -> 520 ;
521 [label="X[1208] <= 0.5\nentropy = 0.203\nsamples = 441\nvalue = [427, 14]"] ;
520 -> 521 ;
522 [label="X[2673] <= 0.5\nentropy = 0.192\nsamples = 440\nvalue = [427, 13]"] ;
521 -> 522 ;
523 [label="X[1923] <= 0.5\nentropy = 0.181\nsamples = 439\nvalue = [427, 12]"] ;
522 -> 523 ;
524 [label="X[3026] <= 0.5\nentropy = 0.169\nsamples = 438\nvalue = [427, 11]"] ;
523 -> 524 ;
525 [label="X[1231] <= 0.5\nentropy = 0.157\nsamples = 437\nvalue = [427, 10]"] ;
524 -> 525 ;
526 [label="X[1143] <= 0.5\nentropy = 0.145\nsamples = 436\nvalue = [427, 9]"] ;
525 -> 526 ;
527 [label="X[1821] <= 0.5\nentropy = 0.132\nsamples = 435\nvalue = [427, 8]"] ;
526 -> 527 ;
528 [label="X[3262] <= 0.5\nentropy = 0.119\nsamples = 434\nvalue = [427, 7]"] ;
527 -> 528 ;
529 [label="X[1587] <= 0.5\nentropy = 0.105\nsamples = 433\nvalue = [427, 6]"] ;
528 -> 529 ;
530 [label="X[221] <= 0.5\nentropy = 0.091\nsamples = 432\nvalue = [427, 5]"] ;
529 -> 530 ;
531 [label="X[2616] <= 0.5\nentropy = 0.076\nsamples = 431\nvalue = [427, 4]"] ;
530 -> 531 ;
532 [label="X[946] <= 0.5\nentropy = 0.06\nsamples = 430\nvalue = [427, 3]"] ;
531 -> 532 ;
533 [label="X[2564] <= 0.5\nentropy = 0.043\nsamples = 429\nvalue = [427, 2]"] ;
532 -> 533 ;
534 [label="X[2058] <= 0.5\nentropy = 0.024\nsamples = 428\nvalue = [427, 1]"] ;
533 -> 534 ;
535 [label="entropy = 0.0\nsamples = 427\nvalue = [427, 0]"] ;
534 -> 535 ;
536 [label="entropy = 0.0\nsamples = 1\nvalue = [0, 1]"] ;
534 -> 536 ;
537 [label="entropy = 0.0\nsamples = 1\nvalue = [0, 1]"] ;
533 -> 537 ;
538 [label="entropy = 0.0\nsamples = 1\nvalue = [0, 1]"] ;
532 -> 538 ;
539 [label="entropy = 0.0\nsamples = 1\nvalue = [0, 1]"] ;
531 -> 539 ;
540 [label="entropy = 0.0\nsamples = 1\nvalue = [0, 1]"] ;
530 -> 540 ;
541 [label="entropy = 0.0\nsamples = 1\nvalue = [0, 1]"] ;
529 -> 541 ;
542 [label="entropy = 0.0\nsamples = 1\nvalue = [0, 1]"] ;
528 -> 542 ;
543 [label="entropy = 0.0\nsamples = 1\nvalue = [0, 1]"] ;
527 -> 543 ;
544 [label="entropy = 0.0\nsamples = 1\nvalue = [0, 1]"] ;
526 -> 544 ;
545 [label="entropy = 0.0\nsamples = 1\nvalue = [0, 1]"] ;
525 -> 545 ;
546 [label="entropy = 0.0\nsamples = 1\nvalue = [0, 1]"] ;
524 -> 546 ;
547 [label="entropy = 0.0\nsamples = 1\nvalue = [0, 1]"] ;
523 -> 547 ;
548 [label="entropy = 0.0\nsamples = 1\nvalue = [0, 1]"] ;
522 -> 548 ;
549 [label="entropy = 0.0\nsamples = 1\nvalue = [0, 1]"] ;
521 -> 549 ;
550 [label="entropy = 0.0\nsamples = 1\nvalue = [0, 1]"] ;
520 -> 550 ;
551 [label="entropy = 0.0\nsamples = 1\nvalue = [0, 1]"] ;
519 -> 551 ;
552 [label="X[329] <= 0.5\nentropy = 0.971\nsamples = 5\nvalue = [3, 2]"] ;
518 -> 552 ;
553 [label="X[56] <= 0.5\nentropy = 0.811\nsamples = 4\nvalue = [3, 1]"] ;
552 -> 553 ;
554 [label="entropy = 0.0\nsamples = 3\nvalue = [3, 0]"] ;
553 -> 554 ;
555 [label="entropy = 0.0\nsamples = 1\nvalue = [0, 1]"] ;
553 -> 555 ;
556 [label="entropy = 0.0\nsamples = 1\nvalue = [0, 1]"] ;
552 -> 556 ;
557 [label="entropy = 0.0\nsamples = 1\nvalue = [0, 1]"] ;
517 -> 557 ;
558 [label="entropy = 0.0\nsamples = 1\nvalue = [0, 1]"] ;
516 -> 558 ;
559 [label="entropy = 0.0\nsamples = 1\nvalue = [0, 1]"] ;
515 -> 559 ;
560 [label="entropy = 0.0\nsamples = 1\nvalue = [0, 1]"] ;
514 -> 560 ;
561 [label="entropy = 0.0\nsamples = 1\nvalue = [0, 1]"] ;
513 -> 561 ;
562 [label="entropy = 0.0\nsamples = 1\nvalue = [0, 1]"] ;
512 -> 562 ;
563 [label="entropy = 0.0\nsamples = 1\nvalue = [0, 1]"] ;
511 -> 563 ;
564 [label="entropy = 0.0\nsamples = 1\nvalue = [0, 1]"] ;
510 -> 564 ;
565 [label="entropy = 0.0\nsamples = 1\nvalue = [0, 1]"] ;
509 -> 565 ;
566 [label="entropy = 0.0\nsamples = 1\nvalue = [0, 1]"] ;
508 -> 566 ;
567 [label="entropy = 0.0\nsamples = 1\nvalue = [0, 1]"] ;
507 -> 567 ;
568 [label="entropy = 0.0\nsamples = 1\nvalue = [0, 1]"] ;
506 -> 568 ;
569 [label="entropy = 0.0\nsamples = 1\nvalue = [0, 1]"] ;
505 -> 569 ;
570 [label="entropy = 0.0\nsamples = 1\nvalue = [0, 1]"] ;
504 -> 570 ;
571 [label="X[2684] <= 0.5\nentropy = 0.918\nsamples = 9\nvalue = [6, 3]"] ;
503 -> 571 ;
572 [label="X[1695] <= 0.5\nentropy = 0.811\nsamples = 8\nvalue = [6, 2]"] ;
571 -> 572 ;
573 [label="X[714] <= 0.5\nentropy = 0.592\nsamples = 7\nvalue = [6, 1]"] ;
572 -> 573 ;
574 [label="entropy = 0.0\nsamples = 6\nvalue = [6, 0]"] ;
573 -> 574 ;
575 [label="entropy = 0.0\nsamples = 1\nvalue = [0, 1]"] ;
573 -> 575 ;
576 [label="entropy = 0.0\nsamples = 1\nvalue = [0, 1]"] ;
572 -> 576 ;
577 [label="entropy = 0.0\nsamples = 1\nvalue = [0, 1]"] ;
571 -> 577 ;
578 [label="entropy = 0.0\nsamples = 1\nvalue = [0, 1]"] ;
502 -> 578 ;
579 [label="entropy = 0.0\nsamples = 1\nvalue = [0, 1]"] ;
501 -> 579 ;
580 [label="entropy = 0.0\nsamples = 1\nvalue = [0, 1]"] ;
500 -> 580 ;
581 [label="entropy = 0.0\nsamples = 1\nvalue = [0, 1]"] ;
499 -> 581 ;
582 [label="entropy = 0.0\nsamples = 1\nvalue = [0, 1]"] ;
498 -> 582 ;
583 [label="entropy = 0.0\nsamples = 1\nvalue = [0, 1]"] ;
497 -> 583 ;
584 [label="entropy = 0.0\nsamples = 1\nvalue = [0, 1]"] ;
496 -> 584 ;
585 [label="entropy = 0.0\nsamples = 1\nvalue = [0, 1]"] ;
495 -> 585 ;
586 [label="X[231] <= 0.5\nentropy = 0.918\nsamples = 3\nvalue = [1, 2]"] ;
494 -> 586 ;
587 [label="entropy = 0.0\nsamples = 2\nvalue = [0, 2]"] ;
586 -> 587 ;
588 [label="entropy = 0.0\nsamples = 1\nvalue = [1, 0]"] ;
586 -> 588 ;
589 [label="X[781] <= 0.5\nentropy = 0.918\nsamples = 3\nvalue = [1, 2]"] ;
493 -> 589 ;
590 [label="entropy = 0.0\nsamples = 2\nvalue = [0, 2]"] ;
589 -> 590 ;
591 [label="entropy = 0.0\nsamples = 1\nvalue = [1, 0]"] ;
589 -> 591 ;
592 [label="X[817] <= 0.5\nentropy = 0.918\nsamples = 3\nvalue = [1, 2]"] ;
492 -> 592 ;
593 [label="entropy = 0.0\nsamples = 2\nvalue = [0, 2]"] ;
592 -> 593 ;
594 [label="entropy = 0.0\nsamples = 1\nvalue = [1, 0]"] ;
592 -> 594 ;
595 [label="X[3711] <= 0.5\nentropy = 0.918\nsamples = 3\nvalue = [1, 2]"] ;
491 -> 595 ;
596 [label="entropy = 0.0\nsamples = 2\nvalue = [0, 2]"] ;
595 -> 596 ;
597 [label="entropy = 0.0\nsamples = 1\nvalue = [1, 0]"] ;
595 -> 597 ;
598 [label="X[115] <= 0.5\nentropy = 0.971\nsamples = 5\nvalue = [2, 3]"] ;
490 -> 598 ;
599 [label="X[924] <= 0.5\nentropy = 0.918\nsamples = 3\nvalue = [2, 1]"] ;
598 -> 599 ;
600 [label="entropy = 0.0\nsamples = 2\nvalue = [2, 0]"] ;
599 -> 600 ;
601 [label="entropy = 0.0\nsamples = 1\nvalue = [0, 1]"] ;
599 -> 601 ;
602 [label="entropy = 0.0\nsamples = 2\nvalue = [0, 2]"] ;
598 -> 602 ;
603 [label="entropy = 0.0\nsamples = 2\nvalue = [0, 2]"] ;
489 -> 603 ;
604 [label="entropy = 0.0\nsamples = 2\nvalue = [0, 2]"] ;
488 -> 604 ;
605 [label="entropy = 0.0\nsamples = 2\nvalue = [0, 2]"] ;
487 -> 605 ;
606 [label="entropy = 0.0\nsamples = 2\nvalue = [0, 2]"] ;
486 -> 606 ;
607 [label="entropy = 0.0\nsamples = 2\nvalue = [0, 2]"] ;
485 -> 607 ;
608 [label="entropy = 0.0\nsamples = 2\nvalue = [0, 2]"] ;
484 -> 608 ;
609 [label="entropy = 0.0\nsamples = 2\nvalue = [0, 2]"] ;
483 -> 609 ;
610 [label="entropy = 0.0\nsamples = 2\nvalue = [0, 2]"] ;
482 -> 610 ;
611 [label="entropy = 0.0\nsamples = 2\nvalue = [0, 2]"] ;
481 -> 611 ;
612 [label="entropy = 0.0\nsamples = 2\nvalue = [0, 2]"] ;
480 -> 612 ;
613 [label="X[3749] <= 0.5\nentropy = 0.918\nsamples = 6\nvalue = [2, 4]"] ;
479 -> 613 ;
614 [label="X[3731] <= 0.5\nentropy = 0.722\nsamples = 5\nvalue = [1, 4]"] ;
613 -> 614 ;
615 [label="entropy = 0.0\nsamples = 4\nvalue = [0, 4]"] ;
614 -> 615 ;
616 [label="entropy = 0.0\nsamples = 1\nvalue = [1, 0]"] ;
614 -> 616 ;
617 [label="entropy = 0.0\nsamples = 1\nvalue = [1, 0]"] ;
613 -> 617 ;
618 [label="X[286] <= 0.5\nentropy = 0.146\nsamples = 48\nvalue = [47, 1]"] ;
478 -> 618 ;
619 [label="entropy = 0.0\nsamples = 47\nvalue = [47, 0]"] ;
618 -> 619 ;
620 [label="entropy = 0.0\nsamples = 1\nvalue = [0, 1]"] ;
618 -> 620 ;
621 [label="X[3641] <= 0.5\nentropy = 0.722\nsamples = 5\nvalue = [1, 4]"] ;
477 -> 621 ;
622 [label="entropy = 0.0\nsamples = 4\nvalue = [0, 4]"] ;
621 -> 622 ;
623 [label="entropy = 0.0\nsamples = 1\nvalue = [1, 0]"] ;
621 -> 623 ;
624 [label="entropy = 0.0\nsamples = 3\nvalue = [0, 3]"] ;
476 -> 624 ;
625 [label="X[231] <= 0.5\nentropy = 0.985\nsamples = 14\nvalue = [6, 8]"] ;
475 -> 625 ;
626 [label="X[2724] <= 0.5\nentropy = 0.881\nsamples = 10\nvalue = [3, 7]"] ;
625 -> 626 ;
627 [label="X[4423] <= 0.5\nentropy = 0.764\nsamples = 9\nvalue = [2, 7]"] ;
626 -> 627 ;
628 [label="X[3949] <= 0.5\nentropy = 0.544\nsamples = 8\nvalue = [1, 7]"] ;
627 -> 628 ;
629 [label="entropy = 0.0\nsamples = 7\nvalue = [0, 7]"] ;
628 -> 629 ;
630 [label="entropy = 0.0\nsamples = 1\nvalue = [1, 0]"] ;
628 -> 630 ;
631 [label="entropy = 0.0\nsamples = 1\nvalue = [1, 0]"] ;
627 -> 631 ;
632 [label="entropy = 0.0\nsamples = 1\nvalue = [1, 0]"] ;
626 -> 632 ;
633 [label="X[2811] <= 0.5\nentropy = 0.811\nsamples = 4\nvalue = [3, 1]"] ;
625 -> 633 ;
634 [label="entropy = 0.0\nsamples = 3\nvalue = [3, 0]"] ;
633 -> 634 ;
635 [label="entropy = 0.0\nsamples = 1\nvalue = [0, 1]"] ;
633 -> 635 ;
636 [label="X[4173] <= 0.5\nentropy = 0.811\nsamples = 8\nvalue = [2, 6]"] ;
474 -> 636 ;
637 [label="X[2781] <= 0.5\nentropy = 0.592\nsamples = 7\nvalue = [1, 6]"] ;
636 -> 637 ;
638 [label="entropy = 0.0\nsamples = 6\nvalue = [0, 6]"] ;
637 -> 638 ;
639 [label="entropy = 0.0\nsamples = 1\nvalue = [1, 0]"] ;
637 -> 639 ;
640 [label="entropy = 0.0\nsamples = 1\nvalue = [1, 0]"] ;
636 -> 640 ;
641 [label="entropy = 0.0\nsamples = 4\nvalue = [0, 4]"] ;
473 -> 641 ;
642 [label="entropy = 0.0\nsamples = 4\nvalue = [0, 4]"] ;
472 -> 642 ;
643 [label="X[231] <= 0.5\nentropy = 0.999\nsamples = 31\nvalue = [15, 16]"] ;
471 -> 643 ;
644 [label="X[3570] <= 0.5\nentropy = 0.961\nsamples = 26\nvalue = [10, 16]"] ;
643 -> 644 ;
645 [label="X[0] <= 0.5\nentropy = 0.887\nsamples = 23\nvalue = [7, 16]"] ;
644 -> 645 ;
646 [label="entropy = 0.0\nsamples = 5\nvalue = [0, 5]"] ;
645 -> 646 ;
647 [label="X[2904] <= 0.5\nentropy = 0.964\nsamples = 18\nvalue = [7, 11]"] ;
645 -> 647 ;
648 [label="X[174] <= 0.5\nentropy = 0.989\nsamples = 16\nvalue = [7, 9]"] ;
647 -> 648 ;
649 [label="X[1494] <= 0.5\nentropy = 1.0\nsamples = 14\nvalue = [7, 7]"] ;
648 -> 649 ;
650 [label="X[3404] <= 0.5\nentropy = 0.996\nsamples = 13\nvalue = [7, 6]"] ;
649 -> 650 ;
651 [label="X[334] <= 0.5\nentropy = 0.98\nsamples = 12\nvalue = [7, 5]"] ;
650 -> 651 ;
652 [label="X[543] <= 0.5\nentropy = 0.946\nsamples = 11\nvalue = [7, 4]"] ;
651 -> 652 ;
653 [label="X[2858] <= 0.5\nentropy = 0.881\nsamples = 10\nvalue = [7, 3]"] ;
652 -> 653 ;
654 [label="X[2182] <= 0.5\nentropy = 0.764\nsamples = 9\nvalue = [7, 2]"] ;
653 -> 654 ;
655 [label="X[702] <= 0.5\nentropy = 0.544\nsamples = 8\nvalue = [7, 1]"] ;
654 -> 655 ;
656 [label="entropy = 0.0\nsamples = 7\nvalue = [7, 0]"] ;
655 -> 656 ;
657 [label="entropy = 0.0\nsamples = 1\nvalue = [0, 1]"] ;
655 -> 657 ;
658 [label="entropy = 0.0\nsamples = 1\nvalue = [0, 1]"] ;
654 -> 658 ;
659 [label="entropy = 0.0\nsamples = 1\nvalue = [0, 1]"] ;
653 -> 659 ;
660 [label="entropy = 0.0\nsamples = 1\nvalue = [0, 1]"] ;
652 -> 660 ;
661 [label="entropy = 0.0\nsamples = 1\nvalue = [0, 1]"] ;
651 -> 661 ;
662 [label="entropy = 0.0\nsamples = 1\nvalue = [0, 1]"] ;
650 -> 662 ;
663 [label="entropy = 0.0\nsamples = 1\nvalue = [0, 1]"] ;
649 -> 663 ;
664 [label="entropy = 0.0\nsamples = 2\nvalue = [0, 2]"] ;
648 -> 664 ;
665 [label="entropy = 0.0\nsamples = 2\nvalue = [0, 2]"] ;
647 -> 665 ;
666 [label="entropy = 0.0\nsamples = 3\nvalue = [3, 0]"] ;
644 -> 666 ;
667 [label="entropy = 0.0\nsamples = 5\nvalue = [5, 0]"] ;
643 -> 667 ;
668 [label="entropy = 0.0\nsamples = 5\nvalue = [0, 5]"] ;
470 -> 668 ;
669 [label="entropy = 0.0\nsamples = 6\nvalue = [0, 6]"] ;
469 -> 669 ;
670 [label="X[5209] <= 0.5\nentropy = 0.837\nsamples = 15\nvalue = [4, 11]"] ;
468 -> 670 ;
671 [label="X[1350] <= 0.5\nentropy = 0.75\nsamples = 14\nvalue = [3, 11]"] ;
670 -> 671 ;
672 [label="X[4099] <= 0.5\nentropy = 0.619\nsamples = 13\nvalue = [2, 11]"] ;
671 -> 672 ;
673 [label="X[582] <= 0.5\nentropy = 0.414\nsamples = 12\nvalue = [1, 11]"] ;
672 -> 673 ;
674 [label="entropy = 0.0\nsamples = 11\nvalue = [0, 11]"] ;
673 -> 674 ;
675 [label="entropy = 0.0\nsamples = 1\nvalue = [1, 0]"] ;
673 -> 675 ;
676 [label="entropy = 0.0\nsamples = 1\nvalue = [1, 0]"] ;
672 -> 676 ;
677 [label="entropy = 0.0\nsamples = 1\nvalue = [1, 0]"] ;
671 -> 677 ;
678 [label="entropy = 0.0\nsamples = 1\nvalue = [1, 0]"] ;
670 -> 678 ;
}