digraph Tree {
node [shape=box] ;
0 [label="X[1680] <= 0.5\nentropy = 0.969\nsamples = 2287\nvalue = [1378, 909]"] ;
1 [label="X[1425] <= 0.5\nentropy = 0.968\nsamples = 2279\nvalue = [1377, 902]"] ;
0 -> 1 [labeldistance=2.5, labelangle=45, headlabel="True"] ;
2 [label="X[450] <= 0.5\nentropy = 0.968\nsamples = 2277\nvalue = [1377, 900]"] ;
1 -> 2 ;
3 [label="X[4160] <= 0.5\nentropy = 0.967\nsamples = 2261\nvalue = [1372, 889]"] ;
2 -> 3 ;
4 [label="X[1208] <= 0.5\nentropy = 0.967\nsamples = 2258\nvalue = [1369, 889]"] ;
3 -> 4 ;
5 [label="X[4433] <= 0.5\nentropy = 0.967\nsamples = 2256\nvalue = [1369, 887]"] ;
4 -> 5 ;
6 [label="X[424] <= 0.5\nentropy = 0.967\nsamples = 2254\nvalue = [1367, 887]"] ;
5 -> 6 ;
7 [label="X[1707] <= 0.5\nentropy = 0.967\nsamples = 2253\nvalue = [1367, 886]"] ;
6 -> 7 ;
8 [label="X[390] <= 0.5\nentropy = 0.967\nsamples = 2252\nvalue = [1367, 885]"] ;
7 -> 8 ;
9 [label="X[599] <= 0.5\nentropy = 0.965\nsamples = 2241\nvalue = [1365, 876]"] ;
8 -> 9 ;
10 [label="entropy = 0.965\nsamples = 2238\nvalue = [1365, 873]"] ;
9 -> 10 ;
11 [label="entropy = 0.0\nsamples = 3\nvalue = [0, 3]"] ;
9 -> 11 ;
12 [label="X[1380] <= 0.5\nentropy = 0.684\nsamples = 11\nvalue = [2, 9]"] ;
8 -> 12 ;
13 [label="entropy = 0.469\nsamples = 10\nvalue = [1, 9]"] ;
12 -> 13 ;
14 [label="entropy = 0.0\nsamples = 1\nvalue = [1, 0]"] ;
12 -> 14 ;
15 [label="entropy = 0.0\nsamples = 1\nvalue = [0, 1]"] ;
7 -> 15 ;
16 [label="entropy = 0.0\nsamples = 1\nvalue = [0, 1]"] ;
6 -> 16 ;
17 [label="entropy = 0.0\nsamples = 2\nvalue = [2, 0]"] ;
5 -> 17 ;
18 [label="entropy = 0.0\nsamples = 2\nvalue = [0, 2]"] ;
4 -> 18 ;
19 [label="entropy = 0.0\nsamples = 3\nvalue = [3, 0]"] ;
3 -> 19 ;
20 [label="X[964] <= 0.5\nentropy = 0.896\nsamples = 16\nvalue = [5, 11]"] ;
2 -> 20 ;
21 [label="X[515] <= 0.5\nentropy = 0.837\nsamples = 15\nvalue = [4, 11]"] ;
20 -> 21 ;
22 [label="X[5759] <= 0.5\nentropy = 0.863\nsamples = 14\nvalue = [4, 10]"] ;
21 -> 22 ;
23 [label="X[1108] <= 0.5\nentropy = 0.779\nsamples = 13\nvalue = [3, 10]"] ;
22 -> 23 ;
24 [label="X[488] <= 0.5\nentropy = 0.811\nsamples = 12\nvalue = [3, 9]"] ;
23 -> 24 ;
25 [label="X[55] <= 0.5\nentropy = 0.845\nsamples = 11\nvalue = [3, 8]"] ;
24 -> 25 ;
26 [label="X[169] <= 0.5\nentropy = 0.722\nsamples = 10\nvalue = [2, 8]"] ;
25 -> 26 ;
27 [label="entropy = 0.764\nsamples = 9\nvalue = [2, 7]"] ;
26 -> 27 ;
28 [label="entropy = 0.0\nsamples = 1\nvalue = [0, 1]"] ;
26 -> 28 ;
29 [label="entropy = 0.0\nsamples = 1\nvalue = [1, 0]"] ;
25 -> 29 ;
30 [label="entropy = 0.0\nsamples = 1\nvalue = [0, 1]"] ;
24 -> 30 ;
31 [label="entropy = 0.0\nsamples = 1\nvalue = [0, 1]"] ;
23 -> 31 ;
32 [label="entropy = 0.0\nsamples = 1\nvalue = [1, 0]"] ;
22 -> 32 ;
33 [label="entropy = 0.0\nsamples = 1\nvalue = [0, 1]"] ;
21 -> 33 ;
34 [label="entropy = 0.0\nsamples = 1\nvalue = [1, 0]"] ;
20 -> 34 ;
35 [label="entropy = 0.0\nsamples = 2\nvalue = [0, 2]"] ;
1 -> 35 ;
36 [label="X[44] <= 0.5\nentropy = 0.544\nsamples = 8\nvalue = [1, 7]"] ;
0 -> 36 [labeldistance=2.5, labelangle=-45, headlabel="False"] ;
37 [label="X[285] <= 0.5\nentropy = 0.65\nsamples = 6\nvalue = [1, 5]"] ;
36 -> 37 ;
38 [label="X[2190] <= 0.5\nentropy = 0.722\nsamples = 5\nvalue = [1, 4]"] ;
37 -> 38 ;
39 [label="X[26] <= 0.5\nentropy = 0.811\nsamples = 4\nvalue = [1, 3]"] ;
38 -> 39 ;
40 [label="entropy = 0.0\nsamples = 1\nvalue = [1, 0]"] ;
39 -> 40 ;
41 [label="entropy = 0.0\nsamples = 3\nvalue = [0, 3]"] ;
39 -> 41 ;
42 [label="entropy = 0.0\nsamples = 1\nvalue = [0, 1]"] ;
38 -> 42 ;
43 [label="entropy = 0.0\nsamples = 1\nvalue = [0, 1]"] ;
37 -> 43 ;
44 [label="entropy = 0.0\nsamples = 2\nvalue = [0, 2]"] ;
36 -> 44 ;
}