digraph Tree {
node [shape=box] ;
0 [label="X[29] <= 0.5\nentropy = 0.969\nsamples = 2287\nvalue = [1378, 909]"] ;
1 [label="X[1609] <= 0.5\nentropy = 1.0\nsamples = 1557\nvalue = [794, 763]"] ;
0 -> 1 [labeldistance=2.5, labelangle=45, headlabel="True"] ;
2 [label="X[40] <= 0.5\nentropy = 0.999\nsamples = 1462\nvalue = [699, 763]"] ;
1 -> 2 ;
3 [label="X[81] <= 0.5\nentropy = 1.0\nsamples = 1370\nvalue = [696, 674]"] ;
2 -> 3 ;
4 [label="X[119] <= 0.5\nentropy = 0.987\nsamples = 1110\nvalue = [629, 481]"] ;
3 -> 4 ;
5 [label="X[226] <= 0.5\nentropy = 0.997\nsamples = 1005\nvalue = [534, 471]"] ;
4 -> 5 ;
6 [label="X[3719] <= 0.5\nentropy = 0.994\nsamples = 976\nvalue = [533, 443]"] ;
5 -> 6 ;
7 [label="X[428] <= 0.5\nentropy = 0.997\nsamples = 952\nvalue = [509, 443]"] ;
6 -> 7 ;
8 [label="X[3730] <= 0.5\nentropy = 0.994\nsamples = 934\nvalue = [509, 425]"] ;
7 -> 8 ;
9 [label="X[396] <= 0.5\nentropy = 0.996\nsamples = 917\nvalue = [492, 425]"] ;
8 -> 9 ;
10 [label="X[190] <= 0.5\nentropy = 0.994\nsamples = 905\nvalue = [492, 413]"] ;
9 -> 10 ;
11 [label="X[56] <= 0.5\nentropy = 0.992\nsamples = 889\nvalue = [491, 398]"] ;
10 -> 11 ;
12 [label="X[11] <= 0.5\nentropy = 0.99\nsamples = 879\nvalue = [491, 388]"] ;
11 -> 12 ;
13 [label="X[121] <= 0.5\nentropy = 0.995\nsamples = 806\nvalue = [435, 371]"] ;
12 -> 13 ;
14 [label="X[1991] <= 0.5\nentropy = 0.991\nsamples = 763\nvalue = [425, 338]"] ;
13 -> 14 ;
15 [label="X[19] <= 0.5\nentropy = 0.993\nsamples = 751\nvalue = [413, 338]"] ;
14 -> 15 ;
16 [label="X[623] <= 0.5\nentropy = 0.995\nsamples = 740\nvalue = [402, 338]"] ;
15 -> 16 ;
17 [label="X[110] <= 0.5\nentropy = 0.993\nsamples = 732\nvalue = [402, 330]"] ;
16 -> 17 ;
18 [label="X[122] <= 0.5\nentropy = 0.991\nsamples = 724\nvalue = [402, 322]"] ;
17 -> 18 ;
19 [label="X[472] <= 0.5\nentropy = 0.987\nsamples = 698\nvalue = [396, 302]"] ;
18 -> 19 ;
20 [label="X[46] <= 0.5\nentropy = 0.985\nsamples = 691\nvalue = [396, 295]"] ;
19 -> 20 ;
21 [label="X[3289] <= 0.5\nentropy = 0.981\nsamples = 680\nvalue = [395, 285]"] ;
20 -> 21 ;
22 [label="X[51] <= 0.5\nentropy = 0.984\nsamples = 669\nvalue = [384, 285]"] ;
21 -> 22 ;
23 [label="X[66] <= 0.5\nentropy = 0.982\nsamples = 663\nvalue = [384, 279]"] ;
22 -> 23 ;
24 [label="X[322] <= 0.5\nentropy = 0.978\nsamples = 653\nvalue = [383, 270]"] ;
23 -> 24 ;
25 [label="X[145] <= 0.5\nentropy = 0.974\nsamples = 643\nvalue = [382, 261]"] ;
24 -> 25 ;
26 [label="X[87] <= 0.5\nentropy = 0.977\nsamples = 634\nvalue = [373, 261]"] ;
25 -> 26 ;
27 [label="X[539] <= 0.5\nentropy = 0.974\nsamples = 628\nvalue = [373, 255]"] ;
26 -> 27 ;
28 [label="X[1316] <= 0.5\nentropy = 0.972\nsamples = 623\nvalue = [373, 250]"] ;
27 -> 28 ;
29 [label="X[3532] <= 0.5\nentropy = 0.975\nsamples = 615\nvalue = [365, 250]"] ;
28 -> 29 ;
30 [label="X[915] <= 0.5\nentropy = 0.977\nsamples = 607\nvalue = [357, 250]"] ;
29 -> 30 ;
31 [label="X[3777] <= 0.5\nentropy = 0.98\nsamples = 599\nvalue = [349, 250]"] ;
30 -> 31 ;
32 [label="X[1415] <= 0.5\nentropy = 0.983\nsamples = 591\nvalue = [341, 250]"] ;
31 -> 32 ;
33 [label="X[294] <= 0.5\nentropy = 0.986\nsamples = 578\nvalue = [329, 249]"] ;
32 -> 33 ;
34 [label="X[60] <= 0.5\nentropy = 0.98\nsamples = 553\nvalue = [322, 231]"] ;
33 -> 34 ;
35 [label="entropy = 0.976\nsamples = 544\nvalue = [321, 223]"] ;
34 -> 35 ;
36 [label="entropy = 0.503\nsamples = 9\nvalue = [1, 8]"] ;
34 -> 36 ;
37 [label="X[21] <= 0.5\nentropy = 0.855\nsamples = 25\nvalue = [7, 18]"] ;
33 -> 37 ;
38 [label="entropy = 0.755\nsamples = 23\nvalue = [5, 18]"] ;
37 -> 38 ;
39 [label="entropy = 0.0\nsamples = 2\nvalue = [2, 0]"] ;
37 -> 39 ;
40 [label="X[409] <= 0.5\nentropy = 0.391\nsamples = 13\nvalue = [12, 1]"] ;
32 -> 40 ;
41 [label="entropy = 0.0\nsamples = 12\nvalue = [12, 0]"] ;
40 -> 41 ;
42 [label="entropy = 0.0\nsamples = 1\nvalue = [0, 1]"] ;
40 -> 42 ;
43 [label="entropy = 0.0\nsamples = 8\nvalue = [8, 0]"] ;
31 -> 43 ;
44 [label="entropy = 0.0\nsamples = 8\nvalue = [8, 0]"] ;
30 -> 44 ;
45 [label="entropy = 0.0\nsamples = 8\nvalue = [8, 0]"] ;
29 -> 45 ;
46 [label="entropy = 0.0\nsamples = 8\nvalue = [8, 0]"] ;
28 -> 46 ;
47 [label="entropy = 0.0\nsamples = 5\nvalue = [0, 5]"] ;
27 -> 47 ;
48 [label="entropy = 0.0\nsamples = 6\nvalue = [0, 6]"] ;
26 -> 48 ;
49 [label="entropy = 0.0\nsamples = 9\nvalue = [9, 0]"] ;
25 -> 49 ;
50 [label="X[5135] <= 0.5\nentropy = 0.469\nsamples = 10\nvalue = [1, 9]"] ;
24 -> 50 ;
51 [label="entropy = 0.0\nsamples = 9\nvalue = [0, 9]"] ;
50 -> 51 ;
52 [label="entropy = 0.0\nsamples = 1\nvalue = [1, 0]"] ;
50 -> 52 ;
53 [label="X[3849] <= 0.5\nentropy = 0.469\nsamples = 10\nvalue = [1, 9]"] ;
23 -> 53 ;
54 [label="entropy = 0.0\nsamples = 9\nvalue = [0, 9]"] ;
53 -> 54 ;
55 [label="entropy = 0.0\nsamples = 1\nvalue = [1, 0]"] ;
53 -> 55 ;
56 [label="entropy = 0.0\nsamples = 6\nvalue = [0, 6]"] ;
22 -> 56 ;
57 [label="entropy = 0.0\nsamples = 11\nvalue = [11, 0]"] ;
21 -> 57 ;
58 [label="X[3461] <= 0.5\nentropy = 0.439\nsamples = 11\nvalue = [1, 10]"] ;
20 -> 58 ;
59 [label="entropy = 0.0\nsamples = 10\nvalue = [0, 10]"] ;
58 -> 59 ;
60 [label="entropy = 0.0\nsamples = 1\nvalue = [1, 0]"] ;
58 -> 60 ;
61 [label="entropy = 0.0\nsamples = 7\nvalue = [0, 7]"] ;
19 -> 61 ;
62 [label="X[4329] <= 0.5\nentropy = 0.779\nsamples = 26\nvalue = [6, 20]"] ;
18 -> 62 ;
63 [label="X[4338] <= 0.5\nentropy = 0.65\nsamples = 24\nvalue = [4, 20]"] ;
62 -> 63 ;
64 [label="X[5516] <= 0.5\nentropy = 0.559\nsamples = 23\nvalue = [3, 20]"] ;
63 -> 64 ;
65 [label="X[3892] <= 0.5\nentropy = 0.439\nsamples = 22\nvalue = [2, 20]"] ;
64 -> 65 ;
66 [label="X[414] <= 0.5\nentropy = 0.276\nsamples = 21\nvalue = [1, 20]"] ;
65 -> 66 ;
67 [label="entropy = 0.0\nsamples = 20\nvalue = [0, 20]"] ;
66 -> 67 ;
68 [label="entropy = 0.0\nsamples = 1\nvalue = [1, 0]"] ;
66 -> 68 ;
69 [label="entropy = 0.0\nsamples = 1\nvalue = [1, 0]"] ;
65 -> 69 ;
70 [label="entropy = 0.0\nsamples = 1\nvalue = [1, 0]"] ;
64 -> 70 ;
71 [label="entropy = 0.0\nsamples = 1\nvalue = [1, 0]"] ;
63 -> 71 ;
72 [label="entropy = 0.0\nsamples = 2\nvalue = [2, 0]"] ;
62 -> 72 ;
73 [label="entropy = 0.0\nsamples = 8\nvalue = [0, 8]"] ;
17 -> 73 ;
74 [label="entropy = 0.0\nsamples = 8\nvalue = [0, 8]"] ;
16 -> 74 ;
75 [label="entropy = 0.0\nsamples = 11\nvalue = [11, 0]"] ;
15 -> 75 ;
76 [label="entropy = 0.0\nsamples = 12\nvalue = [12, 0]"] ;
14 -> 76 ;
77 [label="X[403] <= 0.5\nentropy = 0.782\nsamples = 43\nvalue = [10, 33]"] ;
13 -> 77 ;
78 [label="X[258] <= 0.5\nentropy = 0.712\nsamples = 41\nvalue = [8, 33]"] ;
77 -> 78 ;
79 [label="X[26] <= 0.5\nentropy = 0.669\nsamples = 40\nvalue = [7, 33]"] ;
78 -> 79 ;
80 [label="X[4059] <= 0.5\nentropy = 0.784\nsamples = 30\nvalue = [7, 23]"] ;
79 -> 80 ;
81 [label="X[357] <= 0.5\nentropy = 0.736\nsamples = 29\nvalue = [6, 23]"] ;
80 -> 81 ;
82 [label="X[30] <= 0.5\nentropy = 0.619\nsamples = 26\nvalue = [4, 22]"] ;
81 -> 82 ;
83 [label="X[419] <= 0.5\nentropy = 0.31\nsamples = 18\nvalue = [1, 17]"] ;
82 -> 83 ;
84 [label="entropy = 0.0\nsamples = 17\nvalue = [0, 17]"] ;
83 -> 84 ;
85 [label="entropy = 0.0\nsamples = 1\nvalue = [1, 0]"] ;
83 -> 85 ;
86 [label="X[299] <= 0.5\nentropy = 0.954\nsamples = 8\nvalue = [3, 5]"] ;
82 -> 86 ;
87 [label="X[234] <= 0.5\nentropy = 0.863\nsamples = 7\nvalue = [2, 5]"] ;
86 -> 87 ;
88 [label="X[447] <= 0.5\nentropy = 0.65\nsamples = 6\nvalue = [1, 5]"] ;
87 -> 88 ;
89 [label="entropy = 0.0\nsamples = 5\nvalue = [0, 5]"] ;
88 -> 89 ;
90 [label="entropy = 0.0\nsamples = 1\nvalue = [1, 0]"] ;
88 -> 90 ;
91 [label="entropy = 0.0\nsamples = 1\nvalue = [1, 0]"] ;
87 -> 91 ;
92 [label="entropy = 0.0\nsamples = 1\nvalue = [1, 0]"] ;
86 -> 92 ;
93 [label="X[1307] <= 0.5\nentropy = 0.918\nsamples = 3\nvalue = [2, 1]"] ;
81 -> 93 ;
94 [label="entropy = 0.0\nsamples = 2\nvalue = [2, 0]"] ;
93 -> 94 ;
95 [label="entropy = 0.0\nsamples = 1\nvalue = [0, 1]"] ;
93 -> 95 ;
96 [label="entropy = 0.0\nsamples = 1\nvalue = [1, 0]"] ;
80 -> 96 ;
97 [label="entropy = 0.0\nsamples = 10\nvalue = [0, 10]"] ;
79 -> 97 ;
98 [label="entropy = 0.0\nsamples = 1\nvalue = [1, 0]"] ;
78 -> 98 ;
99 [label="entropy = 0.0\nsamples = 2\nvalue = [2, 0]"] ;
77 -> 99 ;
100 [label="X[96] <= 0.5\nentropy = 0.783\nsamples = 73\nvalue = [56, 17]"] ;
12 -> 100 ;
101 [label="X[2] <= 0.5\nentropy = 0.657\nsamples = 59\nvalue = [49, 10]"] ;
100 -> 101 ;
102 [label="X[234] <= 0.5\nentropy = 0.585\nsamples = 57\nvalue = [49, 8]"] ;
101 -> 102 ;
103 [label="X[1427] <= 0.5\nentropy = 0.503\nsamples = 54\nvalue = [48, 6]"] ;
102 -> 103 ;
104 [label="X[113] <= 0.5\nentropy = 0.451\nsamples = 53\nvalue = [48, 5]"] ;
103 -> 104 ;
105 [label="X[1204] <= 0.5\nentropy = 0.332\nsamples = 49\nvalue = [46, 3]"] ;
104 -> 105 ;
106 [label="X[1622] <= 0.5\nentropy = 0.25\nsamples = 48\nvalue = [46, 2]"] ;
105 -> 106 ;
107 [label="X[2625] <= 0.5\nentropy = 0.149\nsamples = 47\nvalue = [46, 1]"] ;
106 -> 107 ;
108 [label="entropy = 0.0\nsamples = 46\nvalue = [46, 0]"] ;
107 -> 108 ;
109 [label="entropy = 0.0\nsamples = 1\nvalue = [0, 1]"] ;
107 -> 109 ;
110 [label="entropy = 0.0\nsamples = 1\nvalue = [0, 1]"] ;
106 -> 110 ;
111 [label="entropy = 0.0\nsamples = 1\nvalue = [0, 1]"] ;
105 -> 111 ;
112 [label="X[1817] <= 0.5\nentropy = 1.0\nsamples = 4\nvalue = [2, 2]"] ;
104 -> 112 ;
113 [label="X[62] <= 0.5\nentropy = 0.918\nsamples = 3\nvalue = [2, 1]"] ;
112 -> 113 ;
114 [label="entropy = 0.0\nsamples = 2\nvalue = [2, 0]"] ;
113 -> 114 ;
115 [label="entropy = 0.0\nsamples = 1\nvalue = [0, 1]"] ;
113 -> 115 ;
116 [label="entropy = 0.0\nsamples = 1\nvalue = [0, 1]"] ;
112 -> 116 ;
117 [label="entropy = 0.0\nsamples = 1\nvalue = [0, 1]"] ;
103 -> 117 ;
118 [label="X[3758] <= 0.5\nentropy = 0.918\nsamples = 3\nvalue = [1, 2]"] ;
102 -> 118 ;
119 [label="entropy = 0.0\nsamples = 2\nvalue = [0, 2]"] ;
118 -> 119 ;
120 [label="entropy = 0.0\nsamples = 1\nvalue = [1, 0]"] ;
118 -> 120 ;
121 [label="entropy = 0.0\nsamples = 2\nvalue = [0, 2]"] ;
101 -> 121 ;
122 [label="X[1857] <= 0.5\nentropy = 1.0\nsamples = 14\nvalue = [7, 7]"] ;
100 -> 122 ;
123 [label="X[26] <= 0.5\nentropy = 0.98\nsamples = 12\nvalue = [7, 5]"] ;
122 -> 123 ;
124 [label="X[1254] <= 0.5\nentropy = 0.954\nsamples = 8\nvalue = [3, 5]"] ;
123 -> 124 ;
125 [label="X[1298] <= 0.5\nentropy = 1.0\nsamples = 6\nvalue = [3, 3]"] ;
124 -> 125 ;
126 [label="X[965] <= 0.5\nentropy = 0.971\nsamples = 5\nvalue = [3, 2]"] ;
125 -> 126 ;
127 [label="X[782] <= 0.5\nentropy = 0.811\nsamples = 4\nvalue = [3, 1]"] ;
126 -> 127 ;
128 [label="entropy = 0.0\nsamples = 3\nvalue = [3, 0]"] ;
127 -> 128 ;
129 [label="entropy = 0.0\nsamples = 1\nvalue = [0, 1]"] ;
127 -> 129 ;
130 [label="entropy = 0.0\nsamples = 1\nvalue = [0, 1]"] ;
126 -> 130 ;
131 [label="entropy = 0.0\nsamples = 1\nvalue = [0, 1]"] ;
125 -> 131 ;
132 [label="entropy = 0.0\nsamples = 2\nvalue = [0, 2]"] ;
124 -> 132 ;
133 [label="entropy = 0.0\nsamples = 4\nvalue = [4, 0]"] ;
123 -> 133 ;
134 [label="entropy = 0.0\nsamples = 2\nvalue = [0, 2]"] ;
122 -> 134 ;
135 [label="entropy = 0.0\nsamples = 10\nvalue = [0, 10]"] ;
11 -> 135 ;
136 [label="X[2290] <= 0.5\nentropy = 0.337\nsamples = 16\nvalue = [1, 15]"] ;
10 -> 136 ;
137 [label="entropy = 0.0\nsamples = 15\nvalue = [0, 15]"] ;
136 -> 137 ;
138 [label="entropy = 0.0\nsamples = 1\nvalue = [1, 0]"] ;
136 -> 138 ;
139 [label="entropy = 0.0\nsamples = 12\nvalue = [0, 12]"] ;
9 -> 139 ;
140 [label="entropy = 0.0\nsamples = 17\nvalue = [17, 0]"] ;
8 -> 140 ;
141 [label="entropy = 0.0\nsamples = 18\nvalue = [0, 18]"] ;
7 -> 141 ;
142 [label="entropy = 0.0\nsamples = 24\nvalue = [24, 0]"] ;
6 -> 142 ;
143 [label="X[11] <= 0.5\nentropy = 0.216\nsamples = 29\nvalue = [1, 28]"] ;
5 -> 143 ;
144 [label="entropy = 0.0\nsamples = 28\nvalue = [0, 28]"] ;
143 -> 144 ;
145 [label="entropy = 0.0\nsamples = 1\nvalue = [1, 0]"] ;
143 -> 145 ;
146 [label="X[285] <= 0.5\nentropy = 0.454\nsamples = 105\nvalue = [95, 10]"] ;
4 -> 146 ;
147 [label="X[58] <= 0.5\nentropy = 0.394\nsamples = 103\nvalue = [95, 8]"] ;
146 -> 147 ;
148 [label="X[523] <= 0.5\nentropy = 0.254\nsamples = 94\nvalue = [90, 4]"] ;
147 -> 148 ;
149 [label="X[128] <= 0.5\nentropy = 0.151\nsamples = 92\nvalue = [90, 2]"] ;
148 -> 149 ;
150 [label="X[623] <= 0.5\nentropy = 0.087\nsamples = 91\nvalue = [90, 1]"] ;
149 -> 150 ;
151 [label="entropy = 0.0\nsamples = 90\nvalue = [90, 0]"] ;
150 -> 151 ;
152 [label="entropy = 0.0\nsamples = 1\nvalue = [0, 1]"] ;
150 -> 152 ;
153 [label="entropy = 0.0\nsamples = 1\nvalue = [0, 1]"] ;
149 -> 153 ;
154 [label="entropy = 0.0\nsamples = 2\nvalue = [0, 2]"] ;
148 -> 154 ;
155 [label="X[127] <= 0.5\nentropy = 0.991\nsamples = 9\nvalue = [5, 4]"] ;
147 -> 155 ;
156 [label="X[1203] <= 0.5\nentropy = 0.863\nsamples = 7\nvalue = [5, 2]"] ;
155 -> 156 ;
157 [label="X[47] <= 0.5\nentropy = 0.65\nsamples = 6\nvalue = [5, 1]"] ;
156 -> 157 ;
158 [label="entropy = 0.0\nsamples = 5\nvalue = [5, 0]"] ;
157 -> 158 ;
159 [label="entropy = 0.0\nsamples = 1\nvalue = [0, 1]"] ;
157 -> 159 ;
160 [label="entropy = 0.0\nsamples = 1\nvalue = [0, 1]"] ;
156 -> 160 ;
161 [label="entropy = 0.0\nsamples = 2\nvalue = [0, 2]"] ;
155 -> 161 ;
162 [label="entropy = 0.0\nsamples = 2\nvalue = [0, 2]"] ;
146 -> 162 ;
163 [label="X[46] <= 0.5\nentropy = 0.823\nsamples = 260\nvalue = [67, 193]"] ;
3 -> 163 ;
164 [label="X[121] <= 0.5\nentropy = 0.848\nsamples = 244\nvalue = [67, 177]"] ;
163 -> 164 ;
165 [label="X[226] <= 0.5\nentropy = 0.886\nsamples = 214\nvalue = [65, 149]"] ;
164 -> 165 ;
166 [label="X[3730] <= 0.5\nentropy = 0.905\nsamples = 203\nvalue = [65, 138]"] ;
165 -> 166 ;
167 [label="X[285] <= 0.5\nentropy = 0.893\nsamples = 200\nvalue = [62, 138]"] ;
166 -> 167 ;
168 [label="X[188] <= 0.5\nentropy = 0.908\nsamples = 192\nvalue = [62, 130]"] ;
167 -> 168 ;
169 [label="X[322] <= 0.5\nentropy = 0.879\nsamples = 181\nvalue = [54, 127]"] ;
168 -> 169 ;
170 [label="X[119] <= 0.5\nentropy = 0.894\nsamples = 174\nvalue = [54, 120]"] ;
169 -> 170 ;
171 [label="X[234] <= 0.5\nentropy = 0.87\nsamples = 165\nvalue = [48, 117]"] ;
170 -> 171 ;
172 [label="X[4586] <= 0.5\nentropy = 0.888\nsamples = 157\nvalue = [48, 109]"] ;
171 -> 172 ;
173 [label="X[3218] <= 0.5\nentropy = 0.877\nsamples = 155\nvalue = [46, 109]"] ;
172 -> 173 ;
174 [label="X[1084] <= 0.5\nentropy = 0.866\nsamples = 153\nvalue = [44, 109]"] ;
173 -> 174 ;
175 [label="X[445] <= 0.5\nentropy = 0.853\nsamples = 151\nvalue = [42, 109]"] ;
174 -> 175 ;
176 [label="X[2060] <= 0.5\nentropy = 0.839\nsamples = 149\nvalue = [40, 109]"] ;
175 -> 176 ;
177 [label="X[403] <= 0.5\nentropy = 0.819\nsamples = 145\nvalue = [37, 108]"] ;
176 -> 177 ;
178 [label="X[1260] <= 0.5\nentropy = 0.836\nsamples = 139\nvalue = [37, 102]"] ;
177 -> 178 ;
179 [label="X[564] <= 0.5\nentropy = 0.853\nsamples = 133\nvalue = [37, 96]"] ;
178 -> 179 ;
180 [label="X[88] <= 0.5\nentropy = 0.868\nsamples = 128\nvalue = [37, 91]"] ;
179 -> 180 ;
181 [label="X[1313] <= 0.5\nentropy = 0.882\nsamples = 123\nvalue = [37, 86]"] ;
180 -> 181 ;
182 [label="X[1856] <= 0.5\nentropy = 0.894\nsamples = 119\nvalue = [37, 82]"] ;
181 -> 182 ;
183 [label="X[93] <= 0.5\nentropy = 0.906\nsamples = 115\nvalue = [37, 78]"] ;
182 -> 183 ;
184 [label="X[280] <= 0.5\nentropy = 0.918\nsamples = 111\nvalue = [37, 74]"] ;
183 -> 184 ;
185 [label="X[286] <= 0.5\nentropy = 0.937\nsamples = 102\nvalue = [36, 66]"] ;
184 -> 185 ;
186 [label="X[117] <= 0.5\nentropy = 0.925\nsamples = 100\nvalue = [34, 66]"] ;
185 -> 186 ;
187 [label="X[113] <= 0.5\nentropy = 0.935\nsamples = 97\nvalue = [34, 63]"] ;
186 -> 187 ;
188 [label="X[25] <= 0.5\nentropy = 0.918\nsamples = 93\nvalue = [31, 62]"] ;
187 -> 188 ;
189 [label="X[335] <= 0.5\nentropy = 0.929\nsamples = 90\nvalue = [31, 59]"] ;
188 -> 189 ;
190 [label="X[5526] <= 0.5\nentropy = 0.94\nsamples = 87\nvalue = [31, 56]"] ;
189 -> 190 ;
191 [label="X[294] <= 0.5\nentropy = 0.933\nsamples = 86\nvalue = [30, 56]"] ;
190 -> 191 ;
192 [label="X[114] <= 0.5\nentropy = 0.947\nsamples = 82\nvalue = [30, 52]"] ;
191 -> 192 ;
193 [label="X[677] <= 0.5\nentropy = 0.941\nsamples = 81\nvalue = [29, 52]"] ;
192 -> 193 ;
194 [label="entropy = 0.934\nsamples = 80\nvalue = [28, 52]"] ;
193 -> 194 ;
195 [label="entropy = 0.0\nsamples = 1\nvalue = [1, 0]"] ;
193 -> 195 ;
196 [label="entropy = 0.0\nsamples = 1\nvalue = [1, 0]"] ;
192 -> 196 ;
197 [label="entropy = 0.0\nsamples = 4\nvalue = [0, 4]"] ;
191 -> 197 ;
198 [label="entropy = 0.0\nsamples = 1\nvalue = [1, 0]"] ;
190 -> 198 ;
199 [label="entropy = 0.0\nsamples = 3\nvalue = [0, 3]"] ;
189 -> 199 ;
200 [label="entropy = 0.0\nsamples = 3\nvalue = [0, 3]"] ;
188 -> 200 ;
201 [label="X[3561] <= 0.5\nentropy = 0.811\nsamples = 4\nvalue = [3, 1]"] ;
187 -> 201 ;
202 [label="entropy = 0.0\nsamples = 3\nvalue = [3, 0]"] ;
201 -> 202 ;
203 [label="entropy = 0.0\nsamples = 1\nvalue = [0, 1]"] ;
201 -> 203 ;
204 [label="entropy = 0.0\nsamples = 3\nvalue = [0, 3]"] ;
186 -> 204 ;
205 [label="entropy = 0.0\nsamples = 2\nvalue = [2, 0]"] ;
185 -> 205 ;
206 [label="X[328] <= 0.5\nentropy = 0.503\nsamples = 9\nvalue = [1, 8]"] ;
184 -> 206 ;
207 [label="entropy = 0.0\nsamples = 8\nvalue = [0, 8]"] ;
206 -> 207 ;
208 [label="entropy = 0.0\nsamples = 1\nvalue = [1, 0]"] ;
206 -> 208 ;
209 [label="entropy = 0.0\nsamples = 4\nvalue = [0, 4]"] ;
183 -> 209 ;
210 [label="entropy = 0.0\nsamples = 4\nvalue = [0, 4]"] ;
182 -> 210 ;
211 [label="entropy = 0.0\nsamples = 4\nvalue = [0, 4]"] ;
181 -> 211 ;
212 [label="entropy = 0.0\nsamples = 5\nvalue = [0, 5]"] ;
180 -> 212 ;
213 [label="entropy = 0.0\nsamples = 5\nvalue = [0, 5]"] ;
179 -> 213 ;
214 [label="entropy = 0.0\nsamples = 6\nvalue = [0, 6]"] ;
178 -> 214 ;
215 [label="entropy = 0.0\nsamples = 6\nvalue = [0, 6]"] ;
177 -> 215 ;
216 [label="X[1217] <= 0.5\nentropy = 0.811\nsamples = 4\nvalue = [3, 1]"] ;
176 -> 216 ;
217 [label="entropy = 0.0\nsamples = 3\nvalue = [3, 0]"] ;
216 -> 217 ;
218 [label="entropy = 0.0\nsamples = 1\nvalue = [0, 1]"] ;
216 -> 218 ;
219 [label="entropy = 0.0\nsamples = 2\nvalue = [2, 0]"] ;
175 -> 219 ;
220 [label="entropy = 0.0\nsamples = 2\nvalue = [2, 0]"] ;
174 -> 220 ;
221 [label="entropy = 0.0\nsamples = 2\nvalue = [2, 0]"] ;
173 -> 221 ;
222 [label="entropy = 0.0\nsamples = 2\nvalue = [2, 0]"] ;
172 -> 222 ;
223 [label="entropy = 0.0\nsamples = 8\nvalue = [0, 8]"] ;
171 -> 223 ;
224 [label="X[76] <= 0.5\nentropy = 0.918\nsamples = 9\nvalue = [6, 3]"] ;
170 -> 224 ;
225 [label="X[539] <= 0.5\nentropy = 0.592\nsamples = 7\nvalue = [6, 1]"] ;
224 -> 225 ;
226 [label="entropy = 0.0\nsamples = 6\nvalue = [6, 0]"] ;
225 -> 226 ;
227 [label="entropy = 0.0\nsamples = 1\nvalue = [0, 1]"] ;
225 -> 227 ;
228 [label="entropy = 0.0\nsamples = 2\nvalue = [0, 2]"] ;
224 -> 228 ;
229 [label="entropy = 0.0\nsamples = 7\nvalue = [0, 7]"] ;
169 -> 229 ;
230 [label="X[8] <= 0.5\nentropy = 0.845\nsamples = 11\nvalue = [8, 3]"] ;
168 -> 230 ;
231 [label="X[149] <= 0.5\nentropy = 0.503\nsamples = 9\nvalue = [8, 1]"] ;
230 -> 231 ;
232 [label="entropy = 0.0\nsamples = 8\nvalue = [8, 0]"] ;
231 -> 232 ;
233 [label="entropy = 0.0\nsamples = 1\nvalue = [0, 1]"] ;
231 -> 233 ;
234 [label="entropy = 0.0\nsamples = 2\nvalue = [0, 2]"] ;
230 -> 234 ;
235 [label="entropy = 0.0\nsamples = 8\nvalue = [0, 8]"] ;
167 -> 235 ;
236 [label="entropy = 0.0\nsamples = 3\nvalue = [3, 0]"] ;
166 -> 236 ;
237 [label="entropy = 0.0\nsamples = 11\nvalue = [0, 11]"] ;
165 -> 237 ;
238 [label="X[4593] <= 0.5\nentropy = 0.353\nsamples = 30\nvalue = [2, 28]"] ;
164 -> 238 ;
239 [label="X[130] <= 0.5\nentropy = 0.216\nsamples = 29\nvalue = [1, 28]"] ;
238 -> 239 ;
240 [label="entropy = 0.0\nsamples = 28\nvalue = [0, 28]"] ;
239 -> 240 ;
241 [label="entropy = 0.0\nsamples = 1\nvalue = [1, 0]"] ;
239 -> 241 ;
242 [label="entropy = 0.0\nsamples = 1\nvalue = [1, 0]"] ;
238 -> 242 ;
243 [label="entropy = 0.0\nsamples = 16\nvalue = [0, 16]"] ;
163 -> 243 ;
244 [label="X[1530] <= 0.5\nentropy = 0.207\nsamples = 92\nvalue = [3, 89]"] ;
2 -> 244 ;
245 [label="X[1084] <= 0.5\nentropy = 0.152\nsamples = 91\nvalue = [2, 89]"] ;
244 -> 245 ;
246 [label="X[102] <= 0.5\nentropy = 0.088\nsamples = 90\nvalue = [1, 89]"] ;
245 -> 246 ;
247 [label="entropy = 0.0\nsamples = 77\nvalue = [0, 77]"] ;
246 -> 247 ;
248 [label="X[0] <= 0.5\nentropy = 0.391\nsamples = 13\nvalue = [1, 12]"] ;
246 -> 248 ;
249 [label="entropy = 0.0\nsamples = 11\nvalue = [0, 11]"] ;
248 -> 249 ;
250 [label="X[1006] <= 0.5\nentropy = 1.0\nsamples = 2\nvalue = [1, 1]"] ;
248 -> 250 ;
251 [label="entropy = 0.0\nsamples = 1\nvalue = [1, 0]"] ;
250 -> 251 ;
252 [label="entropy = 0.0\nsamples = 1\nvalue = [0, 1]"] ;
250 -> 252 ;
253 [label="entropy = 0.0\nsamples = 1\nvalue = [1, 0]"] ;
245 -> 253 ;
254 [label="entropy = 0.0\nsamples = 1\nvalue = [1, 0]"] ;
244 -> 254 ;
255 [label="entropy = 0.0\nsamples = 95\nvalue = [95, 0]"] ;
1 -> 255 ;
256 [label="X[81] <= 0.5\nentropy = 0.722\nsamples = 730\nvalue = [584, 146]"] ;
0 -> 256 [labeldistance=2.5, labelangle=-45, headlabel="False"] ;
257 [label="X[1] <= 0.5\nentropy = 0.631\nsamples = 643\nvalue = [541, 102]"] ;
256 -> 257 ;
258 [label="entropy = 0.0\nsamples = 58\nvalue = [58, 0]"] ;
257 -> 258 ;
259 [label="X[11] <= 0.5\nentropy = 0.668\nsamples = 585\nvalue = [483, 102]"] ;
257 -> 259 ;
260 [label="X[160] <= 0.5\nentropy = 0.701\nsamples = 538\nvalue = [436, 102]"] ;
259 -> 260 ;
261 [label="X[37] <= 0.5\nentropy = 0.684\nsamples = 533\nvalue = [436, 97]"] ;
260 -> 261 ;
262 [label="X[40] <= 0.5\nentropy = 0.667\nsamples = 528\nvalue = [436, 92]"] ;
261 -> 262 ;
263 [label="X[58] <= 0.5\nentropy = 0.625\nsamples = 500\nvalue = [422, 78]"] ;
262 -> 263 ;
264 [label="X[26] <= 0.5\nentropy = 0.585\nsamples = 478\nvalue = [411, 67]"] ;
263 -> 264 ;
265 [label="X[966] <= 0.5\nentropy = 0.505\nsamples = 394\nvalue = [350, 44]"] ;
264 -> 265 ;
266 [label="X[226] <= 0.5\nentropy = 0.485\nsamples = 390\nvalue = [349, 41]"] ;
265 -> 266 ;
267 [label="X[713] <= 0.5\nentropy = 0.471\nsamples = 388\nvalue = [349, 39]"] ;
266 -> 267 ;
268 [label="X[1277] <= 0.5\nentropy = 0.456\nsamples = 386\nvalue = [349, 37]"] ;
267 -> 268 ;
269 [label="X[991] <= 0.5\nentropy = 0.44\nsamples = 384\nvalue = [349, 35]"] ;
268 -> 269 ;
270 [label="X[122] <= 0.5\nentropy = 0.424\nsamples = 382\nvalue = [349, 33]"] ;
269 -> 270 ;
271 [label="X[647] <= 0.5\nentropy = 0.401\nsamples = 376\nvalue = [346, 30]"] ;
270 -> 271 ;
272 [label="X[163] <= 0.5\nentropy = 0.385\nsamples = 373\nvalue = [345, 28]"] ;
271 -> 272 ;
273 [label="X[464] <= 0.5\nentropy = 0.36\nsamples = 365\nvalue = [340, 25]"] ;
272 -> 273 ;
274 [label="X[343] <= 0.5\nentropy = 0.334\nsamples = 357\nvalue = [335, 22]"] ;
273 -> 274 ;
275 [label="X[1090] <= 0.5\nentropy = 0.314\nsamples = 353\nvalue = [333, 20]"] ;
274 -> 275 ;
276 [label="X[76] <= 0.5\nentropy = 0.293\nsamples = 349\nvalue = [331, 18]"] ;
275 -> 276 ;
277 [label="X[3046] <= 0.5\nentropy = 0.245\nsamples = 320\nvalue = [307, 13]"] ;
276 -> 277 ;
278 [label="X[1366] <= 0.5\nentropy = 0.231\nsamples = 319\nvalue = [307, 12]"] ;
277 -> 278 ;
279 [label="X[1901] <= 0.5\nentropy = 0.217\nsamples = 318\nvalue = [307, 11]"] ;
278 -> 279 ;
280 [label="X[1343] <= 0.5\nentropy = 0.202\nsamples = 317\nvalue = [307, 10]"] ;
279 -> 280 ;
281 [label="X[409] <= 0.5\nentropy = 0.187\nsamples = 316\nvalue = [307, 9]"] ;
280 -> 281 ;
282 [label="X[3431] <= 0.5\nentropy = 0.171\nsamples = 315\nvalue = [307, 8]"] ;
281 -> 282 ;
283 [label="X[2226] <= 0.5\nentropy = 0.154\nsamples = 314\nvalue = [307, 7]"] ;
282 -> 283 ;
284 [label="X[2552] <= 0.5\nentropy = 0.137\nsamples = 313\nvalue = [307, 6]"] ;
283 -> 284 ;
285 [label="X[839] <= 0.5\nentropy = 0.119\nsamples = 312\nvalue = [307, 5]"] ;
284 -> 285 ;
286 [label="X[1255] <= 0.5\nentropy = 0.099\nsamples = 311\nvalue = [307, 4]"] ;
285 -> 286 ;
287 [label="X[659] <= 0.5\nentropy = 0.079\nsamples = 310\nvalue = [307, 3]"] ;
286 -> 287 ;
288 [label="X[586] <= 0.5\nentropy = 0.056\nsamples = 309\nvalue = [307, 2]"] ;
287 -> 288 ;
289 [label="X[3221] <= 0.5\nentropy = 0.032\nsamples = 308\nvalue = [307, 1]"] ;
288 -> 289 ;
290 [label="entropy = 0.0\nsamples = 307\nvalue = [307, 0]"] ;
289 -> 290 ;
291 [label="entropy = 0.0\nsamples = 1\nvalue = [0, 1]"] ;
289 -> 291 ;
292 [label="entropy = 0.0\nsamples = 1\nvalue = [0, 1]"] ;
288 -> 292 ;
293 [label="entropy = 0.0\nsamples = 1\nvalue = [0, 1]"] ;
287 -> 293 ;
294 [label="entropy = 0.0\nsamples = 1\nvalue = [0, 1]"] ;
286 -> 294 ;
295 [label="entropy = 0.0\nsamples = 1\nvalue = [0, 1]"] ;
285 -> 295 ;
296 [label="entropy = 0.0\nsamples = 1\nvalue = [0, 1]"] ;
284 -> 296 ;
297 [label="entropy = 0.0\nsamples = 1\nvalue = [0, 1]"] ;
283 -> 297 ;
298 [label="entropy = 0.0\nsamples = 1\nvalue = [0, 1]"] ;
282 -> 298 ;
299 [label="entropy = 0.0\nsamples = 1\nvalue = [0, 1]"] ;
281 -> 299 ;
300 [label="entropy = 0.0\nsamples = 1\nvalue = [0, 1]"] ;
280 -> 300 ;
301 [label="entropy = 0.0\nsamples = 1\nvalue = [0, 1]"] ;
279 -> 301 ;
302 [label="entropy = 0.0\nsamples = 1\nvalue = [0, 1]"] ;
278 -> 302 ;
303 [label="entropy = 0.0\nsamples = 1\nvalue = [0, 1]"] ;
277 -> 303 ;
304 [label="X[314] <= 0.5\nentropy = 0.663\nsamples = 29\nvalue = [24, 5]"] ;
276 -> 304 ;
305 [label="X[184] <= 0.5\nentropy = 0.592\nsamples = 28\nvalue = [24, 4]"] ;
304 -> 305 ;
306 [label="X[73] <= 0.5\nentropy = 0.503\nsamples = 27\nvalue = [24, 3]"] ;
305 -> 306 ;
307 [label="X[1736] <= 0.5\nentropy = 0.391\nsamples = 26\nvalue = [24, 2]"] ;
306 -> 307 ;
308 [label="X[434] <= 0.5\nentropy = 0.242\nsamples = 25\nvalue = [24, 1]"] ;
307 -> 308 ;
309 [label="entropy = 0.0\nsamples = 24\nvalue = [24, 0]"] ;
308 -> 309 ;
310 [label="entropy = 0.0\nsamples = 1\nvalue = [0, 1]"] ;
308 -> 310 ;
311 [label="entropy = 0.0\nsamples = 1\nvalue = [0, 1]"] ;
307 -> 311 ;
312 [label="entropy = 0.0\nsamples = 1\nvalue = [0, 1]"] ;
306 -> 312 ;
313 [label="entropy = 0.0\nsamples = 1\nvalue = [0, 1]"] ;
305 -> 313 ;
314 [label="entropy = 0.0\nsamples = 1\nvalue = [0, 1]"] ;
304 -> 314 ;
315 [label="X[30] <= 0.5\nentropy = 1.0\nsamples = 4\nvalue = [2, 2]"] ;
275 -> 315 ;
316 [label="X[138] <= 0.5\nentropy = 0.918\nsamples = 3\nvalue = [2, 1]"] ;
315 -> 316 ;
317 [label="entropy = 0.0\nsamples = 2\nvalue = [2, 0]"] ;
316 -> 317 ;
318 [label="entropy = 0.0\nsamples = 1\nvalue = [0, 1]"] ;
316 -> 318 ;
319 [label="entropy = 0.0\nsamples = 1\nvalue = [0, 1]"] ;
315 -> 319 ;
320 [label="X[2257] <= 0.5\nentropy = 1.0\nsamples = 4\nvalue = [2, 2]"] ;
274 -> 320 ;
321 [label="X[332] <= 0.5\nentropy = 0.918\nsamples = 3\nvalue = [2, 1]"] ;
320 -> 321 ;
322 [label="entropy = 0.0\nsamples = 2\nvalue = [2, 0]"] ;
321 -> 322 ;
323 [label="entropy = 0.0\nsamples = 1\nvalue = [0, 1]"] ;
321 -> 323 ;
324 [label="entropy = 0.0\nsamples = 1\nvalue = [0, 1]"] ;
320 -> 324 ;
325 [label="X[2638] <= 0.5\nentropy = 0.954\nsamples = 8\nvalue = [5, 3]"] ;
273 -> 325 ;
326 [label="X[2876] <= 0.5\nentropy = 0.863\nsamples = 7\nvalue = [5, 2]"] ;
325 -> 326 ;
327 [label="X[1848] <= 0.5\nentropy = 0.65\nsamples = 6\nvalue = [5, 1]"] ;
326 -> 327 ;
328 [label="entropy = 0.0\nsamples = 5\nvalue = [5, 0]"] ;
327 -> 328 ;
329 [label="entropy = 0.0\nsamples = 1\nvalue = [0, 1]"] ;
327 -> 329 ;
330 [label="entropy = 0.0\nsamples = 1\nvalue = [0, 1]"] ;
326 -> 330 ;
331 [label="entropy = 0.0\nsamples = 1\nvalue = [0, 1]"] ;
325 -> 331 ;
332 [label="X[327] <= 0.5\nentropy = 0.954\nsamples = 8\nvalue = [5, 3]"] ;
272 -> 332 ;
333 [label="X[428] <= 0.5\nentropy = 0.863\nsamples = 7\nvalue = [5, 2]"] ;
332 -> 333 ;
334 [label="X[969] <= 0.5\nentropy = 0.65\nsamples = 6\nvalue = [5, 1]"] ;
333 -> 334 ;
335 [label="entropy = 0.0\nsamples = 5\nvalue = [5, 0]"] ;
334 -> 335 ;
336 [label="entropy = 0.0\nsamples = 1\nvalue = [0, 1]"] ;
334 -> 336 ;
337 [label="entropy = 0.0\nsamples = 1\nvalue = [0, 1]"] ;
333 -> 337 ;
338 [label="entropy = 0.0\nsamples = 1\nvalue = [0, 1]"] ;
332 -> 338 ;
339 [label="X[2499] <= 0.5\nentropy = 0.918\nsamples = 3\nvalue = [1, 2]"] ;
271 -> 339 ;
340 [label="entropy = 0.0\nsamples = 2\nvalue = [0, 2]"] ;
339 -> 340 ;
341 [label="entropy = 0.0\nsamples = 1\nvalue = [1, 0]"] ;
339 -> 341 ;
342 [label="X[119] <= 0.5\nentropy = 1.0\nsamples = 6\nvalue = [3, 3]"] ;
270 -> 342 ;
343 [label="X[448] <= 0.5\nentropy = 0.971\nsamples = 5\nvalue = [2, 3]"] ;
342 -> 343 ;
344 [label="X[8] <= 0.5\nentropy = 0.811\nsamples = 4\nvalue = [1, 3]"] ;
343 -> 344 ;
345 [label="entropy = 0.0\nsamples = 3\nvalue = [0, 3]"] ;
344 -> 345 ;
346 [label="entropy = 0.0\nsamples = 1\nvalue = [1, 0]"] ;
344 -> 346 ;
347 [label="entropy = 0.0\nsamples = 1\nvalue = [1, 0]"] ;
343 -> 347 ;
348 [label="entropy = 0.0\nsamples = 1\nvalue = [1, 0]"] ;
342 -> 348 ;
349 [label="entropy = 0.0\nsamples = 2\nvalue = [0, 2]"] ;
269 -> 349 ;
350 [label="entropy = 0.0\nsamples = 2\nvalue = [0, 2]"] ;
268 -> 350 ;
351 [label="entropy = 0.0\nsamples = 2\nvalue = [0, 2]"] ;
267 -> 351 ;
352 [label="entropy = 0.0\nsamples = 2\nvalue = [0, 2]"] ;
266 -> 352 ;
353 [label="X[3849] <= 0.5\nentropy = 0.811\nsamples = 4\nvalue = [1, 3]"] ;
265 -> 353 ;
354 [label="entropy = 0.0\nsamples = 3\nvalue = [0, 3]"] ;
353 -> 354 ;
355 [label="entropy = 0.0\nsamples = 1\nvalue = [1, 0]"] ;
353 -> 355 ;
356 [label="X[322] <= 0.5\nentropy = 0.847\nsamples = 84\nvalue = [61, 23]"] ;
264 -> 356 ;
357 [label="X[76] <= 0.5\nentropy = 0.806\nsamples = 81\nvalue = [61, 20]"] ;
356 -> 357 ;
358 [label="X[21] <= 0.5\nentropy = 0.756\nsamples = 78\nvalue = [61, 17]"] ;
357 -> 358 ;
359 [label="X[724] <= 0.5\nentropy = 0.717\nsamples = 76\nvalue = [61, 15]"] ;
358 -> 359 ;
360 [label="X[294] <= 0.5\nentropy = 0.671\nsamples = 74\nvalue = [61, 13]"] ;
359 -> 360 ;
361 [label="X[169] <= 0.5\nentropy = 0.622\nsamples = 71\nvalue = [60, 11]"] ;
360 -> 361 ;
362 [label="X[1020] <= 0.5\nentropy = 0.592\nsamples = 70\nvalue = [60, 10]"] ;
361 -> 362 ;
363 [label="X[12] <= 0.5\nentropy = 0.559\nsamples = 69\nvalue = [60, 9]"] ;
362 -> 363 ;
364 [label="X[266] <= 0.5\nentropy = 0.523\nsamples = 68\nvalue = [60, 8]"] ;
363 -> 364 ;
365 [label="X[931] <= 0.5\nentropy = 0.483\nsamples = 67\nvalue = [60, 7]"] ;
364 -> 365 ;
366 [label="X[452] <= 0.5\nentropy = 0.439\nsamples = 66\nvalue = [60, 6]"] ;
365 -> 366 ;
367 [label="X[2085] <= 0.5\nentropy = 0.391\nsamples = 65\nvalue = [60, 5]"] ;
366 -> 367 ;
368 [label="X[3464] <= 0.5\nentropy = 0.337\nsamples = 64\nvalue = [60, 4]"] ;
367 -> 368 ;
369 [label="X[2457] <= 0.5\nentropy = 0.276\nsamples = 63\nvalue = [60, 3]"] ;
368 -> 369 ;
370 [label="X[1026] <= 0.5\nentropy = 0.206\nsamples = 62\nvalue = [60, 2]"] ;
369 -> 370 ;
371 [label="X[1785] <= 0.5\nentropy = 0.121\nsamples = 61\nvalue = [60, 1]"] ;
370 -> 371 ;
372 [label="entropy = 0.0\nsamples = 60\nvalue = [60, 0]"] ;
371 -> 372 ;
373 [label="entropy = 0.0\nsamples = 1\nvalue = [0, 1]"] ;
371 -> 373 ;
374 [label="entropy = 0.0\nsamples = 1\nvalue = [0, 1]"] ;
370 -> 374 ;
375 [label="entropy = 0.0\nsamples = 1\nvalue = [0, 1]"] ;
369 -> 375 ;
376 [label="entropy = 0.0\nsamples = 1\nvalue = [0, 1]"] ;
368 -> 376 ;
377 [label="entropy = 0.0\nsamples = 1\nvalue = [0, 1]"] ;
367 -> 377 ;
378 [label="entropy = 0.0\nsamples = 1\nvalue = [0, 1]"] ;
366 -> 378 ;
379 [label="entropy = 0.0\nsamples = 1\nvalue = [0, 1]"] ;
365 -> 379 ;
380 [label="entropy = 0.0\nsamples = 1\nvalue = [0, 1]"] ;
364 -> 380 ;
381 [label="entropy = 0.0\nsamples = 1\nvalue = [0, 1]"] ;
363 -> 381 ;
382 [label="entropy = 0.0\nsamples = 1\nvalue = [0, 1]"] ;
362 -> 382 ;
383 [label="entropy = 0.0\nsamples = 1\nvalue = [0, 1]"] ;
361 -> 383 ;
384 [label="X[5677] <= 0.5\nentropy = 0.918\nsamples = 3\nvalue = [1, 2]"] ;
360 -> 384 ;
385 [label="entropy = 0.0\nsamples = 2\nvalue = [0, 2]"] ;
384 -> 385 ;
386 [label="entropy = 0.0\nsamples = 1\nvalue = [1, 0]"] ;
384 -> 386 ;
387 [label="entropy = 0.0\nsamples = 2\nvalue = [0, 2]"] ;
359 -> 387 ;
388 [label="entropy = 0.0\nsamples = 2\nvalue = [0, 2]"] ;
358 -> 388 ;
389 [label="entropy = 0.0\nsamples = 3\nvalue = [0, 3]"] ;
357 -> 389 ;
390 [label="entropy = 0.0\nsamples = 3\nvalue = [0, 3]"] ;
356 -> 390 ;
391 [label="X[520] <= 0.5\nentropy = 1.0\nsamples = 22\nvalue = [11, 11]"] ;
263 -> 391 ;
392 [label="X[234] <= 0.5\nentropy = 0.993\nsamples = 20\nvalue = [11, 9]"] ;
391 -> 392 ;
393 [label="X[490] <= 0.5\nentropy = 0.964\nsamples = 18\nvalue = [11, 7]"] ;
392 -> 393 ;
394 [label="X[703] <= 0.5\nentropy = 0.937\nsamples = 17\nvalue = [11, 6]"] ;
393 -> 394 ;
395 [label="X[46] <= 0.5\nentropy = 0.896\nsamples = 16\nvalue = [11, 5]"] ;
394 -> 395 ;
396 [label="X[2754] <= 0.5\nentropy = 0.837\nsamples = 15\nvalue = [11, 4]"] ;
395 -> 396 ;
397 [label="X[142] <= 0.5\nentropy = 0.75\nsamples = 14\nvalue = [11, 3]"] ;
396 -> 397 ;
398 [label="X[1586] <= 0.5\nentropy = 0.619\nsamples = 13\nvalue = [11, 2]"] ;
397 -> 398 ;
399 [label="X[698] <= 0.5\nentropy = 0.414\nsamples = 12\nvalue = [11, 1]"] ;
398 -> 399 ;
400 [label="entropy = 0.0\nsamples = 11\nvalue = [11, 0]"] ;
399 -> 400 ;
401 [label="entropy = 0.0\nsamples = 1\nvalue = [0, 1]"] ;
399 -> 401 ;
402 [label="entropy = 0.0\nsamples = 1\nvalue = [0, 1]"] ;
398 -> 402 ;
403 [label="entropy = 0.0\nsamples = 1\nvalue = [0, 1]"] ;
397 -> 403 ;
404 [label="entropy = 0.0\nsamples = 1\nvalue = [0, 1]"] ;
396 -> 404 ;
405 [label="entropy = 0.0\nsamples = 1\nvalue = [0, 1]"] ;
395 -> 405 ;
406 [label="entropy = 0.0\nsamples = 1\nvalue = [0, 1]"] ;
394 -> 406 ;
407 [label="entropy = 0.0\nsamples = 1\nvalue = [0, 1]"] ;
393 -> 407 ;
408 [label="entropy = 0.0\nsamples = 2\nvalue = [0, 2]"] ;
392 -> 408 ;
409 [label="entropy = 0.0\nsamples = 2\nvalue = [0, 2]"] ;
391 -> 409 ;
410 [label="X[280] <= 0.5\nentropy = 1.0\nsamples = 28\nvalue = [14, 14]"] ;
262 -> 410 ;
411 [label="X[3777] <= 0.5\nentropy = 0.966\nsamples = 23\nvalue = [9, 14]"] ;
410 -> 411 ;
412 [label="X[0] <= 0.5\nentropy = 0.881\nsamples = 20\nvalue = [6, 14]"] ;
411 -> 412 ;
413 [label="entropy = 0.0\nsamples = 5\nvalue = [0, 5]"] ;
412 -> 413 ;
414 [label="X[539] <= 0.5\nentropy = 0.971\nsamples = 15\nvalue = [6, 9]"] ;
412 -> 414 ;
415 [label="X[236] <= 0.5\nentropy = 0.996\nsamples = 13\nvalue = [6, 7]"] ;
414 -> 415 ;
416 [label="X[265] <= 0.5\nentropy = 0.994\nsamples = 11\nvalue = [6, 5]"] ;
415 -> 416 ;
417 [label="X[190] <= 0.5\nentropy = 0.971\nsamples = 10\nvalue = [6, 4]"] ;
416 -> 417 ;
418 [label="X[755] <= 0.5\nentropy = 0.918\nsamples = 9\nvalue = [6, 3]"] ;
417 -> 418 ;
419 [label="X[2688] <= 0.5\nentropy = 0.811\nsamples = 8\nvalue = [6, 2]"] ;
418 -> 419 ;
420 [label="X[639] <= 0.5\nentropy = 0.592\nsamples = 7\nvalue = [6, 1]"] ;
419 -> 420 ;
421 [label="entropy = 0.0\nsamples = 6\nvalue = [6, 0]"] ;
420 -> 421 ;
422 [label="entropy = 0.0\nsamples = 1\nvalue = [0, 1]"] ;
420 -> 422 ;
423 [label="entropy = 0.0\nsamples = 1\nvalue = [0, 1]"] ;
419 -> 423 ;
424 [label="entropy = 0.0\nsamples = 1\nvalue = [0, 1]"] ;
418 -> 424 ;
425 [label="entropy = 0.0\nsamples = 1\nvalue = [0, 1]"] ;
417 -> 425 ;
426 [label="entropy = 0.0\nsamples = 1\nvalue = [0, 1]"] ;
416 -> 426 ;
427 [label="entropy = 0.0\nsamples = 2\nvalue = [0, 2]"] ;
415 -> 427 ;
428 [label="entropy = 0.0\nsamples = 2\nvalue = [0, 2]"] ;
414 -> 428 ;
429 [label="entropy = 0.0\nsamples = 3\nvalue = [3, 0]"] ;
411 -> 429 ;
430 [label="entropy = 0.0\nsamples = 5\nvalue = [5, 0]"] ;
410 -> 430 ;
431 [label="entropy = 0.0\nsamples = 5\nvalue = [0, 5]"] ;
261 -> 431 ;
432 [label="entropy = 0.0\nsamples = 5\nvalue = [0, 5]"] ;
260 -> 432 ;
433 [label="entropy = 0.0\nsamples = 47\nvalue = [47, 0]"] ;
259 -> 433 ;
434 [label="X[1] <= 0.5\nentropy = 1.0\nsamples = 87\nvalue = [43, 44]"] ;
256 -> 434 ;
435 [label="entropy = 0.0\nsamples = 7\nvalue = [7, 0]"] ;
434 -> 435 ;
436 [label="X[122] <= 0.5\nentropy = 0.993\nsamples = 80\nvalue = [36, 44]"] ;
434 -> 436 ;
437 [label="X[322] <= 0.5\nentropy = 1.0\nsamples = 73\nvalue = [36, 37]"] ;
436 -> 437 ;
438 [label="X[285] <= 0.5\nentropy = 0.998\nsamples = 68\nvalue = [36, 32]"] ;
437 -> 438 ;
439 [label="X[62] <= 0.5\nentropy = 0.989\nsamples = 64\nvalue = [36, 28]"] ;
438 -> 439 ;
440 [label="X[188] <= 0.5\nentropy = 0.971\nsamples = 60\nvalue = [36, 24]"] ;
439 -> 440 ;
441 [label="X[937] <= 0.5\nentropy = 0.949\nsamples = 57\nvalue = [36, 21]"] ;
440 -> 441 ;
442 [label="X[1306] <= 0.5\nentropy = 0.918\nsamples = 54\nvalue = [36, 18]"] ;
441 -> 442 ;
443 [label="X[446] <= 0.5\nentropy = 0.89\nsamples = 52\nvalue = [36, 16]"] ;
442 -> 443 ;
444 [label="X[346] <= 0.5\nentropy = 0.855\nsamples = 50\nvalue = [36, 14]"] ;
443 -> 444 ;
445 [label="X[0] <= 0.5\nentropy = 0.811\nsamples = 48\nvalue = [36, 12]"] ;
444 -> 445 ;
446 [label="X[2865] <= 0.5\nentropy = 0.755\nsamples = 46\nvalue = [36, 10]"] ;
445 -> 446 ;
447 [label="X[163] <= 0.5\nentropy = 0.722\nsamples = 45\nvalue = [36, 9]"] ;
446 -> 447 ;
448 [label="X[267] <= 0.5\nentropy = 0.65\nsamples = 42\nvalue = [35, 7]"] ;
447 -> 448 ;
449 [label="X[109] <= 0.5\nentropy = 0.601\nsamples = 41\nvalue = [35, 6]"] ;
448 -> 449 ;
450 [label="X[707] <= 0.5\nentropy = 0.544\nsamples = 40\nvalue = [35, 5]"] ;
449 -> 450 ;
451 [label="X[2251] <= 0.5\nentropy = 0.477\nsamples = 39\nvalue = [35, 4]"] ;
450 -> 451 ;
452 [label="X[1031] <= 0.5\nentropy = 0.398\nsamples = 38\nvalue = [35, 3]"] ;
451 -> 452 ;
453 [label="X[510] <= 0.5\nentropy = 0.303\nsamples = 37\nvalue = [35, 2]"] ;
452 -> 453 ;
454 [label="X[1068] <= 0.5\nentropy = 0.183\nsamples = 36\nvalue = [35, 1]"] ;
453 -> 454 ;
455 [label="entropy = 0.0\nsamples = 35\nvalue = [35, 0]"] ;
454 -> 455 ;
456 [label="entropy = 0.0\nsamples = 1\nvalue = [0, 1]"] ;
454 -> 456 ;
457 [label="entropy = 0.0\nsamples = 1\nvalue = [0, 1]"] ;
453 -> 457 ;
458 [label="entropy = 0.0\nsamples = 1\nvalue = [0, 1]"] ;
452 -> 458 ;
459 [label="entropy = 0.0\nsamples = 1\nvalue = [0, 1]"] ;
451 -> 459 ;
460 [label="entropy = 0.0\nsamples = 1\nvalue = [0, 1]"] ;
450 -> 460 ;
461 [label="entropy = 0.0\nsamples = 1\nvalue = [0, 1]"] ;
449 -> 461 ;
462 [label="entropy = 0.0\nsamples = 1\nvalue = [0, 1]"] ;
448 -> 462 ;
463 [label="X[224] <= 0.5\nentropy = 0.918\nsamples = 3\nvalue = [1, 2]"] ;
447 -> 463 ;
464 [label="entropy = 0.0\nsamples = 2\nvalue = [0, 2]"] ;
463 -> 464 ;
465 [label="entropy = 0.0\nsamples = 1\nvalue = [1, 0]"] ;
463 -> 465 ;
466 [label="entropy = 0.0\nsamples = 1\nvalue = [0, 1]"] ;
446 -> 466 ;
467 [label="entropy = 0.0\nsamples = 2\nvalue = [0, 2]"] ;
445 -> 467 ;
468 [label="entropy = 0.0\nsamples = 2\nvalue = [0, 2]"] ;
444 -> 468 ;
469 [label="entropy = 0.0\nsamples = 2\nvalue = [0, 2]"] ;
443 -> 469 ;
470 [label="entropy = 0.0\nsamples = 2\nvalue = [0, 2]"] ;
442 -> 470 ;
471 [label="entropy = 0.0\nsamples = 3\nvalue = [0, 3]"] ;
441 -> 471 ;
472 [label="entropy = 0.0\nsamples = 3\nvalue = [0, 3]"] ;
440 -> 472 ;
473 [label="entropy = 0.0\nsamples = 4\nvalue = [0, 4]"] ;
439 -> 473 ;
474 [label="entropy = 0.0\nsamples = 4\nvalue = [0, 4]"] ;
438 -> 474 ;
475 [label="entropy = 0.0\nsamples = 5\nvalue = [0, 5]"] ;
437 -> 475 ;
476 [label="entropy = 0.0\nsamples = 7\nvalue = [0, 7]"] ;
436 -> 476 ;
}